/*
 * This file is auto-generated by gen-weights.py
 */

#pragma once

#include "definitions.h"


// Conv layer weights.
float conv_weights [FILTERS][KRN_ROWS][KRN_COLS]
	= {
			{
				{ -2.310227870941162, -1.583622694015503, -1.4681254625320435 },
				{ 1.554786205291748, -0.24718491733074188, -1.826814889907837 },
				{ 1.9008755683898926, 1.735221028327942, 1.5141663551330566 }
			},
			{
				{ -0.4532715380191803, 0.9648303985595703, -0.20164568722248077 },
				{ 0.13434793055057526, 2.052183151245117, -2.0878162384033203 },
				{ 1.1414071321487427, 0.6667773127555847, -0.49186840653419495 }
			},
			{
				{ -0.37038418650627136, 0.38299545645713806, -2.0122361183166504 },
				{ -0.631786048412323, -1.9986867904663086, -1.356459617614746 },
				{ -2.599431037902832, -1.0836774110794067, 2.7243690490722656 }
			},
			{
				{ 2.738316535949707, 0.9151079058647156, -1.299587607383728 },
				{ -2.70740008354187, -3.0584187507629395, -0.3833807110786438 },
				{ -0.5315843820571899, 1.7858539819717407, 1.0481696128845215 }
			}
		};

// Conv layer biases.
float conv_biases [FILTERS] = { -1.0947611331939697, -0.464259535074234, 0.6874979734420776, 0.016754893586039543 };
