/*
 * This file is auto-generated by gen-weights.py
 */

#pragma once

#include "definitions.h"


// Conv layer weights.
float conv_weights [FILTERS][KRN_ROWS][KRN_COLS]
	= {
			{
				{ 0.6539449095726013, 1.9177474975585938, 1.1426218748092651 },
				{ -0.5866685509681702, 0.6334154009819031, 1.319676160812378 },
				{ -3.008488893508911, -2.3668081760406494, -2.5857417583465576 }
			},
			{
				{ 0.6369996666908264, -0.3917650878429413, 0.05434437841176987 },
				{ -0.5914474129676819, 1.113554835319519, 1.3944716453552246 },
				{ 0.45952197909355164, 0.5547232031822205, -0.3003782331943512 }
			},
			{
				{ -1.9281542301177979, -2.2620742321014404, -0.41355249285697937 },
				{ -1.4186465740203857, -0.9953253865242004, 2.031271457672119 },
				{ -2.1961708068847656, 0.7273083329200745, 1.8174469470977783 }
			},
			{
				{ 1.192544937133789, -0.7925554513931274, -1.783542275428772 },
				{ 2.5039684772491455, -1.0009340047836304, -2.1530089378356934 },
				{ 1.4473108053207397, 1.9534770250320435, -0.481155127286911 }
			}
		};

// Conv layer biases.
float conv_biases [FILTERS] = { -0.2587519884109497, -0.4502420723438263, -0.09853700548410416, -1.6841005086898804 };
