/*
 * This file is auto-generated by gen-weights.py
 */

#pragma once

#include "definitions.h"


// Conv layer weights.
float conv_weights [FILTERS][KRN_ROWS][KRN_COLS]
	= {
			{
				{ -0.38530468940734863, -1.697950839996338, -0.9326676726341248 },
				{ 0.2483474761247635, -0.8052898645401001, -1.8018885850906372 },
				{ 2.238013744354248, 1.3619362115859985, -1.2027482986450195 }
			},
			{
				{ 0.6475318670272827, 1.1624433994293213, 1.0301053524017334 },
				{ -0.05172041058540344, 0.5674824118614197, -0.10469154268503189 },
				{ -2.0481395721435547, -1.4437110424041748, -1.6789584159851074 }
			},
			{
				{ 0.501412034034729, 0.21848876774311066, 0.10124995559453964 },
				{ -0.026032758876681328, 0.10722082108259201, 0.9203987717628479 },
				{ 0.46927714347839355, 0.8324882984161377, -0.445934921503067 }
			},
			{
				{ 0.7682740092277527, 1.0587568283081055, 0.0537092350423336 },
				{ -0.1375688761472702, 0.1934364289045334, 1.884247064590454 },
				{ -1.3728164434432983, -1.5692827701568604, 0.24439051747322083 }
			},
			{
				{ -1.3854414224624634, -1.7380439043045044, -2.1003060340881348 },
				{ 0.23257872462272644, 0.1835753321647644, 0.6827177405357361 },
				{ 0.28862741589546204, 1.4861139059066772, 0.6911563873291016 }
			},
			{
				{ 0.21196404099464417, -0.5689380168914795, -0.6389893293380737 },
				{ -0.47894829511642456, 1.0087357759475708, -0.16616366803646088 },
				{ -0.12320395559072495, 0.07891661673784256, -0.16258181631565094 }
			},
			{
				{ -0.8052535057067871, -0.16291385889053345, 1.3913846015930176 },
				{ -0.8316349387168884, -0.9605386257171631, 0.10205847769975662 },
				{ -0.7674142718315125, -0.5242296457290649, -1.298788070678711 }
			},
			{
				{ -1.3752249479293823, -0.1218550056219101, 0.9353058934211731 },
				{ -1.9240621328353882, -0.08778013288974762, 1.3924554586410522 },
				{ -1.712816834449768, 0.9547911286354065, 1.153991937637329 }
			}
		};

// Conv layer biases.
float conv_biases [FILTERS] = { -0.016670143231749535, -0.24741846323013306, -0.8313738703727722, -0.9820187091827393, -0.03780452907085419, 0.011372077278792858, 0.5197127461433411, -0.36152026057243347 };
