/*
 * This file is auto-generated by gen-weights.py
 */

#pragma once

#include "definitions.h"


// Dense layer weights.
float dense_weights[FLAT_SIZE][DENSE_SIZE]
	 = {
			{ -0.06368004530668259, -0.05675492063164711, -0.051735769957304, 0.04016444832086563, 0.02147442288696766, 0.046439822763204575, -0.0635177418589592, -0.04965176805853844, -0.014950932934880257, 0.016535084694623947 },
			{ -0.01895003393292427, -0.054201140999794006, -0.04624669998884201, 0.06620518863201141, -0.0559474416077137, -0.013727898709475994, -0.006179246585816145, -0.05375654250383377, 0.04874207824468613, 0.07539550960063934 },
			{ 0.05627819523215294, -0.0426323227584362, -0.037827663123607635, -0.07056897133588791, -0.04749516397714615, 0.0639694556593895, 0.04184994101524353, 0.0021500876173377037, -0.08673258125782013, -0.0021989718079566956 },
			{ 0.06725631654262543, 0.0734153613448143, 0.0323682576417923, 0.059683188796043396, -0.07129698991775513, 0.02513493411242962, -0.03545744717121124, 0.03750859573483467, 0.048714105039834976, 0.007910341955721378 },
			{ 0.0384603887796402, -0.023418035358190536, 0.06710595637559891, -0.030923690646886826, -0.0859602689743042, -0.004124143160879612, -0.019392870366573334, 0.03105815127491951, 0.07614792138338089, -0.02206353098154068 },
			{ 0.040463730692863464, -0.07426334172487259, -0.07237562537193298, -0.07323434948921204, -0.042568981647491455, 0.0046513876877725124, 0.02364359237253666, -0.04752813279628754, -0.026945849880576134, -0.016281887888908386 },
			{ -0.006403053645044565, -0.06282298266887665, -0.00946775171905756, -0.00741690956056118, -0.06717859208583832, 0.06137685477733612, -0.07901772111654282, -0.049576759338378906, -0.0817922055721283, 0.04371966794133186 },
			{ 0.051891617476940155, 0.029178496450185776, 0.019953224807977676, -0.046575117856264114, 0.06349005550146103, -0.059825778007507324, 0.04861317574977875, 0.061046302318573, -0.0674382820725441, -0.05582922697067261 },
			{ -0.012070485390722752, 0.05928033962845802, 0.08225583285093307, 0.07504603266716003, -0.06408107280731201, 0.07597382366657257, -0.07406899333000183, 0.017946021631360054, 0.0627397820353508, -0.061717770993709564 },
			{ 0.035731833428144455, -0.061216119676828384, 0.030673570930957794, 0.08182331919670105, 0.04400176182389259, -0.0464320071041584, -0.06049850210547447, 0.036934368312358856, 0.0424046590924263, -0.04531344771385193 },
			{ -0.06596120446920395, 0.049077361822128296, -0.03703207150101662, -0.019756929948925972, -0.017390316352248192, 0.00910670030862093, 0.005139769520610571, -0.07309430092573166, -0.007095973938703537, -0.050113365054130554 },
			{ -0.030122295022010803, -0.08403371274471283, 0.04523138329386711, 0.011689440347254276, 0.057315800338983536, -0.019938038662075996, 0.03762812539935112, 0.04986841231584549, -0.033264677971601486, -0.03924185410141945 },
			{ -0.041606608778238297, 0.031181681901216507, -0.032176993787288666, 0.06502504646778107, 0.08467338979244232, 0.03132389858365059, 0.060554999858140945, 0.05081093683838844, 0.007019936107099056, 0.0824977308511734 },
			{ -0.052991800010204315, 0.07137677073478699, 0.02756906859576702, -0.03569480776786804, 0.0828503966331482, -0.0653240904211998, 0.032109010964632034, 0.0821738913655281, 0.07328635454177856, 0.04656583070755005 },
			{ -0.043664827942848206, 0.04892025515437126, -0.08091173321008682, 0.03822242096066475, 0.0373896025121212, -0.027778534218668938, 0.0434974730014801, 0.07487096637487411, 0.04944545403122902, 0.042260464280843735 },
			{ 0.06353235989809036, 0.07606543600559235, -0.06975966691970825, 0.07264939695596695, -0.07359634339809418, -0.027430236339569092, 0.023947633802890778, 0.033976372331380844, -0.02206365577876568, -0.05258562043309212 },
			{ 0.08147726207971573, 0.06333958357572556, -0.04917437583208084, 0.03166871517896652, -0.020570090040564537, 0.0793193131685257, 0.07886897772550583, 0.009505639784038067, -0.06656475365161896, 0.0656418576836586 },
			{ 0.001983440015465021, -0.030683157965540886, -0.03928886726498604, 0.033344998955726624, 0.03556523844599724, 0.015522105619311333, 0.0019233650527894497, -0.008619586937129498, -0.05094296112656593, -0.08832447230815887 },
			{ 0.00776410149410367, -0.019474126398563385, -0.016291312873363495, -0.04613080993294716, -0.01268724910914898, 0.03802226483821869, 0.04624541848897934, -0.04920877888798714, 0.04311871528625488, -0.03003586456179619 },
			{ 0.03581395372748375, -0.013972190208733082, 0.02799522876739502, -0.046658024191856384, -0.04349301755428314, 0.04291963949799538, -0.049678027629852295, 0.08183269202709198, 0.030627010390162468, -0.10188666731119156 },
			{ -0.021715370938181877, -0.07676520943641663, 0.04643318057060242, -0.01096927560865879, -0.05701977759599686, -0.07546625286340714, -0.0886983722448349, 0.039275698363780975, 0.02620309218764305, 0.04810315743088722 },
			{ 0.08219476789236069, -0.116461381316185, 0.3021882474422455, -0.0386485792696476, -0.06144050508737564, 0.011903204023838043, 0.002927568042650819, 0.0807965099811554, -0.021675007417798042, -0.07610685378313065 },
			{ 0.10306468605995178, 0.011079113930463791, 0.12316377460956573, 0.031837183982133865, -0.07036465406417847, 0.007294483482837677, 0.10817096382379532, -0.07936664670705795, 0.011696490459144115, -0.010274073109030724 },
			{ -0.06643614172935486, -0.002521112095564604, -0.035810090601444244, 0.04698595404624939, -0.06268518418073654, -0.024041462689638138, 0.030070364475250244, 0.0656396895647049, -0.020175231620669365, 0.006127858068794012 },
			{ 0.0741051584482193, 0.06104717031121254, 0.058711692690849304, -0.044443946331739426, 0.0377030111849308, -0.06693810224533081, 0.042255643755197525, -0.08269059658050537, -0.0607607364654541, -0.025791427120566368 },
			{ 0.02676258608698845, 0.04379734769463539, -0.03240321949124336, 0.07296605408191681, 0.058100469410419464, -0.013943578116595745, 0.00588581245392561, 0.04473642632365227, -0.028675151988863945, 0.01205365639179945 },
			{ 0.03496616706252098, 0.05931304395198822, -0.034251242876052856, -0.032492268830537796, -7.763723260723054e-05, 0.05916036292910576, 0.061215903609991074, -0.0856504887342453, 0.03799450770020485, -0.04436570033431053 },
			{ -0.01378840021789074, -0.02756698615849018, 0.07026927173137665, 0.05069491267204285, 0.07076885551214218, -0.08030028641223907, 0.03623007610440254, 0.012816838920116425, -0.03863367810845375, -0.024614814668893814 },
			{ 0.07762659341096878, 0.0855453610420227, 0.005541597027331591, 0.0011653144611045718, -0.020703516900539398, -0.08333519846200943, -0.08217176795005798, 0.05749226734042168, -0.02698226273059845, 0.08190310746431351 },
			{ 0.009832014329731464, 0.01695047877728939, -0.07099940627813339, -0.04938801750540733, 0.05666834115982056, -0.08449061959981918, -0.0327688604593277, 0.0476825013756752, -0.053255584090948105, -0.018917381763458252 },
			{ -0.07877357304096222, -0.07713407278060913, 0.15233954787254333, 0.017480382695794106, -0.07654528319835663, -0.022458825260400772, 0.013745442032814026, -0.021330371499061584, 0.056791823357343674, -0.08632013201713562 },
			{ -0.07831292599439621, 0.01412096619606018, 0.16178983449935913, 0.18279986083507538, -0.015811366960406303, -0.16725295782089233, -0.1320073902606964, 0.055062148720026016, -0.032321907579898834, -0.08283474296331406 },
			{ -0.10915882885456085, 0.09056022763252258, 0.18153353035449982, 0.18690410256385803, -0.12429697066545486, -0.23923268914222717, -0.11002601683139801, 0.016525672748684883, -0.08783261477947235, -0.009002935141324997 },
			{ -0.12849444150924683, -0.0894545167684555, 0.3598608076572418, 0.3941492736339569, -0.02494078129529953, -0.31395918130874634, -0.27566903829574585, -0.0672108456492424, 0.22835347056388855, -0.19040150940418243 },
			{ -0.10026891529560089, -0.044695496559143066, 0.3077048659324646, 0.3828359842300415, -0.01605716347694397, -0.08994011580944061, -0.34406358003616333, -0.013274356722831726, 0.1722577065229416, -0.08317109197378159 },
			{ 0.10268429666757584, -0.19394052028656006, 0.177402526140213, 0.40340468287467957, -0.18070945143699646, 0.2604779899120331, -0.49671462178230286, 0.14663639664649963, -0.11037833988666534, 0.09116824716329575 },
			{ 0.10294285416603088, -0.2952336370944977, -0.006032621953636408, 0.07134276628494263, -0.11555036157369614, 0.09535416215658188, -0.0365641787648201, -0.0024715117178857327, 0.08738476783037186, 0.07805196940898895 },
			{ 0.19657085835933685, -0.27878299355506897, 0.13857139647006989, -0.08985995501279831, -0.07335280627012253, 0.20520024001598358, -0.22159843146800995, 0.04388837143778801, 0.11175984889268875, -0.03513691574335098 },
			{ -0.02584923803806305, -0.14804238080978394, -0.0157646294683218, -0.2700519859790802, -0.0011313806753605604, 0.07821468263864517, -0.025304757058620453, -0.06152242794632912, 0.27604150772094727, -0.1298646181821823 },
			{ -0.13637512922286987, -0.11843115091323853, -0.015713689848780632, -0.1814960390329361, 0.01029305998235941, 0.1487261950969696, -0.015086352825164795, -0.0650823563337326, 0.1668366938829422, -0.04540157690644264 },
			{ 0.04708169773221016, -0.014989696443080902, -0.08456236869096756, 0.05092973634600639, -0.05966571718454361, 0.1017814502120018, 0.03298204019665718, -0.009302363730967045, -0.054802995175123215, 0.05724781006574631 },
			{ -0.0003350824408698827, -0.04070822894573212, -0.0821547880768776, -0.026341455057263374, 0.033033981919288635, -0.010138276033103466, 0.06411595642566681, -0.05566544458270073, 0.04863928258419037, -0.03272867202758789 },
			{ -0.07849294692277908, -0.030750855803489685, -0.016976214945316315, -0.03557051718235016, 0.043297309428453445, 0.0853651911020279, 0.020432699471712112, -0.03585522249341011, 0.06423724442720413, 0.07318522036075592 },
			{ 0.00798309501260519, -0.05644373223185539, 0.0022117693442851305, 0.04260200262069702, 0.05172622203826904, -0.01716647483408451, 0.03268955275416374, 0.02814582549035549, 0.07736581563949585, 0.04803489148616791 },
			{ 0.0018743921536952257, 0.05228934809565544, 0.08759640902280807, 0.31206783652305603, -0.04654696211218834, -0.16110113263130188, -0.10925600677728653, 0.040918197482824326, -0.11183808743953705, -0.022960463538765907 },
			{ -0.08782809227705002, 0.09524823725223541, 0.3507629334926605, 0.22476239502429962, -0.01058689970523119, -0.2372676432132721, -0.14609262347221375, 0.35541224479675293, -0.11097937077283859, -0.14977076649665833 },
			{ -0.21409936249256134, 0.2907586097717285, 0.07469194382429123, 0.14412088692188263, -0.015470151789486408, -0.08868018537759781, -0.39374566078186035, 0.29820486903190613, -0.13832183182239532, 0.14542832970619202 },
			{ -0.31401312351226807, -0.14631225168704987, 0.27897176146507263, 0.31450286507606506, -0.28144127130508423, -0.13584302365779877, -0.3926195204257965, 0.3691132962703705, 0.1423305869102478, 0.2895898222923279 },
			{ -0.11786618083715439, -0.34432029724121094, 0.1283109188079834, 0.24590742588043213, -0.7514778971672058, -0.05795063450932503, -0.330471396446228, 0.481064110994339, 0.09003645181655884, 0.6235207915306091 },
			{ -0.07313989847898483, -0.36742129921913147, 0.30621540546417236, 0.43449556827545166, -0.9913524389266968, 0.33265259861946106, -0.2883482873439789, 0.08130444586277008, 0.2893809974193573, 0.27360936999320984 },
			{ 0.06777945160865784, -0.5293986797332764, 0.10977637767791748, 0.09039518982172012, -0.7499712109565735, 0.5290743708610535, -0.05196157470345497, 0.19060872495174408, 0.1012345552444458, 0.5502489805221558 },
			{ -0.10811527073383331, -0.461861789226532, 0.03466518223285675, -0.2248985469341278, -0.4818969964981079, 0.2982231676578522, 0.30401840806007385, 0.02963779866695404, 0.2254147231578827, 0.2665919065475464 },
			{ 0.007130822166800499, -0.2457469403743744, -0.39877650141716003, -0.026248812675476074, 0.03216413035988808, 0.4299030303955078, 0.19164074957370758, -0.06824629753828049, 0.027374040335416794, 0.03226357325911522 },
			{ 0.04158749058842659, -0.25510352849960327, -0.3737862706184387, -0.17173416912555695, 0.25206446647644043, 0.3366207778453827, 0.1554400771856308, 0.04158869385719299, 0.26411113142967224, -0.19596250355243683 },
			{ -0.06830936670303345, -0.18043795228004456, -0.21202020347118378, -0.06050414592027664, 0.011268021538853645, 0.1358332335948944, 0.21488775312900543, -0.001595261855982244, 0.09549570828676224, -0.07769785821437836 },
			{ -0.03469303622841835, -0.07908318191766739, -0.04916495457291603, -0.02082108147442341, 0.04970908910036087, 0.06053124740719795, 0.1141863539814949, -0.06251002848148346, -0.11280298978090286, -0.08728119730949402 },
			{ 0.0019806900527328253, 0.06491278856992722, 0.023456383496522903, -0.07466869056224823, -0.0004367968358565122, -0.07719070464372635, 0.074825219810009, 0.05580051988363266, -0.030570128932595253, 0.011093301698565483 },
			{ 0.04678596556186676, 0.045253392308950424, 0.10614592581987381, 0.018483880907297134, 0.08768373727798462, -0.11864453554153442, 0.012760847806930542, 0.04031519964337349, 0.054082952439785004, -0.04891655966639519 },
			{ -0.029733629897236824, -0.03996216505765915, 0.09983912110328674, 0.07647743821144104, 0.04953001067042351, -0.08415336906909943, -0.10042005777359009, 0.010758697055280209, 0.08181910216808319, -0.0724063590168953 },
			{ -0.13476474583148956, 0.014185192994773388, 0.16344304382801056, 0.2120988816022873, 0.004125348292291164, -0.05769341439008713, -0.2174351066350937, 0.2467503696680069, 0.12393787503242493, -0.15581592917442322 },
			{ -0.04452000558376312, 0.1371234804391861, 0.07704756408929825, 0.2466477006673813, -0.4595067799091339, -0.33211708068847656, -0.22478137910366058, 0.4567038416862488, 0.2590624988079071, 0.13473443686962128 },
			{ -0.08328790962696075, -0.051906585693359375, 0.17979584634304047, 0.3710191249847412, -0.46358853578567505, -0.06061562895774841, -0.4353622496128082, 0.3179157078266144, 0.16368938982486725, 0.1699671447277069 },
			{ -0.024443969130516052, -0.24271076917648315, 0.4077862501144409, 0.291155606508255, -0.8069537281990051, -0.06938055902719498, -0.4238598644733429, 0.11157140135765076, 0.24885272979736328, 0.1434345841407776 },
			{ -0.3001340627670288, -0.3290124833583832, 0.10890901833772659, 0.3413521647453308, -0.5016193985939026, 0.3975159823894501, 0.05320921540260315, 0.04442163184285164, -0.01321751531213522, 0.1872411072254181 },
			{ 0.07866578549146652, -0.40327826142311096, -0.06561559438705444, 0.07499659061431885, -0.6569671630859375, 0.5893665552139282, 0.05459872633218765, -0.09024681150913239, 0.10722940415143967, 0.3923954665660858 },
			{ 0.026255736127495766, -0.42400020360946655, -0.13032037019729614, -0.020151562988758087, -0.7517378926277161, 0.6092802882194519, 0.3661714494228363, -0.18567226827144623, 0.19073539972305298, 0.024991819635033607 },
			{ -0.15571388602256775, 0.0920676663517952, -0.3202008008956909, -0.629723072052002, -0.13617175817489624, 0.7924579381942749, 0.25055554509162903, -0.43994536995887756, 0.29236844182014465, 0.3291606605052948 },
			{ 0.20437201857566833, -0.10736117511987686, -0.33487528562545776, -0.3789834976196289, 0.29440775513648987, 0.13004744052886963, 0.1573781818151474, -0.18024930357933044, -0.04087343066930771, 0.0537862554192543 },
			{ 0.08301632851362228, -0.19330741465091705, 0.0006964828353375196, -0.18081003427505493, 0.3611292839050293, 0.4375437796115875, 0.006152106449007988, -0.08390724658966064, 0.031687889248132706, -0.26640403270721436 },
			{ -0.02575891651213169, -0.03457671031355858, -0.055745929479599, 0.01997895911335945, 0.1018974557518959, 0.01939404383301735, 0.031172987073659897, 0.05215565860271454, 0.08139077574014664, -0.052813589572906494 },
			{ 0.06549906730651855, 0.08548709750175476, -0.08620794117450714, -0.006422790698707104, -0.08603198826313019, 0.040854357182979584, 0.06673985719680786, 0.09928762167692184, 0.06140059977769852, -0.06621742248535156 },
			{ -0.03458556905388832, -0.06351777166128159, -0.025733107700943947, 0.048133816570043564, 0.002799621317535639, -0.050355542451143265, -0.041093792766332626, 0.09229369461536407, 0.0922308936715126, -0.11090844869613647 },
			{ 0.052873849868774414, -0.11355923116207123, 0.2608071565628052, 0.30077487230300903, 0.05947364121675491, -0.17631959915161133, -0.18999169766902924, 0.18575197458267212, -0.13804587721824646, -0.16365385055541992 },
			{ -0.21904176473617554, 0.09837331622838974, 0.2210521399974823, 0.3407078981399536, -0.19165469706058502, -0.10139034688472748, -0.31384924054145813, -0.07127606868743896, 0.11984414607286453, -0.0057311030104756355 },
			{ 0.08628754317760468, 0.15105748176574707, -0.0009794492507353425, 0.32459113001823425, -0.007323715835809708, -0.04069940745830536, -0.5852248668670654, 0.2501299977302551, -0.12429320812225342, 0.07358688861131668 },
			{ -0.11245830357074738, -0.07101733982563019, 0.45115160942077637, 0.17534585297107697, -0.24500888586044312, -0.053579386323690414, -0.49024268984794617, 0.18324145674705505, 0.03066496178507805, 0.025748180225491524 },
			{ -0.29056650400161743, -0.17900481820106506, 0.3489149808883667, 0.447691947221756, -0.37528887391090393, 0.14676976203918457, -0.4188084900379181, 0.0518454946577549, 0.1833949089050293, -0.03336954861879349 },
			{ 0.012137891724705696, -0.317168265581131, 0.13331952691078186, 0.07005514204502106, -0.24316160380840302, 0.3144730031490326, -0.12598399817943573, -0.0420379564166069, 0.0026125400327146053, 0.04912104830145836 },
			{ -0.40561655163764954, -0.39960503578186035, 0.011576694436371326, 0.15867097675800323, -0.3119793236255646, 0.454048752784729, 0.1326410472393036, 0.13993650674819946, 0.04847463220357895, 0.18373341858386993 },
			{ -0.14607824385166168, -0.3525644540786743, -0.3095364272594452, 0.2198900580406189, -0.4321918487548828, 0.5734077095985413, 0.49245476722717285, -0.20979195833206177, 0.049434538930654526, 0.283667653799057 },
			{ 0.05989380553364754, -0.09663686901330948, -0.27392759919166565, -0.24443501234054565, -0.3724432587623596, 0.4637216031551361, 0.5068432092666626, -0.08330843597650528, 0.28890812397003174, -0.3516254127025604 },
			{ -0.05996125936508179, -0.07109872251749039, 0.013642878271639347, -0.3140602111816406, 0.08320683985948563, 0.3861524760723114, -0.06812701374292374, -0.22606632113456726, 0.1950596570968628, -0.0596887581050396 },
			{ -0.10001315921545029, 0.010609100572764874, 0.001156665850430727, -0.33250752091407776, -0.01631697453558445, 0.683110237121582, -0.22991842031478882, 0.027098217979073524, 0.07599948346614838, -0.0465560145676136 },
			{ 0.048345696181058884, 0.06597860902547836, 0.05980939045548439, -0.031068654730916023, -0.05760157108306885, 0.13633206486701965, -0.023938532918691635, 0.04032235965132713, 0.08074560016393661, -0.09143969416618347 },
			{ 0.06120658665895462, 0.028677839785814285, 0.06138109043240547, 0.07657399773597717, -0.038384564220905304, 0.0620492622256279, 0.028654584661126137, 0.1866084188222885, 0.0224058385938406, -0.11727050691843033 },
			{ -0.053761497139930725, 0.013643632642924786, 0.06745968014001846, 0.06081598997116089, -0.1678488850593567, -0.17277507483959198, -0.07256011664867401, 0.2018003761768341, 0.021945802494883537, 0.10682743787765503 },
			{ -0.25402000546455383, 0.009491109289228916, 0.36203017830848694, 0.49241700768470764, -0.124379001557827, -0.2164880633354187, -0.09724489599466324, -0.10616441071033478, -0.0035607973113656044, -0.02126499079167843 },
			{ -0.28976529836654663, -0.13213804364204407, 0.31689417362213135, 0.4751106798648834, -0.31318339705467224, -0.015109233558177948, -0.3114962577819824, -0.008309039287269115, 0.18890580534934998, -0.05678083375096321 },
			{ -0.08966217935085297, 0.057914186269044876, 0.6121526956558228, 0.0721389576792717, -0.10735445469617844, -0.06279423087835312, -0.5700323581695557, 0.06375178694725037, 0.08880171179771423, -0.16399268805980682 },
			{ -0.24786308407783508, -0.02673996239900589, 0.4562242031097412, 0.06680691242218018, 0.07506965845823288, -0.10851020365953445, -0.6287481188774109, 0.3522321283817291, 0.0073860264383256435, 0.13608963787555695 },
			{ -0.3471704423427582, -0.3586481213569641, 0.4247415363788605, 0.19548898935317993, 0.209628626704216, -0.011964589357376099, -0.23239582777023315, -0.043242231011390686, -0.030190574005246162, 0.3186657428741455 },
			{ -0.17146585881710052, -0.424430787563324, -0.04737437143921852, 0.464162141084671, -0.513995885848999, 0.4121798574924469, 0.1488361954689026, -0.2630867660045624, -0.16633391380310059, 0.3269456624984741 },
			{ -0.17148937284946442, -0.5810171961784363, -0.0881267711520195, 0.5193631052970886, -0.6591943502426147, 0.3911244869232178, 0.6792759895324707, -0.13092723488807678, 0.10192178934812546, -0.30635660886764526 },
			{ -0.2728530764579773, -0.03812102973461151, -0.3496061861515045, 0.3097148537635803, 0.07203525304794312, 0.3199805021286011, 0.04050356522202492, 0.15672703087329865, 0.22292256355285645, -0.34340742230415344 },
			{ -0.010566377080976963, 0.05711774528026581, -0.2741919457912445, -0.06393339484930038, 0.09765417873859406, 0.27889078855514526, 0.031327616423368454, 0.032061103731393814, 0.16360150277614594, -0.38049161434173584 },
			{ -0.09375160932540894, 0.049501631408929825, 0.07147697359323502, -0.16383713483810425, 0.19398175179958344, 0.4042411744594574, 0.022901669144630432, -0.08720143139362335, -0.047110214829444885, -0.20426009595394135 },
			{ -0.23991787433624268, -0.07369223982095718, 0.07329446077346802, -0.134800985455513, 0.06273125112056732, 0.3916633427143097, -0.24298295378684998, -0.03647541627287865, 0.08103635907173157, -0.00851207785308361 },
			{ 0.05600067600607872, -0.054036710411310196, -0.031683966517448425, -0.09415321052074432, -0.06954503059387207, 0.012673277407884598, 0.030665041878819466, 0.004980125464498997, -0.021392595022916794, -0.025897923856973648 },
			{ -0.0457724891602993, -0.057189591228961945, -0.06815163046121597, 0.0009760403772816062, 0.008583217859268188, 0.024066779762506485, 0.0523560531437397, -0.0006004697061143816, 0.060150567442178726, -0.08674531430006027 },
			{ -0.024814778938889503, 0.13547798991203308, 0.06059759855270386, 0.08383439481258392, -0.10528009384870529, 0.04598117992281914, -0.020593898370862007, 0.16298913955688477, -0.13707973062992096, -0.05006938427686691 },
			{ -0.030704325065016747, 0.16298756003379822, -0.077728770673275, -0.07084790617227554, 0.10662999749183655, 0.23311664164066315, -0.1989229917526245, 0.09706275165081024, -0.038096003234386444, -0.09571515023708344 },
			{ -0.19906891882419586, 0.124605193734169, -0.07372760772705078, 0.009431898593902588, 0.09545999765396118, 0.6055727005004883, -0.26843440532684326, -0.21335585415363312, -0.10928399115800858, 0.013255218975245953 },
			{ -0.42413997650146484, 0.09544919431209564, 0.3153578042984009, 0.25895529985427856, 0.2674407958984375, 0.20897646248340607, -0.6777351498603821, 0.18996532261371613, -0.027711817994713783, -0.07299140095710754 },
			{ -0.2781653106212616, -0.31270331144332886, -0.07402677088975906, -0.03674279525876045, 0.28612545132637024, 0.26567399501800537, -0.6561902761459351, 0.4264068603515625, 0.10017923265695572, 0.18673573434352875 },
			{ -0.35796505212783813, -0.44217756390571594, 0.16030487418174744, 0.36460238695144653, 0.3074685037136078, 0.335036039352417, -0.12427248060703278, -0.8035300970077515, 0.04248218610882759, 0.5435202121734619 },
			{ -0.45888128876686096, -0.41350728273391724, -0.07607864588499069, 0.5530129671096802, -0.09415099769830704, 0.30130577087402344, 0.2166614681482315, -0.2767626643180847, 0.038799501955509186, 0.18969246745109558 },
			{ -0.3065531849861145, -0.3677089512348175, -0.06014501303434372, 0.23277969658374786, -0.21410749852657318, 0.24214515089988708, 0.21561554074287415, 0.061214398592710495, 0.3506261706352234, -0.2760051488876343 },
			{ -0.3247712552547455, -0.0034788274206221104, -0.17849525809288025, 0.18194180727005005, 0.3322928249835968, -0.04388466849923134, 0.004563086200505495, 0.006618398707360029, 0.3130873143672943, -0.5651423335075378 },
			{ -0.06347573548555374, -0.04758119955658913, -0.1917952299118042, 0.017379315569996834, 0.3692110478878021, 0.027134934440255165, -0.0003520830359775573, 0.1419023871421814, -0.02915462851524353, -0.2749384045600891 },
			{ -0.10265112668275833, 0.02991941198706627, 0.42595309019088745, -0.11797984689474106, 0.03628753870725632, -0.05880911648273468, 0.029863936826586723, -0.08838403224945068, 0.21152934432029724, -0.3556239604949951 },
			{ -0.04567715898156166, 0.07147055119276047, 0.430961936712265, -0.07917600870132446, -0.007564390078186989, -0.10660757124423981, -0.027051199227571487, 0.045669250190258026, -0.07684972137212753, -0.2490970492362976 },
			{ 0.07264883071184158, -0.058970481157302856, 0.13086214661598206, 0.022848263382911682, -0.07445138692855835, -0.0677720457315445, -0.09340579807758331, 0.07742539048194885, -0.081009641289711, -0.1036018654704094 },
			{ -0.008969811722636223, -0.026789462193846703, 0.031117895618081093, -0.011227571405470371, -0.06777860969305038, 0.02901020087301731, -0.0014564330922439694, 0.013285829685628414, -0.07049169391393661, -0.06698031723499298 },
			{ 0.09170511364936829, -0.07089368253946304, 0.004569144453853369, -0.04608014225959778, 0.13543380796909332, 0.08756068348884583, -0.012774420902132988, 0.01328970119357109, -0.048886194825172424, -0.03972179442644119 },
			{ 0.029708541929721832, 0.045377083122730255, -0.16223928332328796, -0.2381734400987625, 0.13995671272277832, 0.2569797933101654, -0.1255636066198349, -0.18062441051006317, 0.043290939182043076, -0.040211550891399384 },
			{ -0.08348198980093002, 0.14564070105552673, -0.010990108363330364, 0.10167087614536285, -0.039873864501714706, 0.4633079171180725, -0.23392073810100555, 0.002384207211434841, -0.12807267904281616, -0.3087250888347626 },
			{ -0.23792210221290588, 0.1916225105524063, -0.13148489594459534, 0.16796743869781494, 0.06066513806581497, 0.5068351030349731, -0.500135600566864, 0.12823544442653656, -0.2641405165195465, 0.004790373146533966 },
			{ -0.5634817481040955, -0.4791382849216461, -0.17466352880001068, 0.14779706299304962, 0.27441704273223877, 0.38554421067237854, -0.40040549635887146, 0.12493564188480377, -0.03797800838947296, 0.6508913636207581 },
			{ -0.4686332643032074, -0.023089786991477013, -0.03497834876179695, 0.6214094758033752, 0.17945468425750732, 0.24014897644519806, -0.2680206596851349, -0.27954021096229553, -0.23347358405590057, 0.5015087127685547 },
			{ -0.5201436281204224, -0.001825448009185493, 0.10620281845331192, 0.34725210070610046, 0.24897173047065735, 0.06457303464412689, 0.1324353665113449, -0.11060021072626114, -0.007196215447038412, -0.2999844551086426 },
			{ -0.3852361738681793, -0.35082411766052246, 0.027103543281555176, 0.3570786714553833, -0.3019241988658905, 0.11207512766122818, 0.3261082172393799, -0.07122379541397095, 0.3799423575401306, -0.026771796867251396 },
			{ 0.02670263685286045, -0.1573813408613205, -0.03113698400557041, -0.1152697503566742, 0.2221834659576416, -0.11417558789253235, 0.21050867438316345, 0.3753802478313446, 0.2850552797317505, -0.6011839509010315 },
			{ 0.05622240528464317, 0.0031775720417499542, 0.3141886293888092, -0.20873700082302094, 0.23109246790409088, -0.21698760986328125, -0.11783307790756226, -0.11091823130846024, 0.26232293248176575, -0.37285134196281433 },
			{ -0.20273585617542267, 0.1447853446006775, 0.7454807162284851, -0.4320317506790161, 0.053808730095624924, -0.05823879316449165, 0.05734829604625702, 0.036324307322502136, -0.018094155937433243, -0.24786953628063202 },
			{ -0.01685374416410923, 0.06564713269472122, 0.5737948417663574, 0.010421466082334518, 0.01758478954434395, 0.022585907950997353, -0.14453144371509552, -0.2905687093734741, -0.18897385895252228, -0.22510531544685364 },
			{ -0.04537896439433098, -0.07443003356456757, 0.12282758951187134, -0.01408982090651989, -0.023032814264297485, 0.007712909486144781, 0.002536509884521365, -0.07144202291965485, -0.06537622958421707, -0.05655951052904129 },
			{ -0.07493721693754196, -0.08215192705392838, -0.051945220679044724, -0.003265321720391512, -0.02267191745340824, -0.08574393391609192, -0.010979273356497288, -0.042685963213443756, -0.05272529274225235, -0.04274456948041916 },
			{ -0.03314032778143883, -0.011316039599478245, 0.3367684781551361, 0.012515791691839695, -0.009490439668297768, 0.041323430836200714, -0.1234961599111557, 0.031442273408174515, -0.1304503083229065, -0.2585354745388031 },
			{ 0.30107206106185913, 0.15390321612358093, 0.043156154453754425, -0.03515499085187912, 0.07899194955825806, 0.4492793381214142, -0.31994569301605225, -0.016168290749192238, -0.21440716087818146, -0.38295695185661316 },
			{ -0.1785118579864502, -0.11198616027832031, -0.10334223508834839, 0.22048290073871613, -0.02181219682097435, 0.4847233295440674, -0.15247710049152374, 0.020354319363832474, -0.34937167167663574, 0.13189104199409485 },
			{ -0.22970089316368103, -0.17728950083255768, -0.25671714544296265, 0.031923312693834305, 0.0923071950674057, 0.320840984582901, -0.04167623817920685, -0.020727911964058876, -0.2705560028553009, 0.326002836227417 },
			{ -0.034698210656642914, -0.3341493606567383, -0.2886185944080353, 0.4986383318901062, 0.1043546050786972, 0.29364004731178284, -0.27783361077308655, -0.31690794229507446, -0.2896493971347809, 0.4525802433490753 },
			{ -0.3411046862602234, -0.2631220817565918, 0.20953932404518127, 0.4215323328971863, -0.2815968692302704, 0.13055682182312012, 0.09767860919237137, -0.2246665358543396, -0.17167766392230988, 0.32291099429130554 },
			{ 0.2312040627002716, -0.3276402950286865, 0.1382714956998825, 0.17526119947433472, -0.21331258118152618, 0.08635859191417694, -0.06979966163635254, -0.05140884965658188, 0.11383330821990967, 0.18175849318504333 },
			{ 0.14074832201004028, -0.1950221061706543, 0.3647271394729614, 0.33890828490257263, -0.1986003965139389, -0.04680965840816498, -0.03675200045108795, -0.1058884710073471, 0.2756497263908386, -0.498668372631073 },
			{ 0.061702337116003036, 0.13866016268730164, 0.19649909436702728, -0.16762904822826385, 0.16178280115127563, -0.2751944065093994, 0.10577757656574249, 0.18101783096790314, -0.40917539596557617, -0.32619377970695496 },
			{ -0.14015445113182068, 0.2507895231246948, 0.5896248817443848, -0.2890062928199768, 0.2985995411872864, -0.17284728586673737, 0.04757070541381836, 0.13938312232494354, -0.31747719645500183, -0.25093019008636475 },
			{ 0.05231757462024689, -0.030595384538173676, 0.5975693464279175, -0.23428522050380707, 0.20800624787807465, -0.07454001158475876, 0.03770502656698227, 0.11716543883085251, -0.30018067359924316, -0.27255281805992126 },
			{ 0.049157027155160904, 0.0020525609143078327, 0.17309360206127167, -0.1961023211479187, 0.09972584992647171, -0.03883933648467064, -0.02258104272186756, 0.04912446811795235, -0.09186354279518127, -0.1625729650259018 },
			{ 0.061519067734479904, 0.015940368175506592, 0.053162094205617905, -0.0078057716600596905, -0.06970694661140442, 0.07376284152269363, -0.04459065943956375, 0.07453657686710358, 0.057093895971775055, -0.09489144384860992 },
			{ -0.03358342871069908, 0.07510089874267578, 0.04907935485243797, 0.012034047394990921, -0.0008217570139095187, 0.0393044538795948, 0.03274942934513092, 0.004299498163163662, -0.05443450063467026, -0.08479584008455276 },
			{ 0.039758555591106415, -0.011830315925180912, 0.21296663582324982, 0.1634427160024643, 0.042043108493089676, -0.02884146012365818, 0.009121921844780445, -0.1442275047302246, -0.12523120641708374, -0.1484302580356598 },
			{ -0.19416159391403198, 0.0165981724858284, -0.22948214411735535, 0.15920986235141754, 0.24359938502311707, 0.10036991536617279, 0.03770370036363602, 0.06723985821008682, 0.04724181070923805, -0.34996938705444336 },
			{ -0.2853476405143738, 0.1462016999721527, -0.14180752635002136, 0.23693911731243134, 0.12506581842899323, 0.33864155411720276, -0.20055750012397766, 0.07165713608264923, -0.44712507724761963, 0.1417311728000641 },
			{ -0.5262571573257446, 0.325102299451828, -0.36632299423217773, 0.2620854675769806, 0.09624914824962616, 0.27355197072029114, -0.28718650341033936, -0.08743200451135635, -0.1168518140912056, 0.39030686020851135 },
			{ 0.19449830055236816, -0.2685900032520294, -0.07595326751470566, 0.15748491883277893, -0.1394060105085373, 0.25488463044166565, 0.034337181597948074, -0.5318906903266907, -0.48087969422340393, 0.650002658367157 },
			{ 0.2280929535627365, -0.2098139226436615, -0.1623150110244751, 0.25358930230140686, -0.25560978055000305, 0.03368775546550751, 0.30199339985847473, -0.34125250577926636, 0.012155677191913128, 0.15722346305847168 },
			{ 0.06189392879605293, -0.17303410172462463, 0.2282111495733261, 0.3259511888027191, -0.22863304615020752, 0.020608415827155113, 0.24186338484287262, -0.29951363801956177, 0.24585473537445068, -0.519148588180542 },
			{ -0.08402145653963089, 0.20688453316688538, 0.5409350395202637, 0.03520806133747101, -0.0487540103495121, 0.03950727358460426, 0.2459796667098999, -0.21183431148529053, 0.040788888931274414, -0.5911166667938232 },
			{ -0.014643697068095207, 0.5277673006057739, 0.3341425657272339, -0.43683570623397827, 0.2608283758163452, -0.21153366565704346, -0.13642817735671997, -0.1411440223455429, -0.09896616637706757, -0.11347433179616928 },
			{ -0.03230670839548111, 0.4408606290817261, 0.5849414467811584, -0.5168287754058838, -0.07737976312637329, -0.2638992965221405, -0.16600514948368073, 0.1422567516565323, -0.08706298470497131, -0.1019967570900917 },
			{ -0.254349023103714, 0.3235473334789276, 0.4740269184112549, -0.2977093458175659, 0.0052214208990335464, -0.2875768542289734, -0.06093209609389305, -0.21845287084579468, -0.04793349280953407, -0.06271344423294067 },
			{ -0.05965043604373932, 0.17724069952964783, 0.1739273965358734, -0.05124645307660103, -0.015377339906990528, -0.014650329016149044, -0.008582972921431065, 0.03581346198916435, -0.0981973260641098, 0.10409708321094513 },
			{ -0.038668908178806305, 0.04136618226766586, 0.09510668367147446, -0.03094254620373249, -0.08475618809461594, 0.015164380893111229, -0.004747288301587105, 0.036267247051000595, 0.05046571046113968, -0.03656482696533203 },
			{ 0.042604345828294754, -0.07147881388664246, -0.014885266311466694, 0.05685173347592354, 0.06459327787160873, 0.05242624133825302, 0.06908422708511353, -0.04383271187543869, -0.08562108874320984, -0.0005749386618845165 },
			{ -0.05171017721295357, 0.049219656735658646, 0.2424977421760559, -0.03300752118229866, 0.011207598261535168, 0.07867095619440079, -0.019214875996112823, -0.06387532502412796, 0.06857547163963318, 0.004552149213850498 },
			{ -0.0012059566797688603, 0.1879510134458542, -0.06788260489702225, -0.09236998856067657, 0.11971349269151688, 0.14259378612041473, -0.23956382274627686, 0.03145187720656395, -0.12421121448278427, 0.01112842746078968 },
			{ 0.026893246918916702, 0.027154764160513878, -0.03896482661366463, 0.08858499675989151, -0.044278182089328766, 0.1440742164850235, -0.10621529817581177, -0.16643092036247253, -0.034372538328170776, 0.08156510442495346 },
			{ -0.1418566256761551, -0.08772639185190201, -0.07574643939733505, 0.3133593797683716, -0.4149857759475708, 0.26867854595184326, 0.2505089044570923, -0.20564448833465576, 0.04962271824479103, 0.04924435913562775 },
			{ 0.24086399376392365, -0.12757492065429688, -0.07753313332796097, 0.39386460185050964, -0.29137521982192993, 0.29245102405548096, -0.023454515263438225, -0.44989851117134094, -0.10496921837329865, -0.1464114934206009 },
			{ 0.2293708473443985, 0.060986392199993134, 0.11304053664207458, 0.0582430437207222, -0.3463931381702423, 0.0020177161786705256, 0.39808425307273865, -0.3788728415966034, 0.1888929009437561, -0.17500820755958557 },
			{ 0.15985502302646637, 0.21916599571704865, -0.1680164337158203, 0.15281586349010468, -0.2881019115447998, -0.018168816342949867, 0.17869068682193756, -0.1599474847316742, 0.19676503539085388, -0.03822438418865204 },
			{ 0.09207868576049805, 0.13806088268756866, 0.3364233374595642, -0.13591210544109344, 0.07361021637916565, -0.05966478958725929, -0.11218464374542236, -0.443508505821228, -0.03964351862668991, 0.04497291520237923 },
			{ -0.2277499884366989, 0.2788015305995941, 0.6458545923233032, -0.18108710646629333, 0.06741226464509964, -0.25758838653564453, 0.10199013352394104, -0.29252466559410095, -0.06999292224645615, -0.0758904293179512 },
			{ -0.01014027837663889, 0.27924078702926636, 0.2969415783882141, -0.4143966734409332, 0.17883102595806122, -0.17115412652492523, 0.07898232340812683, -0.06482593715190887, -0.04354103282094002, -0.35003092885017395 },
			{ -0.1419973224401474, 0.10698944330215454, 0.24485602974891663, -0.2971002757549286, 0.18045957386493683, 0.15255925059318542, -0.13781359791755676, -0.1349332630634308, -0.01519300788640976, 0.024652617052197456 },
			{ -0.09418655931949615, 0.2165479212999344, 0.19170182943344116, -0.11444281786680222, -0.06767785549163818, 0.04989790916442871, -0.12827302515506744, -0.01822155900299549, -0.1282193511724472, 0.07922956347465515 },
			{ -0.029312098398804665, -0.038489654660224915, -0.022104322910308838, 0.006825864780694246, -0.09344736486673355, 0.06560711562633514, 0.02614470198750496, -0.08648042380809784, 0.002752268221229315, 0.01165736373513937 },
			{ -0.049035970121622086, -0.0466027595102787, -0.06174631044268608, -0.016508588567376137, -0.008294759318232536, 0.038031190633773804, 0.06738237291574478, 0.006661238614469767, -0.010490293614566326, -0.05841613933444023 },
			{ -0.10935360193252563, 0.05522692948579788, -0.12300442159175873, -0.010556983761489391, 0.022725354880094528, 0.12190138548612595, -0.0773320272564888, 0.04356329143047333, 0.014463016763329506, -0.08026345819234848 },
			{ -0.06080334633588791, -0.08360101282596588, -0.09602074325084686, 0.17201033234596252, -0.08015305548906326, 0.14518554508686066, 0.019331015646457672, 0.14111295342445374, -0.16599681973457336, -0.03471076488494873 },
			{ 0.003451624419540167, 0.05074229836463928, 0.02836700528860092, 0.04436879977583885, -0.10895385593175888, 0.11849772930145264, -0.15712496638298035, 0.05178280919790268, -0.05982876569032669, 0.14194560050964355 },
			{ 0.03179999068379402, -0.02384391613304615, 0.11669662594795227, 0.17415554821491241, 0.06519582122564316, 0.32490426301956177, -0.10997689515352249, -0.3313755393028259, -0.011099008843302727, -0.189296692609787 },
			{ 0.19715744256973267, 0.01898990012705326, 0.22240868210792542, 0.1590711921453476, -0.3201831877231598, 0.2508009076118469, 0.028731826692819595, -0.31797006726264954, 0.03904499486088753, -0.1594882607460022 },
			{ 0.22532978653907776, 0.16183686256408691, 0.06867662817239761, 0.06876590102910995, -0.2588076591491699, 0.05768810585141182, 0.1688004732131958, -0.10046470165252686, -0.011380551382899284, -0.19288232922554016 },
			{ 0.2578596770763397, 0.005107540171593428, 0.029462717473506927, -0.14174851775169373, -0.24156954884529114, 0.18086539208889008, 0.09187588095664978, -0.17561276257038116, 0.07951872795820236, -0.030806971713900566 },
			{ 0.3223588466644287, -0.02082143723964691, 0.21686187386512756, -0.03912265971302986, -0.2732212245464325, 0.128911554813385, -0.06721371412277222, -0.29616478085517883, 0.11070546507835388, -0.17545507848262787 },
			{ 0.0031357957050204277, 0.3571358323097229, 0.23107562959194183, 0.05484853312373161, 0.12854966521263123, -0.170340895652771, 0.11700654774904251, -0.4690616726875305, 0.002023302949965, 0.034573450684547424 },
			{ -0.18357490003108978, -0.0032374346628785133, 0.275480717420578, -0.23973150551319122, 0.14255490899085999, 0.000845257134642452, 0.08715880662202835, -0.2252160608768463, 0.14815135300159454, 0.007697490509599447 },
			{ -0.16437864303588867, -0.17108826339244843, 0.2637920677661896, -0.028090547770261765, 0.04771428182721138, 0.05084329470992088, -0.21066957712173462, -0.28913819789886475, 0.10251686722040176, 0.34488460421562195 },
			{ -0.03867083415389061, -0.0697445198893547, 0.1193368211388588, -0.07112398743629456, -0.10442213714122772, 0.1668916493654251, -0.07712239772081375, -0.08453088253736496, -0.11279965192079544, 0.03207794204354286 },
			{ 0.014578509144484997, 0.08000654727220535, -0.06261990964412689, -0.030235961079597473, -0.04017985984683037, 0.004949490539729595, -0.014086191542446613, -0.04040344059467316, 0.06630145758390427, 0.015020370483398438 },
			{ -0.012553568929433823, -0.07616540789604187, -0.06120508536696434, -0.0399140864610672, 0.015557769685983658, -0.08233095705509186, 0.059637729078531265, 0.030576173216104507, 0.04046815633773804, -0.04748575761914253 },
			{ -0.021985352039337158, -0.04032342880964279, -0.02695394679903984, -0.038755085319280624, 0.016326507553458214, -0.016119949519634247, 0.010742674581706524, 0.12116514891386032, 0.02218054234981537, 0.018336106091737747 },
			{ -0.016325876116752625, -0.0032933626789599657, -0.05215367674827576, 0.22187171876430511, -0.03360382840037346, -0.039330340921878815, -0.0390792153775692, 0.14238832890987396, -0.09751074016094208, 0.13491304218769073 },
			{ -0.009951905347406864, 0.11671570688486099, -0.009518755599856377, 0.27470189332962036, -0.15938064455986023, -0.21193775534629822, -0.05471425876021385, -0.02978445589542389, -0.11690177768468857, 0.06539499759674072 },
			{ -0.1260841190814972, 0.0686669573187828, -0.18261712789535522, 0.3297167420387268, -0.03481995686888695, 0.049955032765865326, 0.028634581714868546, -0.01043048594146967, -0.13058321177959442, -0.006429123692214489 },
			{ -0.20707453787326813, -0.18516184389591217, 0.06338901072740555, 0.15638139843940735, 0.014321954920887947, 0.266221821308136, 0.04367116838693619, 0.01371963694691658, 0.11055342108011246, -0.136653870344162 },
			{ -0.1479562371969223, 0.2195095270872116, -0.05593658611178398, 0.12966544926166534, -0.07156231254339218, 0.19199474155902863, -0.08258495479822159, -0.22968460619449615, 0.02510991506278515, -0.09817236661911011 },
			{ -0.13382834196090698, 0.14707720279693604, 0.35666415095329285, -0.09651010483503342, -0.06730900704860687, 0.21484482288360596, 0.018248599022626877, -0.15393365919589996, 0.06786923110485077, -0.007569870911538601 },
			{ -0.2797796428203583, -0.17048607766628265, 0.1402542144060135, 0.05846433341503143, 0.04968760535120964, 0.16148380935192108, -0.01532946340739727, 0.016963383182883263, 0.11979556828737259, -0.08780556917190552 },
			{ -0.18868693709373474, 0.009442007169127464, 0.008276915177702904, 0.18822117149829865, -0.1738201528787613, 0.23610925674438477, -0.009142983704805374, 0.046054691076278687, -0.021919040009379387, 0.0798148438334465 },
			{ -0.15242108702659607, -0.06738145649433136, -0.06609465181827545, 0.05198165774345398, -0.2468685358762741, -0.025491196662187576, -0.09116990119218826, 0.14684619009494781, -0.16521047055721283, 0.3827531337738037 },
			{ -0.08950822800397873, -0.0817454531788826, -0.005240658763796091, -0.08522262424230576, -0.0380108468234539, 0.1617688536643982, 0.04666668176651001, -0.07858345657587051, -0.09950327128171921, 0.11270758509635925 },
			{ 0.025775931775569916, -0.07097078114748001, -0.022257428616285324, -0.07697830349206924, -0.050700023770332336, 0.015312478877604008, -0.06569135189056396, 0.07372055947780609, -0.0836821049451828, 0.045971449464559555 },
			{ 0.016913682222366333, 0.07110974937677383, 0.01764075458049774, 0.016930202022194862, 0.05383314564824104, -0.06810205429792404, -0.010468045249581337, 0.05809817463159561, -0.08092671632766724, 0.028779009357094765 },
			{ 0.06513603031635284, -0.06838706880807877, 0.0745151937007904, -0.038251619786024094, 0.0553627610206604, 0.012546556070446968, 0.0570661760866642, 0.07917164266109467, -0.032755717635154724, -0.05332784354686737 },
			{ -0.004305831156671047, -0.018670348450541496, -0.006814953405410051, 0.0786844938993454, -0.012056190520524979, -0.08026076853275299, 0.03651611506938934, -0.026400793343782425, 0.03418523818254471, -0.07357198745012283 },
			{ -0.043652668595314026, 0.02147354744374752, 0.05126219242811203, -0.05852203816175461, 0.03896479681134224, -0.04908933863043785, -0.018391799181699753, 0.011640765704214573, 0.07689549773931503, 0.06871858239173889 },
			{ 0.07484486699104309, -0.02663441374897957, 0.07904621958732605, -0.027068084105849266, -0.09177318215370178, 0.021543482318520546, -0.012476109899580479, 0.07785861194133759, -0.06213798001408577, -0.022851938381791115 },
			{ 0.02050960622727871, -0.03757898136973381, -0.03933122381567955, -0.01733246259391308, 0.025180621072649956, 0.0144158024340868, 0.11000175029039383, -0.03363708406686783, -0.04615408182144165, -0.06009628623723984 },
			{ 0.029137294739484787, -0.018021831288933754, 0.031225083395838737, -0.018421482294797897, 0.0384603776037693, -0.05967563018202782, 0.1302518993616104, -0.08628606051206589, 0.03552769497036934, -0.006965831853449345 },
			{ 0.05883084610104561, 0.0483585000038147, 0.024788998067378998, 0.025509152561426163, -0.054137568920850754, 0.06712382286787033, 0.14812205731868744, -0.05054298788309097, 0.016156606376171112, 0.004618518985807896 },
			{ 0.05426590144634247, 0.12508326768875122, -0.03799773007631302, 0.019169658422470093, -0.028853267431259155, -0.06374958902597427, 0.003293123096227646, -0.00272964546456933, 0.018598360940814018, -0.0494346022605896 },
			{ 0.022880908101797104, -0.04503122717142105, 0.12325356900691986, -0.0881420224905014, -0.11597627401351929, 0.10236065089702606, -0.0010034582810476422, -0.020323466509580612, 0.05966770276427269, -0.09005818516016006 },
			{ -0.04290081188082695, 0.01142846792936325, -0.055241335183382034, 0.01589324325323105, -0.05755805969238281, 0.07340914756059647, 0.060259878635406494, -0.01985895447432995, -0.014695352874696255, 0.004068349022418261 },
			{ -0.08456599712371826, 0.05122145265340805, -0.05821382626891136, -0.019325291737914085, -0.03136446699500084, -0.04900810122489929, 0.13550804555416107, -0.036271512508392334, -0.035632047802209854, 0.011785470880568027 },
			{ 0.03564143925905228, 0.07285471260547638, -0.0405140146613121, -0.057700421661138535, 0.04404535889625549, 0.05671609193086624, 0.061362508684396744, -0.07442746311426163, -0.035137783735990524, 0.03423598036170006 },
			{ -0.03776445612311363, -0.0870785042643547, 0.07460794597864151, -0.07622190564870834, -0.07318801432847977, 0.005526237189769745, 0.07943008840084076, -0.08076871931552887, -0.009844843298196793, 0.06549951434135437 },
			{ -0.0672251284122467, -0.030374938622117043, 0.06477653235197067, 0.05288068950176239, -0.08312790840864182, -0.0696445107460022, -0.003404094371944666, 0.061335545033216476, 0.03533661738038063, -0.03285638615489006 },
			{ -0.029453357681632042, 0.03232233226299286, -0.06652767211198807, 0.08175160735845566, -0.0028549202252179384, 0.024459263309836388, -0.05158120393753052, 0.07360585033893585, -0.0413128100335598, -0.05014469474554062 },
			{ -0.001320189912803471, 0.045178499072790146, -0.03006504289805889, 0.01866372860968113, -0.016563942655920982, -0.08573008328676224, -0.014046886004507542, -0.00360308145172894, -0.025968534871935844, 0.0022474247962236404 },
			{ 0.01793787255883217, 0.07459118962287903, 0.04308128356933594, 0.09767758846282959, -0.11297459900379181, 0.018960390239953995, 0.01642630435526371, 0.06762821227312088, 0.046515800058841705, 0.02478092908859253 },
			{ -0.08077980577945709, -0.08795719593763351, -0.0707612931728363, 0.10583075881004333, -0.15165381133556366, -0.026578787714242935, 0.09668690711259842, -0.06735001504421234, 0.008581622503697872, -0.004876861348748207 },
			{ -0.013066292740404606, -0.1204116940498352, 0.1413993537425995, -0.05909281596541405, -0.20132315158843994, 0.0895717665553093, 0.10283868759870529, -0.09753146767616272, -0.010266002267599106, 0.032323941588401794 },
			{ -0.08443177491426468, -0.058057937771081924, 0.3218308985233307, -0.06403297930955887, -0.18900537490844727, 0.08756965398788452, 0.34040528535842896, -0.16636358201503754, -0.008616965264081955, -0.08307653665542603 },
			{ -0.09708995372056961, -0.027912911027669907, 0.11578254401683807, 0.030926408246159554, -0.1684701144695282, -0.08335279673337936, 0.3701551854610443, -0.09484856575727463, -0.11009905487298965, -0.1780574470758438 },
			{ -0.1682155579328537, -0.00870912428945303, 0.19085325300693512, 0.17320331931114197, -0.10441461205482483, 0.15357741713523865, 0.20484663546085358, -0.0985349789261818, -0.17367613315582275, -0.16355076432228088 },
			{ -0.19471660256385803, 0.11790730804204941, 0.001466070069000125, 0.14865200221538544, -0.03820905461907387, 0.12157349288463593, 0.1512366235256195, -0.08322921395301819, 0.022811049595475197, -0.09445803612470627 },
			{ -0.1060987114906311, 0.1533016860485077, -0.25914064049720764, 0.058646079152822495, -0.034594401717185974, 0.22006340324878693, 0.28023001551628113, -0.059829603880643845, -0.17134343087673187, -0.03107624314725399 },
			{ -0.07072284072637558, -0.07180037349462509, -0.10888584703207016, 0.09389849752187729, 0.09891338646411896, -0.05238319933414459, 0.31877511739730835, 0.046868372708559036, -0.025517592206597328, -0.14457274973392487 },
			{ 0.04773388057947159, 0.014602270908653736, -0.042875953018665314, -0.0881563052535057, -0.0008655303972773254, 0.042926669120788574, 0.11436409503221512, 0.008827881887555122, -0.028982101008296013, -0.01588333025574684 },
			{ 9.354300345876254e-06, -0.07214419543743134, 0.07169970870018005, -0.02529246173799038, 0.06318897753953934, 0.11140991002321243, -0.04454885423183441, 0.05326446145772934, -0.017540214583277702, 0.054296549409627914 },
			{ 0.04268336296081543, 0.018243907019495964, -0.022693496197462082, -0.08493620157241821, 0.04895550385117531, -0.03254425898194313, -0.001795404590666294, -0.009300988167524338, -0.021026063710451126, -0.06218327581882477 },
			{ 0.06604177504777908, 0.057466644793748856, 0.038104671984910965, 0.06118644401431084, -0.039894700050354004, -0.07224366068840027, 0.010067620314657688, -0.03412533551454544, 0.04354961961507797, -0.032410889863967896 },
			{ -0.010717501863837242, -0.0012997861485928297, -0.09530290216207504, 0.02594892866909504, 0.07148075848817825, -0.07747069746255875, -0.033681225031614304, -0.01256570965051651, -0.0066152289509773254, -0.02776203863322735 },
			{ -0.04527135565876961, 0.14042726159095764, -0.09887771308422089, 0.09426634013652802, -0.08714091032743454, -0.00477988738566637, 0.12593427300453186, 0.13287511467933655, 0.07959631830453873, -0.12205807119607925 },
			{ 0.007610089611262083, -0.078740194439888, -0.054076019674539566, 0.17677371203899384, 0.07302256673574448, -0.10736516863107681, 0.13509632647037506, -0.016383519396185875, 0.14906588196754456, -0.10759050399065018 },
			{ -0.11160451918840408, -0.08331049233675003, 0.04307542368769646, -0.2119288295507431, -0.00576095562428236, 0.24605216085910797, 0.03237123042345047, -0.03472297266125679, 0.30237531661987305, -0.004071439150720835 },
			{ -0.07198867946863174, -0.08072029054164886, 0.15433469414710999, -0.06092829629778862, -0.19596482813358307, -0.006598679348826408, -0.04790028929710388, -0.14671926200389862, 0.032681263983249664, 0.2796872854232788 },
			{ 0.12502099573612213, 0.19891493022441864, -0.08803791552782059, 0.18154506385326385, -0.1639382243156433, 0.053835634142160416, -0.022186201065778732, -0.22809140384197235, 0.05936126038432121, -0.09112038463354111 },
			{ 0.007755111902952194, 0.13686330616474152, 0.05539170652627945, 0.029157033190131187, 0.16688401997089386, 0.07159546762704849, -0.028147375211119652, -0.23346684873104095, 0.05655715614557266, -0.23342743515968323 },
			{ -0.13465602695941925, -0.08342813700437546, -0.0020520701073110104, 0.2929525673389435, 0.0003400602436158806, 0.16749221086502075, 0.06601817160844803, -0.2787846326828003, -0.0038615805096924305, -0.10547734797000885 },
			{ -0.025114024057984352, -0.02768143080174923, 0.11755142360925674, 0.4087119400501251, 0.009619944728910923, -0.0024984898045659065, 0.1365283876657486, -0.3490816652774811, -0.005174112506210804, -0.16027596592903137 },
			{ -0.14562037587165833, 0.11549524962902069, 0.30721426010131836, 0.16980010271072388, 0.09716686606407166, -0.08892254531383514, -0.06916304677724838, -0.2694832980632782, 0.11471768468618393, -0.05867284908890724 },
			{ -0.07009412348270416, 0.010647473856806755, -0.05054522678256035, 0.15967261791229248, 0.14406231045722961, -0.15104539692401886, 0.17002137005329132, -0.0917501300573349, -0.13100622594356537, -0.09026291966438293 },
			{ -0.04229716211557388, -0.03524051606655121, -0.021954966709017754, 0.06222673878073692, 0.13880681991577148, -0.005201045889407396, 0.11883179843425751, -0.04175816476345062, 0.0520133376121521, -0.005107053555548191 },
			{ -0.011190786957740784, -0.04484710842370987, 0.0684610977768898, -0.08798491954803467, -0.01731068640947342, 0.10287944227457047, -0.020614495500922203, -0.058307912200689316, 0.05660227686166763, 0.04972796514630318 },
			{ 0.008953849785029888, 0.07104510068893433, -0.06590520590543747, -0.015936635434627533, -0.001107867923565209, 0.050156205892562866, -0.059023983776569366, -0.0637909397482872, -0.08634043484926224, 0.03661958873271942 },
			{ -0.00689273327589035, 0.025007929652929306, 0.07638365775346756, -0.023359017446637154, -0.062253233045339584, -0.11956073343753815, 0.037811122834682465, 0.05243578925728798, 0.08674079924821854, -0.020732887089252472 },
			{ -0.15600909292697906, -0.03370662406086922, -0.03585459291934967, 0.16422030329704285, 0.10711754858493805, 0.031107034534215927, -0.031285010278224945, -0.11563056707382202, -0.010090973228216171, -0.03210758790373802 },
			{ 0.028978213667869568, -0.2153971642255783, -0.042832549661397934, 0.06881234794855118, 0.007275264244526625, -0.012287155725061893, 0.005205964669585228, 0.033058226108551025, -0.012066598050296307, 0.11051325500011444 },
			{ 0.06623396277427673, -0.18286757171154022, -0.18481571972370148, 0.08849829435348511, -0.10548277944326401, 0.1249820739030838, -0.056422408670186996, 0.033126313239336014, 0.10273551195859909, 0.17542822659015656 },
			{ -0.009131708182394505, 0.048980966210365295, 0.22497239708900452, -0.027176188305020332, -0.12030573934316635, 0.18865817785263062, -0.10816308110952377, -0.09424541145563126, -0.2990776598453522, 0.24951490759849548 },
			{ -0.14358559250831604, -0.098570816218853, 0.06038617715239525, 0.19539043307304382, -0.14811238646507263, 0.11275331676006317, -0.2382826954126358, 0.06136607378721237, -0.0959639772772789, 0.2501932680606842 },
			{ 0.022828390821814537, -0.1447647511959076, -0.04398883506655693, -0.008243098855018616, -0.1499025523662567, 0.1892998069524765, -0.2426920235157013, 0.15445397794246674, 0.02743222564458847, 0.1509494036436081 },
			{ 0.03175896406173706, -0.21515589952468872, 0.03558570146560669, -0.04374853894114494, -0.05125938355922699, 0.12583614885807037, -0.3613215684890747, 0.22110210359096527, 0.10150421410799026, 0.24217423796653748 },
			{ 0.15161097049713135, 0.2165396809577942, 0.10665024816989899, 0.21685928106307983, -0.012739906087517738, -0.16999144852161407, -0.3031185269355774, 0.17777396738529205, -0.1406514048576355, -0.04161369428038597 },
			{ 0.04611218720674515, 0.16256596148014069, 0.02639782801270485, -0.008903483860194683, 0.05810985341668129, -0.17870856821537018, -0.38054537773132324, 0.07796130329370499, -0.13714316487312317, 0.21648408472537994 },
			{ 0.2443726509809494, 0.10451850295066833, 0.022703632712364197, 0.11513255536556244, 0.157180055975914, -0.1840634047985077, -0.2090270221233368, -0.16162067651748657, 0.11961068212985992, 0.011577183380723 },
			{ -0.057158514857292175, -0.20910179615020752, 0.0820348709821701, -0.10638484358787537, 0.12213300913572311, 0.08877851068973541, -0.02540435828268528, -0.12179865688085556, 0.13225843012332916, -0.026909977197647095 },
			{ 0.005082888528704643, -0.07879867404699326, 0.007408506236970425, -0.05483371019363403, -0.041637226939201355, 0.024271171540021896, 0.06419903039932251, -0.004880256950855255, 0.06830994784832001, 0.013511314056813717 },
			{ -0.008493052795529366, 0.05462433397769928, 0.08624686300754547, 0.03403332456946373, 0.056844960898160934, 0.06077016517519951, 0.032354746013879776, 0.012228899635374546, -0.051463689655065536, 0.0011284351348876953 },
			{ -0.03231062740087509, 0.020519979298114777, 0.058577295392751694, 0.10287696123123169, -0.05816194787621498, -0.1538771390914917, 0.018114885315299034, 0.0716560110449791, 0.015496398322284222, -0.057940028607845306 },
			{ -0.04416435584425926, -0.07484488934278488, 0.0647786483168602, 0.045309606939554214, 0.09930456429719925, -0.21896566450595856, -0.10382598638534546, 0.01411493867635727, -0.053098540753126144, -0.024524597451090813 },
			{ 0.03166402876377106, -0.023354075849056244, -0.19817662239074707, -0.05733448639512062, -0.06799449026584625, -0.1789219081401825, 0.05916839465498924, 0.31580808758735657, -0.10471879690885544, 0.22497253119945526 },
			{ -0.06087007373571396, -0.03840148448944092, -0.040917377918958664, -0.09324605762958527, -0.19353200495243073, -0.02156083658337593, 0.02984805218875408, 0.3702298700809479, 0.1395695060491562, 0.2736709415912628 },
			{ 0.059002481400966644, -0.28052061796188354, -0.33265605568885803, 0.07759989798069, -0.3313950002193451, 0.07851633429527283, -0.2904038429260254, 0.30417686700820923, 0.04025346785783768, 0.3875863552093506 },
			{ 0.013909612782299519, -0.028503788635134697, -0.2501644194126129, 0.308709979057312, -0.43921831250190735, 0.008100089617073536, -0.3668692409992218, 0.05318981409072876, 0.20006795227527618, 0.4424484670162201 },
			{ 0.10977452248334885, -0.030338499695062637, -0.24843084812164307, 0.10982123017311096, -0.2502918839454651, -0.07987553626298904, -0.4693095088005066, 0.3951648771762848, -0.04422612488269806, 0.4470548629760742 },
			{ 0.30239298939704895, -0.1860337257385254, 0.08353721350431442, 0.044573232531547546, -0.022821741178631783, -0.10210876166820526, -0.8349076509475708, 0.6112008690834045, 0.1427382081747055, 0.008495637215673923 },
			{ 0.24011243879795074, 0.007644832134246826, -0.08532670885324478, -0.03788537159562111, 0.12029988318681717, -0.08342218399047852, -0.6266955733299255, 0.2625137269496918, 0.5008988380432129, -0.24223050475120544 },
			{ 0.21943341195583344, -0.08216464519500732, 0.05496307834982872, -0.03457712382078171, 0.0023551692720502615, -0.018903585150837898, -0.4276030957698822, 0.15318168699741364, 0.1225096732378006, 0.02200004830956459 },
			{ 0.08891261368989944, -0.07122012227773666, 0.1420772522687912, 0.16838493943214417, -0.0843045637011528, 0.14998365938663483, -0.4026522636413574, 0.20162244141101837, 0.06739050894975662, -0.07013393193483353 },
			{ -0.14163294434547424, -0.15299536287784576, -0.18021325767040253, -0.17965306341648102, -0.03633137792348862, 0.48754173517227173, -0.178786963224411, 9.999899339163676e-05, 0.224991574883461, -0.056064289063215256 },
			{ 0.04334953427314758, -0.06162865832448006, -0.05520406365394592, 0.05131478235125542, -0.08986171334981918, 0.00604520458728075, -0.009392818436026573, 0.044449858367443085, -0.047315508127212524, -0.0385531410574913 },
			{ 0.018211401998996735, 0.03853295370936394, 0.011139496229588985, -0.07600350677967072, -0.08104325085878372, 0.0675254538655281, 0.01788831502199173, 0.0838882103562355, 0.0011743145296350121, 0.008890313096344471 },
			{ 0.03913700208067894, 0.0012432170333340764, -0.13799789547920227, -0.03610862046480179, -0.0237917210906744, -0.01878630928695202, -0.05870731547474861, 0.22336742281913757, 0.057977866381406784, -0.05179404839873314 },
			{ 0.044430553913116455, -0.042097121477127075, -0.04053420573472977, -0.09791219979524612, 0.1064784899353981, -0.12746936082839966, -0.025863222777843475, 0.1694427877664566, -0.006788774859160185, 0.03079594112932682 },
			{ 0.12627995014190674, -0.05892091244459152, -0.40714845061302185, -0.17886574566364288, 0.22755654156208038, -0.24634264409542084, 0.1729782074689865, 0.22507590055465698, -0.015813345089554787, 0.17783330380916595 },
			{ 0.12264873832464218, -0.21248233318328857, -0.6593126058578491, -0.10588651150465012, 0.4512825310230255, 0.10498734563589096, 0.12123997509479523, 0.39551445841789246, -0.05191484093666077, -0.12709695100784302 },
			{ -0.0787077397108078, 0.09597685188055038, -0.7128328680992126, 0.02107732556760311, 0.2706558406352997, 0.1815691590309143, 0.13914164900779724, 0.15153434872627258, -0.11515375226736069, 0.3683015704154968 },
			{ -0.026282625272870064, 0.5527567863464355, -0.7407768964767456, 0.19271545112133026, -0.5985226631164551, -0.025234751403331757, -0.09416086971759796, -0.03358660265803337, 0.22062009572982788, 0.49123379588127136 },
			{ 0.005025113467127085, 0.3603486120700836, -0.42666929960250854, 0.003430549753829837, -0.4538660943508148, -0.23937708139419556, -0.5469391345977783, 0.3468208312988281, 0.6340699195861816, 0.19481997191905975 },
			{ 0.16696535050868988, 0.06092492491006851, -0.20574785768985748, -0.2959904372692108, -0.19474218785762787, -0.29028087854385376, -0.710260272026062, 0.6826794743537903, 0.4798422157764435, 0.2639670670032501 },
			{ 0.07233328372240067, 0.05396873503923416, -0.020048275589942932, -0.143769308924675, -0.11494158208370209, 0.060299623757600784, -0.2132405936717987, 0.38147038221359253, -0.060899071395397186, 0.06921438127756119 },
			{ 0.3157987594604492, 0.03985888138413429, 0.03507319837808609, -0.30464547872543335, -0.045906227082014084, 0.08391809463500977, -0.1717372089624405, 0.06764329224824905, -0.20124395191669464, 0.11900697648525238 },
			{ 0.2602446973323822, 0.026647863909602165, -0.12137319892644882, -0.09220075607299805, -0.36307546496391296, 0.10781975090503693, -0.11522360146045685, -0.06258851289749146, 0.1409546583890915, 0.22608844935894012 },
			{ -0.11074286699295044, -0.0007048440747894347, 0.05720040574669838, -0.16081750392913818, -0.1486481875181198, 0.32544830441474915, -0.050797704607248306, -0.059418659657239914, -0.008599341847002506, 0.052872877568006516 },
			{ 0.056192439049482346, 0.052090201526880264, -0.06719521433115005, 0.0024804503191262484, 0.06157369166612625, 0.0345274992287159, 0.05450737476348877, 0.05431169271469116, -0.06637698411941528, -0.08557799458503723 },
			{ 0.036921363323926926, -0.05133403092622757, 0.06256312131881714, 0.0021775392815470695, 0.03439045324921608, -0.04957897216081619, 0.008313801139593124, 0.10370626300573349, -0.041536517441272736, 0.00031275037326849997 },
			{ 0.05772333964705467, 0.001956838183104992, -0.08811953663825989, 0.07466277480125427, -0.1296173334121704, -0.020390458405017853, -0.11809154599905014, 0.292640745639801, -0.09533369541168213, 0.08617702126502991 },
			{ 0.10549751669168472, 0.09846461564302444, -0.11630231142044067, -0.13627304136753082, 0.21691691875457764, -0.17368589341640472, -0.03934592381119728, 0.21086543798446655, -0.041931141167879105, -0.059930577874183655 },
			{ 0.38457298278808594, -0.21432676911354065, -0.12491870671510696, -0.34987133741378784, 0.27117830514907837, -0.11717026680707932, 0.03985371068120003, 0.2108003795146942, -0.30226320028305054, 0.03298499807715416 },
			{ 0.28669363260269165, 0.07150131464004517, -0.3466338813304901, -0.20424282550811768, 0.29468074440956116, -0.0395682267844677, 0.39937305450439453, 0.27297672629356384, -0.40548160672187805, -0.25693464279174805 },
			{ 0.27266785502433777, 0.2037316858768463, -0.17578844726085663, -0.008601535111665726, 0.12671557068824768, 0.18439486622810364, 0.17119503021240234, -0.1507585197687149, -0.2269243597984314, -0.11940419673919678 },
			{ -0.4107002019882202, 0.6837054491043091, -0.24053272604942322, 0.39062029123306274, -0.13836640119552612, 0.13163800537586212, -0.1634935438632965, -0.4323812425136566, 0.09078815579414368, 0.08434951305389404 },
			{ -0.6427171230316162, 0.4395877420902252, -0.4644073247909546, -0.025457488372921944, -0.40338560938835144, 0.138117253780365, -0.016864491626620293, 0.318535178899765, 0.20459680259227753, 0.5846402645111084 },
			{ -0.2615346908569336, 0.1379467397928238, -0.20007841289043427, 0.12930408120155334, 0.07798624783754349, -0.3245057463645935, -0.19440549612045288, -0.01964939571917057, 0.2603301405906677, 0.4326936602592468 },
			{ -0.016041560098528862, -0.09316205233335495, -0.2424517571926117, -0.014485874213278294, 0.09684038907289505, -0.2342747002840042, 0.031506605446338654, 0.09526286274194717, -0.047262758016586304, 0.3384910225868225 },
			{ 0.09752144664525986, 0.012750459834933281, 0.016121137887239456, -0.3077797591686249, 0.014091149903833866, -0.20063236355781555, 0.09832877665758133, -0.030116474255919456, -0.07838543504476547, 0.2018691748380661 },
			{ 0.23951877653598785, 0.014930338598787785, 0.15573570132255554, -0.2897607088088989, -0.1550232172012329, -0.35457971692085266, 0.3977075517177582, -0.006219747941941023, -0.024161692708730698, 0.1281825304031372 },
			{ -0.005410825368016958, -0.06543855369091034, 0.12090284377336502, -0.04608316347002983, -0.1496780514717102, -0.02705872803926468, 0.1105080172419548, 0.026171483099460602, 0.043204277753829956, -0.03662522882223129 },
			{ -0.04191083833575249, -0.043960411101579666, 0.12663567066192627, 0.05103696510195732, 0.05385753512382507, 0.05974758043885231, 0.044015202671289444, 0.056262459605932236, 0.03685110807418823, 0.015283620916306973 },
			{ 0.036912545561790466, -0.005766513757407665, -0.06852786988019943, 0.008746752515435219, 0.00481350626796484, -0.06028361991047859, -0.07306759059429169, -0.058125536888837814, -0.026261446997523308, -0.030125318095088005 },
			{ -0.07129775732755661, 0.010621358640491962, 0.1737615168094635, -0.04848582670092583, 0.10620355606079102, 0.07464145869016647, -0.136738121509552, 0.06900714337825775, -0.11098946630954742, -0.14760449528694153 },
			{ 0.19387808442115784, -0.05546364560723305, 0.18480321764945984, -0.19111084938049316, 0.16592401266098022, -0.3972625434398651, 0.03149580582976341, 0.19258412718772888, 0.08025915920734406, -0.042897049337625504 },
			{ 0.33720505237579346, -0.0886811688542366, 0.12124044448137283, -0.49614661931991577, 0.360037237405777, -0.48821941018104553, 0.1654936671257019, 0.1326364278793335, 0.07581017911434174, -0.05663208290934563 },
			{ 0.38321396708488464, -0.3083146810531616, 0.35086336731910706, -0.5302048325538635, 0.2563943862915039, -0.7922458648681641, 0.22156211733818054, 0.11008923500776291, 0.4306810796260834, -0.28411197662353516 },
			{ 0.03398897126317024, 0.022920118644833565, 0.5446662306785583, -0.3372637927532196, 0.025908298790454865, -0.4089670181274414, 0.3563212454319, -0.4637213945388794, 0.24035461246967316, -0.025986256077885628 },
			{ -0.40942367911338806, 0.386725515127182, 0.3351004719734192, 0.1365700662136078, -0.04520459473133087, 0.0013492569560185075, 0.21193477511405945, -0.898288905620575, 0.20772676169872284, 0.2025061696767807 },
			{ -0.7883995175361633, 0.21290446817874908, 0.21759352087974548, 0.3934274911880493, -0.07508780062198639, -0.241537943482399, 0.12368877232074738, -0.02503357268869877, 0.013501163572072983, 0.2017940729856491 },
			{ -0.2023048847913742, -0.08612440526485443, -0.2983787953853607, 0.18958672881126404, 0.24007156491279602, -0.2166290134191513, 0.0436842106282711, 0.022738099098205566, -0.10939061641693115, 0.2862967252731323 },
			{ -0.04018287733197212, -0.36728915572166443, -0.19495879113674164, 0.15857289731502533, 0.2321057766675949, -0.15606246888637543, 0.2544163763523102, 0.4151965081691742, -0.3984493315219879, 0.3265150189399719 },
			{ 0.11766912043094635, -0.18123631179332733, -0.4931734502315521, 0.0675382986664772, -0.03678159415721893, 0.07680371403694153, 0.32995936274528503, 0.33826035261154175, -0.3560883104801178, 0.27257686853408813 },
			{ 0.10854461044073105, -0.06767233461141586, -0.12475264817476273, 0.07410184293985367, -0.0877402126789093, -0.11654561012983322, 0.15938301384449005, 0.1682138890028, -0.20176774263381958, -0.2250097244977951 },
			{ 0.029354849830269814, -0.04476969316601753, 0.2520637512207031, 0.08544702082872391, -0.12421644479036331, -0.012797987088561058, 0.04536056146025658, -0.10606075823307037, 0.011600425466895103, -0.17140008509159088 },
			{ 0.03945605829358101, -0.04268022999167442, 0.010631469078361988, -0.009501251392066479, 0.05475512519478798, -0.002728962106630206, 0.005104059353470802, -0.0583752766251564, 0.06656911224126816, -0.021183934062719345 },
			{ 0.0639491006731987, 0.08220574259757996, -0.06270676106214523, 0.0022796422708779573, 0.0532221719622612, -0.024698205292224884, -0.0732896476984024, 0.07416445761919022, -0.055024079978466034, 0.022533735260367393 },
			{ -0.0451042614877224, -0.08831962943077087, 0.16995443403720856, 0.11099228262901306, -0.04475872963666916, -0.07698459923267365, -0.09307362139225006, 0.03661287948489189, -0.0052200062200427055, -0.050192587077617645 },
			{ 0.09763999283313751, -0.10099970549345016, 0.20867639780044556, -0.16403381526470184, 0.0884157046675682, -0.06669853627681732, -0.1488012671470642, -0.07449191808700562, -0.005579003132879734, -0.11074846237897873 },
			{ 0.15006069839000702, -0.26380687952041626, 0.7049845457077026, -0.3849433362483978, 0.11833085864782333, -0.2777473032474518, 0.035674408078193665, 0.026624053716659546, 0.34002116322517395, -0.41063374280929565 },
			{ 0.16470088064670563, -0.3092613220214844, 0.540144681930542, -0.39627790451049805, -0.06555600464344025, -0.27756908535957336, 0.14374485611915588, -0.0833243578672409, 0.48718327283859253, -0.33602169156074524 },
			{ 0.1384063959121704, -0.2764791250228882, 0.5166537761688232, -0.5547249913215637, -0.19854232668876648, -0.28182047605514526, 0.1058628186583519, -0.38017597794532776, 0.497560977935791, 0.21316184103488922 },
			{ -0.4309578835964203, 0.2291293889284134, 0.5836867094039917, -0.04253704473376274, 0.015292688272893429, -0.07210253179073334, 0.0732669085264206, -0.22266174852848053, -0.00530724273994565, -0.12305518239736557 },
			{ -0.4444429576396942, -0.05049268901348114, 0.07028725743293762, -0.018486417829990387, 0.34793442487716675, -0.19049403071403503, 0.4013393819332123, 0.19784750044345856, -0.07725018262863159, -0.2705692946910858 },
			{ -0.20990587770938873, -0.33548665046691895, -0.313825786113739, 0.16114282608032227, 0.1046375185251236, -0.1279931664466858, 0.2678738534450531, 0.1903807371854782, 0.24721664190292358, -0.006160558667033911 },
			{ -0.15778164565563202, -0.20970885455608368, -0.10911682993173599, 0.11710749566555023, 0.32906439900398254, 0.09836239367723465, 0.17690585553646088, 0.0003126380033791065, 0.07060838490724564, -0.22690798342227936 },
			{ -0.11335527896881104, -0.12125609815120697, -0.17183393239974976, 0.03466213867068291, 0.24841748178005219, 0.19033457338809967, -0.008204884827136993, 0.034798696637153625, 0.02647058106958866, -0.13324213027954102 },
			{ 0.050089091062545776, -0.1630105972290039, -0.0434798039495945, 0.1825076788663864, -0.12046683579683304, 0.11356925219297409, 0.08756466209888458, -0.10874423384666443, -0.006530222482979298, -0.23214708268642426 },
			{ 0.008516338653862476, 0.03961198776960373, 0.21409985423088074, 0.03500784561038017, -0.03086143173277378, 0.06870245188474655, 0.03427070006728172, -0.07524064928293228, 0.06595683097839355, -0.09158512949943542 },
			{ -0.0014924739953130484, -0.03357270359992981, 0.08048941940069199, 0.07201222330331802, 0.051757726818323135, 0.0597415529191494, -0.026478828862309456, -0.09096183627843857, -0.002865799004212022, 0.012994956225156784 },
			{ 0.010230990126729012, -0.06928951293230057, 0.01732698641717434, -0.02845011092722416, 0.019617579877376556, 0.06789103895425797, -0.0606343150138855, -0.033115070313215256, 0.04936870187520981, 0.02549845725297928 },
			{ 0.006724951323121786, -0.059832435101270676, 0.35612615942955017, 0.061880867928266525, -0.00213466864079237, 0.10962893813848495, -0.028940722346305847, -0.04315255954861641, -0.04987093806266785, -0.12394031882286072 },
			{ 0.09681796282529831, -0.195832759141922, 0.38438865542411804, 0.08042718470096588, 0.012499853037297726, 0.049193065613508224, -0.22166776657104492, -0.09994892030954361, 0.11641328036785126, -0.18976613879203796 },
			{ 0.2022387683391571, -0.13029266893863678, 0.4010922312736511, -0.2840750813484192, 0.10038365423679352, -0.09994550049304962, -0.06442360579967499, -0.17049571871757507, 0.3122476041316986, -0.20304104685783386 },
			{ 0.256935179233551, -0.23253270983695984, 0.30847764015197754, -0.08906909078359604, -0.02405685931444168, -0.09700316190719604, 0.04134932532906532, -0.2805742919445038, 0.18031209707260132, -0.06430482119321823 },
			{ 0.06149676814675331, -0.32023853063583374, 0.38400304317474365, -0.22979314625263214, 0.1589871495962143, -0.0626223161816597, 0.1491943597793579, -0.433625191450119, -0.12154261022806168, 0.20715002715587616 },
			{ 0.03846064209938049, 0.13665339350700378, 0.14302068948745728, 0.06812600046396255, 0.08470670878887177, -0.20563581585884094, -0.11569775640964508, 0.09599588066339493, -0.11195370554924011, -0.27814722061157227 },
			{ -0.1886960119009018, -0.27201154828071594, -0.10785215348005295, 0.10973846167325974, 0.22388850152492523, 0.022511061280965805, 0.3325973451137543, 0.1476905792951584, -0.04779591038823128, -0.26010167598724365 },
			{ -0.11088042706251144, -0.31955528259277344, -0.021097540855407715, 0.07742723077535629, 0.17587284743785858, -0.03322962298989296, 0.12126719206571579, 0.16270899772644043, 0.15792472660541534, -0.12932424247264862 },
			{ -0.21201789379119873, 0.06055159494280815, -0.31370094418525696, 0.15805330872535706, 0.22003981471061707, 0.33805587887763977, 0.028493620455265045, 0.16150206327438354, 0.07954167574644089, -0.3353866636753082 },
			{ 0.06454876810312271, -0.012130310758948326, -0.08190710097551346, 0.09459888190031052, 0.01598680391907692, 0.1749998927116394, -0.20802094042301178, 0.06043567880988121, 0.02692614682018757, -0.044355545192956924 },
			{ -0.059654753655195236, 0.015008688904345036, 0.11785760521888733, 0.1016860157251358, -0.026195384562015533, 0.0042225029319524765, 0.03465260565280914, -0.333842009305954, 0.23119871318340302, -0.22981035709381104 },
			{ -0.06856883317232132, 0.03358621895313263, 0.17063291370868683, -0.011495942249894142, -0.10413581132888794, 0.17314408719539642, 0.012527589686214924, 0.024702977389097214, -0.08831243962049484, 0.02921236678957939 },
			{ -0.034569114446640015, 0.041814450174570084, -0.022967485710978508, -0.012040773406624794, -0.01449474599212408, -0.05950076878070831, -0.008247753605246544, -0.0854327380657196, -0.030004624277353287, -0.05861787497997284 },
			{ 0.06237808242440224, -0.024332009255886078, -0.05207356438040733, -0.09688356518745422, 0.0021038257982581854, -0.05186303332448006, 0.005132684018462896, 0.0404621958732605, 0.013136371970176697, 0.05599510297179222 },
			{ 0.003099209163337946, 0.026549097150564194, 0.1546327769756317, 0.10388389229774475, 0.029309866949915886, -0.025076081976294518, -0.02226320654153824, -0.12641307711601257, -0.10806063562631607, -0.05723213031888008 },
			{ -0.0015414869412779808, 0.12755420804023743, 0.10210507363080978, 0.002005030633881688, -0.016721457242965698, 0.18839363753795624, -0.25029098987579346, -0.0804440826177597, -0.12945280969142914, -0.07728581875562668 },
			{ 0.06549254059791565, 0.00216138968244195, -0.03093612939119339, 0.036602139472961426, -0.005903351586312056, 0.26921260356903076, -0.23456484079360962, -0.18859659135341644, -0.010208559222519398, -0.08710601180791855 },
			{ -0.2444060891866684, 0.33645695447921753, 0.1703319549560547, -0.03804347664117813, -0.09157481044530869, 0.2961481809616089, -0.06862927973270416, -0.1647387593984604, -0.1253906488418579, 0.029429474845528603 },
			{ 0.057481925934553146, 0.0368855819106102, 0.04807964712381363, -0.20172730088233948, -0.07828143984079361, 0.2183849811553955, 0.21451622247695923, 0.01596730388700962, -0.46812883019447327, 0.18551324307918549 },
			{ -0.031533945351839066, -0.24505236744880676, -0.07886810600757599, 0.295776903629303, -0.005254269577562809, -0.03534978628158569, 0.3273538053035736, -0.05918923392891884, 0.12847235798835754, -0.2491287887096405 },
			{ -0.10990193486213684, -0.07216809689998627, -0.044927749782800674, 0.05823936313390732, 0.07939129322767258, 0.30658966302871704, 0.25032883882522583, -0.11563096195459366, -0.002272804733365774, -0.5731757283210754 },
			{ -0.08035097271203995, -0.05440317466855049, 0.1881933957338333, 0.08427192270755768, -0.07126978039741516, 0.09572393447160721, 0.0902835875749588, -0.002924063242971897, 0.019927384331822395, -0.14402274787425995 },
			{ -0.10741852223873138, 0.3414641320705414, 0.19054988026618958, -0.1482408046722412, 0.11250830441713333, 0.39333775639533997, 0.024252241477370262, -0.02755068615078926, -0.2036595344543457, -0.21549071371555328 },
			{ -0.0918651819229126, 0.21404434740543365, 0.10397376865148544, -0.001827625441364944, -0.023864498361945152, 0.019826432690024376, 0.143851637840271, 0.014313463121652603, 0.15276198089122772, -0.2805638015270233 },
			{ -0.03661450743675232, 0.07085087150335312, 0.04877563938498497, 0.004181021358817816, 0.05933355540037155, 0.26870474219322205, -0.09121672064065933, -0.15535646677017212, -0.02293788269162178, 0.06473273038864136 },
			{ -0.06908494234085083, 0.17965294420719147, 0.08232919871807098, -0.10059944540262222, -0.035262346267700195, 0.14300118386745453, -0.037326544523239136, 0.027577046304941177, -0.11673125624656677, 0.04975466430187225 },
			{ -0.01430592592805624, 0.020061781629920006, -0.04322701320052147, -0.07102664560079575, 0.03407755494117737, 0.07400412112474442, 0.04579097032546997, -0.03893469274044037, 0.021423665806651115, -0.06356999278068542 },
			{ 0.04853485897183418, -0.07492649555206299, -0.0764191672205925, 0.0036472848150879145, -0.08030988276004791, -0.00394021812826395, -0.0025101075880229473, 0.0037342498544603586, 0.06096654757857323, -0.012117897160351276 },
			{ -0.022715425118803978, 0.11109419167041779, -0.043011367321014404, 0.010958297178149223, 0.04153842478990555, -0.014370654709637165, -0.04046378284692764, 0.02661627158522606, -0.03808780759572983, 0.0035913032479584217 },
			{ -0.0007230508490465581, 0.244110107421875, -0.028453467413783073, 0.07441181689500809, -0.12750662863254547, -0.06556040048599243, -0.0822492390871048, 0.13685302436351776, -0.12959246337413788, 0.0651397779583931 },
			{ 0.028383970260620117, 0.07243674993515015, -0.11070888489484787, 0.05627700686454773, -0.0859701856970787, -0.01967323012650013, -0.18342402577400208, 0.15470382571220398, -0.08882074803113937, 0.0036943547893315554 },
			{ 0.11184444278478622, -0.005579088348895311, -0.02703833021223545, 0.04041910544037819, -0.15540584921836853, 0.24030114710330963, -0.10656934231519699, 0.01825563982129097, -0.31176018714904785, 0.05386575311422348 },
			{ 0.043323878198862076, -0.3563682734966278, 0.019825395196676254, 0.4045508801937103, -0.1380036473274231, 0.27426865696907043, -0.028913360089063644, -0.31472504138946533, -0.201790452003479, 0.27524182200431824 },
			{ 0.34526896476745605, -0.31615468859672546, 0.11923477798700333, 0.23653993010520935, -0.2996358573436737, 0.4254087507724762, 0.1353532373905182, -0.37629029154777527, 0.16906936466693878, -0.32012996077537537 },
			{ 0.15161080658435822, 0.11305015534162521, 0.22687755525112152, 0.19132272899150848, -0.24839870631694794, 0.14799878001213074, 0.05019081383943558, -0.2373373657464981, -0.0009194564772769809, -0.32605111598968506 },
			{ 0.005092960316687822, -0.0790092721581459, 0.250903844833374, -0.012824446894228458, -0.1734418123960495, 0.14667828381061554, 0.07360457628965378, 0.1059124693274498, -0.16902975738048553, -0.11747165024280548 },
			{ -0.0274636410176754, -0.011242837645113468, 0.28186774253845215, 0.07620349526405334, 0.0016851755790412426, 0.08127807080745697, -0.04469573497772217, -0.17567309737205505, -0.012101583182811737, -0.1443260759115219 },
			{ -0.09693126380443573, -0.0003867777995765209, -0.004502121824771166, -0.2437862902879715, 0.12944355607032776, 0.1016291007399559, 0.02453366294503212, -0.11526015400886536, -0.05023013427853584, 0.07147891074419022 },
			{ -0.04174692556262016, -0.03386708348989487, 0.10968004167079926, -0.04027238488197327, 0.028555717319250107, 0.2015821933746338, -0.1381150782108307, -0.10970403999090195, 0.03998684510588646, 0.19764724373817444 },
			{ 0.011490321718156338, -0.055902041494846344, 0.07807459682226181, -0.03678423538804054, -0.07959575206041336, 0.0376281701028347, -0.05545331910252571, 0.06111957132816315, -0.1099650040268898, -0.01260064821690321 },
			{ -0.08084326982498169, 0.06515704840421677, -0.027586814016103745, -0.0734814926981926, -0.058298781514167786, -0.04330878704786301, 0.024779610335826874, 0.044798899441957474, -0.017167137935757637, 0.03947363421320915 },
			{ -0.00327584077604115, 0.025350257754325867, 0.017272010445594788, -0.002078193938359618, 0.07110242545604706, 0.05873996764421463, -0.05622740834951401, -0.021719858050346375, -0.052929289638996124, 0.0028096428140997887 },
			{ -0.08439629524946213, 0.004373983945697546, -0.06622593104839325, 0.09651746600866318, 0.03866342827677727, -0.0983319953083992, 0.08384831994771957, 0.10795365273952484, -0.08131870627403259, -0.052489884197711945 },
			{ -0.06214849650859833, -0.033195946365594864, -0.19857639074325562, 0.3381946384906769, -0.03250361979007721, -0.06695586442947388, -0.022746257483959198, 0.08253590762615204, -0.14114151895046234, 0.04100950434803963 },
			{ -0.0432429239153862, -0.0258290134370327, -0.3131171762943268, 0.37320077419281006, -0.1274094432592392, 0.13617035746574402, -0.09316184371709824, 0.2016279101371765, -0.14346298575401306, 0.08981898427009583 },
			{ -0.21721100807189941, -0.029271453619003296, -0.22091762721538544, 0.3375694155693054, -0.11944109946489334, 0.2706804573535919, -0.1304260939359665, -0.14688807725906372, -0.03905205428600311, 0.20404474437236786 },
			{ -0.08870827406644821, -0.22667360305786133, 0.013647937215864658, 0.46787503361701965, -0.35075387358665466, 0.2707251310348511, -0.018696311861276627, -0.28802916407585144, 0.1689750850200653, -0.06469608098268509 },
			{ 0.1917448192834854, -0.26816287636756897, -0.07015702873468399, 0.378658264875412, -0.2641296088695526, 0.4164905548095703, 0.0019293525256216526, -0.34110119938850403, 0.313158243894577, -0.39804136753082275 },
			{ -0.005106258671730757, -0.039505649358034134, 0.26053401827812195, -0.02960592694580555, -0.20245257019996643, 0.20547367632389069, 0.18049676716327667, -0.17470796406269073, 0.11828963458538055, -0.1677042841911316 },
			{ -0.14147363603115082, -0.037237562239170074, 0.28485310077667236, -0.05961249768733978, -0.23328450322151184, 0.06587717682123184, 0.0033200751058757305, -0.0852847471833229, -0.28671205043792725, 0.07597118616104126 },
			{ -0.3721481263637543, 0.09703721106052399, 0.17511923611164093, -0.06394249945878983, 0.0014058516826480627, 0.1668005734682083, -0.08926662057638168, -0.053624991327524185, -0.026911037042737007, 0.15710411965847015 },
			{ -0.16116708517074585, 0.087888203561306, 0.06611811369657516, 0.07082143425941467, -0.013592480681836605, 0.11657208204269409, -0.06816059350967407, 0.007465332746505737, -0.13726939260959625, 0.22392311692237854 },
			{ -0.027915161103010178, -0.11156702041625977, 0.07917910814285278, -0.06384484469890594, 0.10369314253330231, 0.0668983981013298, -0.1153675839304924, -0.09518341720104218, -0.0760379359126091, 0.07544450461864471 },
			{ 0.03125838190317154, -0.01742749847471714, -0.05151195079088211, -0.021610554307699203, 0.07417584955692291, 0.05412738397717476, -0.06845110654830933, -0.03159361332654953, -0.0783267542719841, 0.007361225318163633 },
			{ -0.03092731349170208, -0.00669252872467041, -0.029708590358495712, -0.04905287176370621, 0.057807620614767075, -0.02372846007347107, 0.03893114998936653, 0.06843998283147812, 0.04269329831004143, -0.059220634400844574 },
			{ -0.08216186612844467, 0.049478501081466675, 0.03540671616792679, -0.08153820782899857, -0.08117108047008514, -0.07510580122470856, 0.06022273376584053, 0.026300441473722458, 0.029882533475756645, 0.037919286638498306 },
			{ 0.0803731307387352, 0.02480686828494072, -0.002870235126465559, 0.08186701685190201, 0.08041010797023773, -0.07530517131090164, 0.08632338047027588, -0.08633781969547272, -0.048545241355895996, -0.04393274709582329 },
			{ 0.03916587308049202, 0.017093688249588013, 0.013308661058545113, 0.06105905398726463, 0.010182024911046028, -0.07483632862567902, -0.03806012123823166, -0.0927361324429512, -0.0951586663722992, 0.026491491124033928 },
			{ 0.017316341400146484, -0.003210874740034342, 0.012842020951211452, 0.007919005118310452, 0.05533335730433464, -0.029876500368118286, -0.019705194979906082, -0.0033590926323086023, -0.0008517796522937715, 0.059515368193387985 },
			{ 0.008204841054975986, -0.01557705644518137, -0.012723220512270927, 0.02174651063978672, -0.020737702026963234, 0.07330280542373657, -0.07576248794794083, 0.13883839547634125, -0.11327957361936569, 0.07890143245458603 },
			{ -0.08887267112731934, -0.07062303274869919, -0.00031551680876873434, 0.0838024914264679, -0.0955805853009224, 0.1243065819144249, -0.02447771094739437, -0.03612515702843666, 0.09010336548089981, -0.056730855256319046 },
			{ -0.09120113402605057, -0.06648115068674088, -0.01616586744785309, 0.12762451171875, -0.15404096245765686, 0.05389794334769249, -0.0888025239109993, 0.09402024000883102, 0.005989922676235437, 0.1187707930803299 },
			{ -0.033687740564346313, 0.09020598232746124, 0.023639561608433723, 0.05431423708796501, -0.1466818004846573, 0.10412479192018509, 0.0741044282913208, 0.05709807202219963, -0.10828839987516403, 0.1563033014535904 },
			{ -0.11134451627731323, 0.025071268901228905, -0.07733669877052307, 0.037851233035326004, 0.002693005371838808, 0.07074850052595139, -0.03252097964286804, -0.09059929847717285, -0.03366805985569954, 0.23781657218933105 },
			{ 0.0005269019748084247, 0.008323910646140575, -0.0369194932281971, -0.01783258095383644, -0.06958933174610138, 0.09715501964092255, 0.022299936041235924, -0.028363464400172234, -0.009937014430761337, 0.10372532159090042 },
			{ -0.01781497895717621, 0.024769138544797897, -0.10132943093776703, -0.036388758569955826, -0.08078810572624207, 0.027786392718553543, -0.0753394365310669, 0.11276634782552719, -0.09251727163791656, 0.06096021085977554 },
			{ -0.007416082546114922, -0.05868435278534889, -0.022543318569660187, -0.052266091108322144, 0.03397002071142197, 0.01624545268714428, -0.0060682580806314945, 0.03979520872235298, -0.012861188501119614, -0.045086003839969635 },
			{ -0.036275025457143784, 0.03909963369369507, -0.08654959499835968, 0.05742397904396057, -0.006242699921131134, -0.05083072930574417, 0.08145173639059067, -0.03105756640434265, 0.009389002807438374, -0.007288200315088034 },
			{ 0.05224142223596573, 0.07435530424118042, 0.08113563060760498, -0.0746757984161377, -0.08064324408769608, 0.08323085308074951, -0.051378749310970306, -0.05065664276480675, 0.01657470129430294, 0.005066478159278631 },
			{ -0.05098344758152962, 0.03503090515732765, 0.009462496265769005, 0.04866127669811249, 0.06077411398291588, -0.060432709753513336, 0.0665346011519432, -0.06883164495229721, -0.060292258858680725, 0.02515324577689171 },
			{ -0.05596742406487465, 0.06834882497787476, -0.03900134935975075, -0.003440101398155093, -0.0913068875670433, 0.09144263714551926, -0.06042776629328728, 0.015852482989430428, -0.033781372010707855, 0.005105666350573301 },
			{ -0.0051722899079322815, -0.06672132760286331, -0.0727829784154892, 0.03212805092334747, -0.007464935537427664, -0.026015978306531906, 0.01790887676179409, 0.05379561334848404, -0.05360812693834305, -0.004350794944912195 },
			{ -0.030846070498228073, 0.03218958154320717, 0.06074371933937073, -0.030263623222708702, -0.17273369431495667, -0.04075370356440544, 0.07469624280929565, 0.025623613968491554, 0.07812046259641647, 0.055763572454452515 },
			{ -0.06170765683054924, 0.01544661819934845, 0.07437920570373535, 0.014256958849728107, -0.0826113373041153, 0.08422023802995682, 0.0533403642475605, 0.07304264605045319, 0.026037871837615967, -0.05366490036249161 },
			{ 0.045275989919900894, 0.0320725291967392, 0.0737190842628479, -0.0006041978485882282, -0.1303015500307083, -0.04622095823287964, 0.05500432103872299, -0.008650151081383228, 0.019338825717568398, -0.05575261637568474 },
			{ -0.08606541156768799, 0.3598235249519348, -0.1497621387243271, 0.06020207703113556, -0.1085897907614708, -0.002630077302455902, -0.01606612093746662, -0.08959775418043137, -0.054615020751953125, 0.02224062755703926 },
			{ -0.03279970958828926, 0.293418824672699, -0.050276946276426315, 0.012929574586451054, -0.242030069231987, 0.107996366918087, 0.23315849900245667, -0.09001590311527252, -0.01513712853193283, -0.04013397544622421 },
			{ -0.07934150844812393, 0.028525207191705704, -0.032487254589796066, 0.018259527161717415, -0.17201684415340424, 0.11252456158399582, 0.13062141835689545, -0.07871388643980026, -0.1095958799123764, -0.06197497621178627 },
			{ 0.017362795770168304, 0.06055919826030731, -0.15862835943698883, -0.08831704407930374, -0.04274369776248932, -0.017284993082284927, 0.0883139967918396, 0.02062404528260231, -0.010706047527492046, 0.05766511335968971 },
			{ -0.005686656106263399, -0.005149624310433865, -0.06627991050481796, 0.046272534877061844, -0.004629679024219513, -0.08930542320013046, 0.1474829614162445, 0.08201483637094498, -0.04553987458348274, 0.011289076879620552 },
			{ -0.04846856743097305, 0.000438905117334798, 0.033990733325481415, -0.07928010821342468, 0.02147323079407215, 0.07344289869070053, 0.025061851367354393, -0.04567274823784828, -0.057689275592565536, 0.024694597348570824 },
			{ 0.05315554514527321, 0.027130434289574623, 0.08285756409168243, -0.07809106260538101, -0.02183847688138485, -0.035231586545705795, 0.05394168943166733, -0.0474323108792305, 0.04688107222318649, 0.03771420568227768 },
			{ -0.08391160517930984, -0.04631613940000534, -0.017440786585211754, 0.018135646358132362, 0.07920258492231369, 0.015424004755914211, 0.04849691689014435, -0.010908237658441067, 0.0839175432920456, 0.059645090252161026 },
			{ 0.062228985130786896, -0.05504783242940903, -0.0689215287566185, -0.06622523814439774, -0.0039042497519403696, -0.03689699247479439, -0.05231298878788948, -0.04963403195142746, -0.06629598885774612, 0.009874067269265652 },
			{ 0.01316622830927372, 0.04702812805771828, -0.07667992264032364, 0.07646822929382324, 0.06452620029449463, 0.07865071296691895, 0.08128324151039124, 0.0025719194673001766, -0.029463550075888634, 0.020668871700763702 },
			{ 0.009072902612388134, 0.06796698272228241, 0.02462657541036606, 0.1425294131040573, -0.0888494998216629, -0.15887942910194397, 0.20285017788410187, -0.09294017404317856, -0.012965341098606586, -0.025047294795513153 },
			{ -0.033541224896907806, 0.057424116879701614, 0.01581568270921707, -0.011971133761107922, -0.26992228627204895, -0.09130198508501053, 0.3329475522041321, -0.020086590200662613, 0.21181824803352356, -0.06686606258153915 },
			{ -0.11554890871047974, 0.23966346681118011, 0.03588224574923515, -0.12974998354911804, -0.2581934630870819, -0.046742070466279984, 0.4917452037334442, -0.18892234563827515, -0.05345305800437927, -0.13948987424373627 },
			{ -0.15107187628746033, 0.16721175611019135, -0.07703027874231339, -0.06789182126522064, -0.07243326306343079, 0.09915012866258621, 0.1514001190662384, 0.0221684779971838, -0.17740406095981598, 0.14260104298591614 },
			{ -0.10732172429561615, 0.1510668843984604, -0.06325258314609528, -0.2364664077758789, 0.11012499034404755, -0.11499586701393127, 0.10502548515796661, -0.09771569073200226, 0.15707658231258392, -0.06483429670333862 },
			{ -0.21106137335300446, 0.2855628728866577, -0.2474854588508606, -0.029932964593172073, 0.18543538451194763, 0.14336124062538147, -0.12505687773227692, -0.09962403774261475, 0.01605868898332119, -0.15409274399280548 },
			{ 0.03323863074183464, 0.1704314649105072, -0.3604152500629425, -0.006685983389616013, 0.05485004186630249, 0.1859768182039261, 0.08965674042701721, -0.0033336216583848, -0.05394376814365387, -0.10682664066553116 },
			{ -0.24773679673671722, 0.2609291076660156, -0.3463616669178009, -0.10022534430027008, 0.1375446766614914, 0.24732711911201477, 0.3322962820529938, -0.027452126145362854, -0.1593896746635437, -0.07322335988283157 },
			{ -0.061708807945251465, -0.09130813181400299, -0.004520726390182972, -0.13238734006881714, 0.17663030326366425, -0.13485132157802582, 0.22026696801185608, 0.07840964943170547, 0.024879518896341324, 0.03596673160791397 },
			{ -0.050263892859220505, -0.010231629945337772, 0.02120809257030487, -0.08899689465761185, 0.1050010472536087, 0.07915942370891571, -0.031452637165784836, -0.06812553852796555, -0.06529217213392258, -0.029696203768253326 },
			{ 0.006403099745512009, 0.014640412293374538, 0.03227916732430458, 0.07262510061264038, -0.007605938706547022, -0.06285246461629868, -0.014692040160298347, -0.05006727948784828, -0.06951969861984253, -0.07634608447551727 },
			{ 0.05944782868027687, 0.035215750336647034, 0.034457478672266006, 0.052392229437828064, -0.08824782073497772, -0.04646792262792587, 0.02133156917989254, -0.016480326652526855, 0.022870274260640144, 0.030890481546521187 },
			{ 0.04034240543842316, 0.0012398823164403439, 0.04191795736551285, 0.07563811540603638, -0.011632842943072319, 0.005095346365123987, 0.03922918811440468, 0.04553247615695, 0.0025919999461621046, -0.05076175183057785 },
			{ -0.033118415623903275, -0.013907669112086296, -0.015973426401615143, 0.08611541241407394, 0.008207576349377632, -0.06188824027776718, 0.07259343564510345, 0.11341883987188339, -0.012880769558250904, 0.03618964925408363 },
			{ -0.0018992851255461574, 0.13641341030597687, -0.32487252354621887, 0.06240462511777878, -0.12645991146564484, 0.00028436968568712473, 0.13396655023097992, 0.18472787737846375, 0.13513009250164032, -0.14740711450576782 },
			{ -0.0291712898761034, -0.23053447902202606, -0.014614593237638474, 0.21169732511043549, 0.14096660912036896, 0.018157444894313812, 0.1679515242576599, -0.13149617612361908, 0.008218233473598957, -0.03147531673312187 },
			{ -0.0784512609243393, 0.03522857651114464, -0.2060510367155075, 0.013597162440419197, 0.09859249740839005, 0.06541416794061661, 0.2651231586933136, -0.09129015356302261, 0.11974181234836578, -0.04806564375758171 },
			{ -0.1719711869955063, 0.3256694972515106, -0.24901197850704193, -0.09329738467931747, 0.3769153356552124, -0.06829501688480377, 0.22763170301914215, -0.12677860260009766, 0.02948010340332985, -0.17529702186584473 },
			{ -0.04724442958831787, 0.2564442753791809, -0.15493085980415344, -0.2807750999927521, 0.45500028133392334, -0.011002548970282078, 0.2580883800983429, -0.2319941520690918, 0.0129389688372612, -0.1331138163805008 },
			{ -0.11129409819841385, 0.5448387861251831, -0.1085587739944458, -0.3021441698074341, 0.3913174569606781, -0.18623438477516174, 0.1155393049120903, -0.23083391785621643, -0.004733371548354626, -0.02509327232837677 },
			{ -0.10741525888442993, 0.26277023553848267, -0.05746115744113922, -0.4259341061115265, 0.3743090331554413, 0.17217737436294556, -0.028672708198428154, -0.1539108157157898, 0.18840397894382477, -0.181898832321167 },
			{ -0.17030251026153564, 0.4524649381637573, -0.2505563199520111, -0.37861570715904236, 0.6258421540260315, 0.09370969980955124, -0.008607225492596626, -0.09561368823051453, 0.24998588860034943, -0.2233867347240448 },
			{ 0.047516338527202606, 0.4137665033340454, -0.39307111501693726, -0.2510746717453003, 0.3264232277870178, 0.2340509295463562, 0.056821729987859726, 0.01625686325132847, -0.12578406929969788, -0.17984573543071747 },
			{ -0.078323595225811, 0.18773579597473145, -0.06864254921674728, -0.0655069351196289, 0.2651086449623108, 0.2909773886203766, -0.03299618139863014, -0.10345727205276489, 0.012355109676718712, -0.18472294509410858 },
			{ -0.027559760957956314, -0.041529446840286255, -0.0550554022192955, -0.07897363603115082, -0.09308184683322906, 0.016445696353912354, -0.02835964970290661, 0.02427837811410427, 0.11227841675281525, -0.08066120743751526 },
			{ 0.06482894718647003, -0.023845568299293518, 0.039697639644145966, -0.025741245597600937, 0.05498719587922096, 0.030974047258496284, -0.05185539275407791, -0.06377680599689484, 0.010810479521751404, -0.06701767444610596 },
			{ -0.08037032186985016, 0.028007546439766884, 0.05764751136302948, -0.07748237997293472, 0.07667706161737442, 0.07173368334770203, -0.06449045985937119, 0.0025213253684341908, -0.054830387234687805, -0.11137616634368896 },
			{ -0.03794300928711891, -0.012019659392535686, 0.16987940669059753, 0.037078432738780975, -0.005392078775912523, -0.06764981150627136, 0.11071350425481796, -0.24852338433265686, 0.0548766665160656, 0.006124995648860931 },
			{ 0.08372839540243149, -0.11365880817174911, 0.05843073129653931, 0.06831914186477661, -0.07098732143640518, -0.03626655414700508, -0.15949150919914246, -0.3328303396701813, 0.11646970361471176, 0.257531076669693 },
			{ -0.06785619258880615, -0.2558298110961914, 0.19189026951789856, -0.00886942446231842, 0.050488121807575226, 0.03765534982085228, 0.18008607625961304, -0.3453092575073242, 0.0030991588719189167, 0.16837701201438904 },
			{ -0.1382703334093094, -0.26128089427948, 0.08123250305652618, -0.11371488869190216, 0.15270861983299255, -0.023938151076436043, 0.01744505763053894, -0.0609956718981266, 0.11290144175291061, 0.15023869276046753 },
			{ -0.09622512012720108, -0.02139684185385704, -0.16989624500274658, -0.1467559039592743, 0.17343942821025848, -0.015096679329872131, 0.14765147864818573, 0.02168904058635235, 0.0033594497945159674, 0.16210179030895233 },
			{ -0.25261276960372925, 0.2852640450000763, -0.013623496517539024, -0.2028370350599289, 0.22641587257385254, 0.08068792521953583, 0.308796763420105, -0.31978872418403625, -0.008676573634147644, 0.08276934921741486 },
			{ -0.10943847894668579, 0.18110224604606628, -0.002082445891574025, -0.2923215627670288, 0.55327969789505, -0.15129032731056213, 0.07592178881168365, -0.5149351358413696, 0.06021794676780701, 0.06541619449853897 },
			{ -0.1391019970178604, 0.4444786310195923, -0.19450728595256805, -0.47621598839759827, 0.6897959113121033, -0.24410361051559448, 0.09506240487098694, -0.09807416051626205, -0.10637981444597244, 0.04320717975497246 },
			{ -0.1268106997013092, 0.40775448083877563, -0.27185457944869995, -0.17570984363555908, 0.5823732614517212, -0.06916959583759308, -0.039954494684934616, -0.25907179713249207, 0.09334705770015717, -0.34772810339927673 },
			{ -0.15578605234622955, 0.4332313537597656, -0.3666994869709015, -0.460394024848938, 0.3863309323787689, 0.31175220012664795, -0.14708098769187927, 0.06032553315162659, -0.11762042343616486, -0.23734959959983826 },
			{ -0.08341040462255478, 0.15804430842399597, -0.06409601122140884, -0.19629012048244476, 0.2510622441768646, 0.2787831723690033, -0.10846170037984848, 0.1225866973400116, -0.038402359932661057, -0.37737196683883667 },
			{ 0.024727871641516685, 0.06733514368534088, 0.10434084385633469, -0.015972523018717766, -0.1060425341129303, 0.02889975532889366, 0.004267922602593899, 0.011042733676731586, 0.03479473665356636, -0.0672847181558609 },
			{ -0.028678791597485542, -0.05500389635562897, -0.054445795714855194, -0.0728301927447319, 0.05687829107046127, -0.053881239145994186, -0.0893813818693161, 0.021829230710864067, 0.07294008135795593, -0.022851487621665 },
