/*
 * This file is auto-generated by gen-weights.py
 */

#pragma once

#include "definitions.h"


// Dense layer weights.
float dense_weights[FLAT_SIZE][DENSE_SIZE]
	 = {
			{ -0.0023739447351545095, 0.008396082557737827, 0.058292124420404434, 0.005193361546844244, -0.06864967197179794, -0.002660028636455536, -0.052752040326595306, 0.04123694449663162, 0.059172097593545914, 0.05675559863448143 },
			{ -0.013411682099103928, 0.06996183842420578, -0.009989370591938496, 0.020743589848279953, 0.05209702253341675, 0.030461490154266357, -0.06785186380147934, 0.07489723712205887, -0.07267920672893524, 0.06612242758274078 },
			{ 0.030317235738039017, 0.030626295134425163, -0.06079892814159393, 0.07858072966337204, 0.035937048494815826, 0.045594364404678345, -0.07575955241918564, 0.07972249388694763, -0.01502265315502882, -0.02708253264427185 },
			{ -0.06678960472345352, 0.02865365520119667, -0.0023428306449204683, -0.03434280678629875, -0.04245545715093613, -0.058134160935878754, 0.025647157803177834, 0.06773941218852997, -0.03933434188365936, -0.06978390365839005 },
			{ -0.10042021423578262, -0.05999762564897537, 0.120102658867836, -0.04595670476555824, -0.2035769671201706, 0.028386473655700684, 0.0786384716629982, 0.06320498138666153, -0.024960847571492195, -0.08892210572957993 },
			{ 0.01295650377869606, 0.02716115675866604, 0.20073217153549194, -0.06985808163881302, -0.18302486836910248, -0.12148544192314148, 0.11160942912101746, 0.07566358149051666, 0.017295734956860542, -0.045539967715740204 },
			{ -0.08136620372533798, -0.04171108454465866, 0.17650911211967468, 0.04280034080147743, -0.14626041054725647, -0.03697342425584793, 0.08383544534444809, 0.016090862452983856, -0.08717535436153412, -0.025512492284178734 },
			{ -0.17182935774326324, 0.2928466796875, -0.014517031610012054, -0.03812016174197197, -0.18967874348163605, -0.12376600503921509, 0.10287172347307205, -0.04326046630740166, 0.0006749709136784077, -0.06107453256845474 },
			{ -0.0666373074054718, 0.07589424401521683, -0.023188116028904915, 0.015591269358992577, -0.23027995228767395, 0.016557669267058372, 0.14163736999034882, -0.08213884383440018, -0.03275663033127785, -0.11567039787769318 },
			{ -0.07227931916713715, 0.09999256581068039, -0.06970704346895218, -0.05183835327625275, -0.021462587639689445, 0.1010325476527214, 0.1382635235786438, -0.07389502227306366, 0.040392499417066574, -0.030462877824902534 },
			{ -0.03763314336538315, 0.11189780384302139, -0.1553281843662262, 0.05801595002412796, -0.04865757003426552, 0.07086484879255295, 0.11291605979204178, -0.03533797338604927, -0.04454803094267845, -0.058845024555921555 },
			{ 0.054481811821460724, 0.07956885546445847, 0.026052678003907204, -0.040590956807136536, -0.019001293927431107, -0.02402065508067608, 0.04004264995455742, -0.056865423917770386, 0.027841858565807343, 0.08486532419919968 },
			{ 0.016208596527576447, 0.07455731183290482, -0.003889533458277583, -0.005784330889582634, -0.068937286734581, -0.03844273462891579, 0.08090409636497498, -0.04476107284426689, -0.07194825261831284, -0.07984891533851624 },
			{ -0.016534024849534035, 0.06614606082439423, 0.08071078360080719, 0.0315222442150116, -0.03628392890095711, 0.06500061601400375, 0.025493130087852478, 0.019060952588915825, 0.07189394533634186, 0.06570953875780106 },
			{ -0.05602189898490906, -0.041461337357759476, -0.0044094715267419815, -0.03707657381892204, 0.023404177278280258, -0.07960103452205658, 0.027960119768977165, 0.04222247377038002, 0.04705089330673218, -0.044796571135520935 },
			{ -0.07139132171869278, -0.022004984319210052, -0.058389127254486084, -0.021829556673765182, -0.021513156592845917, 0.04790356382727623, -0.06103670224547386, 0.007107440382242203, 0.02750556915998459, 0.027891188859939575 },
			{ -0.02913413569331169, 0.06977962702512741, -0.14193980395793915, 0.11637768149375916, 0.07445163279771805, -0.11818864196538925, 0.07045242935419083, 0.07645091414451599, 0.023116379976272583, 0.04988609999418259 },
			{ 0.024899616837501526, -0.07159069180488586, 0.131672203540802, 0.08328264951705933, 0.0978628396987915, -0.19883723556995392, -0.09992392361164093, 0.001457630773074925, -0.010597694665193558, 0.04324953258037567 },
			{ 0.11464260518550873, -0.07178831100463867, 0.15219901502132416, 0.027785148471593857, -0.03509595990180969, -0.15507635474205017, -0.0010436645243316889, -0.043777331709861755, 0.12653273344039917, -0.11191458255052567 },
			{ 0.0609278567135334, -0.14608603715896606, 0.32189109921455383, 0.07012544572353363, -0.22329017519950867, -0.016149790957570076, 0.010461858473718166, -0.16753681004047394, 0.05383073911070824, 0.007931171916425228 },
			{ 0.029469821602106094, -0.17247553169727325, 0.17348428070545197, 0.10649911314249039, 0.022893069311976433, -0.15954455733299255, -0.3310236930847168, -0.2007143497467041, 0.06375662237405777, 0.14874131977558136 },
			{ -0.06567621976137161, -0.027865419164299965, 0.17134690284729004, 0.13665439188480377, -0.08815911412239075, 0.1332244724035263, -0.19753402471542358, -0.11711197346448898, 0.17205701768398285, 0.05238454416394234 },
			{ 0.0593305304646492, -0.18215136229991913, 0.2653951346874237, 0.11497711390256882, -0.016081666573882103, 0.035101521760225296, -0.17484231293201447, -0.16881702840328217, -0.08208383619785309, -0.02758404240012169 },
			{ 0.0670115202665329, 0.03411062806844711, 0.16284729540348053, 0.04020405560731888, -0.07884401082992554, -0.12615853548049927, -0.14189089834690094, -0.2542054057121277, 0.06633374094963074, 0.04016155004501343 },
			{ -0.025304047390818596, 0.0670885443687439, 0.11506194621324539, 0.0830552726984024, -0.013064847327768803, 0.012744160369038582, 0.13296107947826385, -0.12320142239332199, -0.03337464481592178, -0.06920675933361053 },
			{ -0.06111251190304756, -0.12428373843431473, -0.23797836899757385, -0.011651658453047276, 0.18508225679397583, 0.13760285079479218, 0.23775172233581543, -0.03499050438404083, -0.11118996143341064, -0.09608568996191025 },
			{ -0.045554060488939285, -0.06874854117631912, -0.1132490262389183, 0.01161320973187685, 0.11438973248004913, 0.015489772893488407, 0.04269794002175331, -0.008717809803783894, 0.013369977474212646, 0.043834343552589417 },
			{ 0.016356192529201508, 0.07647359371185303, 0.006629279348999262, 0.04724111035466194, 0.056463923305273056, 0.06917694211006165, 0.005931217689067125, 0.03499175235629082, 0.029775341972708702, -0.07290933281183243 },
			{ -0.03966881334781647, 0.0009894483955577016, 0.01773553155362606, -0.06398660689592361, 0.08486467599868774, 0.0691210925579071, -0.06163126975297928, -0.016396114602684975, -0.04402254894375801, -0.07158069312572479 },
			{ 0.0272920411080122, 0.02053787000477314, -0.08454891294240952, 0.04303153604269028, -0.06480295956134796, 0.008107037283480167, 0.0343744195997715, 0.058685146272182465, 0.03205004706978798, -0.012169970199465752 },
			{ 0.0032898331992328167, 0.009208961389958858, 0.01407629158347845, 0.09165236353874207, -0.0112156355753541, -0.005476520862430334, 0.13721005618572235, -0.07489749789237976, -0.0423373244702816, -0.14443957805633545 },
			{ -0.04142192378640175, 0.044903408735990524, 0.15602178871631622, -0.043245069682598114, -0.028544681146740913, -0.06924740970134735, -0.06885609030723572, 0.023223675787448883, -0.03813529759645462, -0.0022112480364739895 },
			{ -0.1452377587556839, 0.0015003167791292071, 0.3563612997531891, 0.250225692987442, 0.010475333780050278, -0.3373403549194336, -0.2183891087770462, 0.10985422879457474, -0.1134362444281578, 0.15510591864585876 },
			{ 0.0710250586271286, -0.022502301260828972, 0.1585373878479004, 0.2663974165916443, -0.27823033928871155, -0.06113917753100395, -0.43097448348999023, 0.14695005118846893, -0.030556384474039078, 0.14327682554721832 },
			{ -0.17798590660095215, -0.19319669902324677, -0.12479042261838913, 0.3436591923236847, -0.1659044474363327, 0.15591928362846375, -0.44131380319595337, 0.26025423407554626, 0.14643870294094086, 0.2186950147151947 },
			{ -0.08049733191728592, -0.12257092446088791, 0.32300761342048645, 0.1618552803993225, -0.40999072790145874, 0.06372107565402985, -0.37779945135116577, 0.1324465572834015, 0.052802808582782745, 0.3440471887588501 },
			{ 0.18174400925636292, -0.11270561814308167, 0.1765127032995224, 0.09351681172847748, -0.6595743298530579, 0.16711530089378357, -0.0073298076167702675, 0.09523341059684753, 0.0084464680403471, 0.18373116850852966 },
			{ 0.07587964832782745, -0.25174352526664734, 0.010672776028513908, 0.06451699882745743, -0.2656726539134979, 0.05573055148124695, -0.13171976804733276, -0.03599248453974724, 0.16553790867328644, 0.40439295768737793 },
			{ 0.14775174856185913, -0.20988497138023376, -0.014497022144496441, 0.02749757654964924, -0.2544412612915039, -0.027131332084536552, 0.046554844826459885, 0.0027806770522147417, 0.04816548526287079, 0.15432462096214294 },
			{ 0.2673056125640869, -0.15336275100708008, -0.100433349609375, 0.05089794471859932, -0.17722129821777344, 0.11373972147703171, 0.03922239691019058, -0.15203377604484558, 0.199048712849617, 0.07269643247127533 },
			{ -0.10391772538423538, -0.12769323587417603, -0.1497996747493744, 0.14021426439285278, -0.022408604621887207, 0.29250702261924744, 0.2689272463321686, -0.1691713035106659, -0.011328739114105701, -0.077186219394207 },
			{ -0.06636876612901688, -0.019499685615301132, 0.03569641709327698, 0.00581347057595849, -0.08406340330839157, 0.03901756554841995, 0.04783669859170914, 0.01255926676094532, -0.008610325865447521, -0.008791149593889713 },
			{ -0.06865109503269196, -0.08290205150842667, 0.052773572504520416, 0.07379932701587677, 0.03583517670631409, -0.0505603551864624, -0.021582331508398056, -0.012972294352948666, 0.029222765937447548, -0.010860259644687176 },
			{ -0.08954062312841415, -0.010733353905379772, 0.0032898772042244673, 0.0025624893605709076, 0.06328719854354858, -0.04733462259173393, 0.01275550201535225, 0.13925044238567352, -0.01645180955529213, 0.006408214569091797 },
			{ -0.08802326768636703, 0.0434957891702652, 0.12481072545051575, 0.1330655813217163, 0.29978203773498535, -0.17918120324611664, -0.07611314952373505, 0.18936505913734436, -0.043311379849910736, -0.30287477374076843 },
			{ -0.045680832117795944, -0.030651023611426353, 0.0848260223865509, 0.12602181732654572, 0.06960508227348328, -0.17925450205802917, -0.26375654339790344, 0.07443659007549286, 0.082306407392025, -0.08504040539264679 },
			{ 0.13850097358226776, 0.20889480412006378, 0.14503727853298187, 0.2374526858329773, -0.20409981906414032, -0.0941414162516594, -0.22839635610580444, 0.3922716975212097, -0.34070101380348206, -0.04201230779290199 },
			{ -0.32946059107780457, 0.06443026661872864, 0.3043757677078247, 0.47997817397117615, -0.15748330950737, 0.18454262614250183, -0.6235738396644592, 0.41978779435157776, -0.07293334603309631, -0.199732705950737 },
			{ -0.02044125273823738, -0.08668239414691925, 0.11829255521297455, 0.17031356692314148, -0.31362807750701904, 0.19536565244197845, -0.5970786809921265, 0.3849390149116516, 0.06646203994750977, 0.0677882730960846 },
			{ 0.14810018241405487, -0.2853921949863434, 0.21677705645561218, 0.2361980825662613, -0.5758413672447205, 0.26782098412513733, -0.6224830746650696, 0.09632454067468643, -0.0178587194532156, 0.3164868652820587 },
			{ 0.21744655072689056, -0.3793564736843109, 0.17553187906742096, 0.10536714643239975, -0.35713160037994385, 0.007334304507821798, -0.19946908950805664, 0.05575277656316757, -0.06584202498197556, 0.2194678634405136 },
			{ 0.1733737736940384, 0.034184470772743225, -0.14079947769641876, -0.1095672994852066, -0.3819819390773773, 0.27411213517189026, -0.0765526220202446, 0.21408143639564514, 0.24532631039619446, 0.13102129101753235 },
			{ 0.28108498454093933, -0.11408471316099167, -0.3302631676197052, -0.0754890888929367, -0.2487214058637619, 0.38665929436683655, 0.17105787992477417, -0.039557695388793945, 0.09199441224336624, -0.07658021152019501 },
			{ 0.07901779562234879, -0.16000628471374512, -0.3883563280105591, -0.07205748558044434, -0.09544220566749573, 0.06500549614429474, 0.15262256562709808, 0.10535426437854767, 0.27171868085861206, 0.30571499466896057 },
			{ 0.22731903195381165, -0.2284795492887497, -0.29733845591545105, -0.11171649396419525, 0.11847718805074692, 0.2682912349700928, -0.15529103577136993, -0.06712885946035385, -0.03359609097242355, 0.1256386786699295 },
			{ 0.02571411244571209, -0.01767014153301716, 0.03376610204577446, 0.061378754675388336, 0.14309759438037872, 0.1342114806175232, -0.09531927108764648, -0.09008819609880447, -0.09542950242757797, 0.029807748273015022 },
			{ -0.06312407553195953, 0.07847266644239426, 0.07130835205316544, -0.058792173862457275, 0.05416378378868103, 0.010523754172027111, 0.08003624528646469, -0.03971977159380913, -0.021009797230362892, 0.0328795425593853 },
			{ -0.0751134380698204, -0.007463091518729925, 0.0002551707439124584, 0.04361792653799057, -0.004672277253121138, -0.06465179473161697, -0.01093397568911314, 0.15570196509361267, 0.08375278860330582, -0.13733379542827606 },
			{ -0.09923567622900009, -0.02891208417713642, 0.05776643753051758, -0.09900142252445221, 0.17931470274925232, -0.12394239753484726, -0.07402003556489944, 0.3269585072994232, -0.07075894623994827, -0.27192896604537964 },
			{ 0.043052833527326584, -0.05884663388133049, 0.2223552167415619, 0.0977005586028099, -0.030575532466173172, -0.24783822894096375, -0.20405665040016174, 0.3992534577846527, -0.07827223837375641, -0.2535175383090973 },
			{ 0.1569788008928299, 0.21795637905597687, -0.08092840760946274, 0.06895200908184052, -0.027336664497852325, -0.010133343748748302, -0.42253825068473816, 0.6457019448280334, -0.13057276606559753, -0.361328661441803 },
			{ -0.0520126149058342, 0.17387762665748596, -0.004515122622251511, 0.3526724576950073, -0.26237308979034424, -0.04515121877193451, -0.6760009527206421, 0.5040193796157837, 0.1557532101869583, -0.3503430485725403 },
			{ -0.10715292394161224, -0.1681445837020874, 0.04781166464090347, 0.062017448246479034, -0.544106662273407, 0.13890066742897034, -0.40357568860054016, 0.3129187524318695, 0.20822587609291077, 0.2985142171382904 },
			{ -0.10793201625347137, -0.285334974527359, 0.21311983466148376, 0.20636959373950958, -0.5084498524665833, 0.10909918695688248, -0.14326901733875275, -0.04295012727379799, 0.2946937680244446, 0.30042314529418945 },
			{ 0.24542909860610962, -0.46460941433906555, -0.05865451321005821, 0.0991438776254654, -0.4865191876888275, 0.3849790096282959, 0.06094560772180557, -0.09452361613512039, -0.11768712103366852, 0.11995695531368256 },
			{ 0.20591774582862854, -0.260028600692749, -0.1975022554397583, -0.22879119217395782, -0.5395962595939636, 0.6217854022979736, 0.27903831005096436, 0.08103232830762863, 0.07059918344020844, 0.04349854961037636 },
			{ -0.15409702062606812, -0.14775611460208893, -0.3297007977962494, -0.4629741609096527, -0.23619328439235687, 0.561836302280426, 0.5076254606246948, -0.05972883850336075, 0.11227716505527496, 0.18852470815181732 },
			{ -0.04900648072361946, -0.13753394782543182, -0.311027854681015, 0.08145687729120255, -0.0601489394903183, 0.1564205437898636, 0.18569053709506989, 0.019116654992103577, 0.20337951183319092, -0.05580452084541321 },
			{ 0.07987464219331741, -0.11340851336717606, -0.07795952260494232, 0.06494365632534027, -0.10480209439992905, 0.511347234249115, -0.2507359981536865, 0.14284414052963257, -0.0300589706748724, -0.19077123701572418 },
			{ 0.022375335916876793, -0.08721955120563507, -0.011937369592487812, 0.04591596871614456, -0.08238682150840759, 0.15002179145812988, -0.0651576966047287, 0.02085389569401741, 0.01216054242104292, 0.024366172030568123 },
			{ -0.03403833881020546, 0.051062390208244324, 0.01515109185129404, -0.06331948190927505, 0.042415156960487366, -0.04057757183909416, 0.05884990096092224, 0.011448336765170097, 0.07224885374307632, -0.07317184656858444 },
			{ -0.012966024689376354, 0.005534425377845764, -0.059085164219141006, 0.08120708912611008, 0.0015976008726283908, 0.02760765329003334, -0.027027439326047897, 0.11872082203626633, -0.043357789516448975, -0.07871874421834946 },
			{ -0.10406015813350677, -0.005806048400700092, 0.1883849948644638, 0.18151560425758362, -0.10076700150966644, -0.25603896379470825, -0.08230860531330109, 0.19112811982631683, -0.12465915083885193, -0.001341101829893887 },
			{ -0.15403221547603607, -0.0478135347366333, 0.24507921934127808, 0.03913632407784462, -0.008045753464102745, -0.14426489174365997, -0.35022011399269104, 0.5146748423576355, -0.05665551871061325, -0.3834387958049774 },
			{ -0.07297519594430923, 0.031192751601338387, 0.3316458463668823, -0.3054744005203247, 0.20990654826164246, -0.004611706826835871, -0.504987359046936, 0.5355208516120911, 0.20995527505874634, -0.2385227531194687 },
			{ -0.24567687511444092, -0.06513576954603195, 0.22598135471343994, 0.14622677862644196, -0.16274183988571167, 0.16222520172595978, -0.317975252866745, 0.41058632731437683, 0.07762125879526138, 0.013119923882186413 },
			{ -0.3833191394805908, -0.21093671023845673, 0.1341056525707245, -0.002257575048133731, 0.11781223863363266, 0.1636187881231308, -0.47071197628974915, -0.0782366394996643, 0.4761582314968109, 0.3381103575229645 },
			{ -0.20671197772026062, -0.35453465580940247, -0.08974740654230118, 0.12516367435455322, -0.28005173802375793, 0.40765437483787537, 0.2924393117427826, -0.15476448833942413, 0.34626704454421997, -0.06891084462404251 },
			{ -0.003521583741530776, -0.35950154066085815, -0.3277518153190613, 0.3110417127609253, -0.4115358293056488, 0.5059170722961426, 0.42272546887397766, -0.26328882575035095, 0.09742015600204468, 0.22529752552509308 },
			{ -0.05238860100507736, -0.43591994047164917, -0.1768503189086914, 0.08562970906496048, -0.3572656512260437, 0.6464625597000122, 0.3821001350879669, 0.08765866607427597, -0.1466793268918991, 0.2800668179988861 },
			{ -0.11376574635505676, 0.0109725845977664, -0.4916743040084839, -0.1281958967447281, -0.05707436427474022, 0.6653205752372742, 0.3629962205886841, -0.09895529597997665, -0.04410967603325844, -0.009124565869569778 },
			{ 0.007553525734692812, 0.07234472036361694, -0.34084686636924744, -0.2426466941833496, 0.1804552972316742, 0.2654156982898712, 0.17114046216011047, 0.03841528296470642, -0.19596701860427856, 0.12752877175807953 },
			{ 0.1922997236251831, 0.016902999952435493, -0.03730083629488945, -0.1461007297039032, -0.10227686911821365, 0.07661198824644089, 0.08255527168512344, -0.25621846318244934, 0.14950522780418396, 0.04411379247903824 },
			{ -0.008287591859698296, -0.09253344684839249, 0.19625133275985718, 0.020159007981419563, 0.04561971127986908, 0.12879735231399536, -0.038132186979055405, -0.08779779076576233, 0.03456635773181915, -0.0820358544588089 },
			{ -0.062574602663517, 0.08483249694108963, 0.0008080670959316194, -0.047077469527721405, -0.004728060215711594, 0.06519765406847, 0.0692867785692215, 0.026800693944096565, 0.05919364094734192, 0.041496336460113525 },
			{ -0.039219725877046585, 0.047522250562906265, 0.054194360971450806, 0.09601256996393204, 0.09108676016330719, 0.04269390180706978, 0.009792212396860123, 0.02318846620619297, -0.06342528015375137, -0.053025152534246445 },
			{ -0.10245991498231888, 0.0628395602107048, 0.2576121985912323, 0.3293464481830597, -0.10819719731807709, -0.16325734555721283, -0.09888069331645966, 0.09181921184062958, -0.25708144903182983, -0.01761253923177719 },
			{ -0.1121230348944664, 0.025409717112779617, 0.3017992377281189, 0.1467161625623703, -0.25065669417381287, -0.0609293207526207, -0.3336316645145416, 0.017958173528313637, 0.25542041659355164, -0.11240100115537643 },
			{ -0.046419739723205566, 0.07822204381227493, 0.42451223731040955, -0.07013493031263351, -0.033719781786203384, -0.03957364335656166, -0.742460310459137, 0.01512121967971325, 0.3258719742298126, 0.11359021067619324 },
			{ -0.2564108669757843, -0.28708669543266296, 0.43597736954689026, -0.11507359147071838, 0.1181584969162941, 0.0063361539505422115, -0.4403206408023834, 0.17203989624977112, 0.2311171442270279, 0.14445611834526062 },
			{ -0.3970673978328705, -0.6472147703170776, 0.06643975526094437, -0.12908326089382172, 0.11009491980075836, 0.27564844489097595, -0.13775643706321716, 0.0267386082559824, 0.40986934304237366, 0.3857194483280182 },
			{ -0.4106545150279999, -0.3895646631717682, 0.07213553041219711, 0.25967341661453247, 0.22238218784332275, 0.41871488094329834, 0.3463616967201233, -0.5954967737197876, 0.15627197921276093, -0.17462599277496338 },
			{ -0.4217367172241211, -0.21994024515151978, 0.058568477630615234, 0.13621436059474945, -0.04603029787540436, 0.4584873914718628, 0.4910043776035309, -0.31491437554359436, -0.058985088020563126, 0.03531801700592041 },
			{ -0.287614643573761, -0.24976445734500885, -0.5417298078536987, 0.3568311035633087, 0.11098930239677429, 0.3176375925540924, 0.16390080749988556, -0.05561947077512741, 0.01418292336165905, -0.058225736021995544 },
			{ -0.4143962562084198, -0.1191786602139473, -0.2577112913131714, 0.19115900993347168, -0.04958103969693184, 0.47084373235702515, 0.3332253694534302, 0.04805559292435646, 0.056812893599271774, -0.339977502822876 },
			{ -0.172474205493927, -0.06155720725655556, -0.010357518680393696, 0.041396450251340866, 0.26465627551078796, 0.1954590082168579, 0.18516573309898376, -0.11240838468074799, 0.03472457081079483, -0.2729901671409607 },
			{ -0.22371987998485565, 0.002593033481389284, 0.22695602476596832, 0.09084354341030121, 0.0013963475357741117, 0.15018726885318756, 0.09567712992429733, -0.16513033211231232, -0.3153141140937805, -0.22079795598983765 },
			{ 0.017259452491998672, -0.04311095178127289, 0.18529602885246277, 0.052640073001384735, 0.008318144828081131, 0.03521512821316719, -0.009029185399413109, 0.054339684545993805, -0.1478792428970337, -0.07716735452413559 },
			{ -0.06357290595769882, -0.038510676473379135, 0.0576932430267334, -0.03828565776348114, -0.059635769575834274, 0.040009982883930206, -0.009791028685867786, -0.057112302631139755, -0.07194966822862625, 0.07114605605602264 },
			{ 0.00039762628148309886, 0.04375183954834938, 0.04748228192329407, 0.07840291410684586, -0.029338549822568893, -0.05486031249165535, 0.02446400374174118, -0.055473193526268005, -0.06387671828269958, -0.06281107664108276 },
			{ -0.2899108827114105, -0.04334007203578949, 0.1708519160747528, 0.3513564467430115, -0.15234610438346863, 0.3431052267551422, -0.2567821741104126, -0.17469348013401031, 0.01704067923128605, -0.20439064502716064 },
			{ -0.370303213596344, -0.1547555774450302, 0.19045408070087433, 0.25070589780807495, -0.023710427805781364, 0.6384866833686829, -0.16699089109897614, -0.28723445534706116, 0.008844086900353432, -0.25640130043029785 },
			{ -0.2903539538383484, 0.0057821087539196014, 0.24365374445915222, 0.22619932889938354, 0.03130101412534714, 0.17451585829257965, -0.5117006897926331, 0.20779457688331604, 0.025971874594688416, 0.09357815980911255 },
			{ -0.32798194885253906, -0.3003218173980713, -0.15507780015468597, -0.08923804014921188, 0.2212168574333191, 0.34314820170402527, -0.5995979309082031, 0.03723355010151863, 0.35262438654899597, 0.42781996726989746 },
			{ -0.3336728513240814, -0.8124935030937195, 0.10728814452886581, 0.2903788089752197, 0.47677698731422424, 0.18005970120429993, -0.05768212676048279, -0.058933109045028687, 0.10825745016336441, 0.2879428267478943 },
			{ 0.0956377238035202, -0.45052358508110046, 0.08713836967945099, 0.10898640006780624, 0.14853966236114502, 0.125334233045578, 0.3516746461391449, -0.23132231831550598, 0.05751027166843414, -0.16396906971931458 },
			{ 0.008853205479681492, -0.48432457447052, 0.04821193218231201, 0.17707069218158722, 0.008596005849540234, 0.12075114995241165, 0.09378429502248764, 0.07776886969804764, 0.09546635299921036, -0.25092795491218567 },
			{ -0.2362494170665741, -0.1915709376335144, -0.298092782497406, 0.52093505859375, 0.22963367402553558, 0.09504459798336029, 0.15579938888549805, 0.1687590330839157, 0.024561867117881775, -0.2460150122642517 },
			{ -0.14327384531497955, -0.16848339140415192, -0.12860675156116486, -0.09073004126548767, 0.10402041673660278, 0.19966252148151398, 0.2325047105550766, 0.10162820667028427, 0.10047972202301025, -0.32497307658195496 },
			{ -0.31554487347602844, 0.005958041176199913, 0.2423313558101654, 0.18234533071517944, -0.15430563688278198, 0.1287645399570465, 0.2963404357433319, -0.06338005512952805, 0.13792045414447784, -0.2673892676830292 },
			{ -0.08956154435873032, 0.00023443925601895899, 0.3648834526538849, -0.09968263655900955, -0.014128591865301132, 0.09765344858169556, -0.05241721123456955, -0.20754298567771912, 0.16698798537254333, -0.1886560618877411 },
			{ -0.022158872336149216, 0.06787081062793732, 0.1764075607061386, -0.027164123952388763, -0.039696309715509415, -0.0420948751270771, 0.1737506240606308, -0.15475666522979736, -0.09579269587993622, 0.012039832770824432 },
			{ -0.004105058498680592, 0.0755581185221672, 0.0745965987443924, 0.05918997526168823, 0.05253348499536514, 0.06769776344299316, -0.020192071795463562, -0.05610804259777069, -0.03926593065261841, 0.05148841068148613 },
			{ 0.03895819932222366, -0.08793028444051743, 0.12772038578987122, 0.12878650426864624, 0.005315737798810005, 0.06034064292907715, -0.034484244883060455, 0.02202651835978031, 0.05017440393567085, -0.08077514171600342 },
			{ -0.16814802587032318, -0.11626287549734116, 0.08721064031124115, 0.2744891345500946, 0.0009765655267983675, 0.4356679320335388, -0.12867052853107452, -0.13877223432064056, -0.011402906849980354, -0.2941274642944336 },
			{ -0.09330476075410843, -0.13806213438510895, 0.027291473001241684, 0.2554258704185486, -0.21753382682800293, 0.7114341855049133, -0.06630439311265945, -0.3654574751853943, -0.21325942873954773, 0.17699675261974335 },
			{ -0.04223993420600891, -0.014498327858746052, -0.14247669279575348, 0.530394434928894, -0.01663081906735897, 0.34270012378692627, -0.25914159417152405, -0.1324734389781952, -0.5862151980400085, 0.1986047327518463 },
			{ -0.23083454370498657, -0.3585643470287323, -0.1466645747423172, 0.5856176018714905, -0.021811865270137787, 0.46443670988082886, -0.5666094422340393, -0.17402775585651398, -0.13790304958820343, 0.42473727464675903 },
			{ -0.045970238745212555, -0.5100576877593994, 0.12108367681503296, 0.13742326200008392, 0.30999407172203064, 0.07946580648422241, 0.004815433174371719, -0.136956587433815, -0.060239266604185104, 0.17284151911735535 },
			{ -0.08339451253414154, -0.034031353890895844, -0.02879885584115982, 0.01454244740307331, 0.17580294609069824, 0.10233837366104126, 0.3081468641757965, -0.06803002953529358, -0.1687360405921936, -0.08062123507261276 },
			{ 0.0455988347530365, -0.5191659331321716, -0.15623588860034943, 0.4425143599510193, -0.11966268718242645, 0.12839268147945404, 0.2117658406496048, 0.0962609127163887, 0.16885370016098022, -0.5345016121864319 },
			{ -0.19126223027706146, -0.05395456403493881, -0.004620345309376717, 0.008954009972512722, 0.014011206105351448, 0.0025324285961687565, 0.28677648305892944, 0.22895930707454681, 0.2712782621383667, -0.7268236875534058 },
			{ -0.11459596455097198, 0.2554931640625, 0.23366636037826538, -0.08918336033821106, -0.017047958448529243, 0.01030042115598917, 0.10949262976646423, -0.011808451265096664, 0.2115817666053772, -0.44765591621398926 },
			{ -0.3008878231048584, 0.21583662927150726, 0.49371644854545593, -0.2804693579673767, -0.08938898891210556, 0.055670130997896194, 0.04170836880803108, 0.03578086569905281, 0.17823848128318787, -0.11157941073179245 },
			{ -0.23654700815677643, 0.12504658102989197, 0.18588164448738098, -0.15973345935344696, 0.08796530216932297, 0.14447717368602753, 0.10496604442596436, -0.04626501351594925, -0.14364394545555115, -0.1642742156982422 },
			{ 0.0038200444541871548, 0.04452507197856903, 0.24289114773273468, -0.04555225372314453, -0.09907879680395126, -0.08576653152704239, 0.00814734399318695, 0.058656807988882065, 0.036576997488737106, 0.06775563955307007 },
			{ -0.05640283599495888, 0.010709822177886963, -0.04906439036130905, -0.05584445595741272, 0.03892257437109947, 0.03400472179055214, 0.03344399854540825, 0.07077662646770477, 0.021842772141098976, 0.0652465969324112 },
			{ -0.1394406408071518, -0.006775924935936928, 0.13529331982135773, 0.12966831028461456, 0.017412053421139717, 0.054846055805683136, 0.01049352902919054, 0.05254411697387695, -0.0953250303864479, -0.1769210249185562 },
			{ -0.20766368508338928, -0.0998087078332901, 0.037051793187856674, 0.35128629207611084, 0.07509005814790726, 0.4417060911655426, -0.019162220880389214, -0.07955072820186615, -0.2981685400009155, -0.19303172826766968 },
			{ -0.12715671956539154, 0.026209013536572456, -0.057000767439603806, 0.4199935793876648, -0.04121159389615059, 0.5515470504760742, -0.14818748831748962, -0.18808548152446747, -0.49788638949394226, -0.08145032823085785 },
			{ -0.1471116989850998, 0.08486217260360718, -0.34572118520736694, 0.26048874855041504, -0.13694995641708374, 0.44197773933410645, -0.02008979767560959, -0.10284610837697983, -0.28153738379478455, 0.3680039942264557 },
			{ -0.22940172255039215, 0.2646128833293915, 0.07272376865148544, 0.3022471070289612, -0.2557309567928314, 0.30802246928215027, -0.03452359512448311, -0.3552823066711426, -0.5231013894081116, 0.4316970109939575 },
			{ 0.05876273289322853, 0.03806305676698685, -0.27633270621299744, 0.38581669330596924, 0.10532373189926147, 0.23452618718147278, 0.040580932050943375, -0.16190850734710693, -0.3412151038646698, -0.18272338807582855 },
			{ 0.14018875360488892, -0.16158097982406616, 0.0605725459754467, 0.3704474866390228, -0.017888061702251434, 0.05092358589172363, 0.035741448402404785, -0.2039453089237213, -0.050098977982997894, -0.24136485159397125 },
			{ 0.03447980433702469, -0.05365607142448425, 0.3736812472343445, 0.261670857667923, 0.2796286642551422, 0.042810987681150436, 0.23183266818523407, -0.7938242554664612, -0.027927132323384285, -0.36077746748924255 },
			{ 0.12672267854213715, 0.21610453724861145, 0.18693062663078308, -0.20135527849197388, -0.15191344916820526, -0.27221450209617615, -0.03562624007463455, 0.16583389043807983, 0.06965325772762299, -0.2464686930179596 },
			{ -0.2663816511631012, 0.2992798686027527, 0.436347633600235, -0.1979532539844513, -0.05154383182525635, -0.11715839058160782, 0.15042902529239655, -0.04544288292527199, -0.016502466052770615, -0.04670314863324165 },
			{ -0.18039008975028992, 0.15576352179050446, 0.41260474920272827, -0.4421752095222473, 0.12685124576091766, -0.15198853611946106, 0.1761431246995926, -0.00803755410015583, -0.2985495328903198, 0.03274710476398468 },
			{ -0.15895667672157288, 0.1366758644580841, 0.19471623003482819, -0.09023544937372208, -0.10027225315570831, 0.042146921157836914, -0.08076049387454987, -0.04321514070034027, -0.15471012890338898, 0.16735012829303741 },
			{ -0.08363856375217438, 0.07236866652965546, 0.04848464950919151, 0.01445348933339119, -0.023182937875390053, -0.05722189322113991, 0.020091114565730095, 0.0685887336730957, 0.00062191067263484, 0.08283498883247375 },
			{ 0.01668640226125717, 0.034634560346603394, 0.07865073531866074, -0.057433679699897766, -0.032858140766620636, -0.05739776790142059, 0.07773618400096893, -0.05049263313412666, -0.029731519520282745, -0.026035459712147713 },
			{ -0.08688512444496155, 0.14652656018733978, -0.08045841753482819, 0.018235379830002785, 0.014279325492680073, -0.00924395676702261, -0.01675383187830448, -0.11410558223724365, -0.04950428754091263, -0.02570442296564579 },
			{ -0.13688969612121582, 0.4320158064365387, -0.2608466148376465, 0.18573974072933197, -0.08001674711704254, 0.2306775599718094, 0.044345203787088394, -0.07090678066015244, -0.2951327860355377, -0.04390916973352432 },
			{ -0.17462772130966187, 0.23850439488887787, -0.3637556731700897, 0.3843626081943512, -0.05124879255890846, 0.39833518862724304, -0.19130238890647888, -0.1220260038971901, -0.08208733797073364, 0.12512443959712982 },
			{ -0.035797201097011566, 0.027463890612125397, 0.01792047545313835, 0.22236448526382446, -0.22534918785095215, 0.3264603912830353, -0.0899645984172821, -0.33217254281044006, -0.010417341254651546, 0.3211321532726288 },
			{ 0.045817580074071884, 0.15260890126228333, -0.08410020172595978, 0.4133702218532562, -0.5143368244171143, 0.12001999467611313, 0.10831336677074432, -0.33492937684059143, -0.012836471199989319, 0.0836733728647232 },
			{ 0.21686357259750366, -0.06736808270215988, -0.09520981460809708, 0.07862169295549393, -0.3834403455257416, 0.16779474914073944, 0.22662228345870972, -0.5076367855072021, 0.2188103199005127, 0.025645939633250237 },
			{ 0.34603825211524963, -0.12377571314573288, 0.03705141320824623, 0.09255028516054153, -0.6234083771705627, 0.13812215626239777, 0.17880968749523163, -0.2838011085987091, 0.1450996696949005, 0.14878275990486145 },
			{ 0.15377405285835266, -0.06830182671546936, 0.02577577717602253, 0.14086711406707764, -0.4194251596927643, 0.1764020025730133, 0.3315095901489258, -0.27497902512550354, -0.005487616639584303, -0.26613765954971313 },
			{ -0.2377072423696518, 0.15492026507854462, 0.6264085173606873, 0.005245268810540438, -0.10113795846700668, -0.07766801863908768, 0.1919526755809784, -0.03552304953336716, -0.09323640912771225, -0.5974372625350952 },
			{ 0.022570587694644928, 0.39061763882637024, 0.5115514397621155, -0.3510691821575165, -0.0949413999915123, -0.21571947634220123, 0.034702010452747345, -0.05062125250697136, -0.0622703917324543, -0.14414498209953308 },
			{ -0.11861681193113327, 0.0398019440472126, 0.8404750227928162, -0.3848206102848053, 0.052153702825307846, -0.050236545503139496, 0.0027862328570336103, -0.2807716131210327, -0.07163450121879578, 0.0017285019857808948 },
			{ 0.03649502247571945, 0.04185757040977478, 0.25095486640930176, -0.07714156806468964, -0.06965208798646927, 0.08996278792619705, -0.006338228937238455, -0.10686308890581131, -0.034590598195791245, -0.025237543508410454 },
			{ 0.023952791467308998, 0.03496347740292549, 0.0860394686460495, -0.03910510987043381, -0.01838465966284275, -0.065285824239254, 0.017917321994900703, -0.07767311483621597, -0.09232925623655319, 0.08046901971101761 },
			{ 0.07507947087287903, -0.037167176604270935, 0.05523224547505379, 0.01692245528101921, 0.029771581292152405, 0.05231065675616264, 0.08459961414337158, 0.07628808170557022, -0.0164334699511528, -0.081112340092659 },
			{ -0.060994964092969894, -0.05880805104970932, -0.04236526042222977, -0.012765634804964066, -0.02808121219277382, 0.08887152373790741, 0.07076433300971985, 0.024316677823662758, 0.03219906613230705, -0.10349947959184647 },
			{ -0.05674620345234871, -0.030604667961597443, -0.10877878218889236, 0.21495744585990906, -0.02183450013399124, 0.15370981395244598, 0.015495256520807743, 0.127536341547966, -0.3264523148536682, -0.021669499576091766 },
			{ -0.05173172056674957, -0.09107882529497147, -0.2524665892124176, 0.3340648412704468, -0.027516717091202736, 0.27941402792930603, 0.018017491325736046, -0.18106059730052948, 0.03536094352602959, -0.010520060546696186 },
			{ 0.13505111634731293, -0.08714068681001663, -0.23021849989891052, 0.38236069679260254, -0.22787214815616608, 0.4036414623260498, -0.01185233611613512, -0.5657020807266235, 0.28950613737106323, -0.0516691729426384 },
			{ 0.4019283950328827, -0.33963796496391296, 0.012751842848956585, 0.2536650002002716, -0.27576684951782227, 0.295905202627182, 0.06925006210803986, -0.8090428113937378, 0.3907080590724945, 0.0014937230153009295 },
			{ 0.5923179984092712, -0.26842832565307617, 0.07189329713582993, -0.1253521740436554, -0.30534568428993225, 0.1030891090631485, 0.08676604926586151, -0.23920272290706635, 0.2706650495529175, -0.03942627087235451 },
			{ 0.1718507558107376, -0.24565206468105316, 0.09670424461364746, 0.02996703051030636, -0.22336944937705994, -0.06941194087266922, 0.26313117146492004, -0.4941670000553131, 0.023132650181651115, 0.17929485440254211 },
			{ 0.13206785917282104, 0.2983943223953247, 0.25850802659988403, -0.23632581532001495, 0.02466900274157524, 0.1340971142053604, 0.16540546715259552, -0.5364513397216797, -0.047534313052892685, -0.19123636186122894 },
			{ 0.07208933681249619, -0.015909068286418915, 0.5080345273017883, -0.0932624414563179, -0.049086153507232666, 0.03712201490998268, 0.0046155862510204315, -0.5087589621543884, 0.0973023772239685, 0.04353892803192139 },
			{ -0.025765668600797653, -0.07386375218629837, 0.27260786294937134, -0.26558712124824524, 0.25225478410720825, -0.060356300324201584, -0.04550732299685478, -0.08447535336017609, -0.18395167589187622, 0.2503732144832611 },
			{ -0.0837165117263794, 0.04225585237145424, 0.28364506363868713, -0.18493027985095978, 0.06629640609025955, -0.018287697806954384, -0.10392256826162338, -0.1645447313785553, -0.19191522896289825, 0.2503758370876312 },
			{ 0.02887241542339325, 0.030542943626642227, 0.022805269807577133, -0.08239205926656723, 0.04513421282172203, 0.02351684682071209, -0.08052664995193481, -0.040393926203250885, -0.02492286078631878, 0.054961349815130234 },
			{ 0.03251728415489197, 0.08653400838375092, 0.059821974486112595, 0.010966765694320202, 0.07106223702430725, 0.05261683091521263, -0.07083208113908768, 0.04278579726815224, 0.07238203287124634, -0.0886763408780098 },
			{ -0.021511826664209366, -0.046404093503952026, 0.054825033992528915, 0.07642804831266403, -0.009825725108385086, -0.08261502534151077, 0.026622893288731575, 0.06801748275756836, 0.08509068191051483, -0.04413875564932823 },
			{ -0.045075904577970505, 0.002143608871847391, -0.03091973438858986, 0.07369985431432724, -0.08383040130138397, -0.02546112798154354, 0.014900367707014084, 0.004898204002529383, -0.08692363649606705, -0.006966833490878344 },
			{ -0.07602918148040771, 0.004892194643616676, 0.030279390513896942, -0.009335869923233986, 0.021922152489423752, 0.047887515276670456, 0.0408821702003479, -0.020426038652658463, 0.00296920002438128, -0.0015703688841313124 },
			{ -0.08647213131189346, -0.0631730705499649, -0.08556463569402695, 0.32336142659187317, -0.012015928514301777, -0.015100839547812939, 0.05977167934179306, -0.24787402153015137, 0.0479089617729187, -0.01994294300675392 },
			{ -0.11130509525537491, 0.05628913268446922, 0.15608611702919006, 0.42485567927360535, -0.03775850310921669, 0.07604630291461945, 0.0816873088479042, -0.4774060845375061, 0.07052973657846451, -0.09306290745735168 },
			{ 0.03087168000638485, 0.005544612649828196, 0.07864142954349518, 0.3633138835430145, -0.02984045445919037, 0.16376030445098877, -0.014399643987417221, -0.32476750016212463, 0.13441102206707, -0.2770514488220215 },
			{ 0.03227055072784424, -0.038879409432411194, 0.12379375845193863, 0.139411062002182, 0.0006036925478838384, 0.21740765869617462, -0.06491050869226456, -0.2949940860271454, -0.05161571130156517, -0.15026842057704926 },
			{ -0.02446899749338627, 0.09161794185638428, 0.057484596967697144, 0.09217780083417892, -0.12465119361877441, 0.16863393783569336, -0.09396897256374359, -0.057251449674367905, -0.11977577209472656, -0.07769899815320969 },
			{ -0.0769585594534874, -0.027336539700627327, 0.3169984817504883, -0.04628709703683853, 0.1547221541404724, 0.049533575773239136, 0.002705727703869343, -0.26480162143707275, 0.09874631464481354, 0.03513320907950401 },
			{ 0.048309292644262314, -0.0807785838842392, 0.3291999399662018, -0.05687229335308075, -0.150850310921669, -0.01752416044473648, 0.038830775767564774, -0.011251113377511501, -0.09297594428062439, -0.06863091140985489 },
			{ 0.01726635731756687, -0.04883918911218643, 0.2368294596672058, -0.07110191881656647, -0.13231022655963898, 0.00823775865137577, 0.022618835791945457, -0.008504007942974567, -0.05090709030628204, -0.050911854952573776 },
			{ 0.03542706370353699, 0.053061310201883316, -0.04361719638109207, -0.08692120015621185, 0.028593571856617928, -0.09423436969518661, 0.028837259858846664, 0.006762353703379631, 0.05871957913041115, -0.026842670515179634 },
			{ -0.04551275819540024, -0.02808517962694168, 0.08134651929140091, -0.05647982284426689, 0.08175668120384216, 0.028847837820649147, -0.06438685208559036, -0.06613343954086304, -0.02362055703997612, 0.060012102127075195 },
			{ -0.02020042948424816, 0.010774794034659863, -0.05358460545539856, -0.06395984441041946, 0.03219764307141304, -0.05461576208472252, 0.056554220616817474, 0.025169769302010536, 0.0006589954136870801, -0.04600558429956436 },
			{ -0.06366074085235596, -0.08037503808736801, 0.05220365896821022, 0.05730258300900459, 0.05860649794340134, -0.07002224028110504, -0.027005931362509727, -0.010642437264323235, 0.008301944471895695, -0.02044278010725975 },
			{ 0.05424552410840988, 0.059560466557741165, -0.03899038955569267, -0.06389084458351135, 0.056128159165382385, 0.054496683180332184, 0.02459057793021202, -0.014287613332271576, 0.03977089747786522, -0.015170992352068424 },
			{ -0.017449481412768364, -0.07780632376670837, -0.041328370571136475, -0.07709275931119919, 0.06694973260164261, -0.029493259266018867, 0.001684552407823503, 0.02827470190823078, 0.012816086411476135, -0.05077352002263069 },
			{ -0.02202083356678486, -0.010725813917815685, 0.02966388314962387, 0.03764374926686287, -0.04560726135969162, 0.024291466921567917, 0.0344347283244133, -0.033223461359739304, 0.06320702284574509, -0.05447377264499664 },
			{ -0.06777440011501312, 0.04855908825993538, -0.0693751648068428, 0.06891714781522751, -0.05505696311593056, 0.028733376413583755, -0.03532087802886963, 0.08377810567617416, -0.02269505336880684, -0.035021934658288956 },
			{ 0.08083821088075638, -0.002615575911477208, 0.044953711330890656, 0.004649825859814882, -0.006035204511135817, 0.007235052064061165, -0.08536244928836823, 0.011245409958064556, 0.03830771893262863, -0.0010239173425361514 },
			{ -0.04223897308111191, -0.0370914526283741, 0.013381116092205048, -0.05008561164140701, -0.05055367574095726, 0.03471411392092705, -0.04449871554970741, 0.09775658696889877, -0.09261732548475266, 0.09094136953353882 },
			{ 0.07313348352909088, -0.0034653223119676113, 0.05550156906247139, -0.08438276499509811, -0.04302908480167389, -0.037416618317365646, -0.014424527995288372, -0.020203841850161552, -0.05197222903370857, -0.006800005212426186 },
			{ 0.003454176476225257, 0.0418265126645565, -0.006454007234424353, -0.009055905975401402, -0.049292340874671936, 0.08654166758060455, 0.013484755530953407, 0.023459257557988167, -0.014950745739042759, -0.001955760410055518 },
			{ -0.04614056274294853, -0.03947622701525688, -0.012389851734042168, -0.08898069709539413, -0.042883530259132385, -0.0033900148700922728, 0.04036562517285347, -0.015122811309993267, 0.0402386449277401, -0.01047058217227459 },
			{ 0.03621755540370941, 0.06299137324094772, 0.06427939981222153, -0.04573046788573265, -0.017499636858701706, -0.02883138135075569, -0.04805939272046089, 0.08386027812957764, -0.025145038962364197, -0.008729938417673111 },
			{ 0.03227841109037399, 0.0108473040163517, -0.03624686598777771, -0.0511515811085701, 0.04280406981706619, 0.027773620560765266, 0.014690211974084377, -0.020541653037071228, -0.042979102581739426, 0.032399095594882965 },
			{ 0.06265400350093842, 0.03640754520893097, -0.01820279285311699, 0.026665229350328445, 0.07716955244541168, -0.07431042939424515, 0.011089864186942577, 0.009351562708616257, 0.04547928273677826, 0.07461158186197281 },
			{ 0.011853472329676151, -0.06140027940273285, 0.015814946964383125, 0.008772092871367931, 0.020321806892752647, -0.08589305728673935, 0.014772077091038227, 0.00636494904756546, 0.018772607669234276, 0.07757348567247391 },
			{ -0.010850605554878712, -0.005724338348954916, -0.07399976998567581, 0.06530752032995224, 0.03135912865400314, 0.063868947327137, 0.006614794488996267, 0.04708312079310417, 0.07491748780012131, -0.0805901437997818 },
			{ 0.028758496046066284, 0.05379138141870499, 0.04947303608059883, 0.049425527453422546, -0.08582305163145065, -0.0404948890209198, -0.034987617284059525, 0.06015440449118614, 0.04694697633385658, -0.00551599869504571 },
			{ 0.07962238043546677, -0.01640322618186474, 0.006171263754367828, 0.018391914665699005, 0.0604562871158123, 0.053115762770175934, 0.050759103149175644, -0.04362686723470688, -0.011180821806192398, 0.04207799956202507 },
			{ -0.049796849489212036, 0.0014192892704159021, -0.031924258917570114, 0.06614349782466888, -0.046917807310819626, 0.08297606557607651, 0.018504848703742027, -0.06081170216202736, 0.058005284518003464, -0.04521277919411659 },
			{ 0.06476786732673645, -0.08377278596162796, 0.04580017551779747, -0.00318534136749804, -0.0035439725033938885, 0.04266346991062164, 0.05863239988684654, 0.03941499814391136, 0.08006834983825684, -0.05189690738916397 },
			{ 0.043101172894239426, -0.013352454639971256, 0.036924876272678375, -0.029715782031416893, -0.024117184802889824, 0.05690208449959755, 0.052944302558898926, 0.07397974282503128, 0.053438086062669754, 0.037110835313797 },
			{ 0.028165651485323906, -0.02033226005733013, 0.13533353805541992, -0.06086348369717598, -0.16411928832530975, 0.008266634307801723, 0.1287691742181778, -0.07408639788627625, -0.0894620418548584, -0.09786196053028107 },
			{ -0.10958549380302429, 0.04550507664680481, -0.009336783550679684, -0.047938015311956406, -0.04948004335165024, 0.030076684430241585, 0.06784623861312866, -0.06445728242397308, -0.09182839095592499, -0.00720596918836236 },
			{ -0.0682324469089508, 0.05538468062877655, 0.050386060029268265, -0.005055421497672796, -0.1332360953092575, 0.0593026839196682, 0.10728815197944641, -0.056525327265262604, -0.10078812390565872, -0.022267406806349754 },
			{ 0.019010543823242188, 0.0773862674832344, -0.047305572777986526, -0.006862368434667587, 0.005314265843480825, -0.020541006699204445, 0.09782230854034424, 0.04263559728860855, 0.015331326983869076, -0.0033483190927654505 },
			{ -0.038202669471502304, 0.04162504896521568, -0.09293098002672195, -0.09383758157491684, -0.05177126079797745, 0.025323115289211273, 0.10374168306589127, -0.08644875138998032, -0.008854380808770657, 0.02249377779662609 },
			{ 0.06110169366002083, 0.00815189816057682, -0.025175539776682854, 0.0004148092120885849, -0.00798439234495163, -0.026078633964061737, 0.06296141445636749, 0.04171689972281456, 0.04311368986964226, 0.07546442747116089 },
			{ -0.08079962432384491, -0.0008209788938984275, -0.06870432943105698, 0.03825275972485542, -0.04379137232899666, 0.06601965427398682, -0.014930561184883118, -0.06399926543235779, -0.030120691284537315, -0.03797736391425133 },
			{ 0.00676729017868638, -0.02067217417061329, -0.04851556941866875, 0.002298690378665924, 0.0060597253032028675, -0.005566757638007402, 0.02655523270368576, 0.016074759885668755, -0.0048177484422922134, 0.017096690833568573 },
			{ -0.029217474162578583, 0.044751349836587906, -0.07086870074272156, 0.059569329023361206, 0.014834501780569553, 0.06890325248241425, -0.07229051738977432, -0.0011313115246593952, 0.04260432720184326, 0.08691893517971039 },
			{ -0.06629190593957901, 0.05158800631761551, -0.014588780701160431, 0.06490658968687057, 0.03554469347000122, -0.010570419020950794, -0.015083776786923409, 0.046483080834150314, 0.07762917131185532, -0.009021725505590439 },
			{ 0.057718027383089066, -0.086561419069767, -0.012589607387781143, 0.10899991542100906, 0.06035628542304039, -0.0974971130490303, -0.05978468433022499, -0.064641073346138, 0.07507920265197754, 0.023606546223163605 },
			{ -0.05793720856308937, -0.043027836829423904, -0.020945489406585693, 0.1672341376543045, -0.17718976736068726, -0.13786324858665466, 0.19425594806671143, -0.0008954672375693917, 0.00861432496458292, 0.06557218730449677 },
			{ -0.10751577466726303, -0.0714825987815857, 0.14572326838970184, 0.11496545374393463, -0.22540153563022614, -0.1096835657954216, 0.1481572389602661, -0.10341952741146088, -0.03946634382009506, 0.013440127484500408 },
			{ -0.005478253588080406, -0.0010394711280241609, 0.36980095505714417, 0.019435567781329155, -0.31985947489738464, -0.10002203285694122, 0.3131302297115326, -0.10867093503475189, -0.047053877264261246, -0.06390019506216049 },
			{ -0.09664672613143921, 0.10413062572479248, 0.28249499201774597, 0.0467480793595314, -0.2581288516521454, -0.10281579941511154, 0.09543807804584503, -0.055028799921274185, 0.03612745925784111, -0.0032617037650197744 },
			{ -0.3024575114250183, 0.0915256068110466, 0.1726064831018448, 0.16429205238819122, -0.065393827855587, 0.20624521374702454, 0.047840096056461334, -0.17160199582576752, -0.05144953355193138, -0.09667330235242844 },
			{ -0.0828750804066658, 0.18732529878616333, 0.09676016867160797, 0.2775687277317047, -0.1017012670636177, 0.06521479040384293, 0.19539956748485565, -0.16277296841144562, -0.07420194149017334, -0.296983927488327 },
			{ -0.13723011314868927, 0.1174539104104042, -0.10887575149536133, 0.1527896523475647, -0.17139354348182678, 0.30705103278160095, 0.16015271842479706, -0.06161097437143326, -0.12491455674171448, -0.021468346938490868 },
			{ -0.10805521160364151, 0.06611764430999756, -0.04837045073509216, 0.11382175981998444, -0.0857502818107605, 0.09707581251859665, 0.24575570225715637, -0.04726914316415787, 0.07426930963993073, -0.043159838765859604 },
			{ -0.09808370471000671, -0.018954357132315636, -0.14422348141670227, -0.08843289315700531, 0.13160142302513123, -0.06878367066383362, 0.23022286593914032, -0.06244593486189842, -0.10678252577781677, -0.05949724465608597 },
			{ -0.08074621856212616, -0.06715971976518631, -0.0371568500995636, -0.06977208703756332, 0.0990922674536705, 0.020635539665818214, 0.18523243069648743, -0.10369011014699936, -0.0005472048651427031, -0.014008961617946625 },
			{ -0.01917807012796402, -0.0048154364340007305, 0.0044212439097464085, 0.04108517989516258, -0.03705162927508354, -0.01056809164583683, 0.06708268076181412, 0.07033311575651169, -0.057597145438194275, 0.006372278556227684 },
			{ -0.033417049795389175, -0.03658618777990341, -0.008375034667551517, 0.07323183864355087, 0.04404938593506813, -0.017637457698583603, 0.020874684676527977, -0.008762789890170097, -0.00657862750813365, 0.016271503642201424 },
			{ -0.04544060304760933, -0.05558347702026367, -0.03141075372695923, 0.08773843944072723, -0.012519832700490952, -0.014468085952103138, -0.014380387030541897, 0.008511725813150406, 0.02732841856777668, -0.015148422680795193 },
			{ -0.11193004250526428, 0.08060652017593384, -0.020537681877613068, 0.17912733554840088, -0.05947599932551384, -0.11037939786911011, 0.13544972240924835, 0.04765820503234863, -0.04875977337360382, -0.10204239189624786 },
			{ -0.07551245391368866, 0.0438203364610672, -0.043098293244838715, 0.294040709733963, -0.04447455704212189, -0.157902330160141, 0.20345903933048248, 0.06049466133117676, -0.009654244408011436, -0.1691383272409439 },
			{ -0.03660878166556358, -0.00633679935708642, -0.058292239904403687, 0.006722321268171072, 0.00932634249329567, -0.1252889484167099, 0.10264132171869278, 0.040969520807266235, 0.11021336168050766, -0.09051848202943802 },
			{ -0.00921084638684988, 7.880802149884403e-05, 0.19228486716747284, 0.04828071594238281, 0.16403070092201233, -0.019967004656791687, 0.13411204516887665, 0.07817184180021286, -0.256233274936676, -0.07602377235889435 },
			{ -0.13608704507350922, 0.15769630670547485, 0.222722589969635, 0.12062053382396698, 0.032597288489341736, -0.17124493420124054, -0.06993667036294937, -0.13474982976913452, -0.15400317311286926, 0.09349444508552551 },
			{ 0.11582248657941818, 0.4001769721508026, 0.14713969826698303, -0.16668695211410522, 0.1371331512928009, 0.09111514687538147, -0.10569078475236893, -0.18165338039398193, -0.13389472663402557, -0.3300471603870392 },
			{ -0.2077644020318985, 0.03438401594758034, 0.3079588711261749, 0.09972984343767166, -0.024134550243616104, 0.204190194606781, -0.21718451380729675, -0.15519000589847565, -0.15611572563648224, -0.030406299978494644 },
			{ 0.038800399750471115, -0.03272877633571625, 0.10487169027328491, -0.08024508506059647, -0.11278609931468964, 0.3036918640136719, -0.08158012479543686, -0.2337043434381485, -0.035828158259391785, 0.1508243829011917 },
			{ -0.16914722323417664, 0.07313548773527145, -0.09002725780010223, 0.07294473797082901, -0.18927811086177826, 0.1288883537054062, 0.27830761671066284, -0.2784576416015625, -0.02032223530113697, 0.1558554768562317 },
			{ 0.14106504619121552, 0.020828206092119217, 0.04335425794124603, -0.03469653055071831, 0.12657198309898376, 0.032176192849874496, 0.04559919983148575, -0.09870360791683197, 0.011227762326598167, -0.13956907391548157 },
			{ -0.1298058182001114, -0.06046859174966812, -0.09085608273744583, 0.07720301300287247, 0.16417115926742554, 0.24060389399528503, 0.18501733243465424, -0.11598612368106842, -0.08835828304290771, -0.0951317846775055 },
			{ 0.0029582150746136904, -0.03481559082865715, -0.03819525986909866, -0.04406912252306938, -0.048902906477451324, 0.07905294746160507, 0.07577849924564362, 0.04857487231492996, -0.03036164678633213, 0.010265173390507698 },
			{ -0.05643753334879875, 0.024332676082849503, -0.051688436418771744, -0.06682156026363373, -0.026545947417616844, -0.07764597982168198, -0.03184511139988899, 0.05772453173995018, 0.039530571550130844, -0.024683918803930283 },
			{ -0.04816629737615585, -0.03952096030116081, -0.03616740554571152, 0.025642460212111473, -0.039344076067209244, -0.0687565803527832, -0.06139275059103966, 0.012502841651439667, -0.026512641459703445, -0.036858100444078445 },
			{ -0.1398068517446518, 0.028556326404213905, -0.011195985600352287, 0.024124540388584137, 0.07721985131502151, -0.2545516788959503, 0.12268832325935364, -0.0475858673453331, 0.12221808731555939, -0.20779496431350708 },
			{ -0.10373547673225403, 0.052776362746953964, -0.3006725609302521, 0.037689439952373505, 0.19971317052841187, -0.06666965782642365, 0.06746015697717667, 0.4269373118877411, -0.12132630497217178, -0.2118612676858902 },
			{ 0.05468246713280678, -0.47735488414764404, -0.18365192413330078, -0.2340307980775833, 0.449388712644577, 0.11403582245111465, 0.05304039642214775, 0.27617231011390686, 0.19386765360832214, -0.06796927750110626 },
			{ -0.07681398838758469, -0.004765980876982212, -0.03275145962834358, -0.19383372366428375, 0.3039504289627075, 0.02313411608338356, 0.12700991332530975, 0.19211547076702118, -0.06628076732158661, -0.19067318737506866 },
			{ 0.20226825773715973, 0.017569037154316902, 0.0966675654053688, -0.16997739672660828, 0.3577743470668793, -0.05938035994768143, -0.23381364345550537, 0.1521647870540619, 0.056764375418424606, -0.14424623548984528 },
			{ -0.11990844458341599, 0.10637686401605606, 0.1451864391565323, -0.0818447470664978, 0.27862682938575745, -0.1906670331954956, -0.20670118927955627, -0.058974072337150574, 0.0745520293712616, 0.0010526865953579545 },
			{ 0.1501658707857132, -0.1030898317694664, -0.0004143256810493767, 0.018997622653841972, 0.17271362245082855, -0.011041573248803616, -0.33411890268325806, -0.21826738119125366, 0.09582426398992538, 0.2548944652080536 },
			{ 0.12183798849582672, 0.11460591107606888, -0.08691395819187164, 0.1850542575120926, 0.015778018161654472, -0.16703923046588898, -0.21462494134902954, 0.11565660685300827, 0.017302051186561584, -0.10021417587995529 },
			{ -0.20201948285102844, 0.10763740539550781, 0.019233515486121178, 0.04330103471875191, 0.015109295956790447, 0.23314739763736725, 0.006695067044347525, 0.006374137010425329, -0.19216804206371307, 0.0722346305847168 },
			{ 0.12911713123321533, 0.059565864503383636, 0.13439716398715973, 0.02081020548939705, 0.10659893602132797, -0.026099612936377525, -0.14593608677387238, -0.034863922744989395, -0.1347651481628418, -0.09331309795379639 },
			{ -0.004735375288873911, -0.12602734565734863, -0.13432501256465912, -0.03846218064427376, 0.2284746915102005, 0.27562233805656433, 0.014829954132437706, -0.05169963091611862, -0.045679401606321335, -0.08686450868844986 },
			{ -0.06911540776491165, -0.02376357465982437, -0.03211195021867752, 0.008235371671617031, 0.06310844421386719, 0.23101083934307098, -0.08796309679746628, -0.06314459443092346, -0.0702701285481453, -0.07130496203899384 },
			{ 0.035506486892700195, 0.013793817721307278, -0.02135557495057583, 0.0035139652900397778, 0.004955990705639124, -0.0738183856010437, 0.07496009767055511, 0.084785595536232, 0.015837907791137695, -0.022694427520036697 },
			{ -0.0061698248609900475, -0.03400900587439537, 0.05874187499284744, 0.13888543844223022, 0.006667278241366148, 0.03364281356334686, -0.07399724423885345, -0.022229263558983803, -0.0807705894112587, 0.010484559461474419 },
			{ -0.0847536101937294, -0.03371680900454521, 0.05729782208800316, -0.11836905032396317, -0.11035620421171188, -0.11548230051994324, 0.18073394894599915, -0.06258787959814072, 0.1865803301334381, -0.1686858832836151 },
			{ 0.02303629368543625, -0.0903591513633728, -0.1350652277469635, -0.21224932372570038, 0.0938117727637291, -0.034944046288728714, 0.0942310318350792, -0.04014347866177559, 0.17323274910449982, 0.2414809763431549 },
			{ 0.11572174727916718, -0.25086599588394165, -0.3198870122432709, -0.4213111698627472, 0.45501407980918884, 0.1867247074842453, 0.1999024748802185, -0.2409287691116333, 0.2737836539745331, 0.04202895238995552 },
			{ 0.17688964307308197, -0.24609652161598206, 0.07588828355073929, -0.5326123833656311, 0.3431336283683777, 0.08930201828479767, -0.04757723584771156, -0.06038559973239899, 0.048083215951919556, 0.20612730085849762 },
			{ 0.053998980671167374, -0.06375245749950409, -0.07938192784786224, -0.1771634817123413, 0.20774561166763306, 0.054219868034124374, -0.17368865013122559, -0.2869643568992615, 0.24101214110851288, 0.2758457064628601 },
			{ 0.07305908203125, 0.12469781190156937, -0.1431039571762085, 0.09154649078845978, 0.4100629389286041, -0.4972911775112152, -0.2980045974254608, -0.0315229594707489, 0.13011036813259125, 0.2523370683193207 },
			{ 0.017755061388015747, 0.09913618117570877, 0.02984662353992462, 0.22866196930408478, 0.568862795829773, -0.5799351334571838, -0.4656785726547241, 0.1515859067440033, -0.09424141049385071, 0.03957519307732582 },
			{ 0.09522348642349243, 0.179645836353302, 0.12052848190069199, 0.2680865228176117, 0.4853067100048065, -0.5941895246505737, -0.6778967380523682, 0.09306424111127853, -0.06967055052518845, 0.1422710418701172 },
			{ 0.07208085060119629, -0.09118141978979111, 0.14819611608982086, 0.39942076802253723, 0.28026577830314636, -0.5040642619132996, -0.44914454221725464, 0.260245144367218, -0.07200930267572403, 0.04178328067064285 },
			{ 0.018648339435458183, 0.11561127007007599, 0.22576040029525757, 0.263549268245697, -0.034534256905317307, -0.24824710190296173, -0.44747626781463623, 0.18286895751953125, -0.10300607979297638, -0.16937530040740967 },
			{ 0.05905172973871231, -0.08772020787000656, 0.03158923611044884, -0.009355176240205765, -0.05284887179732323, 0.2148328423500061, -0.3827172517776489, 0.007174259517341852, 0.28679054975509644, -0.008632751181721687 },
			{ -0.024490956217050552, -0.07895173132419586, -0.014586263336241245, -0.038541506975889206, 0.09080231934785843, 0.43584302067756653, -0.21087056398391724, 0.009599153883755207, -0.016965439543128014, -0.0856117233633995 },
			{ 0.03694997355341911, -0.02604915015399456, -0.004038034472614527, -0.06910508126020432, -0.03596241772174835, 0.06707333028316498, 0.05370097607374191, -0.03711196035146713, 0.06044775992631912, -0.05101916939020157 },
			{ 0.06324853003025055, -0.08799336850643158, 0.051397085189819336, 0.006347388029098511, 0.014056761749088764, 0.01356437522917986, -0.09714381396770477, 0.06133722886443138, 0.0024324969854205847, -0.04318631440401077 },
			{ -0.112202949821949, -0.0077910954132676125, -0.21152815222740173, -0.4179976284503937, -0.11767309159040451, 0.22059114277362823, 0.21002373099327087, 0.19103091955184937, 0.2523042857646942, 0.152165949344635 },
			{ 0.06821410357952118, -0.3056848645210266, -0.41364845633506775, -0.6174131631851196, 0.0014670670498162508, 0.2349681258201599, 0.2473325878381729, -0.20418377220630646, 0.3057718276977539, 0.41851648688316345 },
			{ 0.13711342215538025, -0.4047040641307831, -0.35573810338974, -0.4699806272983551, 0.4535692036151886, 0.3051578402519226, 0.23926854133605957, -0.46043771505355835, 0.19359491765499115, 0.26536622643470764 },
			{ 0.19899699091911316, -0.2074725180864334, -0.3427562415599823, -0.5136599540710449, 0.536048173904419, 0.11766180396080017, 0.09948805719614029, -0.2781966030597687, 0.3050437569618225, 0.26885974407196045 },
			{ 0.12354603409767151, -0.16104476153850555, -0.3519831597805023, -0.09014514088630676, 0.5218222737312317, 0.18094176054000854, -0.11854185909032822, -0.2522338032722473, -0.061878856271505356, 0.2180711328983307 },
			{ 0.03113448992371559, 0.19457924365997314, -0.5235885977745056, 0.2593016028404236, 0.2686455547809601, -0.12976497411727905, -0.36273112893104553, -0.07462070137262344, 0.30900758504867554, 0.21152204275131226 },
			{ 0.05811570584774017, 0.04220254346728325, -0.10771293193101883, 0.18988218903541565, 0.3721873462200165, -0.6072350144386292, -0.5426836013793945, 0.3824661374092102, 0.19834846258163452, 0.02076951414346695 },
			{ 0.07255478948354721, -0.10088217258453369, 0.05227223411202431, 0.4432166814804077, 0.6326030492782593, -0.7967211604118347, -0.6324898600578308, 0.20671182870864868, 0.17791135609149933, -0.04000801220536232 },
			{ 0.22196578979492188, 0.06999395042657852, 0.18484953045845032, 0.4722191095352173, 0.25877639651298523, -0.9254110455513, -0.575114905834198, 0.024107445031404495, 0.18756364285945892, -0.08352600783109665 },
			{ 0.1761016994714737, -0.06506631523370743, 0.16277071833610535, 0.37722349166870117, 0.06235501542687416, -0.8319907784461975, -0.2896193563938141, 0.15816254913806915, 0.15094272792339325, 0.16917607188224792 },
			{ 0.10823115706443787, -0.03600655496120453, 0.039105139672756195, -0.32129526138305664, -0.11012125015258789, 0.04692499339580536, 0.04389621317386627, -0.2618182599544525, 0.3231087327003479, 0.15131953358650208 },
			{ -0.04521794244647026, 0.008410259149968624, 0.12399978935718536, -0.09497334063053131, -0.012716109864413738, 0.2580241560935974, -0.05171310901641846, -0.09589069336652756, 0.08118274062871933, -0.019888514652848244 },
			{ -0.03302674740552902, -0.024889519438147545, 0.052698712795972824, -0.07600829750299454, 0.06045103445649147, -0.006892058532685041, 0.03173580765724182, -0.009742090478539467, 0.01804998330771923, -0.041882261633872986 },
			{ 0.01799529790878296, -0.0537429116666317, -0.035978637635707855, 0.06758728623390198, 0.005680582486093044, -0.0443105511367321, -0.06114305555820465, 0.06822758167982101, 0.01721327006816864, 0.004585467744618654 },
			{ -0.10837806016206741, -0.024018412455916405, -0.6064137816429138, -0.3409843444824219, 0.033763471990823746, 0.06106013432145119, 0.26321515440940857, 0.008584617637097836, 0.0025497584138065577, 0.5903544425964355 },
			{ 0.45897984504699707, -0.07729049772024155, -1.3019905090332031, -0.45644262433052063, 0.528895378112793, 0.05257033929228783, 0.5308709144592285, -0.19203223288059235, -0.1101778969168663, 0.4635087847709656 },
			{ 0.2720700204372406, -0.19380754232406616, -1.0729209184646606, -0.35337144136428833, 0.6146354675292969, 0.2622336149215698, 0.3421449661254883, -0.14017993211746216, 0.13934318721294403, 0.17841684818267822 },
			{ 0.04130137339234352, -0.489785373210907, -0.7730063199996948, -0.34105491638183594, 0.537821352481842, 0.5441303849220276, 0.3195698857307434, -0.009191925637423992, 0.09816838055849075, 0.18429727852344513 },
			{ 0.2885250151157379, -0.02548975683748722, -0.5047100186347961, -0.15147142112255096, 0.45394039154052734, 0.21194924414157867, 0.20162880420684814, -0.26150938868522644, 0.33810174465179443, -0.25272336602211 },
			{ -0.32953378558158875, 0.1330161988735199, -0.41305479407310486, 0.3663595914840698, 0.2549525499343872, 0.08532282710075378, -0.2545386552810669, -0.1575579047203064, 0.15828931331634521, 0.4321664273738861 },
			{ -0.4811052978038788, 0.09961172938346863, -0.16003617644309998, 0.11432621628046036, 0.37277042865753174, -0.41923391819000244, -0.25418171286582947, 0.12843915820121765, 0.17805349826812744, 0.30661848187446594 },
			{ 0.015728630125522614, 0.1113697737455368, 0.13558673858642578, 0.09049718081951141, 0.47509893774986267, -0.6122676730155945, -0.36127394437789917, 0.19687101244926453, 0.04658711329102516, 0.045120719820261 },
			{ 0.1788131296634674, -0.07161661237478256, 0.18766821920871735, -0.05064879730343819, 0.5353206396102905, -0.6761680245399475, -0.2861579656600952, 0.002898261183872819, 0.06388911604881287, 0.21659600734710693 },
			{ 0.3888762593269348, -0.12038495391607285, 0.15128165483474731, -0.40104901790618896, 0.2512653172016144, -0.711377739906311, 0.03420284017920494, 0.02439444325864315, 0.19838941097259521, 0.034417930990457535 },
			{ 0.3571808338165283, -0.08737773448228836, 0.26411986351013184, -0.10757407546043396, -0.21515363454818726, -0.5108699798583984, 0.3139439523220062, -0.19130340218544006, 0.19148871302604675, -0.0011438961373642087 },
			{ -0.09172523766756058, -0.03159232810139656, 0.27058568596839905, -0.09258953481912613, -0.010145468637347221, 0.01546078734099865, -0.0359102301299572, -0.033771440386772156, 0.07349444925785065, -0.06126514449715614 },
			{ 0.022591017186641693, 0.04837152361869812, -0.04834473133087158, 0.040682654827833176, 0.06880847364664078, -0.05882004648447037, -0.07743927836418152, 0.04992854967713356, 0.06846839189529419, -0.046232447028160095 },
			{ -0.001234140945598483, 0.06064320355653763, -0.047951068729162216, 0.012814446352422237, 0.012065553106367588, 0.04185691848397255, -0.05537651479244232, 0.023234935477375984, -0.07057324051856995, -0.023852191865444183 },
			{ 0.24311961233615875, -0.08017068356275558, -0.22448590397834778, -0.2637081444263458, 0.4237780272960663, -0.09141914546489716, 0.08617472648620605, -0.08227084577083588, -0.2242186814546585, 0.1886642575263977 },
			{ 0.5002933144569397, -0.1775076538324356, -0.5562061667442322, -0.8253577351570129, 0.6492724418640137, -0.012423434294760227, 0.357538640499115, -0.08784627169370651, -0.13651806116104126, 0.19784927368164062 },
			{ 0.46362563967704773, 0.014038946479558945, -0.6436066031455994, -0.45830532908439636, 0.43504598736763, 0.06560726463794708, 0.3172159790992737, 0.054177623242139816, -0.0731876790523529, 0.0740167424082756 },
			{ 0.3634609282016754, -0.21382200717926025, -0.17373794317245483, -0.29691386222839355, 0.061744071543216705, -0.01226248499006033, 0.37043583393096924, 0.14163437485694885, 0.08363283425569534, -0.20007464289665222 },
			{ 0.35323184728622437, 0.0735398605465889, -0.00021030352218076587, -0.06343460083007812, -0.07091830670833588, 0.11431453377008438, 0.4347418248653412, -0.607649564743042, -0.0275993924587965, -0.2133961319923401 },
			{ -0.5169826745986938, 0.6446950435638428, 0.04372698813676834, 0.1005861684679985, -0.13939343392848969, -0.06867330521345139, 0.3858371078968048, -0.2734316289424896, 0.12644827365875244, -0.22380217909812927 },
			{ -0.5680813789367676, 0.3509247899055481, -0.06404876708984375, 0.10684454441070557, 0.32009157538414, -0.2951611578464508, 0.11212000995874405, -0.19589576125144958, -0.14735452830791473, 0.07046542316675186 },
			{ 0.14115868508815765, -0.2714810073375702, 0.0631604716181755, -0.17808416485786438, 0.1568351686000824, -0.2984536588191986, 0.10627256333827972, 0.2166472226381302, -0.12624596059322357, 0.2665433883666992 },
			{ 0.27506178617477417, -0.2133428454399109, 0.3175220191478729, -0.04249190166592598, 0.026948699727654457, -0.3892703950405121, 0.09110616147518158, 0.04005842283368111, -0.477531760931015, 0.17436371743679047 },
			{ 0.23875077068805695, -0.20746131241321564, 0.1340467929840088, -0.12324778735637665, 0.1303321123123169, -0.288779079914093, 0.24152983725070953, 0.3974250853061676, -0.4322241544723511, 0.013432327657938004 },
			{ 0.4746561646461487, -0.0027762495446950197, 0.2075345814228058, 0.05929619446396828, -0.24419640004634857, -0.08272359520196915, 0.22741056978702545, -0.17047040164470673, -0.03149539604783058, -0.32798004150390625 },
			{ -0.057162683457136154, 0.00725179398432374, 0.2869126796722412, -0.09778833389282227, -0.04938312992453575, -0.10457618534564972, 0.0025141111109405756, -0.08225295692682266, -0.004185949452221394, -0.046065133064985275 },
			{ 0.04142715036869049, -0.004580974578857422, 0.04375609755516052, 0.04007859528064728, 0.05346444994211197, -0.04364024102687836, -0.0044232821092009544, 0.035786017775535583, 0.013315055519342422, 0.009107436053454876 },
			{ -0.05189650133252144, 0.00887876283377409, 0.12724590301513672, 0.05349865183234215, -0.047536738216876984, -0.018970802426338196, -0.06817649304866791, -0.06787922978401184, 0.061473775655031204, -0.00504619674757123 },
			{ 0.36849135160446167, -0.14401206374168396, 0.17176689207553864, -0.0898282378911972, 0.12590306997299194, -0.2306259572505951, 0.0008304447983391583, -0.017273256555199623, -0.14727114140987396, -0.15328755974769592 },
			{ 0.31978103518486023, -0.2776891589164734, 0.34368351101875305, -0.2589891254901886, 0.15254759788513184, -0.5122856497764587, 0.3730956017971039, 0.042040616273880005, 0.07532880455255508, 0.041080452501773834 },
			{ 0.26836228370666504, -0.029295042157173157, 0.08007451146841049, -0.5480244755744934, 0.13183093070983887, -0.4805133044719696, 0.48401591181755066, 0.19972750544548035, 0.12383656948804855, 0.09357664734125137 },
			{ 0.5800210237503052, -0.2371961921453476, 0.25108352303504944, -0.4944990277290344, -0.244287371635437, -0.3923334777355194, 0.7351305484771729, -0.2747821509838104, 0.19801850616931915, -0.35035762190818787 },
			{ 0.3609650135040283, -0.2043924331665039, 0.30125683546066284, -0.31162479519844055, -0.28959986567497253, -0.12452635169029236, 0.566784679889679, -0.6575056910514832, 0.3524473011493683, -0.1994851976633072 },
			{ -0.3644276559352875, 0.2276366651058197, 0.4241039454936981, -0.23446980118751526, -0.19475121796131134, -0.11360057443380356, 0.23058758676052094, 0.16196024417877197, 0.15875087678432465, -0.08521055430173874 },
			{ 0.13772137463092804, -0.05011032149195671, 0.20423167943954468, -0.21200262010097504, -0.2605445086956024, -0.0965263843536377, 0.20505274832248688, 0.0007456409512087703, -0.04398515820503235, 0.03715847432613373 },
			{ 0.056782133877277374, -0.15694618225097656, 0.0042696124874055386, 0.12392839044332504, -0.06326457113027573, 0.14184534549713135, 0.374352365732193, -0.04153483733534813, -0.4465269148349762, 0.18883688747882843 },
			{ 0.07987982779741287, -0.1150583028793335, 0.013598568737506866, 0.11188757419586182, 0.053798675537109375, -0.03194297105073929, 0.33626076579093933, 0.15436692535877228, -0.457074910402298, 0.0024143296759575605 },
			{ 0.20266801118850708, -0.06025799736380577, -0.002636899705976248, 0.31726524233818054, -0.07714559882879257, -0.08859052509069443, 0.019985541701316833, 0.036304645240306854, -0.2659918963909149, -0.10437620431184769 },
			{ 0.13323602080345154, 0.07824382930994034, -0.08545403927564621, 0.12581400573253632, -0.14110828936100006, 0.05537423491477966, 0.07621379941701889, -0.0775701254606247, -0.02398524060845375, -0.27878114581108093 },
			{ -0.06784043461084366, 0.031106416136026382, 0.38320112228393555, -0.010763353668153286, -0.13045960664749146, -0.0859103724360466, -0.13026989996433258, -0.11269574612379074, -0.0004646121815312654, 0.05496356263756752 },
			{ 0.03547275438904762, -0.021514063701033592, 0.024166300892829895, 0.06611105799674988, -0.05509767308831215, 0.05011339485645294, 0.0173110980540514, -0.012011431157588959, -0.03971438109874725, -0.008709510788321495 },
			{ -0.10417341440916061, -0.005648305639624596, 0.012756668962538242, 0.06944438070058823, 0.061509571969509125, -3.045122866751626e-05, 0.04599425196647644, -0.000866743503138423, 0.038687337189912796, 0.018011417239904404 },
			{ 0.18024615943431854, -0.11127673089504242, 0.38003847002983093, 0.13712483644485474, -0.06173309311270714, -0.08453021943569183, -0.09989213943481445, -0.0538070909678936, 0.0784020870923996, -0.04109259322285652 },
			{ 0.26299142837524414, -0.20315563678741455, 0.4293321371078491, -0.031870901584625244, -0.25336208939552307, -0.04816143214702606, 0.23483717441558838, -0.29571402072906494, 0.20095543563365936, -0.07912719994783401 },
			{ 0.38202714920043945, -0.14761120080947876, 0.3262457847595215, -0.18047408759593964, -0.11792275309562683, -0.2401052564382553, 0.27432191371917725, -0.052019134163856506, 0.36206331849098206, -0.505388617515564 },
			{ 0.5113757848739624, -0.10042867064476013, 0.4700793921947479, -0.57487952709198, -0.20952875912189484, -0.44697099924087524, 0.5441311001777649, -0.4148980975151062, 0.22742532193660736, -0.2662542760372162 },
			{ 0.43162745237350464, -0.09304781258106232, 0.15355388820171356, -0.5058116316795349, -0.31770703196525574, -0.19964167475700378, 0.6887789964675903, 0.17470458149909973, 0.3329513669013977, -0.5555853247642517 },
			{ 0.0511518158018589, -0.018885282799601555, 0.017921101301908493, -0.3517040014266968, 0.11782819777727127, -0.28217267990112305, 0.27417221665382385, -0.09938173741102219, 0.32592225074768066, -0.249093696475029 },
			{ 0.041545215994119644, 0.0007917676120996475, -0.16026264429092407, -0.04128856584429741, -0.10083247721195221, 0.005811776965856552, 0.36794111132621765, 0.07434404641389847, -0.017001288011670113, -0.36232075095176697 },
			{ -0.09775713831186295, 0.13917742669582367, 0.0985182449221611, -0.08072491735219955, -0.17772336304187775, -0.03197326511144638, 0.2513076961040497, -0.14979860186576843, -0.0051538413390517235, -0.32557547092437744 },
			{ -0.18016929924488068, -0.014965872280299664, 0.09832451492547989, -0.11089786887168884, -0.18995225429534912, 0.028962019830942154, -0.021740395575761795, 0.054240062832832336, -0.015544624999165535, 0.15924862027168274 },
			{ 0.028983958065509796, 0.0011501437984406948, -0.053202591836452484, 0.3196786642074585, -0.2657601833343506, 0.16683372855186462, -0.0036123930476605892, -0.2546828091144562, 0.06667459011077881, -0.0967269092798233 },
			{ -0.15849778056144714, 0.23770928382873535, -0.07290003448724747, 0.08272331953048706, -0.04848925769329071, 0.10005785524845123, -0.15984579920768738, -0.13031944632530212, 0.14800158143043518, 0.010828761383891106 },
			{ 0.011181076057255268, 0.1265295445919037, 0.12216468900442123, -0.09427908807992935, 0.04807259514927864, 0.10194279253482819, -0.04802856966853142, -0.01587030105292797, -0.03599113970994949, -0.044147223234176636 },
			{ 0.008546922355890274, -0.007614729925990105, -0.008049987256526947, 0.010308019816875458, -0.016163745895028114, -0.07028161734342575, -0.02373155578970909, 0.029320497065782547, -0.0443001464009285, 0.04666922986507416 },
			{ -0.011844257824122906, -0.05226298049092293, 0.10699287056922913, 0.03725644201040268, -0.04347562417387962, -0.06202441826462746, -0.06117115914821625, -0.0959743931889534, 0.04301122575998306, -0.09638020396232605 },
			{ 0.012334468774497509, -0.023406440392136574, 0.35808122158050537, 0.06565973162651062, -0.14083516597747803, -0.20650732517242432, -0.21747088432312012, 0.039472974836826324, 0.01720793917775154, -0.03694593161344528 },
			{ 0.3436264097690582, -0.1320754587650299, 0.3160865902900696, -0.07069415599107742, -0.317315936088562, -0.46188145875930786, -0.15235701203346252, -0.011070320382714272, 0.6791296005249023, -0.20459818840026855 },
			{ 0.22956933081150055, -0.1493028700351715, 0.25279101729393005, -0.005850532557815313, -0.22420424222946167, -0.11349111795425415, 0.28120744228363037, -0.04298720881342888, 0.30020448565483093, -0.4725406765937805 },
			{ 0.10880698263645172, -0.11308718472719193, 0.24956785142421722, -0.20744545757770538, -0.1833726316690445, 0.2234596461057663, 0.2217814028263092, 0.05184249207377434, 0.2593439519405365, -0.5482414364814758 },
			{ 0.4310428500175476, -0.23573756217956543, 0.003843252547085285, -0.5330596566200256, -0.33175522089004517, -0.10804812610149384, 0.6299676895141602, 0.22428296506404877, 0.13004666566848755, -0.2962649166584015 },
			{ -0.09160206466913223, -0.3739074766635895, -0.05789814889431, 0.08417665213346481, -0.21804946660995483, -0.010434103198349476, 0.5232710242271423, 0.18739667534828186, 0.1536981165409088, -0.13125477731227875 },
			{ -0.2646041512489319, -0.05491597577929497, -0.22951218485832214, -0.13235501945018768, 0.15358242392539978, 0.03572247177362442, 0.2525625228881836, 0.03630721569061279, 0.1202041432261467, 0.16048412024974823 },
			{ -0.3910820484161377, 0.21377812325954437, -0.04899657517671585, 0.17408046126365662, -0.07974477857351303, 0.23368407785892487, 0.03560422360897064, -0.11672797054052353, 0.05035528913140297, -0.18367107212543488 },
			{ -0.3852677047252655, 0.14465279877185822, -0.20398032665252686, 0.3999531865119934, -0.11753000319004059, 0.3220885992050171, -0.06258272379636765, -0.0671287253499031, 0.2199374884366989, -0.14744272828102112 },
			{ 0.07716946303844452, -0.04150242358446121, -0.2819887101650238, 0.18020276725292206, 0.08480387181043625, 0.4033161401748657, -0.08329708874225616, -0.44177132844924927, 0.08655661344528198, -0.046539146453142166 },
			{ -0.1639159619808197, 0.18990349769592285, -0.07920672744512558, 0.041712790727615356, 0.007208295166492462, 0.17520573735237122, -0.18004857003688812, -0.1446588635444641, -0.05957268923521042, 0.11518971621990204 },
			{ -0.058259353041648865, 0.1067836582660675, 0.016632890328764915, 0.002647858113050461, -0.08634734153747559, 0.0421622171998024, -0.004892983008176088, 0.01877445913851261, -0.09653036296367645, -0.04140395671129227 },
			{ 0.06781533360481262, -0.03324880078434944, -0.006847591605037451, -0.006022954825311899, 0.030891666188836098, -0.07632087171077728, -0.041237980127334595, 0.03855399414896965, 0.05961908400058746, -0.06789126992225647 },
			{ -0.0006969398818910122, -0.051171522587537766, 0.026213819161057472, -0.028983887284994125, 0.06408672034740448, 0.004948288667947054, 0.013533876277506351, -0.09946606308221817, -0.006034257356077433, 0.004933257587254047 },
			{ -0.15939415991306305, 0.10993775725364685, 0.0732773095369339, -0.113230861723423, -0.09150096029043198, 0.16785919666290283, -0.07491646707057953, 0.060852356255054474, -0.03338272497057915, -0.020635977387428284 },
			{ 0.1310480535030365, 0.07201553136110306, 0.09243997186422348, -0.0873403325676918, -0.1783919632434845, -0.13794291019439697, -0.15644657611846924, 0.4404885470867157, 0.1508740484714508, -0.19740068912506104 },
			{ 0.08129294216632843, 0.07979458570480347, 0.204046830534935, -0.25107353925704956, 0.019526083022356033, -0.09681738913059235, -0.1759955883026123, 0.25420913100242615, 0.10647730529308319, -0.01568453200161457 },
			{ -0.009981960989534855, -0.05156780779361725, -0.1288047581911087, 0.010365414433181286, 0.1561405211687088, 0.24568891525268555, -0.12018255144357681, 0.14399442076683044, -0.22620047628879547, -0.13366824388504028 },
			{ -0.16128526628017426, -0.023352090269327164, -0.1491866260766983, 0.030475227162241936, 0.16006651520729065, 0.05988074466586113, -0.18852515518665314, 0.3204423487186432, -0.059014953672885895, -0.006341997534036636 },
			{ -0.2502058446407318, 0.2036857157945633, -0.006826555356383324, -0.22498491406440735, 0.013401663862168789, 0.17422173917293549, -0.014310036785900593, -0.06582440435886383, -0.09049767255783081, 0.2360081970691681 },
			{ -0.32801732420921326, -0.11074467748403549, 0.02151714265346527, -0.05117836222052574, 0.0201195627450943, -0.03356897830963135, -0.24317209422588348, 0.23500752449035645, 0.1761360764503479, 0.022782491520047188 },
			{ -0.2749415338039398, 0.10830651223659515, -0.0677395761013031, 5.63413486815989e-05, -0.13637222349643707, 0.04959144443273544, -0.193216472864151, 0.1892712563276291, 0.22495871782302856, 0.07682833820581436 },
			{ -0.5203365087509155, 0.13494709134101868, -0.145791694521904, 0.044805772602558136, 0.19236379861831665, 0.21707987785339355, 0.17759491503238678, -0.15538790822029114, 0.17069359123706818, 0.1402420550584793 },
			{ -0.036017484962940216, -0.21490788459777832, -0.2016567438840866, 0.13678589463233948, 0.3745288550853729, 0.19852416217327118, -0.16949976980686188, -0.4174951910972595, 0.21306848526000977, 0.14914514124393463 },
			{ -0.25711971521377563, 0.0738295167684555, 0.10897098481655121, 0.012664282694458961, 0.022384315729141235, 0.26667311787605286, -0.13237284123897552, -0.06925961375236511, -0.15592506527900696, 0.07105130702257156 },
			{ -0.025578616186976433, 0.06183835491538048, -0.00503259664401412, 0.04345856234431267, -0.05085023120045662, 0.06265825033187866, 0.08221202343702316, 0.05638933554291725, 0.014781900681555271, 0.07628316432237625 },
			{ 0.011766533367335796, -0.08256296068429947, 0.04084957018494606, 0.06115715205669403, 0.07978180050849915, -0.0073008486069738865, 0.02413201704621315, 0.08617541939020157, -0.06054338812828064, 0.05604003742337227 },
			{ -0.03401270881295204, 0.05335698276758194, -0.0622454397380352, 0.07297944277524948, -0.045076046139001846, 0.01619037613272667, 0.01460324041545391, 0.024289214983582497, -0.031846702098846436, -0.08458621799945831 },
			{ -0.09501735121011734, 0.03615814447402954, -0.01814265362918377, 0.13544851541519165, -0.02843312919139862, -0.05105433613061905, -0.04515909031033516, 0.23417361080646515, -0.0839860811829567, 0.051399875432252884 },
			{ -0.17912687361240387, -0.045297037810087204, -0.18846087157726288, 0.2871938943862915, -0.03624289110302925, -0.22775445878505707, 0.06769101321697235, 0.3996124267578125, -0.3864857852458954, 0.08954412490129471 },
			{ -0.23580150306224823, 0.18781691789627075, -0.3023131191730499, 0.30664899945259094, 0.0354464054107666, -0.04873323813080788, -0.05857748165726662, 0.5271030068397522, -0.30976465344429016, 0.30923447012901306 },
			{ -0.3401367962360382, 0.007719132117927074, -0.5165385007858276, 0.15317901968955994, 0.2696254253387451, -0.009970239363610744, -0.1700211614370346, 0.3606763482093811, -0.14503496885299683, 0.4924227297306061 },
			{ -0.37785059213638306, 0.022702788934111595, -0.3352087736129761, 0.17450785636901855, -0.04648979753255844, 0.11309508234262466, -0.36383405327796936, 0.27209246158599854, -0.033714719116687775, 0.34205499291419983 },
			{ -0.520145833492279, 0.03993036597967148, -0.4041641056537628, -0.03964165598154068, 0.15134461224079132, 0.27341172099113464, -0.27270641922950745, 0.6113592982292175, -0.02528919279575348, -0.03775091469287872 },
			{ -0.3598593473434448, -0.2699890434741974, -0.2232157289981842, 0.09954982250928879, -0.10979942232370377, 0.2603224217891693, -0.18276932835578918, 0.40287065505981445, 0.12534135580062866, -0.07504802942276001 },
			{ -0.3778008222579956, -0.055941179394721985, -0.19595840573310852, 0.24484752118587494, 0.14842936396598816, 0.10925454646348953, 0.044259943068027496, 0.08468517661094666, -0.10521518439054489, 0.031505923718214035 },
			{ -0.2502972185611725, -0.051347360014915466, -0.23155754804611206, 0.20603828132152557, -0.04743519797921181, 0.06358559429645538, -0.020919425413012505, 0.15196764469146729, -0.0018769692396745086, 0.24161742627620697 },
			{ -0.0158071406185627, -0.04918038845062256, 0.008049490861594677, -0.024748826399445534, -0.03491697832942009, 0.04985060915350914, -0.11219269782304764, -0.029948558658361435, -0.19034819304943085, 0.22376815974712372 },
			{ -0.10045699030160904, 0.006490413099527359, -0.00841437466442585, -0.06800264865159988, 0.028424076735973358, 0.04463864117860794, -0.012192057445645332, -0.03283555805683136, -0.11487150192260742, 0.026950499042868614 },
			{ -0.03389185294508934, 0.021281203255057335, -0.045049164444208145, 0.06842586398124695, 0.018027273938059807, 0.043420396745204926, -0.08566327393054962, 0.02875080332159996, -0.017332062125205994, 0.06509111821651459 },
			{ 0.05814233794808388, 0.05179012566804886, 0.05207132175564766, -0.011505985632538795, 0.021428780630230904, -0.0537923201918602, -0.002008723793551326, 0.011329523287713528, 0.07965429872274399, -0.08306315541267395 },
			{ 0.026699334383010864, -0.0051611862145364285, 0.07564187794923782, -0.030302681028842926, -0.07629754394292831, -0.025419924408197403, -0.03190672770142555, 0.07575006037950516, 0.08298882842063904, 0.010960022918879986 },
			{ 0.020084653049707413, 0.050102442502975464, 0.042694710195064545, -0.061579380184412, 0.01392347738146782, -0.009867805987596512, -0.005041725467890501, -0.04947526752948761, 0.040284544229507446, 0.07348786294460297 },
			{ -0.09635033458471298, 0.03417579457163811, 0.049857694655656815, -0.0638684555888176, -0.024052798748016357, -0.04702209308743477, -0.06572908908128738, -0.07227703928947449, 0.012925210408866405, 0.08662659674882889 },
			{ -0.1105855405330658, -0.07617709785699844, -0.06001335382461548, -0.024169310927391052, -0.057278186082839966, 0.0015634343726560473, -0.018008435145020485, 0.14877714216709137, -0.04756974056363106, 0.29922086000442505 },
			{ -0.08275406807661057, -0.06176195293664932, -0.05631670355796814, 0.03903830423951149, -0.1705036759376526, 0.020639104768633842, 0.011163868010044098, 0.38254767656326294, -0.08072178810834885, 0.02532697096467018 },
			{ -0.08917756378650665, -0.09727529436349869, -0.07482513785362244, 0.13558195531368256, -0.35944369435310364, 0.02773112803697586, -0.02125406451523304, 0.219870924949646, -0.1391667276620865, 0.30401843786239624 },
			{ -0.005952159874141216, 0.005512381438165903, -0.10056024044752121, -0.04949553683400154, -0.1835252344608307, -0.05087990686297417, -0.028330810368061066, 0.17591334879398346, -0.18237733840942383, 0.2621040940284729 },
			{ -0.11196564137935638, -0.035011086612939835, -0.1110541895031929, 0.16465261578559875, -0.3147033751010895, 0.0871533453464508, -0.02049006149172783, 0.08162941783666611, -0.06684423238039017, 0.45408356189727783 },
			{ -0.11971435695886612, -0.09844552725553513, -0.11666875332593918, -0.04521677643060684, -0.18718235194683075, -0.018938273191452026, -0.08438760787248611, 0.1552935391664505, -0.07292012870311737, 0.25106173753738403 },
			{ 0.004428032319992781, 0.055730994790792465, -0.008154063485562801, 0.06372629106044769, -0.22500155866146088, 0.057065870612859726, -0.01033993624150753, 0.18944838643074036, -0.13320502638816833, 0.13343392312526703 },
			{ 0.04692042991518974, 0.013715972192585468, -0.06481733918190002, 0.005225443281233311, 0.02429378032684326, 0.05618927627801895, -0.011273720301687717, 0.03237806633114815, -0.05745173990726471, -0.025729896500706673 },
			{ -0.06381632387638092, -0.06535471975803375, -0.03990356996655464, -0.0685286745429039, 0.04321647062897682, -0.04513869807124138, -0.08073306828737259, 0.07050715386867523, -0.011061719618737698, -0.007926425896584988 },
			{ 0.01669255644083023, 0.07349901646375656, 0.08034021407365799, -0.022128775715827942, -0.026533178985118866, -0.008377416990697384, -0.07022027671337128, 0.057521890848875046, 0.0021956334821879864, -0.050439223647117615 },
			{ -0.023901253938674927, 0.003894877852872014, -0.005790213588625193, -0.031291499733924866, -0.07253961265087128, -0.017334003001451492, -0.021137462928891182, -0.013454494997859001, -0.04139721393585205, -0.08404317498207092 },
			{ -0.05365706980228424, 0.12646843492984772, -0.03777676448225975, 0.0016384231857955456, -0.006376341450959444, 0.0869564637541771, -0.03426918014883995, -0.07289788872003555, -0.032773181796073914, -0.0581844337284565 },
			{ 0.0821189433336258, 0.10136495530605316, -0.07285811752080917, 0.029770145192742348, 0.04898638650774956, 0.09191252291202545, 0.012866663746535778, 0.08062656223773956, 0.07286636531352997, 0.05132957920432091 },
			{ -0.05128386989235878, 0.018235426396131516, 0.07868296653032303, -0.09688983857631683, -0.1406591683626175, -0.014630395919084549, 0.017740398645401, -0.028803357854485512, -0.06206401810050011, -0.03923419490456581 },
			{ 0.02254451811313629, -0.03163311630487442, 0.009754947386682034, -0.13379380106925964, 0.025761865079402924, 0.06820936501026154, 0.01961921527981758, -0.034815918654203415, -0.06142481416463852, 0.05384731665253639 },
			{ -0.03451737016439438, 0.10409253090620041, 0.09537430852651596, -0.1383686065673828, -0.05657356232404709, -0.026155754923820496, 0.056402988731861115, -0.050925012677907944, -0.07420104742050171, -0.04704001918435097 },
			{ -0.05719707906246185, 0.260543555021286, -0.05759519711136818, -0.0466310940682888, -0.061338555067777634, -0.026846930384635925, 0.08304394781589508, -0.06345924735069275, -0.029538018628954887, 0.06737370789051056 },
			{ 0.02332546003162861, 0.21995507180690765, -0.11077351868152618, -0.07453317195177078, -0.14100679755210876, 0.07913852483034134, 0.14196263253688812, -0.045749276876449585, -0.07614026963710785, -0.04557296261191368 },
			{ -0.03153373673558235, 0.17341987788677216, -0.19350534677505493, -0.05513250455260277, -0.037975799292325974, 0.06772533804178238, 0.04312652349472046, 0.04593371972441673, 0.04254705458879471, 0.012167027220129967 },
			{ 0.07871416956186295, 0.16761714220046997, -0.10594694316387177, -0.012946291826665401, -0.062227070331573486, -0.015487751923501492, 0.13864053785800934, 0.08607472479343414, -0.08985242992639542, 0.04386778920888901 },
			{ -0.03307248651981354, 0.057284098118543625, -0.06810212880373001, -0.020429152995347977, -0.06392708420753479, 0.03988248482346535, -0.03871989995241165, -0.027776634320616722, 0.02049507014453411, 0.07441075891256332 },
			{ 0.04726829379796982, -0.024210860952734947, 0.009580563753843307, -0.02707492560148239, 0.015218015760183334, 0.027297837659716606, 0.01981988362967968, 0.026590479537844658, -0.08004358410835266, -0.0411841906607151 },
			{ 0.058492228388786316, -0.009554841555655003, -0.07796397060155869, -0.02568374201655388, 0.004183683078736067, -0.06320303678512573, 0.038393136113882065, -0.03219149261713028, -0.029437899589538574, 0.07829111814498901 },
			{ 0.04422397166490555, -0.022545065730810165, -0.061596889048814774, -0.02851513773202896, -0.07834319770336151, -0.011634193360805511, 0.04768088832497597, -0.06637969613075256, -0.022145451977849007, 0.011549021117389202 },
			{ -0.005506797693669796, 0.03701189532876015, -0.00455889105796814, -0.09908558428287506, 0.03644546866416931, -0.058417052030563354, 0.02120206318795681, 0.0489749051630497, -0.07120838016271591, 0.06937612593173981 },
			{ 0.08653759956359863, 0.013914589770138264, -0.09604841470718384, 0.023480288684368134, 0.04568832367658615, -0.02859908528625965, 0.06112179532647133, -0.012647196650505066, -0.03275121748447418, -0.017147749662399292 },
			{ -0.001203634892590344, 0.05642421543598175, 0.0032422372605651617, -0.034787848591804504, -0.10175221413373947, -0.08442430943250656, 0.06882406026124954, -0.0157987829297781, 0.08410298079252243, 0.04847419634461403 },
			{ 0.05935554578900337, 0.08404690772294998, 0.021241510286927223, -0.05344761908054352, 0.04343315213918686, -0.0770377516746521, 0.04317428544163704, -0.07857947051525116, -0.042009010910987854, -0.04620054364204407 },
			{ -0.019332902505993843, 0.11812260746955872, 0.02605687454342842, -0.12106122076511383, -0.018107039853930473, -0.010058638639748096, 0.09806434065103531, -0.14703060686588287, 0.06655549257993698, -0.04561106115579605 },
			{ 0.034350670874118805, 0.1398073136806488, -0.009808788076043129, -0.12884268164634705, 0.12014266848564148, -0.0984545350074768, -0.04210878536105156, -0.07200456410646439, 0.09120079129934311, 0.04668426141142845 },
			{ 0.07876475900411606, 0.10922302305698395, -0.0892629325389862, -0.25321024656295776, 0.09441070258617401, 0.035551153123378754, 0.2047048807144165, -0.06510517746210098, 0.05137845128774643, -0.06738317757844925 },
			{ 0.1350582242012024, 0.2738158404827118, -0.33255434036254883, -0.3673289120197296, 0.20814837515354156, -0.02388932928442955, -0.1649564951658249, -0.03985633701086044, 0.13341283798217773, -0.023159019649028778 },
			{ 0.14135323464870453, 0.16505396366119385, -0.373619019985199, -0.37736964225769043, 0.12931665778160095, 0.18327322602272034, -0.10281585901975632, -0.04550575092434883, 0.20469681918621063, -0.1429726630449295 },
			{ -0.14337752759456635, 0.168411985039711, -0.20545722544193268, -0.37562796473503113, 0.21403931081295013, 0.12809444963932037, 0.11233238875865936, -0.00622115284204483, 0.06876002252101898, -0.15272051095962524 },
			{ -0.02566305547952652, 0.00839271117001772, -0.07275627553462982, -0.18836864829063416, -0.04304997995495796, -0.107117660343647, 0.057502251118421555, 0.08262095600366592, 0.0386185348033905, 0.012318446300923824 },
			{ -0.03354522958397865, 0.09116381406784058, -0.03782172128558159, -0.09406286478042603, 0.1104130670428276, 0.1608445942401886, -0.034511227160692215, -0.05825287476181984, 0.02080458030104637, -0.06287683546543121 },
			{ 0.032159045338630676, 0.008816343732178211, 0.06868579238653183, -0.010873853228986263, 0.010674301534891129, -0.0647154375910759, -0.03391117602586746, -0.08329474925994873, 0.00038135278737172484, 0.03303868696093559 },
			{ -0.07217389345169067, 0.011986895464360714, 0.06294352561235428, -0.06721851229667664, -0.007255152333527803, -0.07303182035684586, -0.015367004089057446, -0.016208931803703308, 0.07437329739332199, 0.03484019264578819 },
			{ -0.02544461563229561, 0.13546255230903625, -0.09414207190275192, -0.10072892904281616, -0.0891912654042244, 0.0004434754082467407, 0.06931772828102112, -0.04440717771649361, -0.04295233264565468, 0.018558699637651443 },
			{ 0.01854645647108555, 0.022740891203284264, -0.0877443328499794, -0.03462360426783562, 0.00948857981711626, -0.012565851211547852, 0.1625271588563919, -0.02902922034263611, -0.008870428428053856, -0.0168918389827013 },
			{ 0.16691339015960693, 0.11342058330774307, -0.006028922740370035, -0.17796503007411957, 0.05515692010521889, 0.04106619954109192, -0.02202841080725193, -0.01753278821706772, -0.087528757750988, 0.0711812749505043 },
			{ -0.028653336688876152, -0.03410882502794266, -0.031694404780864716, -0.06173805147409439, 0.032921962440013885, 0.03503945842385292, -0.021474787965416908, -0.2039431780576706, 0.05530614033341408, 0.06450919806957245 },
			{ 0.044797033071517944, -0.12040084600448608, 0.11854992806911469, -0.07821822166442871, 0.14811503887176514, 0.034699421375989914, -0.10053054243326187, 0.028744759038090706, 0.006661522202193737, -0.09907345473766327 },
			{ 0.0843631848692894, 0.1281997710466385, 0.0917820930480957, -0.10855478793382645, 0.3448750674724579, -0.10834705829620361, 0.03214094787836075, -0.3038443624973297, 0.13124708831310272, -0.10521774739027023 },
			{ -0.015255849808454514, 0.22919593751430511, -0.2899335026741028, -0.07471407949924469, 0.10368439555168152, 0.07850971072912216, 0.03011341206729412, -0.15484054386615753, -0.022235913202166557, -0.0850641205906868 },
			{ 0.054073791950941086, 0.27344810962677, -0.04996316879987717, -0.4616546332836151, 0.6278888583183289, -0.08092979341745377, 0.18847151100635529, -0.233035147190094, 0.028766073286533356, -0.20050808787345886 },
			{ 0.2025073766708374, 0.2798287868499756, -0.14250771701335907, -0.47914162278175354, 0.6161848306655884, 0.10696796327829361, -0.0019544330425560474, -0.2557527422904968, 0.2598875164985657, -0.380464643239975 },
			{ -0.012412111274898052, 0.45354384183883667, -0.024811945855617523, -0.3274543881416321, 0.6033455729484558, -0.15991716086864471, -0.0363355353474617, -0.24082081019878387, 0.010226737707853317, -0.2519487738609314 },
			{ 0.01894245110452175, 0.20360587537288666, -0.1713958978652954, -0.2919692099094391, 0.3754449486732483, 0.18633025884628296, -0.12438511848449707, 0.030492722988128662, 0.013671520166099072, -0.3574914336204529 },
			{ -0.0649099349975586, 0.013044633902609348, -0.21069581806659698, -0.18831022083759308, 0.14760175347328186, -0.0137419942766428, -0.013147972524166107, -0.056720178574323654, 0.180024191737175, -0.0009811419295147061 },
			{ 0.11685138195753098, 0.03931363299489021, 0.03868277370929718, 0.0071951160207390785, -0.06188119575381279, -0.11100714653730392, -0.08243965357542038, -0.028390683233737946, 0.0928490161895752, 0.08866699039936066 },
			{ 0.040802933275699615, 0.12136776745319366, -0.0009555227588862181, -0.05376487597823143, -0.024227241054177284, 0.08199116587638855, 0.07858659327030182, 0.023925313726067543, 0.04378432407975197, -0.05250665917992592 },
			{ 0.05037597194314003, 0.06261735409498215, 0.02159135602414608, -0.10049932450056076, -0.05229141190648079, 0.08197323232889175, 0.04654455557465553, -0.03251555562019348, 0.04860768839716911, -0.09867259114980698 },
			{ -0.06402458995580673, 0.008752400055527687, -0.02544853650033474, 0.03676074743270874, -0.00713008688762784, 0.00696409959346056, -0.025511451065540314, -0.08966701477766037, -0.020616596564650536, -0.05324921756982803 },
			{ 0.03164796158671379, -0.030716951936483383, 0.17466911673545837, -0.14127178490161896, -0.15790575742721558, -0.09089037030935287, -0.12093179672956467, -0.24411261081695557, 0.052371468394994736, 0.23470589518547058 },
			{ 0.13632699847221375, -0.07003287971019745, 0.2489776462316513, 0.08295821398496628, -0.29956942796707153, -0.2435406893491745, 0.1003917008638382, -0.22598285973072052, 0.06212557852268219, 0.20626617968082428 },
			{ 0.08749968558549881, -0.007201351225376129, 0.0568099170923233, -0.07251516729593277, 0.0013382527977228165, -0.28977760672569275, 0.10412480682134628, -0.06856647878885269, -0.01091439463198185, 0.23055285215377808 },
			{ 0.03654829040169716, -0.05683472007513046, 0.2222086787223816, -0.028501957654953003, -0.05951753258705139, -0.10401153564453125, 0.1333012580871582, -0.15326561033725739, 0.009502320550382137, 0.19815529882907867 },
			{ 0.0057235718704760075, 0.18720367550849915, 0.2537592649459839, -0.26184678077697754, 0.017539028078317642, -0.09508343040943146, 0.12451137602329254, -0.3915885090827942, 0.023633578792214394, 0.07914098352193832 },
			{ 0.13177700340747833, 0.11411157995462418, -0.08561541140079498, -0.18661442399024963, 0.2599047124385834, -0.087339848279953, 0.27347153425216675, -0.37878966331481934, -0.21406759321689606, -0.053527723997831345 },
			{ 0.059619151055812836, 0.31265971064567566, -0.2561410665512085, -0.2374795526266098, 0.5213181972503662, 0.03918547183275223, 0.31174206733703613, -0.1151357963681221, -0.28203627467155457, -0.27244898676872253 },
			{ -0.0010171809699386358, 0.21001949906349182, -0.2514609396457672, -0.07305354624986649, 0.4699326753616333, -0.019319875165820122, 0.21601857244968414, -0.0662875771522522, -0.157991424202919, -0.3458651900291443 },
			{ -0.26288896799087524, 0.08420910686254501, -0.022896718233823776, -0.020634282380342484, 0.3217879831790924, 0.2010936141014099, 0.0929052010178566, -0.006263540592044592, -0.15867485105991364, -0.2698808014392853 },
			{ -0.07308179140090942, 0.09040097892284393, -0.011487831361591816, -0.042830731719732285, 0.12895719707012177, 8.735164010431617e-05, -0.13283105194568634, 0.09789378196001053, -0.028220029547810555, -0.016090376302599907 },
			{ 0.00872900988906622, 0.1821330338716507, 0.05402915179729462, -0.08104033023118973, -0.08370562642812729, -0.07039259374141693, -0.041556354612112045, 0.08368734270334244, 0.20250096917152405, -0.011242843233048916 },
			{ 0.060090072453022, 0.1370740830898285, 0.057766806334257126, -0.02583967335522175, -0.032311324030160904, -0.05115605145692825, 0.053194742649793625, -0.024428030475974083, -0.043299827724695206, 0.09090597182512283 },
			{ -0.042892809957265854, 0.04829131066799164, -0.052442412823438644, -0.08203201740980148, 0.015435850247740746, 0.07882418483495712, -0.010267868638038635, 0.005754702724516392, -0.044997308403253555, -0.025295227766036987 },
