/*
 * This file is auto-generated by gen-weights.py
 */

#pragma once

#include "definitions.h"


// Dense layer weights.
float dense_weights[FLAT_SIZE][DENSE_SIZE]
	 = {
			{ 0.024206355214118958, -0.0536777526140213, 0.008136142045259476, 0.030937066301703453, -0.07947386801242828, -0.07621768116950989, 0.0773976594209671, 0.046943750232458115, 0.08375314623117447, 0.08005040138959885 },
			{ 0.0845695436000824, -0.027983568608760834, 0.08666317909955978, -0.027323657646775246, -0.07153485715389252, -0.04090747609734535, -0.06078525260090828, 0.071470245718956, -0.04116395488381386, -0.029856132343411446 },
			{ 0.01861848495900631, -0.048096828162670135, 0.023558249697089195, -0.013552892953157425, 0.06636359542608261, -0.06907693296670914, -0.06965198367834091, 0.04745598882436752, -0.06751932203769684, -0.002604254288598895 },
			{ 0.014183019287884235, -0.06871113926172256, -0.06377353519201279, 0.009597083553671837, -0.05438097193837166, -0.043039701879024506, 0.022387921810150146, -0.05861908197402954, 0.009741386398673058, -0.0026258323341608047 },
			{ -0.05731380730867386, -0.06729167699813843, 0.08407741785049438, 0.05832557752728462, 0.01675054058432579, -0.024044759571552277, 0.05170373246073723, 0.02915791980922222, 0.07518811523914337, 0.08382066339254379 },
			{ -0.018269555643200874, 0.07551464438438416, 0.023691607639193535, -0.02695315331220627, 0.05365123599767685, 0.004874936770647764, 0.11884868144989014, -0.07513219863176346, -0.0126661267131567, -0.08089613169431686 },
			{ -0.06537649035453796, -0.059986621141433716, 0.03316900134086609, 0.07915574312210083, -0.11003899574279785, -0.06690186262130737, 0.010469774715602398, 0.07769229263067245, 0.05036073178052902, -0.07857382297515869 },
			{ -0.017433302477002144, -0.030817268416285515, 0.09649364650249481, -0.015722276642918587, 0.04483171924948692, -0.005652700085192919, 0.08288851380348206, -0.00396985188126564, 0.002498985268175602, 0.0719519779086113 },
			{ -0.06371470540761948, 0.026937488466501236, -0.03263802453875542, -0.07007688283920288, -0.07968662679195404, -0.013557360507547855, -0.006148896180093288, -0.03314249590039253, 0.04087211564183235, 0.013634053990244865 },
			{ -0.039431214332580566, 0.04535963758826256, -0.08460520952939987, 0.03941573202610016, -0.025497257709503174, 0.06790053844451904, 0.009301851503551006, 0.028191426768898964, 0.007719871588051319, -0.008793391287326813 },
			{ 0.05290387570858002, -0.010526797734200954, -0.07699302583932877, 0.03826585412025452, 0.013849987648427486, 0.053651273250579834, 0.004866756033152342, -0.06162438541650772, -0.06941799074411392, 0.07466114312410355 },
			{ 0.07799425721168518, 0.07752739638090134, -0.02879435569047928, 0.08180171251296997, -0.0006055490230210125, 0.026577282696962357, 0.05926733836531639, 0.011537847109138966, 0.048856496810913086, -0.07341375946998596 },
			{ -0.0626969113945961, -0.07875445485115051, -0.06663727760314941, -0.052859000861644745, 0.01897616870701313, 0.07279851287603378, -0.008029500022530556, 0.04554194584488869, 0.01460354495793581, -0.07732855528593063 },
			{ 0.03336367756128311, -0.07351816445589066, -0.05311385542154312, -0.06132268160581589, -0.0768037736415863, -0.04513809457421303, -0.036993514746427536, -0.03102044202387333, -0.06598496437072754, 0.030659381300210953 },
			{ 0.08458387851715088, 0.006352297496050596, -0.06159275397658348, 0.026719672605395317, 0.058677174150943756, -0.034540239721536636, 0.06004950776696205, 0.04308423027396202, -0.0766386166214943, 0.06400221586227417 },
			{ -0.02028631418943405, -0.08262466639280319, 0.01162806712090969, 0.0571453794836998, -0.025210944935679436, -0.07737930119037628, -0.030020324513316154, 0.0621248297393322, 0.06515620648860931, -0.028903907164931297 },
			{ -0.0894649475812912, -0.04883139207959175, -0.027408961206674576, -0.010802376084029675, 0.07484622299671173, -0.06616375595331192, 0.07611870765686035, 0.015172742307186127, -0.06945722550153732, -0.000823384034447372 },
			{ -0.060093462467193604, -0.016770539805293083, -0.05243496969342232, 0.11954855173826218, 0.03354181349277496, 0.03896138444542885, 0.16264769434928894, 0.050703395158052444, 0.03765760362148285, 0.014495687559247017 },
			{ 0.032071150839328766, -0.0636565163731575, 0.11875893175601959, 0.06712999939918518, -0.05197773873806, 0.014013029634952545, 0.08571300655603409, 0.037978723645210266, 0.008601563982665539, -0.014130895957350731 },
			{ -0.07081371545791626, -0.17634454369544983, 0.21473748981952667, 0.19761227071285248, -0.25431570410728455, -0.12391991913318634, 0.20837001502513885, -0.01615862362086773, 0.03816955164074898, -0.03752859681844711 },
			{ -0.05651126801967621, 0.04985608160495758, 0.21977154910564423, 0.18058447539806366, -0.1874004751443863, 0.04621730372309685, 0.2722799479961395, -0.06392811983823776, -0.03267982229590416, 0.05642000585794449 },
			{ -0.17946460843086243, 0.00713503360748291, 0.05473699793219566, 0.16885986924171448, -0.2769816219806671, 0.062376175075769424, 0.1465001106262207, -0.03777327015995979, -0.11882776767015457, -0.025832615792751312 },
			{ -0.21783246099948883, -0.050441376864910126, 0.04399687424302101, 0.22853121161460876, -0.02400103211402893, 0.06015998125076294, 0.020967526361346245, -0.10008912533521652, -0.06173853576183319, -0.08039634674787521 },
			{ -0.05431682616472244, 0.06308463215827942, -0.12986035645008087, 0.15734580159187317, -0.018400225788354874, 0.21217094361782074, 0.25584349036216736, -0.11238980293273926, -0.18551261723041534, -0.10325095802545547 },
			{ -0.07455756515264511, 0.02523507922887802, 0.04081098362803459, 0.015468606725335121, 0.08530904352664948, 0.049855686724185944, 0.18331627547740936, -0.08587303757667542, 0.033490076661109924, -0.036560554057359695 },
			{ -0.042231447994709015, -0.0035888764541596174, -0.07247672975063324, -0.0006029413198120892, -0.03176436573266983, 0.08753009885549545, 0.21712221205234528, 0.03384016081690788, 0.024601595476269722, 0.005964045412838459 },
			{ -0.04878082498908043, -0.0908348485827446, 0.0480433814227581, -0.05855581909418106, -0.07548917084932327, 0.0933881551027298, 0.06860098987817764, 0.08295881003141403, 0.045469969511032104, -0.0680973008275032 },
			{ 0.07579553127288818, -0.05526544526219368, -0.0854860171675682, 0.03397494927048683, 0.03349345177412033, 0.020056195557117462, 0.08524888753890991, -0.03134547546505928, -0.0792626366019249, -0.0343288779258728 },
			{ -0.045232318341732025, 0.003763343207538128, 0.08499830961227417, 0.07606027275323868, -0.01306107547134161, -0.030811123549938202, -0.07021338492631912, -0.004690062254667282, 0.013285230845212936, -0.0068617588840425014 },
			{ 0.057374224066734314, -0.006644937209784985, -0.03569592162966728, 0.09769271314144135, 0.0016919770278036594, -0.028095845133066177, -0.035577934235334396, 0.057392723858356476, 0.0032234573736786842, -0.020448006689548492 },
			{ -0.11507461965084076, -0.030952975153923035, -0.028673872351646423, 0.19104309380054474, 0.09784813225269318, -0.14036662876605988, 0.03424546867609024, -0.07008212059736252, -0.006035336758941412, 0.04987627640366554 },
			{ 0.02260562777519226, 0.04393735155463219, 0.026895079761743546, 0.05817955359816551, 0.01974400319159031, -0.05980870872735977, 0.01779239997267723, 0.04126180335879326, -0.018354086205363274, -0.009563134983181953 },
			{ -0.06367657333612442, -0.11195916682481766, 0.12973478436470032, -0.04123762622475624, -0.1695430874824524, 0.04610798507928848, 0.08684999495744705, -0.05065985396504402, 0.010434124618768692, -0.00738987373188138 },
			{ 0.05340630188584328, 0.027862010523676872, 0.13088111579418182, 0.04611285775899887, -0.3110925257205963, -0.03702251985669136, -0.11592437326908112, -0.19556178152561188, 0.06593257933855057, 0.21468621492385864 },
			{ -0.006399313919246197, 0.1562429666519165, 0.019863175228238106, -0.04108373075723648, -0.2568807005882263, -0.021546747535467148, -0.015969116240739822, -0.22296138107776642, 0.21803399920463562, 0.10467316955327988 },
			{ -0.12283283472061157, 0.19490115344524384, -0.03981304168701172, -0.03423747047781944, -0.2501526176929474, 0.2970728278160095, 0.1027831882238388, -0.23920506238937378, 0.028522944077849388, -0.0689171850681305 },
			{ -0.05623533949255943, -0.08941357582807541, -0.0052557457238435745, 0.018829314038157463, -0.39095091819763184, 0.27422577142715454, 0.20221148431301117, -0.2745763659477234, 0.13710510730743408, 0.07888486981391907 },
			{ -0.13937261700630188, 0.1272554248571396, 0.015869949012994766, 0.1317284256219864, -0.21566037833690643, 0.05384894832968712, 0.40090087056159973, -0.3126804232597351, -0.11392344534397125, 0.05361079424619675 },
			{ -0.129405215382576, 0.03860039636492729, 0.0075066592544317245, 0.008145599626004696, -0.049576424062252045, -0.0006858194246888161, 0.40919429063796997, -0.26787346601486206, -0.06412724405527115, -0.06972984969615936 },
			{ -0.1562497317790985, 0.06195607781410217, -0.13537971675395966, -0.06051979213953018, 0.0968891903758049, 0.11012327671051025, 0.16384540498256683, -0.06094026938080788, -0.09602593630552292, -0.15509416162967682 },
			{ -0.050916045904159546, -0.050388578325510025, 0.003476838581264019, 0.02460477687418461, 0.10308127105236053, 0.2060983031988144, 0.018639380112290382, -0.013777008280158043, -0.03446652740240097, -0.08325234800577164 },
			{ -0.015521551482379436, -0.052258219569921494, -0.08180677145719528, 0.08092598617076874, 0.04143475368618965, 0.008218229748308659, 0.017321107909083366, 0.06226187199354172, 0.028066856786608696, -0.028445525094866753 },
			{ 0.00878550112247467, -0.08596467971801758, -0.04054402932524681, -0.07940252870321274, 0.03260798379778862, 0.052557867020368576, -0.030072271823883057, 0.050870854407548904, -0.046074073761701584, 0.03519408777356148 },
			{ -0.06315150856971741, 0.06742755323648453, -0.03809475898742676, 0.08367674052715302, 0.039046287536621094, -0.10614312440156937, -0.02705666422843933, -0.055614300072193146, -0.018359174951910973, 0.041061367839574814 },
			{ -0.046950340270996094, 0.0706622302532196, -0.12323349714279175, 0.13531750440597534, 0.11101749539375305, -0.1714731752872467, -0.03825654834508896, 0.09204182773828506, 0.05006776377558708, -0.19183680415153503 },
			{ -0.08533888310194016, -0.16447962820529938, 0.09988544136285782, -0.13070961833000183, 0.12237897515296936, 0.08800891041755676, 0.0194700937718153, -0.011096232570707798, 0.14028465747833252, 0.015335626900196075 },
			{ 0.028058281168341637, -0.20659928023815155, 0.06888345628976822, 0.059613991528749466, -0.14160989224910736, 0.11576693505048752, -0.03543009236454964, -0.024142799898982048, 0.1022692620754242, 0.17685344815254211 },
			{ 0.040580395609140396, -0.04113307595252991, 0.2054041177034378, 0.0647508054971695, -0.2232760339975357, 0.05343102291226387, -0.16669079661369324, -0.08364802598953247, 0.013819457031786442, 0.293728768825531 },
			{ 0.10699084401130676, -0.014452270232141018, 0.1680062860250473, 0.10143863409757614, -0.18004372715950012, 0.013880708254873753, -0.1985156387090683, -0.01990116387605667, -0.0820511057972908, 0.23627129197120667 },
			{ 0.14439210295677185, -0.023912589997053146, 0.09051121026277542, 0.03215373679995537, -0.08648406714200974, 0.07536586374044418, -0.10731399804353714, -0.1506984382867813, -0.005787607282400131, 0.10013828426599503 },
			{ 0.049500107765197754, -0.020959677174687386, -0.13737162947654724, -0.10818761587142944, -0.11033681035041809, 0.2936049699783325, -0.10632981359958649, 0.28473997116088867, 0.07015788555145264, 0.10375311970710754 },
			{ -0.0310367438942194, 0.060566239058971405, -0.2053672820329666, 0.027238326147198677, -0.0941522940993309, 0.20297333598136902, 0.10363088548183441, 0.019350212067365646, -0.13529792428016663, 0.05231804773211479 },
			{ -0.09542818367481232, 0.27026715874671936, -0.09797168523073196, -0.03695030137896538, -0.0030597622971981764, 0.14898449182510376, 0.21403546631336212, -0.005361244548112154, -0.21009184420108795, 0.01843690685927868 },
			{ -0.12277814000844955, -0.05886941775679588, -0.16413772106170654, -0.16639277338981628, 0.3333280086517334, 0.2936272621154785, -0.043848294764757156, -0.17031560838222504, -0.08125627785921097, -0.11213161796331406 },
			{ -0.14917553961277008, -0.12613460421562195, 0.02283705212175846, -0.1933257132768631, 0.11878406256437302, 0.3294484317302704, 0.0317695289850235, 0.012886956334114075, 0.08191055059432983, -0.20514678955078125 },
			{ -0.10685893148183823, 0.06353502720594406, -0.011808051727712154, 0.07933606207370758, -0.07371186465024948, 0.13878291845321655, 0.06400366872549057, -0.029587917029857635, -0.06995839625597, -0.04784141480922699 },
			{ 0.05455027148127556, 0.05731535702943802, 0.037912845611572266, -0.052156779915094376, 0.012774397619068623, 0.061931464821100235, 0.002249274170026183, 0.08142339438199997, -0.07742683589458466, -0.07709421962499619 },
			{ -0.0481266975402832, -0.06858653575181961, 0.010333675891160965, 0.014465266838669777, 0.009296002797782421, -0.0827028900384903, 0.08564351499080658, 0.1417463719844818, -0.03461310639977455, -0.17742452025413513 },
			{ -0.0725167915225029, -0.00970083475112915, -0.1089419424533844, 0.21248996257781982, -0.060755953192710876, -0.07711205631494522, 0.016494818031787872, 0.11533704400062561, 0.03169514611363411, 0.03457767888903618 },
			{ 0.03985202684998512, -0.14056800305843353, -0.2330125868320465, 0.010180297307670116, 0.01998603343963623, 0.09758114069700241, 0.019614804536104202, 0.1497734636068344, 0.005409653298556805, 0.1219327449798584 },
			{ 0.05118944123387337, -0.1214735358953476, 0.10139541327953339, 0.03850427269935608, -0.11011795699596405, -0.02122325450181961, -0.20549246668815613, 0.06934214383363724, 0.01538862194865942, 0.16228249669075012 },
			{ 0.1676580011844635, 0.03828411549329758, 0.07649406045675278, 0.17557206749916077, -0.19768182933330536, -0.09131000936031342, -0.2652495503425598, 0.23283569514751434, -0.12755566835403442, 0.19215266406536102 },
			{ 0.2021421492099762, 0.12804560363292694, 0.1018444076180458, 0.4491174519062042, -0.26536014676094055, -0.3728686273097992, -0.35202282667160034, 0.11551254242658615, -0.16747257113456726, 0.1846802681684494 },
			{ 0.2634301483631134, 0.06136851757764816, -0.13781271874904633, 0.3570818305015564, 0.0428801067173481, -0.4522157907485962, -0.5503119230270386, 0.3805832266807556, -0.19020092487335205, 0.24363383650779724 },
			{ 0.20097558200359344, -0.07363926619291306, -0.09047338366508484, 0.02852805331349373, 0.034765444695949554, -0.17273810505867004, -0.49737313389778137, 0.33578401803970337, -0.020066317170858383, 0.03373226895928383 },
			{ 0.002768736332654953, 0.1032407134771347, -0.23859690129756927, 0.07794379442930222, -0.02576451748609543, -0.15409763157367706, -0.1999274492263794, 0.25379088521003723, 0.11235862225294113, 0.04496416449546814 },
			{ -0.1308857947587967, 0.09157296270132065, -0.07665954530239105, 0.23985162377357483, 0.05430210009217262, 0.003379749832674861, -0.21589963138103485, 0.08865494281053543, -0.046187542378902435, -0.19977188110351562 },
			{ -0.08741763234138489, -0.13647690415382385, -0.0640948936343193, -0.013679968193173409, 0.17531901597976685, 0.4270581305027008, -0.2758368253707886, 0.06787674874067307, 0.18373709917068481, -0.19075869023799896 },
			{ -0.0683983862400055, -0.12272737175226212, -0.15702691674232483, -0.0891067385673523, 0.01759674958884716, 0.5513960719108582, -0.11367753148078918, -0.06760343164205551, -0.02897346019744873, -0.1789984554052353 },
			{ 0.018969137221574783, -0.04798083007335663, -0.00768189737573266, -0.02394743077456951, -0.006407890003174543, 0.13836579024791718, 0.016476215794682503, -0.011164260096848011, -0.02075616642832756, -0.007609791122376919 },
			{ 0.06660504639148712, 0.035991743206977844, 0.02551860548555851, -0.01176939345896244, 0.009496788494288921, 0.017247993499040604, -0.041977155953645706, 0.00022799079306423664, 0.018908550962805748, -0.034488338977098465 },
			{ -0.10571614652872086, -0.06374013423919678, -0.1459791213274002, -0.041272759437561035, -0.08520809561014175, -0.04685147479176521, -0.011742528527975082, 0.2905208468437195, -0.011915650218725204, -0.1176149845123291 },
			{ -0.051512058824300766, -0.0722898617386818, -0.2376449555158615, -0.17531029880046844, 0.07323596626520157, -0.010237934067845345, 0.03295710310339928, 0.2643156349658966, 0.14262714982032776, 0.16495902836322784 },
			{ 0.0676065981388092, -0.12902772426605225, -0.28604474663734436, -0.3158441185951233, 0.17647825181484222, 0.05226880684494972, 0.04945327714085579, 0.042161695659160614, 0.13276411592960358, 0.11764642596244812 },
			{ 0.09602697938680649, -0.22788816690444946, -0.3019230365753174, -0.23652960360050201, 0.26141348481178284, -0.016324013471603394, 0.0005842449609190226, 0.18357667326927185, 0.04309797286987305, 0.12946394085884094 },
			{ -0.030487237498164177, -0.027795301750302315, -0.10006792843341827, -0.07038761675357819, 0.33682024478912354, -0.06439313292503357, -0.08008770644664764, 0.20108452439308167, 0.038850318640470505, 0.001887970371171832 },
			{ -0.03035297989845276, 0.2754683494567871, -0.3219389319419861, 0.37111079692840576, -0.30262649059295654, -0.17408286035060883, -0.07500887662172318, 0.22219112515449524, -0.03310120850801468, 0.18375490605831146 },
			{ -0.07207796722650528, 0.19510319828987122, -0.1753195971250534, 0.41120627522468567, -0.10014060884714127, -0.3708666265010834, -0.5330841541290283, 0.2985609173774719, -0.12025319039821625, 0.40175843238830566 },
			{ 0.04588906839489937, -0.14573518931865692, -0.2299840748310089, 0.2415468394756317, 0.05646637827157974, -0.33372271060943604, -0.5063878297805786, 0.45426616072654724, 0.014757953584194183, 0.3131496012210846 },
			{ 0.0276325736194849, -0.06894896179437637, -0.08637116849422455, 0.14111532270908356, -0.06677212566137314, -0.3341226279735565, -0.3652478754520416, 0.26244205236434937, 0.2088242918252945, 0.17481257021427155 },
			{ -0.024842388927936554, -0.0505194291472435, -0.11100571602582932, 0.022729894146323204, 0.029871195554733276, -0.16331258416175842, -0.09646307677030563, 0.1418139785528183, 0.146376371383667, 0.028951046988368034 },
			{ -0.01704477146267891, -0.11301714181900024, -0.16802287101745605, 0.05842159315943718, -0.14693549275398254, 0.007825969718396664, -0.09079685062170029, -0.000632572453469038, 0.3405035734176636, 0.05796093866229057 },
			{ -0.03361407294869423, -0.06762294471263885, 0.05179741233587265, -0.10972194373607635, -0.11020811647176743, 0.24524915218353271, -0.11814596503973007, 0.011457218788564205, 0.02313380502164364, -0.06911194324493408 },
			{ 0.04436027258634567, -0.0018795222276821733, 0.08657151460647583, -0.02285623736679554, 0.05345945432782173, -0.04536622390151024, 0.04963716119527817, 0.01433144137263298, 0.08364017307758331, -0.003314649686217308 },
			{ -0.04478674381971359, -0.04038335382938385, -0.006804972421377897, 0.04607400670647621, -0.09161262959241867, -0.07848417013883591, 0.04417327418923378, 0.02167743258178234, 0.0008594415849074721, -0.03083115816116333 },
			{ -0.012854347936809063, -0.06643346697092056, -0.028600212186574936, -0.051887813955545425, -0.02050309255719185, 0.0802750214934349, -0.05514335259795189, 0.21388167142868042, 0.0809720978140831, 0.12327965348958969 },
			{ 0.10416365414857864, -0.09088846296072006, -0.45474687218666077, -0.23388755321502686, 0.15618188679218292, -0.04055352881550789, 0.017172355204820633, 0.138469859957695, 0.02898349054157734, 0.18594560027122498 },
			{ 0.26492318511009216, -0.15340812504291534, -0.41764041781425476, -0.46450862288475037, 0.35959261655807495, 0.16464105248451233, 0.13072168827056885, -0.08367621153593063, -0.05438832938671112, 0.12208625674247742 },
			{ 0.20754563808441162, -0.01107283215969801, -0.15867631137371063, -0.2791726887226105, 0.25020110607147217, 0.19997645914554596, 0.1344694197177887, -0.03218064084649086, -0.02963506616652012, -0.285022497177124 },
			{ 0.26316598057746887, -0.021776579320430756, -0.034179579466581345, 0.007773918565362692, 0.31259045004844666, 0.21836797893047333, 0.001658883411437273, 0.029466599225997925, -0.11216282844543457, -0.5146776437759399 },
			{ -0.209483802318573, 0.6052398085594177, 0.02578018605709076, 0.3792001008987427, -0.015400761738419533, 0.042991187423467636, -0.17541000247001648, -0.154254749417305, -0.07433588802814484, -0.2391277402639389 },
			{ -0.5738568305969238, 0.25466620922088623, -0.2146727293729782, 0.15849465131759644, -0.07837000489234924, -0.23730362951755524, -0.19821222126483917, 0.19702598452568054, 0.0422283373773098, 0.64410001039505 },
			{ -0.2328418791294098, 0.05289263650774956, 0.0072821397334337234, 0.3307914733886719, 0.2283460795879364, -0.3443041443824768, -0.2570773661136627, 0.08815208077430725, 0.07384949922561646, 0.5982935428619385 },
			{ -0.10813986510038376, -0.12988795340061188, 0.04242252930998802, -0.07973144203424454, -0.013077803887426853, -0.29563280940055847, -0.1927366554737091, -0.11153946071863174, 0.2658615708351135, 0.2648077607154846 },
			{ 0.10949458181858063, -0.11841577291488647, -0.12313030660152435, -0.23305553197860718, 0.0832018181681633, -0.2852444052696228, 0.04835115000605583, -0.01623731106519699, 0.15752139687538147, 0.3418511748313904 },
			{ 0.19129814207553864, -0.01792748272418976, 0.07045528292655945, -0.23222599923610687, -0.07736002653837204, -0.3521011471748352, 0.24934223294258118, -0.0927119329571724, 0.21075405180454254, 0.046296197921037674 },
			{ 0.025156719610095024, 0.04168134555220604, 0.158522829413414, -0.024538634344935417, -0.09679277241230011, -0.027952011674642563, 0.04998691380023956, -0.012319962494075298, -0.047890886664390564, -0.10972150415182114 },
			{ 0.06699159741401672, -0.005790431518107653, 0.10143536329269409, -0.04671544209122658, 0.005348397884517908, 0.016828058287501335, 0.05207783356308937, -0.06262864917516708, 0.0459110327064991, -0.003464375389739871 },
			{ -0.0038319125305861235, 0.006684512365609407, 0.03370954841375351, 0.07526080310344696, -0.023732440546154976, 0.07116679847240448, 0.00024651584681123495, 0.04696241766214371, 0.041953202337026596, -0.0305466428399086 },
			{ -0.03151595592498779, -0.041778452694416046, -0.03505118936300278, -0.01941002532839775, -0.023444009944796562, -0.0968615859746933, -0.12431875616312027, 0.1083190068602562, -0.09517567604780197, 0.012904797680675983 },
			{ 0.28537359833717346, -0.10431082546710968, -0.016871700063347816, -0.09562341868877411, 0.20913244783878326, -0.1580294817686081, 0.05405498668551445, -0.007832721807062626, -0.10173581540584564, 0.025890028104186058 },
			{ 0.34271809458732605, -0.172963947057724, -0.09744670242071152, -0.4295446276664734, 0.2478552758693695, -0.27194204926490784, 0.15299975872039795, -0.058685053139925, 0.041122160851955414, 0.0707826092839241 },
			{ 0.3156108558177948, -0.11515769362449646, 0.196273073554039, -0.6010644435882568, 0.24515551328659058, -0.2733260989189148, 0.2656186819076538, -0.024016160517930984, 0.2044103443622589, -0.24420054256916046 },
			{ 0.1763245016336441, 0.07116525620222092, 0.3614826798439026, -0.39434632658958435, 0.13205379247665405, -0.12360833585262299, 0.31537094712257385, -0.12734003365039825, 0.06348440051078796, -0.5358263254165649 },
			{ -0.336661159992218, 0.37946617603302, 0.2505621910095215, 0.09641773253679276, -0.22508540749549866, -0.06009618565440178, 0.03874766826629639, -0.34918996691703796, 0.23101866245269775, 0.12305629253387451 },
			{ -0.7077670097351074, 0.09136315435171127, 0.024820031598210335, 0.28727397322654724, 0.242437943816185, -0.2741604745388031, 0.020137356594204903, -0.03578152880072594, -0.02292170375585556, 0.35409480333328247 },
			{ -0.1350066065788269, -0.18625281751155853, -0.14410795271396637, 0.20432156324386597, 0.33634820580482483, -0.18538856506347656, -0.1942199170589447, 0.1878257393836975, -0.16997121274471283, 0.16095107793807983 },
			{ -0.014641678892076015, -0.3515530228614807, -0.03497188538312912, 0.06366439908742905, 0.15395894646644592, -0.2744635045528412, -0.0417356975376606, 0.20293928682804108, -0.06305601447820663, 0.28447648882865906 },
			{ 0.1286551058292389, -0.0870150700211525, -0.010792551562190056, -0.07573360949754715, 0.1210382953286171, -0.253089040517807, 0.08892367035150528, 0.18654534220695496, -0.07839295268058777, 0.06294332444667816 },
			{ 0.26862454414367676, -0.01542794331908226, 0.0635964423418045, -0.04455570876598358, -0.09971453249454498, -0.06736300140619278, 0.11097563058137894, 0.06295572966337204, -0.2752651870250702, -0.16171444952487946 },
			{ 0.004378501791507006, 0.051859594881534576, 0.3775196671485901, -0.06417562812566757, -0.12775693833827972, 0.0005669726524502039, -0.00676628528162837, -0.06937511265277863, -0.04839509725570679, -0.11789257079362869 },
			{ 0.07656130194664001, -0.04034179821610451, -0.025965774431824684, 0.05255129933357239, 0.03544531762599945, -0.026577549055218697, -0.03963318094611168, 0.019110240042209625, 0.06563058495521545, -0.06493684649467468 },
			{ -0.008728818967938423, -0.0842711552977562, -0.09079539775848389, 0.07945391535758972, 0.07737811654806137, 0.010426154360175133, -0.04905148595571518, -0.021644193679094315, 0.03404654935002327, -0.04282113537192345 },
			{ 0.022123845294117928, 0.05727124586701393, 0.18058283627033234, 0.09847912192344666, -0.05663730204105377, -0.09372498840093613, -0.06514746695756912, 0.05517534911632538, -0.020586786791682243, 0.004259173292666674 },
			{ 0.310261994600296, -0.11018203943967819, 0.174884632229805, -0.07572014629840851, 0.019237501546740532, -0.05187186598777771, 0.033971965312957764, 0.003918023314327002, -0.02228098176419735, 0.03213861212134361 },
			{ 0.26470816135406494, -0.21995383501052856, 0.15269401669502258, -0.3586903214454651, 0.13973520696163177, -0.3878635764122009, 0.23444797098636627, -0.10321864485740662, 0.24148516356945038, 0.024482788518071175 },
			{ 0.25737735629081726, -0.11404987424612045, 0.35807785391807556, -0.46943745017051697, 0.0840645581483841, -0.46300771832466125, 0.359936386346817, -0.12425504624843597, 0.5654886960983276, -0.4149201810359955 },
			{ 0.14455772936344147, 0.014644359238445759, 0.44966360926628113, -0.4941829741001129, -0.09789641201496124, -0.19266270101070404, 0.19493499398231506, -0.1031813770532608, 0.4613770544528961, -0.39778292179107666 },
			{ -0.5447278022766113, 0.2125353068113327, 0.36775463819503784, -0.14040876924991608, -0.29097920656204224, -0.10012828558683395, 0.10765308141708374, -0.0221125278621912, 0.16307683289051056, 0.08717599511146545 },
			{ -0.40897348523139954, -0.07162567973136902, -0.03705354034900665, -0.050377171486616135, 0.27796733379364014, -0.13910923898220062, 0.21532894670963287, 0.18651063740253448, -0.014030351303517818, 0.05753014236688614 },
			{ 0.029105309396982193, -0.34705036878585815, -0.019443921744823456, 0.026914775371551514, 0.39805740118026733, -0.17829951643943787, -0.10621913522481918, 0.3215636909008026, -0.08601762354373932, 0.13471543788909912 },
			{ 0.11108429729938507, -0.1780126988887787, -0.05331994220614433, -0.01543465442955494, 0.2585672438144684, -0.059471067041158676, 0.054633013904094696, 0.23977556824684143, -0.304104208946228, 0.022444523870944977 },
			{ 0.14326564967632294, -0.2152496725320816, 0.00990633200854063, 0.11644657701253891, 0.15147526562213898, 0.004587667062878609, 0.044257793575525284, 0.14996275305747986, -0.23275096714496613, -0.02115979604423046 },
			{ 0.15284660458564758, -0.13805188238620758, -0.0775737315416336, 0.01669308915734291, -0.028409231454133987, -0.025324184447526932, 0.07957319170236588, -0.02036360278725624, -0.1436661034822464, -0.14625710248947144 },
			{ -0.0035557919181883335, 0.08633971959352493, 0.3764983117580414, -0.14137336611747742, -0.030705012381076813, -0.009714786894619465, -0.002028806833550334, -0.034109484404325485, 0.016142891719937325, -0.09173186123371124 },
			{ 0.012161748483777046, -0.08625087141990662, 0.15304048359394073, 0.03445625305175781, 0.008970186114311218, 0.0021268571726977825, 0.052104733884334564, -0.02482014149427414, -0.01597711630165577, -0.04351357743144035 },
			{ 0.011884554289281368, -0.011913368478417397, 0.05917434021830559, -0.0036118910647928715, 0.043940141797065735, -0.0649605542421341, 0.06188466027379036, -0.07667429000139236, -0.013425099663436413, 0.003617329988628626 },
			{ -0.012893274426460266, 0.01877427101135254, 0.1582569032907486, 0.17156527936458588, -0.03480960801243782, 0.0010187884327024221, -0.1206202283501625, -0.12994804978370667, -0.015474184416234493, -0.03955373167991638 },
			{ 0.059467613697052, -0.27150407433509827, 0.32469192147254944, 0.0024755147751420736, -0.09868685901165009, 0.011830306611955166, 0.09716469049453735, -0.20499692857265472, 0.06434193253517151, -0.04818151146173477 },
			{ 0.11021716892719269, -0.13194714486598969, 0.23506762087345123, -0.22731931507587433, 0.0021957936696708202, -0.1827183961868286, 0.11796260625123978, -0.03406450152397156, 0.29549404978752136, -0.20812764763832092 },
			{ 0.20867028832435608, -0.0752490758895874, 0.32481321692466736, -0.19312992691993713, 0.02296478860080242, -0.28577595949172974, 0.1295061856508255, -0.20044350624084473, 0.27576446533203125, -0.3255379796028137 },
			{ 0.04002069681882858, -0.031381722539663315, 0.35944581031799316, -0.2042641043663025, 0.12589211761951447, -0.050484687089920044, 0.17342893779277802, -0.2393864244222641, -0.033013228327035904, -0.19367454946041107 },
			{ -0.1028045117855072, 0.1824685037136078, 0.3582247495651245, -0.04368666931986809, -0.01556195318698883, 0.0877746045589447, -0.017448224127292633, -0.034016191959381104, -0.11429474502801895, -0.04003727063536644 },
			{ -0.14497624337673187, -0.07362348586320877, -0.0391305647790432, 0.17761772871017456, 0.07057901471853256, 0.1789931356906891, 0.12776623666286469, 0.08522950857877731, -0.2308492213487625, -0.026073012501001358 },
			{ 0.08351297676563263, -0.168695330619812, -0.02929169312119484, 0.10049240291118622, 0.05384775251150131, -0.19273020327091217, 0.09147413820028305, -0.07172037661075592, -0.0928514152765274, -0.013595778495073318 },
			{ -0.018457651138305664, -0.0468313954770565, -0.17700354754924774, 0.14292342960834503, -0.01882263459265232, 0.040724482387304306, 0.08635073155164719, 0.0851535052061081, 0.07578834146261215, -0.06532255560159683 },
			{ 0.1310328096151352, -0.07727768272161484, -0.08079364895820618, 0.12409753352403641, 0.03825763240456581, 0.1477501392364502, 0.0235587190836668, -0.009086829610168934, -0.015604699961841106, -0.043358996510505676 },
			{ 0.14551883935928345, 0.04615084454417229, -0.06349068135023117, 0.070730060338974, -0.10565020889043808, 0.12558689713478088, -0.048736825585365295, -0.08984459936618805, 0.09999388456344604, -0.00917375460267067 },
			{ -0.09075439721345901, 0.09592173248529434, 0.21348311007022858, -0.059864457696676254, -0.015714174136519432, -0.00677476404234767, -0.11480890959501266, 0.009291424416005611, -0.047084636986255646, -0.09519442170858383 },
			{ 0.05472000315785408, 0.08084571361541748, -0.05276133492588997, 0.030387168750166893, -0.038994092494249344, 0.04742599278688431, -0.07618983089923859, 0.03212490305304527, -0.02861148864030838, -0.02670513279736042 },
			{ 0.04574437066912651, -0.026358341798186302, -0.021781867370009422, 0.07643137127161026, -0.024271510541439056, -0.054483696818351746, 0.06074671819806099, -0.06442997604608536, -0.014727504923939705, -0.0294345710426569 },
			{ 0.07007724046707153, 0.03129447251558304, 0.22237621247768402, 0.10022519528865814, -0.0340145006775856, 0.020282011479139328, 0.03135990723967552, -0.05072940140962601, -0.09965016692876816, -0.05857197567820549 },
			{ 0.07802069187164307, 0.03457028791308403, 0.2574633061885834, 0.0718357264995575, -0.015126729384064674, 0.04342164844274521, -0.13624709844589233, -0.08465775847434998, 0.08281397074460983, -0.09419739991426468 },
			{ 0.09469670057296753, 0.13286037743091583, 0.2126341164112091, -0.03279224783182144, -0.06986381113529205, 0.04476979002356529, 0.04280582815408707, -0.07263688743114471, 0.16329425573349, -0.2502667307853699 },
			{ -0.023947738111019135, 0.15538038313388824, 0.03519885241985321, -0.15329769253730774, -0.07648621499538422, 0.10348226875066757, 0.1465524286031723, -0.1409786343574524, -0.04428378492593765, -0.17750605940818787 },
			{ 0.04838778078556061, 0.0019043560605496168, -0.012753373011946678, -0.1505151093006134, -0.038221389055252075, 0.28474298119544983, 0.1511702984571457, 0.18930739164352417, -0.38495317101478577, 0.012984990142285824 },
			{ -0.22296161949634552, -0.129508376121521, 0.0222402922809124, 0.34352320432662964, -0.16396935284137726, 0.2518068850040436, 0.10942113399505615, -0.03275159373879433, -0.04450824484229088, -0.056494273245334625 },
			{ -0.08183153718709946, -0.21150997281074524, 0.12465839087963104, 0.09082746505737305, -0.18040423095226288, 0.21058526635169983, 0.05700339004397392, -0.2479538768529892, -0.0234230849891901, 0.031435269862413406 },
			{ 0.03809186443686485, -0.013360307551920414, -0.07748507708311081, 0.17141295969486237, -0.21746988594532013, 0.12975245714187622, 0.12041362375020981, -0.0375327467918396, 0.050218626856803894, -0.20366407930850983 },
			{ -0.0513443760573864, 0.015329944901168346, -0.17099717259407043, 0.26670992374420166, -0.11043352633714676, 0.38886791467666626, 0.08216474950313568, -0.11961902678012848, 0.048679761588573456, -0.07121632248163223 },
			{ -0.08547768741846085, -0.01617617905139923, -0.1592535823583603, 0.17230631411075592, 0.0032942569814622402, 0.22290374338626862, 0.09901871532201767, -0.31400251388549805, 0.13702215254306793, -0.1583089977502823 },
			{ -0.05703861266374588, -0.04654930904507637, -0.0607583150267601, -0.018133146688342094, -0.002413177862763405, 0.2208639681339264, -0.03625084087252617, -0.18708078563213348, 0.10932797193527222, 0.0009182923822663724 },
			{ 0.04700900986790657, 0.03136349469423294, 0.06735216826200485, 0.037279773503541946, 0.04838274419307709, 0.0011983985314145684, 0.02895495854318142, -0.0702771246433258, 0.007574842777103186, -0.024626852944493294 },
			{ 0.06583397090435028, 0.05263917148113251, -0.03906276822090149, 0.021455690264701843, 0.0017095012590289116, 0.031206270679831505, -0.027937423437833786, 0.03680409863591194, -0.04599510505795479, 0.08532054722309113 },
			{ -0.06152278929948807, 0.02376234158873558, 0.060185570269823074, 0.03615373745560646, 0.014064663089811802, -0.006532029714435339, -0.03255349025130272, 0.05432048439979553, 0.030859803780913353, -0.08328177779912949 },
			{ -0.0647897720336914, 0.0585809163749218, -0.03494929522275925, 0.06228046491742134, -0.07755180448293686, 0.057458970695734024, -0.006647503934800625, -0.07059819251298904, 0.022459063678979874, 0.05424464866518974 },
			{ 0.08600275963544846, 0.04783230274915695, 0.04161134734749794, -0.024372048676013947, -0.13573962450027466, -0.058210793882608414, -0.06738139688968658, 0.016793178394436836, 0.04463958367705345, -0.07781963795423508 },
			{ 0.11503379791975021, 0.09815831482410431, 0.04258782044053078, -0.14972618222236633, -0.07795145362615585, -0.07697316259145737, -0.16743479669094086, 0.10414599627256393, -0.09211771190166473, 0.06654611974954605 },
			{ 0.1489708572626114, 0.16198605298995972, 0.170760840177536, -0.22343844175338745, -0.1394006311893463, -0.06035701930522919, -0.09522316604852676, 0.16167324781417847, -0.21575553715229034, 0.07774952054023743 },
			{ -0.007782008498907089, 0.028635302558541298, 0.10915576666593552, 0.18922866880893707, -0.09793484956026077, 0.07410037517547607, -0.17758513987064362, -0.16814878582954407, -0.24575388431549072, 0.19029487669467926 },
			{ -0.1395905762910843, -0.05180603638291359, 0.276601642370224, 0.2361619919538498, -0.1729613095521927, 0.14060746133327484, -0.14742867648601532, -0.2301698625087738, -0.09118696302175522, 0.019088391214609146 },
			{ 0.17294280230998993, -0.19667062163352966, 0.054538700729608536, 0.3182902932167053, -0.22409175336360931, 0.12398422509431839, -0.02334100566804409, -0.23698775470256805, 0.1831737905740738, -0.060576293617486954 },
			{ 0.10606875270605087, 0.0230802521109581, 0.006692987401038408, 0.17914782464504242, -0.21715986728668213, 0.1966186910867691, -0.09708123654127121, -0.1529800444841385, 0.2576636075973511, -0.25106289982795715 },
			{ -0.00659763440489769, 0.07295171916484833, -0.15697546303272247, 0.2479299008846283, -0.07286932319402695, 0.20026035606861115, 0.005864793434739113, -0.12993547320365906, 0.23580387234687805, -0.18890884518623352 },
			{ -0.005904965568333864, -0.034014444798231125, 0.03924587741494179, -0.04859128221869469, -0.0028314930386841297, 0.10138510167598724, -0.045848846435546875, -0.17667099833488464, 0.2751923203468323, 0.0131688816472888 },
			{ -0.047955114394426346, -0.006516813766211271, 0.1299751251935959, -0.06363096088171005, -0.025075340643525124, 0.19555094838142395, -0.038150426000356674, -0.03775813430547714, 0.05262536555528641, 0.11010468006134033 },
			{ -0.048893675208091736, -0.0685071051120758, 0.033163025975227356, 0.012033290229737759, -0.005650355946272612, 0.11176235973834991, 0.01269218884408474, 0.05305200070142746, -0.028734061866998672, 0.06094939261674881 },
			{ -0.021633541211485863, 0.03905833512544632, 0.08846390247344971, -0.04274303466081619, 0.06663323938846588, 0.014593442901968956, 0.008059859275817871, -0.0017383897211402655, 0.0856536477804184, -0.05159900337457657 },
			{ -0.04256436228752136, -0.024433784186840057, 0.028125731274485588, 0.06606130301952362, -0.037121668457984924, -0.08046890795230865, -0.03462114930152893, 0.05116903781890869, -0.047807153314352036, -0.022728290408849716 },
			{ 0.005463775712996721, -0.07588673382997513, 0.018429545685648918, 0.057955365628004074, 0.0483635738492012, 0.03320927917957306, -0.08359424769878387, 0.016059236600995064, -0.07216659933328629, -0.08256050199270248 },
			{ -0.0059728240594267845, 0.0362669862806797, -0.08768842369318008, 0.19216078519821167, -0.061563484370708466, -0.12413062155246735, 0.03490683063864708, 0.1464623212814331, -0.030311770737171173, 0.06140490621328354 },
			{ -0.06528272479772568, -0.0688224732875824, -0.07249722629785538, 0.08915404975414276, -0.07718774676322937, -0.043515585362911224, -0.011340364813804626, 0.22038869559764862, -0.16799229383468628, 0.17487747967243195 },
			{ -0.20391741394996643, -0.09979905933141708, -0.231972336769104, 0.1518094837665558, -0.03629295155405998, -0.04450078308582306, -0.10023084282875061, 0.2033301293849945, -0.10920587927103043, 0.2130586951971054 },
			{ -0.2968198359012604, -0.27602893114089966, -0.1524185985326767, 0.2965090274810791, -0.06756121665239334, 0.16868922114372253, -0.04446595907211304, 0.15672607719898224, 0.04335577413439751, 0.1490657478570938 },
			{ -0.25728100538253784, -0.2186281681060791, -0.05741884186863899, 0.37042826414108276, -0.18144086003303528, 0.2031448781490326, -0.07314398139715195, 0.11844764649868011, 0.11127333343029022, 0.022094402462244034 },
			{ -0.23738481104373932, -0.11139106005430222, 0.08612580597400665, 0.2667384743690491, -0.13398857414722443, 0.2622251510620117, -0.13712292909622192, 0.05641603097319603, 0.11911503225564957, -0.19609102606773376 },
			{ -0.2749563753604889, -0.09269360452890396, -0.0002862999390345067, 0.11556725203990936, -0.16488251090049744, 0.19488376379013062, -0.14253418147563934, 0.07348956912755966, 0.08034493774175644, -0.025521352887153625 },
			{ -0.15386652946472168, -0.03967314213514328, -0.22541150450706482, 0.08306676149368286, -0.09338376671075821, 0.1307258903980255, -0.010127768851816654, 0.07923240214586258, 0.030971352010965347, 0.12354546040296555 },
			{ -0.012909958139061928, -0.05287639796733856, -0.11744987219572067, 0.13946348428726196, 2.9278406145749614e-05, 0.07005737721920013, 0.012103666551411152, -0.00327681633643806, 0.04569011926651001, 0.16253745555877686 },
			{ 0.027147922664880753, 0.00471271388232708, 0.05530039593577385, -0.017647242173552513, -0.0601593516767025, -0.005800721235573292, -0.08722155541181564, -0.10286024957895279, -0.006953309755772352, 0.004705280065536499 },
			{ -0.019360965117812157, -0.022399814799427986, -0.06717949360609055, 0.04738716408610344, 0.042118169367313385, 0.003019972937181592, -0.0802648738026619, 0.03465162590146065, 0.07129433006048203, 0.007722822017967701 },
			{ 0.05509199947118759, -0.0414334200322628, -0.08191045373678207, 0.024078991264104843, 0.014853700064122677, -0.01944824680685997, -0.0017283095512539148, -0.07308310270309448, 0.03338896110653877, 0.07392571866512299 },
			{ -0.05758729949593544, 0.018454119563102722, 0.08358877152204514, -0.02355082519352436, 0.03193523362278938, 0.03825371712446213, -0.08402183651924133, 0.019009264186024666, 0.037144482135772705, -0.04480171203613281 },
			{ 0.04406532272696495, 0.02075553871691227, -0.06775718927383423, 0.010167323984205723, -0.01057450845837593, -0.018456710502505302, 0.07519318163394928, 0.070789635181427, -0.07090498507022858, 0.010177231393754482 },
			{ -0.006233216729015112, 0.06122978404164314, -0.030718263238668442, -0.0667017251253128, -0.03660605847835541, -0.05632850527763367, -0.004857241176068783, -0.05468248948454857, 0.015527098439633846, 0.005298630800098181 },
			{ -0.0672498345375061, -0.041626110672950745, 0.046340927481651306, 0.026001324877142906, 0.050836432725191116, -0.08676658570766449, -0.050591785460710526, -0.017335129901766777, 0.016007961705327034, 0.12283653765916824 },
			{ 0.011324998922646046, -0.07859407365322113, -0.039454516023397446, -0.04350167140364647, -0.020662710070610046, 0.0037677939981222153, 0.030731165781617165, 0.1616944670677185, 0.03302992507815361, 0.11427469551563263 },
			{ 0.029414212331175804, -0.026751749217510223, -0.028663208708167076, 0.09347256273031235, -0.04707527905702591, 0.00999015849083662, -0.0025730340275913477, 0.02529808320105076, -0.0962950810790062, 0.12782666087150574 },
			{ 0.026628755033016205, 0.023732224479317665, -0.04455044865608215, 0.038821298629045486, -0.1748620569705963, -0.05279334634542465, -0.06975440680980682, 0.046886544674634933, -0.029602061957120895, 0.08915246278047562 },
			{ 0.045044250786304474, 0.010631032288074493, -0.021754147484898567, 0.00012345929280854762, -0.1481720507144928, -0.047968488186597824, -0.05933663994073868, 0.11042466759681702, -0.047702740877866745, 0.020837467163801193 },
			{ -0.02972934953868389, -0.025287263095378876, -0.030185265466570854, 0.046844638884067535, 0.005544618237763643, 0.012836724519729614, -0.07858182489871979, 0.06206808239221573, 0.03133959695696831, 0.15452131628990173 },
			{ -0.09201844036579132, 0.01565496437251568, -0.06796140968799591, 0.07470913976430893, 0.0034438634756952524, -0.06273110955953598, -0.07526431977748871, 0.054395757615566254, 0.021777380257844925, 0.08593250811100006 },
			{ 0.012005111202597618, 0.07151969522237778, -0.004332704935222864, 0.027463877573609352, -0.06344886869192123, -0.008195213973522186, -0.014891179278492928, 0.054670508950948715, -0.0900508239865303, 0.030410408973693848 },
			{ 0.02073291689157486, 0.03452916443347931, 0.04462142661213875, 0.08044232428073883, -0.022643130272626877, -0.03169494494795799, 0.04827273637056351, -0.03936992958188057, 0.04377292841672897, -0.024954691529273987 },
			{ 0.04006091505289078, -0.02482765167951584, -0.07546748220920563, 0.04008062928915024, -0.017362022772431374, -0.08319006860256195, 0.06990249454975128, -0.051388055086135864, -0.07462628185749054, -0.016373753547668457 },
			{ -0.014266422018408775, -0.01773044466972351, -0.02679908648133278, 0.045448288321495056, 0.015811672434210777, -0.019728366285562515, 0.004255830310285091, -0.04596732556819916, 0.0769512727856636, 0.031629737466573715 },
			{ 0.07446528226137161, 0.1451779454946518, -0.0423765555024147, -0.06387346982955933, 0.003189451526850462, -0.03852120786905289, -0.1146741583943367, -0.05708920210599899, -0.1308681219816208, 0.06033511459827423 },
			{ -0.0727403536438942, 0.030930865556001663, -0.02044684812426567, -0.06758276373147964, -0.12050124257802963, 0.07067412883043289, 0.050044458359479904, -0.0703018307685852, -0.054663799703121185, -0.019314024597406387 },
			{ 0.048392798751592636, 0.01215713657438755, 0.05848417431116104, 0.011042386293411255, -0.018961109220981598, 0.033948853611946106, 0.0501762293279171, -0.0029661962762475014, 0.01387351006269455, 0.034243080765008926 },
			{ 0.03457584232091904, -0.009304650127887726, -0.033311765640974045, 0.014129777438938618, -0.1278379112482071, 0.12432929128408432, 0.08397836983203888, -0.04706667363643646, -0.012720432132482529, 0.06804700940847397 },
			{ 0.05574362725019455, 0.04331376031041145, 0.000993900466710329, -0.026695918291807175, -0.1467750370502472, 0.002847122959792614, 0.05587536096572876, -0.06781870126724243, -0.030800433829426765, 0.00946544948965311 },
			{ 0.020339088514447212, -0.018277525901794434, -0.002562080742791295, 0.03351184353232384, -0.13203264772891998, -0.05798887461423874, 0.07371997088193893, 0.0898735299706459, -0.012248347513377666, 0.00016019883332774043 },
			{ 0.029378654435276985, 0.14972157776355743, -0.007961115799844265, -0.11025098711252213, -0.10765030980110168, -0.061769355088472366, -0.025428617373108864, 0.028776777908205986, -0.12493102997541428, -0.08085386455059052 },
			{ 0.030973970890045166, 0.08532175421714783, -0.011486289091408253, -0.04344799742102623, -0.10571915656328201, 0.07573138177394867, 0.11838352680206299, 0.009117773734033108, -0.04551902040839195, -0.0668354406952858 },
			{ -0.09384018927812576, 0.08004288375377655, -0.15674638748168945, 0.03489433974027634, -0.13962624967098236, 0.07489736378192902, 0.03919445723295212, -0.05145799368619919, -0.05509570240974426, -0.034983210265636444 },
			{ 0.0431828610599041, 0.11460378021001816, -0.00919840857386589, 0.026664974167943, -0.11223098635673523, -0.0307704396545887, 0.061553750187158585, 0.04788665845990181, 0.02094900980591774, -0.04351211339235306 },
			{ 0.012768873944878578, 0.1302470862865448, 0.058379240334033966, -0.03302229568362236, -0.043907709419727325, 0.049854714423418045, 0.04351179674267769, 0.06413083523511887, -0.1081317663192749, 0.00699599226936698 },
			{ -0.060534484684467316, 0.08807774633169174, 0.06521344929933548, 0.0429471880197525, -0.007765785790979862, 0.08946382999420166, -0.022192390635609627, -0.06357625871896744, -0.05066000297665596, 0.017369795590639114 },
			{ 0.002020238433033228, 0.12107837200164795, -0.0337318554520607, 0.02399137057363987, -0.10771306604146957, -0.03942425176501274, -0.1036619320511818, 0.009216578677296638, -0.06916438788175583, 0.015720311552286148 },
			{ 0.020488126203417778, 0.0762200802564621, -0.01430230587720871, -0.029400868341326714, 0.005401571746915579, 0.0698997899889946, 0.05206867307424545, -0.07121554762125015, -0.10580701380968094, 0.02969410829246044 },
			{ -0.04577663913369179, 0.1331321895122528, -0.02651026099920273, 0.0723038911819458, -0.010631555691361427, -0.0008396885823458433, -0.026572752743959427, 0.06035798788070679, -0.02915601246058941, -0.07451144605875015 },
			{ -0.056978993117809296, 0.003953101579099894, -0.08040709793567657, -0.04783649370074272, -0.03474557772278786, 0.06951306760311127, -0.041680969297885895, 0.07076752930879593, -0.11505727469921112, -0.03565475717186928 },
			{ -0.02135930396616459, 0.1436617076396942, 0.1019594818353653, -0.06107468158006668, 0.01988028921186924, 0.09291066229343414, -0.017397183924913406, -0.046868663281202316, -0.06334197521209717, -0.07822640240192413 },
			{ -0.07475282996892929, 0.04152709245681763, 0.06197784096002579, 0.1167915016412735, -0.066011443734169, -0.09384807199239731, 0.1438353806734085, -0.09884270280599594, 0.01339352410286665, -0.06221529841423035 },
			{ -0.07225912064313889, 0.19420742988586426, 0.05104988068342209, 0.012354349717497826, -0.09075288474559784, -0.06801223009824753, 0.17348557710647583, -0.06161799281835556, -0.10889892280101776, -0.03616402670741081 },
			{ -0.003764181863516569, 0.1022181361913681, -0.003853927133604884, 0.01699323020875454, -0.07748152315616608, 0.06906074285507202, 0.08187860995531082, -0.08288206160068512, -0.110151506960392, -0.041642021387815475 },
			{ -0.1345679759979248, 0.09901146590709686, 0.07496239989995956, -0.04931235313415527, -0.04876608029007912, 0.01022291462868452, 0.06846130639314651, -0.1272558867931366, 0.008946288377046585, -0.060915347188711166 },
			{ 0.10554537922143936, 0.17415669560432434, -0.26385247707366943, 0.017488542944192886, -0.017184171825647354, 0.053822875022888184, 0.07594029605388641, -0.03622611612081528, 0.034923188388347626, -0.17428624629974365 },
			{ -0.004062425810843706, 0.21199603378772736, -0.1550121158361435, -0.1665821075439453, -0.013871119357645512, 0.14652414619922638, 0.12449917942285538, -0.014463027007877827, -0.03414347767829895, -0.17871113121509552 },
			{ -0.06911015510559082, 0.22870685160160065, -0.23648110032081604, -0.10309791564941406, 0.15115228295326233, 0.031013038009405136, 0.20626085996627808, -0.04540489241480827, -0.08420579135417938, -0.14063774049282074 },
			{ -0.14016208052635193, 0.14228369295597076, -0.07370305061340332, -0.15853425860404968, 0.006055026780813932, 0.023668216541409492, 0.1076069176197052, 0.04913441091775894, -0.16339634358882904, 0.009968796744942665 },
			{ -0.08296296745538712, 0.1086314469575882, 0.019240405410528183, -0.09461844712495804, 0.0715494155883789, 0.01240307092666626, -0.05404109135270119, -0.00907343439757824, -0.02732316590845585, -0.0519469752907753 },
			{ -0.056959494948387146, 0.11222703009843826, -0.026903018355369568, 0.025822332128882408, -0.11824442446231842, 0.11763133853673935, -0.006421384401619434, -0.0043688272126019, -0.061449021100997925, -0.0034321779385209084 },
			{ 0.0860186219215393, 0.04408331960439682, -0.017306257039308548, 0.04240800440311432, -0.08127551525831223, 0.019112128764390945, -0.12169688194990158, 0.08976437896490097, -0.1357380747795105, 0.03320346400141716 },
			{ 0.07632686197757721, -0.013954263180494308, 0.052308082580566406, -0.028804311528801918, -0.09161905944347382, -0.0032150596380233765, 0.02444283291697502, -0.04704154282808304, -0.12470550090074539, -0.030463093891739845 },
			{ 0.0557343028485775, 0.104015052318573, 0.07329748570919037, -0.013859462924301624, -0.10907457023859024, -0.08818873018026352, 0.03251371532678604, 0.04730676859617233, -4.667226312449202e-05, -0.03348943218588829 },
			{ -0.020358609035611153, 0.05847035348415375, 0.004591137170791626, -0.038002725690603256, -0.01616104319691658, 0.006037639919668436, 0.01692359894514084, 0.0512235052883625, -0.005748175550252199, -0.018804756924510002 },
			{ -0.0828247144818306, 0.0490732416510582, 0.014522948302328587, 0.07302472740411758, 0.16686809062957764, -0.033964674919843674, 0.0753416195511818, -0.08953168243169785, -0.030879834666848183, -0.007220432162284851 },
			{ -0.02094803936779499, -0.01815849356353283, 0.014608346857130527, 0.08055464178323746, 0.02944173663854599, 0.0203524399548769, 0.04566922038793564, -0.020965710282325745, -0.015376344323158264, -0.02649679034948349 },
			{ 0.04646582528948784, 0.0026941834948956966, -0.028128325939178467, 0.03366132080554962, 0.13440467417240143, -0.18633104860782623, 0.12466105818748474, -0.1067531555891037, 0.15773341059684753, -0.11109159886837006 },
			{ 0.00935597438365221, -0.030767355114221573, -0.05636265501379967, -0.04732547700405121, -0.13794392347335815, 0.08341068029403687, 0.08407162129878998, -0.09584587067365646, 0.007084139622747898, -0.05551394820213318 },
			{ 0.07608549296855927, 0.3033376932144165, -0.04731447994709015, -0.26826292276382446, 0.2372237592935562, -0.045561350882053375, 0.295415461063385, -0.22905632853507996, 0.07981771975755692, -0.11668714135885239 },
			{ 0.07481365650892258, 0.18355193734169006, -0.1723395586013794, -0.45861729979515076, 0.28035271167755127, 0.28140684962272644, -0.03311794623732567, -0.1882282793521881, 0.22321131825447083, -0.14763085544109344 },
			{ -0.17072565853595734, 0.3086169362068176, -0.16932156682014465, -0.3556227684020996, 0.22036810219287872, 0.4126506447792053, -0.07105721533298492, -0.20415261387825012, 0.1724415272474289, -0.09865520149469376 },
			{ 0.024542294442653656, 0.3040122091770172, -0.34912919998168945, -0.2615741789340973, 0.17671719193458557, 0.4378817081451416, 0.10793741792440414, -0.11718351393938065, -0.18407344818115234, -0.2898484766483307 },
			{ -0.06214286759495735, 0.0736088678240776, -0.24099859595298767, -0.12255360931158066, 0.23170900344848633, 0.2691834568977356, 0.08758273720741272, -0.058916203677654266, -0.005089671816676855, -0.21724532544612885 },
			{ -0.025334414094686508, -0.05740518867969513, -0.06563641130924225, -0.11184947192668915, 0.1105785146355629, 0.2854594588279724, 0.07397738099098206, -0.023151064291596413, -0.03925524279475212, -0.04829966649413109 },
			{ 0.035112395882606506, 0.013872707262635231, 0.026845363900065422, 0.004635295365005732, 0.059212733060121536, -0.011639803647994995, -0.06615594029426575, 0.05537727102637291, -0.07429882884025574, 0.04902626946568489 },
			{ 0.060828663408756256, 0.14237883687019348, 0.08384443819522858, -0.05219074338674545, -0.02752046100795269, 0.02341846004128456, -0.06331043690443039, 0.12271449714899063, -0.09386032074689865, 0.043395888060331345 },
			{ 0.025899099186062813, 0.029216313734650612, 0.02109241485595703, 0.0697953924536705, 0.06520936638116837, -0.09458613395690918, -0.044612642377614975, -0.08915992826223373, -0.042854830622673035, -0.17596691846847534 },
			{ 0.11416897922754288, 0.038432829082012177, 0.07207300513982773, 0.024066125974059105, 0.012509811669588089, 0.0652068629860878, -0.1267324984073639, 0.041083116084337234, 0.026458729058504105, 0.07367927581071854 },
			{ -0.03957148641347885, -0.06626652926206589, 0.08389275521039963, 0.08268295228481293, -0.09259773045778275, -0.16468501091003418, 0.10556445270776749, 0.1320919543504715, 0.03002862073481083, -0.0499562993645668 },
			{ -0.10585896670818329, -0.07502590864896774, -0.014353456906974316, 0.0034904617350548506, 0.06005275249481201, -0.1632925570011139, 0.1059153601527214, -0.02648453414440155, 0.14903351664543152, 0.020906802266836166 },
			{ -0.11561129987239838, -0.08624261617660522, -0.0033447223249822855, -0.012637517414987087, 0.05257192999124527, -0.1318473517894745, 0.3197385370731354, -0.18382881581783295, 0.09909344464540482, 0.09824856370687485 },
			{ 0.1223485991358757, 0.09652887284755707, -0.10922280699014664, -0.21494700014591217, 0.043080199509859085, -0.024499928578734398, 0.19384747743606567, -0.2880264222621918, 0.025265246629714966, 0.2736402451992035 },
			{ 0.00850804802030325, 0.04655458405613899, -0.23445093631744385, -0.2097804844379425, 0.25748956203460693, 0.10677377879619598, 0.17161953449249268, -0.1940937042236328, 0.09318830072879791, 0.15962357819080353 },
			{ -0.161510169506073, 0.0699799656867981, -0.28097501397132874, -0.2778615951538086, 0.4771367013454437, 0.13211245834827423, 0.15570969879627228, -0.16696028411388397, -0.04731376841664314, -0.018887139856815338 },
			{ -0.35067495703697205, 0.19086001813411713, -0.23444099724292755, -0.025256624445319176, 0.40210720896720886, 0.32245108485221863, 0.023279879242181778, 0.008264897391200066, -0.00028826811467297375, -0.17583350837230682 },
			{ -0.37743115425109863, 0.29903706908226013, -0.2822364568710327, -0.1182611808180809, 0.2564760446548462, 0.44547104835510254, 0.1327301263809204, -0.08054498583078384, -0.038268882781267166, -0.3683779239654541 },
			{ -0.11202500015497208, 0.20940303802490234, 0.1242772564291954, -0.25568485260009766, 0.3204134702682495, 0.302810937166214, -0.10887564718723297, -0.06315487623214722, -0.1830689013004303, -0.23505015671253204 },
			{ -0.016788814216852188, 0.08221259713172913, -0.08645781874656677, -0.008555642329156399, 0.08216330409049988, 0.32557404041290283, -0.012504924088716507, -0.12117326259613037, -0.03566969931125641, -0.15815822780132294 },
			{ 0.019586216658353806, 0.046518489718437195, -0.010645019821822643, -0.062379710376262665, -0.041945673525333405, 0.19084207713603973, -0.03954104706645012, -0.09901034832000732, 0.01139289140701294, -0.07892556488513947 },
			{ 0.04295893758535385, 0.07632400840520859, 0.033619463443756104, -0.016606152057647705, -0.04563477635383606, 0.06877762079238892, -0.07919890433549881, 0.059678029268980026, -0.051540762186050415, -0.00836142711341381 },
			{ 0.01517118513584137, 0.02116212621331215, 0.0142359035089612, 0.09303709864616394, -0.0313369520008564, 0.08399401605129242, 0.05290478095412254, -0.03409767523407936, 0.00881485641002655, -0.008397553116083145 },
			{ 0.1033950001001358, 0.03691614046692848, 0.13314493000507355, -0.06408098340034485, -0.27397021651268005, -0.0902857780456543, 0.017707357183098793, -0.09140048921108246, -0.05193996801972389, 0.08518222719430923 },
			{ 0.05208566039800644, 0.01896269991993904, 0.26405978202819824, 0.08560483902692795, -0.0036330323200672865, -0.21304970979690552, 0.089004747569561, -0.44260141253471375, -0.02239392139017582, 0.15310175716876984 },
			{ -0.019460298120975494, -0.2275419533252716, 0.18653874099254608, 0.10153388231992722, 0.19406667351722717, -0.16028954088687897, 0.1708756983280182, -0.34301629662513733, 0.16612300276756287, 0.29908281564712524 },
			{ 0.1008743941783905, -0.1717086136341095, 0.023419231176376343, 0.0477365218102932, 0.22053644061088562, -0.05143822729587555, 0.1457490772008896, -0.2876245975494385, 0.010275290347635746, 0.2664242386817932 },
			{ -0.15534304082393646, -0.15636935830116272, -0.018881618976593018, 0.09318294376134872, 0.17346391081809998, -0.06324723362922668, 0.34946924448013306, -0.31820032000541687, -0.07033529877662659, 0.18839424848556519 },
			{ -0.2559114992618561, -0.13443969190120697, -0.06833742558956146, 0.16842865943908691, 0.2513529360294342, -0.16322138905525208, 0.34596946835517883, -0.27696511149406433, 0.016495821997523308, 0.020202990621328354 },
			{ -0.3761916160583496, -0.13493815064430237, -0.018486429005861282, 0.2529204785823822, 0.2647898495197296, -0.3884727358818054, 0.2740524113178253, -0.10047005116939545, 0.12292980402708054, 0.07529133558273315 },
			{ -0.28770989179611206, -0.0907747820019722, -0.07305114716291428, 0.22046710550785065, 0.31482529640197754, -0.30040693283081055, 0.1020890548825264, 0.19040809571743011, 0.06768063455820084, -0.11651379615068436 },
			{ -0.16954299807548523, 0.12115030735731125, 0.1616266965866089, 0.20835530757904053, 0.19465197622776031, -0.022014018148183823, -0.3027064800262451, 0.17100834846496582, 0.03376782685518265, -0.2807885408401489 },
			{ -0.06976515799760818, 0.151136577129364, 0.07116541266441345, -0.10648158192634583, 0.1342414915561676, -0.024226032197475433, -0.00838333461433649, 0.028537005186080933, -0.029970429837703705, -0.153489887714386 },
			{ 0.24175304174423218, 0.14488878846168518, 0.01533097866922617, 0.024241553619503975, 0.1318368762731552, 0.01680571399629116, -0.12074539065361023, 0.14485809206962585, -0.21851009130477905, -0.14078791439533234 },
			{ 0.009901394136250019, -0.03411710262298584, 0.01673649065196514, -0.07210592925548553, 0.08838887512683868, 0.15222328901290894, -0.09413754194974899, -0.06458868086338043, -0.053071748465299606, -0.024828054010868073 },
			{ -0.02121654339134693, 0.030395906418561935, -0.07514568418264389, 0.00948913674801588, -0.009669370017945766, 0.059643037617206573, -0.024127576500177383, 0.10028346627950668, 0.011022312566637993, -0.01336011104285717 },
			{ -0.057604752480983734, 0.028789618983864784, -0.0462794303894043, -0.010223283432424068, -0.13117225468158722, -0.06152473762631416, -0.03980043902993202, 0.09909336268901825, -0.04796764254570007, 0.007195488084107637 },
			{ 0.02714935503900051, 0.10699702799320221, 0.04197511076927185, 0.11394266039133072, -0.02529769018292427, -0.1775156408548355, 0.007223763968795538, -0.0944732278585434, -0.04115932434797287, 0.058487243950366974 },
			{ -0.014123750850558281, -0.04190949350595474, 0.06919243931770325, 0.07599474489688873, 0.11837570369243622, -0.32886311411857605, 0.03573264926671982, -0.2590813636779785, -0.035018373280763626, 0.05155510827898979 },
			{ 0.09788507968187332, -0.06191989779472351, -0.12946626543998718, 0.2838783264160156, 0.1659545600414276, -0.06810031086206436, 0.09286798536777496, -0.42779555916786194, -0.12922103703022003, 0.15172013640403748 },
			{ 0.034043796360492706, 0.031955286860466, -0.19464385509490967, 0.32433652877807617, 0.3564678430557251, -0.021843871101737022, 0.21906985342502594, -0.47134605050086975, -0.28227612376213074, 0.08738141506910324 },
			{ -0.1235397607088089, -0.2627466022968292, -0.08479879796504974, 0.24489742517471313, 0.13721932470798492, -0.03230409324169159, 0.11657720059156418, -0.18689273297786713, -0.27292755246162415, 0.24315083026885986 },
			{ -0.10581156611442566, -0.18019871413707733, 0.056613627821207047, 0.2425612509250641, 0.0968303382396698, -0.3777413070201874, 0.2772895097732544, -0.09217016398906708, -0.017355121672153473, 0.1776341050863266 },
			{ -0.07153794169425964, -0.24110394716262817, -0.04834630712866783, 0.2924187481403351, 0.06603670865297318, -0.5756957530975342, 0.023889871314167976, 0.3485912084579468, 0.1558559387922287, 0.02316424623131752 },
			{ -0.23609201610088348, 0.039786409586668015, 0.16690827906131744, 0.3248858153820038, 0.27289456129074097, -0.6916775107383728, -0.17149947583675385, 0.17149965465068817, 0.2619450092315674, -0.1189015582203865 },
			{ -0.1262396275997162, 0.08281191438436508, 0.20725767314434052, 0.2167922705411911, 0.18096230924129486, -0.5620993375778198, -0.3248809576034546, 0.12132544070482254, 0.26175516843795776, -0.13428209722042084 },
			{ -0.037816789001226425, 0.027392227202653885, 0.16507278382778168, 0.03908419981598854, 0.021855207160115242, -0.4057407081127167, 0.01243480946868658, 0.1452617049217224, 0.24526217579841614, -0.2705685496330261 },
			{ 0.13788175582885742, 0.040454983711242676, 0.14149607717990875, 0.0875006765127182, -0.015214142389595509, 0.044944535940885544, -0.2249538004398346, 0.03458961099386215, 0.05695360526442528, -0.16822589933872223 },
			{ -0.05839335173368454, 0.001477811485528946, 0.014179921709001064, -0.056279513984918594, -0.05343198776245117, 0.4003137946128845, -0.22955137491226196, -0.13348296284675598, 0.00214748946018517, 0.06147368997335434 },
			{ -0.061077751219272614, 0.08558882027864456, 0.07371917366981506, -0.09029454737901688, -0.05598901957273483, 0.08931487053632736, -0.11313092708587646, 0.003321137046441436, 0.018633073195815086, -0.05354607105255127 },
			{ 0.08260082453489304, 0.07955966889858246, -0.08458324521780014, 0.06519082933664322, -0.10030502825975418, -0.008550845086574554, -0.07689245045185089, 0.12560433149337769, -0.180055633187294, 0.14111869037151337 },
			{ 0.10817064344882965, 0.048590920865535736, 0.07538612186908722, 0.11214090883731842, -0.0976412296295166, -0.15539006888866425, 0.09437607228755951, -0.11362621933221817, -0.1518951654434204, 0.003558766096830368 },
			{ 0.24916937947273254, 0.12302389740943909, 0.2117433398962021, 0.25595027208328247, -0.1306939274072647, -0.17838339507579803, 0.05851011723279953, -0.18730339407920837, -0.3203677833080292, -0.021498968824744225 },
			{ 0.2798495292663574, -0.04358063265681267, -0.017201686277985573, 0.19917936623096466, -0.1371741145849228, -0.1921173632144928, 0.05948715656995773, -0.012224963866174221, -0.48126792907714844, -0.20103174448013306 },
			{ 0.11372784525156021, -0.043332524597644806, -0.03848180174827576, 0.4129965901374817, 0.21842333674430847, -0.005888752173632383, 0.026488104835152626, -0.018412696197628975, -0.399665504693985, -0.3409413695335388 },
			{ -0.03251243382692337, 0.12375038862228394, 0.006747767794877291, 0.18004772067070007, 0.06081787869334221, -0.03127216175198555, -0.03179183229804039, 0.17089131474494934, -0.5277339816093445, 0.07985865324735641 },
			{ -0.03566299378871918, 0.14515747129917145, -0.20903871953487396, 0.10159549117088318, -0.13455511629581451, -0.16278821229934692, 0.24436715245246887, 0.003108442295342684, -0.06421567499637604, 0.0026250204537063837 },
			{ -0.2227088361978531, -0.02105897292494774, 0.13596731424331665, 0.07521999627351761, -0.11703889816999435, -0.23199595510959625, -0.13591226935386658, 0.44639989733695984, 0.3046976625919342, -0.19801056385040283 },
			{ -0.18156933784484863, 0.06387645751237869, 0.24033598601818085, 0.0571671798825264, 0.07213928550481796, -0.622330367565155, -0.2778724133968353, 0.3047373592853546, 0.33622801303863525, -0.069778211414814 },
			{ -0.022827312350273132, 0.05257943272590637, 0.30916887521743774, -0.013615529984235764, 0.03237992525100708, -0.462953120470047, -0.2506510019302368, 0.1022411584854126, 0.28250229358673096, -0.11868755519390106 },
			{ 0.07848121970891953, 0.0522906556725502, 0.31955522298812866, -0.12706641852855682, 0.07885241508483887, -0.45448532700538635, -0.04932929947972298, 0.20322726666927338, 0.061849310994148254, 0.033624812960624695 },
			{ -0.031646665185689926, 0.08988692611455917, 0.12694016098976135, -0.12736162543296814, -0.05801977962255478, -0.1198713555932045, 0.06926911324262619, -0.08917876332998276, 0.13256244361400604, 0.12499883025884628 },
			{ -0.04813721776008606, 0.032970402389764786, 0.21464186906814575, -0.10122589021921158, -0.018703775480389595, 0.09499624371528625, -0.07075754553079605, -0.06039819493889809, -0.06874106079339981, -0.0029795304872095585 },
			{ 0.0009816905949264765, 0.1441165953874588, 0.10847771912813187, -0.019292667508125305, 0.009687875397503376, 0.09196825325489044, 0.005102494731545448, -0.0633697658777237, -0.024041632190346718, -0.04431406036019325 },
			{ -0.003542493563145399, 0.03347676247358322, 0.05997789651155472, 0.05956241860985756, -0.07497748732566833, -0.0018677959451451898, -0.11275304853916168, 0.004374774172902107, -0.1685699224472046, -0.01630084589123726 },
			{ 0.21217656135559082, 0.1248520240187645, 0.06913008540868759, -0.07196640968322754, -0.29621508717536926, 0.009224435314536095, 0.05239748954772949, 0.14758546650409698, 0.043926868587732315, -0.09096602350473404 },
			{ 0.25145143270492554, 0.15348052978515625, 0.08599957823753357, -0.28501904010772705, 0.008134091272950172, -0.2655929625034332, 0.1307707577943802, 0.22063861787319183, -0.13049651682376862, -0.11510009318590164 },
			{ 0.23694482445716858, -0.05607948452234268, 0.3232148289680481, -0.10666947066783905, 0.007759323809295893, -0.11175334453582764, 0.08259045332670212, 0.5813555717468262, -0.5213447213172913, -0.21402771770954132 },
			{ 0.003732553916051984, 0.3621060252189636, 0.09489098191261292, -0.03705473989248276, -0.20140591263771057, -0.07536710798740387, 0.026459315791726112, 0.43785354495048523, -0.3171670436859131, -0.2484406679868698 },
			{ 0.16606377065181732, -0.06393912434577942, 0.10043713450431824, -0.09294309467077255, -0.17708663642406464, -0.07478591799736023, 0.16692286729812622, 0.062303490936756134, 0.031004648655653, 0.06756117939949036 },
			{ 0.0669771283864975, 0.19321531057357788, 0.2941557466983795, -0.1312972903251648, -0.3536808490753174, -0.008127478882670403, 0.25499993562698364, -0.22043509781360626, -0.006618989631533623, 0.03685509040951729 },
			{ -0.11586353927850723, 0.2133263796567917, 0.18442979454994202, -0.02246769145131111, -0.12379626929759979, -0.13748754560947418, -0.047140851616859436, 0.06979620456695557, 0.015665121376514435, -0.06531661748886108 },
			{ 0.13146401941776276, 0.09654023498296738, 0.1318998634815216, -0.03466467559337616, 0.10138172656297684, -0.2934902310371399, -0.18854112923145294, 0.1635495126247406, 0.08500856161117554, 0.011648344807326794 },
			{ -0.01032883208245039, -0.02138040028512478, 0.15430514514446259, -0.21453392505645752, 0.18686071038246155, -0.2108348160982132, -0.0559789203107357, -0.008372136391699314, 0.030418451875448227, -0.041292376816272736 },
			{ 0.11031146347522736, 0.05936971306800842, 0.14789749681949615, -0.14146830141544342, -0.1261698454618454, -0.015064992010593414, 0.007514514494687319, 0.12118417769670486, -0.16748735308647156, 0.16557607054710388 },
			{ 0.013682693243026733, -0.03452765941619873, 0.040878407657146454, -0.1909092217683792, -0.09602970629930496, -0.13104861974716187, 0.03143150359392166, 0.15808743238449097, 0.020810913294553757, -0.07047072798013687 },
			{ 0.06764447689056396, 0.002345323795452714, 0.2194295972585678, -0.04878370836377144, -0.011583562940359116, 0.03381500020623207, -0.11983002722263336, 0.06055886298418045, -0.09615732729434967, -0.08131841570138931 },
			{ -0.009888438507914543, 0.007883269339799881, 0.09688868373632431, -0.021768949925899506, -0.056066226214170456, 0.026425661519169807, 0.01016040239483118, -0.04903506860136986, -0.05989965423941612, 0.02296936884522438 },
			{ 0.10695910453796387, -0.04546692222356796, 0.17206938564777374, -0.10923143476247787, -0.04332922399044037, 0.07881959527730942, -0.11801737546920776, 0.05040416866540909, -0.21232067048549652, -0.15828251838684082 },
			{ 0.018653005361557007, -0.11894924938678741, 0.15760602056980133, -0.23275281488895416, 0.06875742226839066, 0.035615041851997375, -0.0940982848405838, 0.04184408113360405, -0.05000334233045578, -0.014216168783605099 },
			{ 0.13097865879535675, -0.03597221150994301, -0.029622342437505722, -0.2722500264644623, -0.10796002298593521, -0.16695630550384521, 0.015181452967226505, 0.3299447298049927, -0.015375310555100441, -0.2132021188735962 },
			{ 0.10415241122245789, 0.024233663454651833, 0.2539571225643158, -0.35243991017341614, -0.11398542672395706, -0.25545555353164673, 0.12834228575229645, 0.6195707321166992, 0.1136547401547432, -0.3549269735813141 },
			{ 0.13032816350460052, -0.1061520203948021, 0.20791871845722198, -0.2530725598335266, -0.22471271455287933, -0.18246446549892426, 0.02975054457783699, 0.4750780463218689, 0.27202609181404114, -0.24236157536506653 },
			{ 0.13823527097702026, -0.20661678910255432, 0.2343791127204895, -0.4986482858657837, -0.138309508562088, -0.031154165044426918, 0.050930071622133255, -0.13337403535842896, 0.3419157862663269, 0.2173396348953247 },
			{ 0.06848414242267609, -0.005765624810010195, 0.276948481798172, -0.20926737785339355, -0.18688370287418365, -0.0010215629590675235, -0.02985156700015068, -0.2209349274635315, 0.013363976962864399, 0.1490096002817154 },
			{ -0.02663554809987545, 0.23507501184940338, 0.33444592356681824, -0.0657225027680397, -0.018004445359110832, -0.12562893331050873, -0.032051101326942444, 0.0721936821937561, -0.3766542673110962, 0.153380885720253 },
			{ 0.20025672018527985, -0.13035327196121216, 0.07972338795661926, -0.0960429459810257, 0.009203559719026089, -0.15496930480003357, 0.10551255196332932, 0.23733840882778168, -0.2982315123081207, 0.1336274892091751 },
			{ 0.08656089752912521, -0.12346073240041733, -0.07951121777296066, -0.03282171115279198, 0.03323047608137131, -0.2424374669790268, 0.203217551112175, 0.3314550220966339, -0.35160738229751587, -0.012031749822199345 },
			{ 0.002815610496327281, -0.017623770982027054, 0.010078420862555504, -0.1487051397562027, 0.1301354616880417, -0.08798322081565857, 0.09061651676893234, 0.18027327954769135, -0.2600209712982178, 0.05799160897731781 },
			{ 0.054362859576940536, 0.07009492069482803, 0.06937393546104431, -0.07751885801553726, -0.03750015050172806, 0.08324582874774933, -0.00696416012942791, 0.1147214025259018, -0.16752982139587402, -0.11955302208662033 },
			{ -0.061784204095602036, 0.08014902472496033, 0.32133302092552185, -0.11262484639883041, -0.08861944079399109, -0.0902489572763443, -0.03779814392328262, -0.09057100117206573, -0.05604728311300278, -0.11032824218273163 },
			{ 0.08132553845643997, 0.03265110030770302, 0.07842496782541275, -0.06512922793626785, -0.07728313654661179, 0.1388489305973053, -0.05659303069114685, -0.007199176121503115, -0.14568565785884857, 0.017495254054665565 },
			{ 0.009215924888849258, 0.07310865819454193, 0.06775730848312378, -0.012805726379156113, 0.007498602848500013, -0.027316460385918617, -0.07661200314760208, 0.030174190178513527, -0.022345196455717087, 0.03209612891077995 },
			{ -0.04655800387263298, 0.049694374203681946, -0.07115119695663452, -0.0013087717816233635, 0.019246719777584076, 0.099668487906456, -0.07119349390268326, 0.08052412420511246, 0.04190760850906372, -0.146457239985466 },
			{ -0.010525242425501347, 0.06966053694486618, 0.07376672327518463, -0.19061720371246338, -0.17390215396881104, 0.1348169445991516, -0.18583710491657257, 0.1856706589460373, 0.1763339638710022, -0.038696713745594025 },
			{ -0.021158786490559578, -0.004525270313024521, 0.1739169806241989, -0.14317062497138977, -0.24930807948112488, -0.09258411079645157, -0.0373525395989418, 0.25141453742980957, 0.25749826431274414, -0.32150760293006897 },
			{ 0.23415438830852509, -0.2738061547279358, 0.25955602526664734, -0.20851382613182068, -0.16464130580425262, -0.19613975286483765, -0.19940531253814697, 0.1983393281698227, 0.42452508211135864, -0.34348174929618835 },
			{ 0.28580430150032043, -0.24780353903770447, 0.20378176867961884, -0.18713301420211792, -0.19220711290836334, 0.0016477551544085145, -0.22104181349277496, 0.06279021501541138, 0.024647586047649384, 0.09470751136541367 },
			{ 0.10817913711071014, -0.09688881039619446, 0.24064454436302185, -0.3584515154361725, -0.0072706895880401134, 0.08170120418071747, -0.17092181742191315, -0.11262873560190201, -0.03965485095977783, 0.3076550364494324 },
			{ 0.21654659509658813, -0.027783982455730438, 0.008727377280592918, -0.10360129922628403, -0.14968599379062653, 0.14893721044063568, 0.10416808724403381, -0.10446280986070633, -0.13936874270439148, 0.1989605724811554 },
			{ 0.17748305201530457, -0.21007327735424042, -0.0849679633975029, 0.171649768948555, -0.11046525090932846, 0.04883332923054695, 0.16580753028392792, 0.06383711099624634, -0.11057781428098679, -0.005234541371464729 },
			{ 0.14346539974212646, -0.08423053473234177, -0.038185521960258484, 0.01852833479642868, -0.03659088909626007, 0.10700076073408127, 0.007460991386324167, 0.03086547553539276, -0.10077120363712311, -0.1525096744298935 },
			{ 0.16592401266098022, -0.050857044756412506, 0.0021798720117658377, -0.1351582556962967, -0.036862872540950775, -0.1070580706000328, -0.1374051868915558, 0.2386670559644699, -0.21793252229690552, -0.09109863638877869 },
			{ 0.05948757752776146, 0.03896762803196907, -0.03308846056461334, 0.09663473814725876, 0.021868696436285973, 0.05330326780676842, -0.019579872488975525, -0.07600892335176468, -0.06719821691513062, -0.060753460973501205 },
			{ 0.0019323097076267004, 0.03924652561545372, 0.14295652508735657, -0.037088122218847275, -0.14484329521656036, 0.033354077488183975, -0.006168349180370569, 0.06279183179140091, -0.17658698558807373, -0.0276070237159729 },
			{ 0.060839809477329254, 0.11340326815843582, 0.14287374913692474, 0.06443888694047928, -0.024615829810500145, -0.024441994726657867, 0.030050527304410934, -0.04511545971035957, -0.0420236811041832, -0.06034424528479576 },
			{ 0.056795213371515274, 0.19145745038986206, 0.1123056635260582, 0.021688606590032578, 0.004096233285963535, 0.12217455357313156, -0.040906872600317, -0.03098320960998535, -0.2105409801006317, -0.009456858970224857 },
			{ 0.000664020306430757, 0.2755226194858551, 0.040356315672397614, -0.1056801825761795, -0.10410239547491074, 0.13220205903053284, -0.052408572286367416, 0.06033729016780853, -0.06879622489213943, 0.11438626050949097 },
			{ -0.11970528215169907, 0.001663602888584137, -0.069395512342453, -0.17041772603988647, 0.12555190920829773, 0.19363978505134583, -0.18071460723876953, 0.15970367193222046, -0.05896195396780968, 0.13504189252853394 },
			{ 0.0211852565407753, 0.1334119290113449, 0.004118197597563267, -0.2762773931026459, 0.1056658923625946, 0.07854011654853821, -0.23239588737487793, 0.20947566628456116, 0.05579136684536934, 0.08059654384851456 },
			{ -0.12457811832427979, -0.14151863753795624, 0.020906521007418633, -0.11509478092193604, 0.07561460137367249, 0.1441822648048401, -0.13994218409061432, 0.2306053191423416, -0.0037170452997088432, -0.05887918174266815 },
			{ -0.020095249637961388, -0.2063531130552292, -0.21959416568279266, -0.10434172302484512, 0.13583864271640778, 0.17184820771217346, -0.20427677035331726, 0.13925763964653015, 0.009751072153449059, 0.15833428502082825 },
			{ 0.13335679471492767, -0.4298273026943207, -0.11227869987487793, 0.1298258900642395, 0.03446577861905098, 0.07800087332725525, -0.22412873804569244, 0.058045100420713425, -0.0011238404549658298, 0.14870405197143555 },
			{ 0.05472599342465401, -0.37477096915245056, -0.09035760909318924, 0.2244548797607422, 0.0526532307267189, 0.11623569577932358, 0.17243388295173645, -0.2439263015985489, 0.12424180656671524, -0.12668189406394958 },
			{ 0.005632694810628891, -0.2733205556869507, -0.06075717881321907, 0.09042734652757645, -0.10595936328172684, 0.20729830861091614, 0.07597915083169937, -0.14384858310222626, 0.12657877802848816, -0.10087785124778748 },
			{ 0.04876234009861946, -0.06691800057888031, -0.1138828694820404, 0.02852466329932213, -0.20771604776382446, 0.08288678526878357, -0.023889733478426933, -0.07100863009691238, -0.004795471206307411, 0.15046773850917816 },
			{ 0.09590393304824829, 0.04480724781751633, -0.01092941127717495, 0.07365544140338898, -0.022795597091317177, 0.07130073010921478, -0.044528983533382416, 0.02876266837120056, -0.004671191796660423, 0.056516628712415695 },
			{ -0.01453852467238903, 0.1643868237733841, 0.10102882236242294, -0.059452999383211136, -0.0886717215180397, 0.1435340940952301, 0.04873961582779884, -0.04930534213781357, -0.0745084285736084, -0.09593858569860458 },
			{ -0.07968141883611679, 0.16495424509048462, 0.09284240752458572, -0.06676172465085983, -0.09514108300209045, 0.05668751895427704, 0.022149592638015747, -0.038865767419338226, -0.1128842905163765, -0.045981768518686295 },
			{ 0.03701987862586975, 0.032222650945186615, 0.023117801174521446, 0.012294096872210503, -0.01383107528090477, 0.09583855420351028, 0.0014140597777441144, 0.01486916933208704, -0.0430942140519619, 0.05110553279519081 },
			{ 0.02190142311155796, 0.047538574784994125, 0.013255785219371319, 0.10587581247091293, 0.018212340772151947, 0.1353873461484909, 0.008420600555837154, 0.04701870307326317, -0.14230704307556152, 0.039763934910297394 },
			{ -0.005693533923476934, 0.08097635954618454, 0.01754852384328842, 0.07894892990589142, -0.0007685494492761791, -0.05603725463151932, -0.11330140382051468, 0.031131809577345848, -0.1613684594631195, 0.03854874521493912 },
			{ -0.1224561259150505, 0.2462615668773651, 0.014722857624292374, -0.12695741653442383, 0.03143853321671486, 0.18415334820747375, -0.029176725074648857, 0.18906834721565247, -0.1281726211309433, 0.05199594423174858 },
			{ -0.13953810930252075, 0.3031839430332184, -0.12801678478717804, 0.06373244524002075, 0.08177193254232407, -0.14097651839256287, -0.12350238114595413, 0.3554454743862152, -0.27849313616752625, 0.153901606798172 },
			{ -0.06934080272912979, 0.08352460712194443, 0.007270342204719782, 0.052582643926143646, 0.050349414348602295, 0.016965245828032494, -0.15647567808628082, 0.27924928069114685, -0.32035011053085327, 0.15409202873706818 },
			{ -0.01743417978286743, -0.16808083653450012, -0.3590289354324341, 0.2478085607290268, 0.2042228877544403, 0.1629590392112732, -0.23079454898834229, 0.13334138691425323, 0.019921034574508667, -0.10690183937549591 },
			{ -0.1982014924287796, -0.27834269404411316, -0.3610718548297882, 0.4294784665107727, 0.1097722128033638, 0.28113654255867004, -0.22249503433704376, -0.08718470484018326, 0.33888885378837585, 0.013643845915794373 },
			{ -0.1727520078420639, -0.06551782041788101, -0.2706725299358368, 0.3637791574001312, -0.014877740293741226, 0.18176671862602234, -0.16444267332553864, -0.12674295902252197, 0.2568286955356598, -0.26807913184165955 },
			{ -0.24779044091701508, -0.05162985995411873, -0.08224412053823471, 0.13083098828792572, 0.02538137696683407, 0.2205757349729538, -0.09798003733158112, 0.031126977875828743, 0.14155921339988708, -0.2410401999950409 },
			{ -0.11032580584287643, 0.002582021988928318, 0.11293822526931763, 0.055166710168123245, 0.08016294986009598, 0.16451221704483032, -0.1335763931274414, -0.007076225243508816, 0.15490517020225525, -0.27319470047950745 },
			{ -0.06507068872451782, 0.2134087234735489, -0.11075153201818466, 0.003992401994764805, 0.04874424636363983, 0.09036920219659805, -0.03352814167737961, -0.11587820202112198, -0.04820307344198227, -0.1774974912405014 },
			{ -0.10365145653486252, 0.17811910808086395, 0.01108297985047102, -0.05603298917412758, -0.023275010287761688, 0.07178433239459991, -0.11973057687282562, -0.08470484614372253, -0.0027942073065787554, 0.02163085900247097 },
			{ 0.0060076103545725346, 0.0654415562748909, 0.1361960917711258, -0.06038030982017517, -0.02132466435432434, 0.0502747967839241, -0.13720697164535522, 0.010806174017488956, -0.0345642976462841, 0.054812539368867874 },
			{ 0.03058372251689434, 0.108497753739357, 0.060716722160577774, 0.04301789030432701, 0.002497296780347824, 0.09412623196840286, 0.012311249040067196, -0.012102095410227776, -0.09361376613378525, 0.0567389540374279 },
			{ 0.0014600118156522512, -0.007659059017896652, 0.01827028952538967, 0.016941973939538002, -0.029261313378810883, 0.016789942979812622, -0.035070568323135376, 0.07473789900541306, -0.09650171548128128, 0.05817867070436478 },
			{ 0.04823871701955795, 0.025303179398179054, 0.06644149124622345, -0.0064784991554915905, -0.10324738919734955, -0.028520114719867706, -0.06515295058488846, 0.10877665877342224, -0.061119917780160904, 0.011761577799916267 },
			{ -0.014143071137368679, 0.1635168343782425, -0.09995917975902557, 0.05797711759805679, -0.08859076350927353, -0.011823762208223343, -0.0886903703212738, 0.38414835929870605, -0.2701336145401001, 0.05995015427470207 },
			{ -0.11186162382364273, 0.06259701400995255, -0.17668339610099792, 0.23278900980949402, 0.17074672877788544, -0.0452592596411705, -0.12761898338794708, 0.3214710056781769, -0.43841397762298584, 0.15367764234542847 },
			{ -0.03609839826822281, 0.2600034475326538, -0.36002877354621887, 0.045629434287548065, -0.04452454671263695, 0.044421032071113586, -0.17486877739429474, 0.22576561570167542, -0.22553779184818268, -0.0350506454706192 },
			{ -0.1356520652770996, 0.09921238571405411, -0.294177383184433, 0.1535843461751938, -0.0225361455231905, 0.1772814244031906, -0.18519887328147888, 0.2621365785598755, -0.1507561206817627, 0.1483437865972519 },
			{ -0.21125061810016632, 0.22351181507110596, -0.34999707341194153, 0.31389090418815613, 0.04229273274540901, 0.10877302289009094, -0.22952991724014282, 0.2413167804479599, 0.06180901080369949, -0.13941387832164764 },
			{ -0.18609456717967987, 0.06885171681642532, -0.34966468811035156, 0.23876850306987762, 0.07326945662498474, 0.15817202627658844, -0.046543050557374954, 0.09656356275081635, 0.0031808873172849417, -0.08119538426399231 },
			{ -0.036013733595609665, 0.06040434166789055, 0.1366530805826187, 0.06092042475938797, -0.14673151075839996, 0.08181554079055786, -0.20718969404697418, -0.09189450740814209, -0.06436631083488464, -0.1061498150229454 },
			{ -0.05646992102265358, 0.13719552755355835, 0.0398196317255497, 0.037511441856622696, 0.0798628181219101, 0.10435827821493149, 0.00826758798211813, 0.020841805264353752, 0.0602944940328598, -0.03389497846364975 },
			{ 0.027689650654792786, 0.12901058793067932, 0.17069339752197266, -0.008714131079614162, -0.010187866166234016, 0.06822074949741364, -0.031633488833904266, -0.06767120212316513, -0.02899744361639023, -0.04514821618795395 },
			{ -0.02356647327542305, 0.04709862545132637, 0.10372409224510193, 0.016729628667235374, -0.10172991454601288, 0.12622252106666565, -0.15631525218486786, -0.10354786366224289, -0.1236262172460556, 0.06865210831165314 },
			{ -0.04080761969089508, 0.11189213395118713, 0.1222710832953453, 0.05490485951304436, -0.10261277109384537, 0.08101838082075119, -0.03539328649640083, -0.00012064530164934695, -0.13078100979328156, 0.0287507064640522 },
			{ -0.04111748933792114, 0.0047012027353048325, -0.047654516994953156, 0.04356151446700096, -0.012682618573307991, 0.1178293451666832, 0.024753490462899208, 0.0626571774482727, -0.04791781306266785, -0.012204219587147236 },
			{ -0.0254680048674345, 0.09441126883029938, -0.004809028934687376, 0.07482608407735825, -0.0945369154214859, 0.05662677809596062, -0.10789934545755386, -0.037359535694122314, -0.04337027296423912, 0.06245020404458046 },
			{ 0.09206505864858627, 0.10045971721410751, -0.025491029024124146, 0.02560098096728325, -0.09270792454481125, 0.12284232676029205, -0.06291814893484116, 0.02200813591480255, -0.05515139177441597, -0.017150219529867172 },
			{ -0.028501693159341812, 0.08686881512403488, -0.09616981446743011, -0.07919564843177795, -0.0636407881975174, 0.018957849591970444, -0.037177570164203644, 0.13726060092449188, -0.13113288581371307, 0.012125289067626 },
			{ 0.022021103650331497, 0.04543812945485115, -0.15238261222839355, -0.08045537024736404, 0.047214336693286896, 0.030436912551522255, -0.05304422974586487, 0.09760203212499619, -0.24104954302310944, 0.21653349697589874 },
			{ -0.07738126814365387, 0.12169960886240005, -0.18708115816116333, 0.07875218987464905, -0.03479008749127388, -0.04511616751551628, 0.010488627478480339, 0.14662207663059235, -0.06163616105914116, 0.1293485164642334 },
			{ -0.04970332980155945, -0.10987438261508942, -0.10168921202421188, 0.018645010888576508, -0.13768526911735535, 0.04181373491883278, -0.05092867091298103, 0.21467992663383484, -0.08947767317295074, 0.2653186023235321 },
			{ -0.15362142026424408, -0.06693873554468155, 0.022189997136592865, 0.1002231165766716, -0.09762733429670334, 0.1350947469472885, -0.10874525457620621, 0.053247254341840744, -0.11399813741445541, 0.07424537092447281 },
			{ -0.04402659460902214, -0.05751265212893486, -0.028103604912757874, -0.07825732231140137, 0.03134061023592949, 0.13254833221435547, -0.07074142247438431, 0.08836900442838669, -0.009534207172691822, 0.1584063172340393 },
			{ -0.08757650852203369, -0.04484710469841957, -0.009533788077533245, 0.04756816104054451, -0.03189188614487648, 0.18429766595363617, -0.09377989917993546, -0.18770338594913483, -0.12285377085208893, 0.14203639328479767 },
			{ -0.10475863516330719, 0.020851194858551025, -0.05845484137535095, 0.0856950655579567, -0.16273094713687897, 0.07377298921346664, 0.046962711960077286, 0.08937806636095047, -0.06182638183236122, 0.02780509553849697 },
			{ -0.10596959292888641, 0.1386246383190155, 0.01746915653347969, 0.003872360335662961, -0.057344239205121994, -0.03735247254371643, -0.11863446235656738, -0.024881532415747643, -0.12320685386657715, 0.17456428706645966 },
			{ -0.030278537422418594, 0.13252483308315277, -0.013509809039533138, -0.03831235691905022, -0.08929651975631714, 0.09580493718385696, -0.022369742393493652, -0.08649224787950516, -0.11694415658712387, -0.010997198522090912 },
			{ -0.04366076737642288, 0.0055817486718297005, 0.016905080527067184, -0.0394761823117733, 0.00037514904397539794, 0.0272075142711401, -0.013161933980882168, 0.060400307178497314, 0.02065366692841053, -0.07923946529626846 },
			{ 0.05897977948188782, -0.03704353794455528, -0.010941559448838234, 0.07961206883192062, -0.011921963654458523, 0.059850528836250305, 0.05393516272306442, 0.02352316677570343, -0.001192356226965785, 0.07025901228189468 },
			{ -0.03441740199923515, -0.06650402396917343, -0.020065685734152794, 0.05927812680602074, -0.07020068913698196, -0.003275394905358553, 0.05641782283782959, -0.06670518219470978, -0.059153083711862564, -0.07142780721187592 },
			{ -0.03395450487732887, 0.04434023052453995, 0.04061407968401909, -0.024301085621118546, 0.06033502519130707, -0.0025700791738927364, 0.06087313964962959, -0.02074950933456421, 0.03311567008495331, 0.058490898460149765 },
			{ -0.024388963356614113, -0.0672253668308258, 0.07459494471549988, 0.058759335428476334, -0.04385137930512428, -0.07713524997234344, -0.006919469218701124, -0.0034278519451618195, -0.061410319060087204, -0.052296608686447144 },
			{ -0.002330927876755595, -0.02104054018855095, 0.07170983403921127, 0.01892898418009281, 0.04053639620542526, -0.05745084583759308, 0.014250187203288078, -0.07289473712444305, 0.03279862925410271, 0.08268322795629501 },
			{ 0.052050456404685974, -0.05429939925670624, -0.04188084229826927, -0.01069673616439104, 0.05974017456173897, 0.05295570194721222, 0.021169118583202362, -0.036549732089042664, -0.039678409695625305, -0.024753134697675705 },
			{ 0.07172957062721252, -0.01691138558089733, 0.06930676102638245, 0.0346265472471714, -0.04049067571759224, 0.053863923996686935, -0.023970771580934525, -0.04235599935054779, 0.0058479392901062965, -0.08900903165340424 },
			{ 0.041594214737415314, 0.10141896456480026, -0.0314503014087677, -0.012582606635987759, 0.0032279130537062883, -0.02582109346985817, 0.031233148649334908, -0.05822834372520447, 0.08107886463403702, -0.0694955512881279 },
			{ 0.07928813248872757, 0.006453472655266523, -0.05544076859951019, -0.04082160443067551, 0.018659716472029686, -0.006067411042749882, -0.06707768142223358, 0.005952315405011177, 0.03402146324515343, -0.0927133783698082 },
			{ -0.008368493057787418, 0.08599630743265152, 0.04405856132507324, 0.06306832283735275, -0.06274957954883575, -0.04546118155121803, -0.05690823867917061, -0.034055277705192566, -0.08088070154190063, -0.027759961783885956 },
			{ 0.06526203453540802, 0.07187897711992264, 0.023626960813999176, 0.06404689699411392, 0.03011956810951233, -0.017596764490008354, 0.09597529470920563, -0.017881780862808228, -0.07424589991569519, 0.0005482007982209325 },
			{ 0.05694037303328514, 0.03230876848101616, 0.05846665799617767, 0.07335897535085678, 0.06340838223695755, 0.031592778861522675, 0.01613314263522625, 0.056100573390722275, 0.035171300172805786, -0.048925939947366714 },
			{ 0.0801076591014862, -0.03966141864657402, -0.07729126513004303, 0.020642424002289772, -0.046429961919784546, -0.014105694368481636, 0.06073716655373573, -0.0252748541533947, 0.06862641125917435, -0.07922203838825226 },
			{ 0.07353393733501434, 0.06003712862730026, 0.04257332533597946, -0.04421751946210861, -0.07111238688230515, -0.02690260298550129, 0.004424193408340216, 0.08689872175455093, -0.058383725583553314, -0.06988633424043655 },
			{ -0.06599289178848267, -0.06069643795490265, -0.06975562125444412, -0.07108490914106369, -0.062020815908908844, -0.04875063896179199, 0.02283531241118908, 0.002734657609835267, -0.007790533825755119, -0.04072703421115875 },
			{ -0.01758098416030407, -0.05584808439016342, -0.06050780043005943, -0.03046918660402298, -0.07534806430339813, -0.02897297590970993, 0.05877762660384178, -0.03613181784749031, 0.045003991574048996, 0.007434386294335127 },
			{ 0.014226024970412254, -0.01204318180680275, -0.04350120946764946, -0.07388423383235931, 0.06464312970638275, -0.06340193748474121, -0.013410781510174274, 0.01904204674065113, -0.0035131904296576977, -0.014495628885924816 },
			{ -0.03423430025577545, 0.05523395910859108, 0.037327300757169724, -0.0565384216606617, -0.10388309508562088, 0.07811647653579712, 0.11737270653247833, 0.03096110001206398, 0.04109703376889229, 0.007174159865826368 },
			{ 0.05357131361961365, -0.08083672821521759, 0.15814122557640076, 0.01847229339182377, -0.06386357545852661, 0.04775357246398926, -0.001865855068899691, -0.07259027659893036, -0.0865870863199234, 0.08113794773817062 },
			{ 0.04204350337386131, 0.04035313054919243, 0.15881067514419556, 0.02605537138879299, -0.05272258445620537, 0.0103722233325243, 0.06640864908695221, -0.06301946938037872, -0.04516264423727989, -0.07718944549560547 },
			{ -0.04557281732559204, -0.02403487078845501, 0.40568670630455017, 0.2153509557247162, -0.13946107029914856, -0.1520935446023941, -0.017358943819999695, 0.031832195818424225, 0.012595326639711857, -0.12278657406568527 },
			{ -0.11702809482812881, -0.12894707918167114, 0.31564655900001526, 0.16945891082286835, -0.17394967377185822, -0.023726357147097588, 0.016535772010684013, -0.025857672095298767, -0.03234641253948212, -0.03528004512190819 },
			{ -0.05035247653722763, -0.10363931953907013, 0.0800449475646019, 0.15759405493736267, -0.17981454730033875, 0.028585873544216156, 0.03969094529747963, -0.047476571053266525, -0.034656282514333725, -0.06657429039478302 },
			{ -0.010389312170445919, -0.10966254025697708, -0.0009996218141168356, 0.06973389536142349, -0.06999301165342331, 0.09788069874048233, 0.17727144062519073, -0.028044559061527252, 0.0031885523349046707, 0.0651031956076622 },
			{ -0.019882548600435257, -0.09666798263788223, 0.013746952638030052, 0.049092650413513184, 0.04732763022184372, 0.11198989301919937, 0.19027410447597504, -0.06658941507339478, -0.08929095417261124, 0.05323747172951698 },
			{ -0.06528113037347794, 0.056722432374954224, 0.018094442784786224, 0.022351961582899094, -0.04732659086585045, 0.09208956360816956, 0.06404177844524384, -0.07325209677219391, -0.08868198841810226, -0.08583850413560867 },
			{ 0.009816941805183887, 0.05469387397170067, 0.05629396438598633, -0.06636983156204224, 0.07507572323083878, 0.09461233764886856, 0.08978573977947235, 0.06625394523143768, 0.024917058646678925, 0.05666157975792885 },
			{ 0.03874339535832405, 0.08245915919542313, 0.023991286754608154, -0.08120301365852356, -0.06460987031459808, 0.029290327802300453, 0.03485652059316635, 0.018951306119561195, -0.004944297950714827, -0.08152811974287033 },
			{ 0.0011544490698724985, -0.02246014028787613, -0.015554402954876423, 0.06798849999904633, -0.05033845826983452, 0.058644577860832214, 0.0007838209858164191, -0.06889284402132034, 0.03268168121576309, 0.004521347116678953 },
			{ 0.018111955374479294, -0.03091963194310665, -0.036035649478435516, 0.00866667926311493, -0.036072395741939545, -0.058004751801490784, 0.08740362524986267, 0.08092617243528366, 0.049130696803331375, -0.025633489713072777 },
			{ -0.0020109994802623987, 0.0034074154682457447, 0.043882206082344055, 0.06351288408041, 0.016391655430197716, -0.04047723114490509, -0.006922245025634766, 0.05441489443182945, -0.07664419710636139, 0.06588535755872726 },
			{ -0.09686103463172913, 0.018906816840171814, 0.08037468045949936, 0.23858845233917236, -0.05484165996313095, -0.08993721753358841, 0.080548495054245, -0.05469037592411041, -0.11756154894828796, -0.021210482344031334 },
			{ -0.13326327502727509, 0.13374017179012299, 0.25147485733032227, 0.19086357951164246, -0.04543880745768547, -0.13388395309448242, -0.14738072454929352, -0.03852467983961105, -0.16615964472293854, -0.17076459527015686 },
			{ -0.10005417466163635, -0.1638239026069641, 0.272686630487442, 0.3410990536212921, 0.02910107560455799, -0.2141837328672409, -0.32767102122306824, 0.05434555187821388, 0.14504672586917877, -0.06734003871679306 },
			{ -0.028079237788915634, -0.13967567682266235, 0.20301741361618042, 0.40617647767066956, -0.14955681562423706, 0.013919943943619728, -0.3486197590827942, -0.08599277585744858, 0.2265351563692093, 0.12495339661836624 },
			{ -0.04452729970216751, -0.15865550935268402, 0.1538621038198471, 0.18702515959739685, -0.14412438869476318, 0.09548266977071762, -0.34062525629997253, -0.046928923577070236, 0.18575601279735565, -0.04986387863755226 },
			{ -0.008808918297290802, -0.24455629289150238, 0.30228108167648315, 0.13375955820083618, -0.17330162227153778, 0.13856661319732666, 0.044979337602853775, -0.25816696882247925, 0.05801280587911606, -0.04579134285449982 },
			{ 0.02649221383035183, -0.26895594596862793, 0.20700879395008087, 0.07263126224279404, -0.08003898710012436, 0.039057228714227676, -0.03268364816904068, -0.1286512166261673, 0.32238277792930603, -0.14798958599567413 },
			{ -0.0034544302616268396, -0.010273928754031658, 0.0710810124874115, -0.061088040471076965, -0.043790072202682495, 0.06703414022922516, 0.17373397946357727, -0.14215736091136932, 0.22596623003482819, -0.06844033300876617 },
			{ -0.0361507274210453, -0.06089150533080101, -0.12873448431491852, -0.13854669034481049, 0.2402050942182541, 0.2779434323310852, 0.16183850169181824, -0.053384751081466675, -0.06724017858505249, -0.14081989228725433 },
			{ -0.013693914748728275, -0.04290379211306572, -0.10244444757699966, -0.12410709261894226, 0.030500702559947968, 0.09253958612680435, 0.1294504553079605, -0.023790733888745308, 0.013215324841439724, 0.010342906229197979 },
			{ -0.03467080369591713, -0.003936384338885546, -0.05661711096763611, 0.03633079305291176, 0.011570372618734837, 0.017862336710095406, 0.013561607338488102, 0.01862969622015953, -0.013450099155306816, 0.006126915104687214 },
			{ -0.03661000356078148, 0.017088068649172783, 0.051913294941186905, -0.0012593920109793544, -0.07516645640134811, -0.03412626311182976, -0.08584832400083542, 0.00034601459628902376, -0.07692231237888336, -0.006022816989570856 },
			{ -0.013010304421186447, -0.06250710040330887, 0.014454885385930538, 0.10038219392299652, 0.0016159549122676253, 0.02401208132505417, 0.06704682856798172, 0.049956344068050385, -0.056159332394599915, -0.09916297346353531 },
			{ 0.03441375866532326, -0.006554958876222372, -0.12279116362333298, 0.20354734361171722, 0.030622217804193497, -0.10608632862567902, 0.02993318811058998, 0.2238432615995407, -0.043825503438711166, -0.20566478371620178 },
			{ -0.032087791711091995, 0.005738060921430588, 0.0018857221584767103, 0.3475063741207123, -0.017860686406493187, -0.24290411174297333, -0.03031252510845661, 0.32253578305244446, -0.21932774782180786, -0.3275442123413086 },
			{ -0.09760692715644836, -0.021040964871644974, 0.1198052167892456, 0.20910212397575378, 0.09141245484352112, -0.07150648534297943, -0.22252221405506134, 0.3074204623699188, -0.017173435539007187, -0.24677646160125732 },
			{ -0.1433873176574707, -0.031296830624341965, 0.01674560084939003, 0.4101199209690094, -0.20045997202396393, -0.07249370962381363, -0.4264231324195862, 0.2757830023765564, -0.03111203946173191, 0.02639361470937729 },
			{ -0.06135500594973564, -0.20545163750648499, 0.2798987329006195, 0.3483692705631256, -0.5122523307800293, -0.14983029663562775, -0.5064207315444946, 0.2334195226430893, 0.06422536075115204, 0.48423534631729126 },
			{ 0.018584489822387695, -0.42238080501556396, 0.21100710332393646, 0.2261514812707901, -0.9597769975662231, 0.19744160771369934, -0.41159722208976746, 0.1221141442656517, 0.2872123718261719, 0.3542427718639374 },
			{ 0.05205050855875015, -0.6002902984619141, -0.007608884014189243, 0.15340055525302887, -0.8328419327735901, 0.35265153646469116, -0.15905070304870605, 0.1583646833896637, 0.20792342722415924, 0.407083123922348 },
			{ 0.06413032859563828, -0.4372881352901459, 0.06395184248685837, -0.14342911541461945, -0.7093847990036011, 0.4219341278076172, 0.04913725703954697, 0.017988869920372963, 0.2853766083717346, 0.3383845388889313 },
			{ 0.11568824201822281, -0.1697903275489807, -0.07380000501871109, -0.1527268886566162, -0.14330266416072845, 0.3621915280818939, 0.15336041152477264, -0.20524020493030548, 0.09106370806694031, 0.1858735829591751 },
			{ 0.1756560355424881, -0.18256784975528717, -0.27767011523246765, -0.10230600088834763, 0.29969045519828796, 0.19783072173595428, 0.18903487920761108, -0.18279120326042175, 0.15280714631080627, -0.22405901551246643 },
			{ -0.1157803013920784, -0.20572394132614136, -0.2060241848230362, -0.2310999631881714, 0.20766174793243408, 0.517055869102478, 0.08123547583818436, -0.07540692389011383, 0.07035261392593384, -0.1270185261964798 },
