/*
 * This file is auto-generated by gen-weights.py
 */

#pragma once

#include "definitions.h"


const float conv_weights [FILTERS][KRN_ROWS][KRN_COLS]
	= {
			{
				{-1.052121639251709, -0.8409430980682373, -1.1943570375442505},
				{0.6047191619873047, -0.42987003922462463, -0.11198524385690689},
				{0.8455101251602173, 1.2123258113861084, 0.8557167053222656}
			},
			{
				{0.10068249702453613, -0.8853126764297485, -0.3242398500442505},
				{-0.28887027502059937, -0.23034296929836273, -0.9006026983261108},
				{1.4064463376998901, 0.47795483469963074, -0.07006090879440308}
			},
			{
				{0.8710229396820068, 0.20886026322841644, -1.0900769233703613},
				{0.9968677759170532, -1.082709550857544, 0.3013700246810913},
				{0.4779875874519348, -0.8644623756408691, -0.729801595211029}
			},
			{
				{-0.11466452479362488, 0.8419259786605835, 0.17064128816127777},
				{-0.8884047269821167, 0.3309592604637146, 0.10109411925077438},
				{-0.4040240943431854, -0.11224916577339172, -0.6333788633346558}
			},
			{
				{-0.5658247470855713, -0.7904678583145142, 0.39752960205078125},
				{-0.3335210084915161, -0.8683956265449524, 1.119619369506836},
				{0.3663114607334137, -0.931411623954773, 0.12869197130203247}
			},
			{
				{-0.9018331170082092, -0.9706332087516785, -1.0764554738998413},
				{-0.7881025075912476, 0.5940157771110535, 0.9274853467941284},
				{1.0148597955703735, 0.16114391386508942, 0.3876855969429016}
			},
			{
				{-0.146723210811615, -0.7880281209945679, -0.11297696828842163},
				{0.443474143743515, 0.834416389465332, -0.6550167798995972},
				{-0.6816886067390442, 0.061242956668138504, 0.14817361533641815}
			},
			{
				{0.8613641262054443, 0.5130391120910645, -1.1344903707504272},
				{0.8399859070777893, 0.07702276855707169, -0.953149139881134},
				{-0.10153435170650482, -0.6917807459831238, -0.5576660633087158}
			},
			{
				{0.861980140209198, -0.592233419418335, -0.5851051807403564},
				{0.4821702837944031, 0.5383912324905396, -0.6594435572624207},
				{-0.13548916578292847, -0.7925987839698792, 0.4690595269203186}
			},
			{
				{0.5023677945137024, -0.3870418071746826, -0.25011351704597473},
				{-1.0372674465179443, -0.7821876406669617, -0.20074085891246796},
				{0.6181275248527527, 1.105214238166809, -0.2951739430427551}
			},
			{
				{1.24332594871521, 0.9400796294212341, -0.36358657479286194},
				{-0.7968320250511169, -1.2100732326507568, -1.01032555103302},
				{-0.8907724618911743, -0.17229846119880676, 1.060590386390686}
			},
			{
				{-0.617264986038208, 0.7545693516731262, 0.7210220098495483},
				{-0.47642332315444946, -0.5573150515556335, -0.23920565843582153},
				{0.14485104382038116, -0.3218423128128052, -0.7601441740989685}
			},
			{
				{0.7647826075553894, -0.7752228379249573, -0.7540187835693359},
				{0.5599595308303833, -0.80112224817276, -0.21976807713508606},
				{-0.7754220962524414, 0.5972100496292114, -0.5076379179954529}
			},
			{
				{0.09027271717786789, -0.687114417552948, 0.469920814037323},
				{-0.7842687368392944, -0.14250151813030243, 0.5086020231246948},
				{-0.6677627563476562, 0.6166611313819885, 0.5813143253326416}
			},
			{
				{-0.24396918714046478, 0.41770943999290466, -0.38805320858955383},
				{0.4063434302806854, -0.41418296098709106, 0.8064054250717163},
				{0.5848813652992249, -0.14248545467853546, -0.06813012063503265}
			},
			{
				{-1.066401481628418, 0.6100611090660095, 0.7146784663200378},
				{-0.06857259571552277, 0.6833314299583435, -0.5074014067649841},
				{0.21234670281410217, 0.06092767417430878, -0.6612588167190552}
			},
			{
				{0.7367122173309326, 0.33942845463752747, -0.2535880506038666},
				{0.16464683413505554, 0.2021767497062683, 0.06846770644187927},
				{-0.4936690032482147, 0.3415392339229584, 0.11972201615571976}
			},
			{
				{-0.5938199758529663, -0.24667638540267944, -0.727764368057251},
				{0.3143356442451477, 0.9629914164543152, 0.1782831996679306},
				{0.2150886356830597, -0.35155272483825684, -0.023252690210938454}
			},
			{
				{1.205431342124939, -0.5710414052009583, -0.6704552173614502},
				{0.49595656991004944, -0.6841437220573425, -0.13819393515586853},
				{-0.43562212586402893, -0.054930154234170914, -0.7855000495910645}
			},
			{
				{-0.846331000328064, 0.08608932793140411, 0.8373311161994934},
				{-0.564505398273468, -0.21161779761314392, 0.2666120231151581},
				{0.6682738661766052, -0.04405231401324272, -0.5436277985572815}
			},
			{
				{0.3704139292240143, 1.0223859548568726, 0.11385072767734528},
				{0.021602924913167953, -0.5125756859779358, 0.8586843609809875},
				{-0.7142125964164734, -0.4976865351200104, -1.0063745975494385}
			},
			{
				{0.5729690790176392, -0.5740190148353577, 0.6986246109008789},
				{0.49789518117904663, -0.005073665641248226, -0.47639980912208557},
				{0.5947909951210022, -0.2088720202445984, -0.2502356767654419}
			},
			{
				{0.07734061032533646, -0.7398905158042908, -0.5110393762588501},
				{-0.556970477104187, -0.1361667662858963, 0.47358593344688416},
				{0.588729202747345, -0.7600687146186829, -0.025686761364340782}
			},
			{
				{0.2151610404253006, 0.39435988664627075, 0.43987274169921875},
				{0.27951475977897644, 0.3252193331718445, -0.486163854598999},
				{-0.03640161082148552, 0.4721693694591522, 0.4108654856681824}
			},
			{
				{-0.7222467064857483, 0.3501439094543457, -0.278851717710495},
				{-0.6160933971405029, -0.09837662428617477, -0.485266774892807},
				{0.22313332557678223, -0.56746906042099, 0.7722338438034058}
			},
			{
				{-0.32162776589393616, -0.433675080537796, -0.5309528708457947},
				{-0.6501817107200623, 0.1363629847764969, 0.1854175478219986},
				{1.215774416923523, -0.6205648183822632, -0.6585211157798767}
			},
			{
				{0.02117420732975006, -0.6808141469955444, 0.5744930505752563},
				{-0.7497779726982117, -0.19920586049556732, 0.8867282271385193},
				{-0.2057715207338333, 0.8021667003631592, -0.25314170122146606}
			},
			{
				{-0.12706954777240753, 0.48643019795417786, -0.1666938215494156},
				{0.40938085317611694, 0.08296554535627365, -0.2425602674484253},
				{0.22785881161689758, -0.1406368613243103, 0.019178928807377815}
			},
			{
				{0.4382694363594055, 1.073108196258545, 0.03052366152405739},
				{-1.1503173112869263, 0.9702394008636475, 0.7182944416999817},
				{-1.4741380214691162, -0.20961855351924896, 0.10900969803333282}
			},
			{
				{0.6669127941131592, 0.5684361457824707, -1.0619450807571411},
				{0.4696650207042694, 0.10751032084226608, -0.7594985365867615},
				{0.7570772171020508, 0.6920358538627625, -0.24945247173309326}
			},
			{
				{-0.746101438999176, -0.02221996895968914, -0.6932116746902466},
				{0.7019233703613281, -0.5237113237380981, -0.08885665982961655},
				{-0.4422319233417511, -0.28737515211105347, -0.31991806626319885}
			},
			{
				{-0.041284333914518356, 0.2244148701429367, 0.17297151684761047},
				{0.7396417260169983, 0.44418925046920776, 0.7065518498420715},
				{-0.09007593244314194, 0.046072088181972504, -0.39160335063934326}
			}
		};


const float conv_biases [FILTERS] = { -0.22044986, -0.010876428, -0.24851625, 0.008807298, 0.010334974, -0.1306759, 0.0038305733, -0.031884566, -0.0016991772, 0.00092826044, 0.041334685, 0.06777162, 0.007614648, -0.25315535, -0.33476153, -0.05493498, -0.40401846, -0.00386172, 0.001309265, -0.0032191346, -0.006650795, -0.35212725, 0.019348118, -0.55424285, 0.011492929, 0.038925786, -0.23225337, -0.21166934, -0.4358232, -0.71968716, 0.06478253, -0.5086197};
