/*
 * This file is auto-generated by gen-weights.py
 */

#pragma once

#include "definitions.h"


const float conv_weights [FILTERS][KRN_ROWS][KRN_COLS]
	= {
			{
				{0.3216862678527832, -0.4634251892566681, -0.5848912000656128},
				{-0.2733990550041199, -0.36139872670173645, -0.5497491359710693},
				{-0.7526044249534607, 0.016576766967773438, -0.639130711555481}
			},
			{
				{-0.13364499807357788, 0.3878476619720459, 0.5220879316329956},
				{0.573879599571228, -0.08837771415710449, -0.2989214062690735},
				{0.010043323040008545, -0.2823798656463623, -0.3364247679710388}
			},
			{
				{0.22777986526489258, -0.5708836317062378, -0.45948103070259094},
				{0.6523640155792236, 0.2860819101333618, 0.5218307971954346},
				{-0.6599783301353455, -0.05955475568771362, 0.7512661218643188}
			},
			{
				{0.5861771106719971, 0.7852152585983276, -0.440457284450531},
				{0.36445701122283936, 0.6650676727294922, 0.3308858871459961},
				{-0.21292978525161743, -0.1343289017677307, -0.3932573199272156}
			},
			{
				{-0.6863038539886475, -0.698643684387207, 0.6612528562545776},
				{0.6273963451385498, 0.3964366912841797, -0.7458919286727905},
				{-0.4427901804447174, -0.5532777309417725, -0.6751600503921509}
			},
			{
				{-0.7405906915664673, 0.16207140684127808, -0.18136340379714966},
				{0.5739859342575073, 0.74351966381073, 0.12640219926834106},
				{-0.4217317998409271, 0.05272310972213745, 0.08025145530700684}
			},
			{
				{0.3016469478607178, -0.7672314047813416, -0.23768138885498047},
				{0.6573817729949951, -0.3808993995189667, -0.5914297103881836},
				{-0.434874027967453, -0.4204884469509125, 0.5341991186141968}
			},
			{
				{-0.3975951075553894, 0.0535922646522522, -0.4820251166820526},
				{0.5734130144119263, 0.28775525093078613, 0.3983052968978882},
				{0.3253035545349121, 0.6676963567733765, 0.5638360977172852}
			},
			{
				{-0.17451339960098267, -0.20388102531433105, 0.5377402305603027},
				{0.3352304697036743, -0.3687988519668579, -0.19102609157562256},
				{-0.3822396993637085, -0.44276389479637146, 0.7203031778335571}
			},
			{
				{-0.7761524319648743, 0.6837824583053589, 0.08960354328155518},
				{0.17954301834106445, -0.47949522733688354, 0.5757162570953369},
				{0.6138970851898193, 0.5226060152053833, 0.003678262233734131}
			},
			{
				{-0.7765591144561768, -0.0581432580947876, 0.7675590515136719},
				{0.2423473596572876, -0.7989204525947571, 0.34923243522644043},
				{-0.1866742968559265, 0.4988861083984375, 0.5117343664169312}
			},
			{
				{0.4440426826477051, 0.6038576364517212, 0.21653461456298828},
				{0.6510237455368042, -0.5125309228897095, -0.3167078495025635},
				{-0.44426149129867554, 0.2608451843261719, 0.24459421634674072}
			},
			{
				{-0.40715545415878296, 0.40797555446624756, 0.45843541622161865},
				{0.15526211261749268, 0.6765496730804443, 0.6585780382156372},
				{-0.4618797302246094, -0.7466886639595032, 0.278875470161438}
			},
			{
				{-0.5676664113998413, 0.7500542402267456, -0.22948938608169556},
				{0.6563286781311035, -0.7611165046691895, -0.5681119561195374},
				{0.3515009880065918, -0.43253761529922485, 0.3617163896560669}
			},
			{
				{0.7689964771270752, -0.26809513568878174, 0.13973093032836914},
				{-0.14958304166793823, -0.7315139174461365, -0.26977241039276123},
				{0.4640690088272095, -0.5803452730178833, 0.7361922264099121}
			},
			{
				{-0.7714154124259949, 0.3236929178237915, 0.25386106967926025},
				{-0.7083439826965332, 0.1668909788131714, 0.548497200012207},
				{-0.31851261854171753, 0.4975188970565796, -0.3084179162979126}
			},
			{
				{-0.6306068301200867, 0.46629250049591064, -0.08724451065063477},
				{-0.6893426179885864, -0.7926992177963257, 0.7826093435287476},
				{0.32100164890289307, -0.7571477890014648, -0.09010189771652222}
			},
			{
				{-0.770686149597168, 0.5171587467193604, -0.017225980758666992},
				{0.15341705083847046, -0.178205668926239, -0.3133852481842041},
				{0.6661276817321777, 0.6199779510498047, 0.3806910514831543}
			},
			{
				{-0.3826652467250824, 0.2645062208175659, 0.28766822814941406},
				{-0.109927237033844, 0.055116355419158936, -0.3240232765674591},
				{0.5874514579772949, -0.540136456489563, 0.7034090757369995}
			},
			{
				{0.20774364471435547, -0.0636223554611206, 0.717024564743042},
				{0.6019539833068848, -0.09654051065444946, 0.7719180583953857},
				{-0.05124145746231079, -0.018108785152435303, -0.37533578276634216}
			},
			{
				{-0.06933623552322388, 0.09797811508178711, -0.12281292676925659},
				{-0.32119297981262207, 0.105832040309906, 0.7700879573822021},
				{-0.6800826787948608, -0.3557257354259491, 0.01542043685913086}
			},
			{
				{0.7625305652618408, 0.03071880340576172, 0.7828589677810669},
				{-0.4731624722480774, 0.14655929803848267, 0.676424503326416},
				{-0.35678139328956604, 0.7226431369781494, 0.15512913465499878}
			},
			{
				{-0.013207852840423584, 0.5096633434295654, 0.44682037830352783},
				{0.7594573497772217, -0.25649315118789673, -0.2022191286087036},
				{-0.11682784557342529, -0.5105632543563843, 0.32028794288635254}
			},
			{
				{-0.5591655969619751, 0.5698952674865723, -0.5042645931243896},
				{-0.7938715219497681, 0.37963712215423584, 0.3172980546951294},
				{0.6911060810089111, 0.6958500146865845, -0.31656593084335327}
			},
			{
				{-0.3351055085659027, -0.18011397123336792, 0.5955014228820801},
				{0.34143614768981934, -0.43277549743652344, 0.4942251443862915},
				{-0.06656712293624878, 0.22483038902282715, -0.2382529377937317}
			},
			{
				{-0.08316254615783691, -0.05663222074508667, 0.7530784606933594},
				{-0.4305045008659363, 0.0737256407737732, -0.6154676675796509},
				{0.49429547786712646, 0.5888310670852661, 0.10667240619659424}
			},
			{
				{0.6738834381103516, -0.0005497336387634277, 0.7255913019180298},
				{-0.7063524723052979, 0.29628169536590576, -0.6607838273048401},
				{-0.11206334829330444, 0.7272276878356934, 0.1472875475883484}
			},
			{
				{-0.7369128465652466, -0.14098399877548218, -0.6897411346435547},
				{0.36649656295776367, -0.40638434886932373, -0.0021569132804870605},
				{0.5241827964782715, 0.01202327013015747, 0.5420130491256714}
			},
			{
				{-0.18888962268829346, 0.43588805198669434, -0.7160271406173706},
				{-0.07353311777114868, -0.6359070539474487, 0.10391509532928467},
				{-0.49243149161338806, -0.4904223382472992, -0.3376087546348572}
			},
			{
				{0.24283266067504883, -0.7660555839538574, 0.07403939962387085},
				{-0.4678063988685608, -0.43385085463523865, -0.7002251148223877},
				{-0.2815348505973816, -0.7530669569969177, -0.4024351239204407}
			},
			{
				{0.32293176651000977, 0.43124496936798096, 0.2936387062072754},
				{0.535752534866333, 0.5491518974304199, -0.4674832224845886},
				{-0.0218808650970459, 0.4198092222213745, -0.33787640929222107}
			},
			{
				{0.10330325365066528, -0.23325932025909424, 0.17673593759536743},
				{0.11141431331634521, -0.7990942597389221, 0.12381702661514282},
				{-0.667111337184906, -0.3457931876182556, -0.5779705047607422}
			}
		};


const float conv_biases [FILTERS] = { 0.0, 0.0, 0.0, 0.0, 0.0, 0.0, 0.0, 0.0, 0.0, 0.0, 0.0, 0.0, 0.0, 0.0, 0.0, 0.0, 0.0, 0.0, 0.0, 0.0, 0.0, 0.0, 0.0, 0.0, 0.0, 0.0, 0.0, 0.0, 0.0, 0.0, 0.0, 0.0};
