/*
 * This file is auto-generated by gen-weights.py
 */

#pragma once

#include "definitions.h"


// conv layer weights.
const float conv_weights [KRN_ROWS][KRN_COLS][FILTERS]
	= {
			{
				{ 0.6461328864097595, 0.769025444984436, 0.1548113226890564, 0.9668958783149719, 0.17770451307296753, 0.531842052936554, -0.3687646985054016, 0.5118007659912109, -0.38428738713264465, 0.2951028048992157, -0.025627044960856438, -1.0779885053634644, -0.020738651975989342, -0.4348315894603729, -0.21454854309558868, -0.572257936000824, 1.0207195281982422, -0.46829283237457275, 0.5537803173065186, -0.7256478667259216, 0.6335039138793945, -0.0427447073161602, 0.24791233241558075, -0.6060842275619507, 0.39988279342651367, 0.6077631115913391, -0.08698774874210358, 0.4740658104419708, -0.8044263124465942, 0.21401794254779816, 0.13315033912658691, 0.6294981241226196 },
				{ 0.06326782703399658, -0.037085577845573425, 0.12153366953134537, -0.04412958025932312, -0.66668701171875, 0.354032039642334, -0.6153469085693359, 0.6818933486938477, -0.157797709107399, -0.005120467394590378, -0.38836270570755005, 0.47155678272247314, -0.6843499541282654, 0.5713143348693848, 0.7286396026611328, 0.4143863022327423, -0.6719782948493958, 0.23871523141860962, 0.2726070284843445, -0.42638692259788513, -0.3206620514392853, 0.24767771363258362, 0.7973412871360779, -0.7543953657150269, 0.7515133023262024, 0.38792964816093445, -0.28574466705322266, 0.39687883853912354, -0.5502614378929138, -0.4099422097206116, 0.8069630265235901, 0.8218067288398743 },
				{ 0.5049278140068054, 0.6003473401069641, -0.6858159899711609, -0.6653533577919006, 0.27867385745048523, 0.8414930701255798, -0.656288206577301, -0.23520813882350922, 0.9696978330612183, 0.274000346660614, -0.26100507378578186, 0.2855518162250519, -0.7549953460693359, 0.6792849898338318, 0.2745491564273834, -0.6062631607055664, -0.152781680226326, -0.807533860206604, 1.1787102222442627, -0.8386319875717163, 0.2080400437116623, 0.20097726583480835, 0.09178531914949417, 0.5615696907043457, 0.798562228679657, 0.7743195295333862, 0.5583639144897461, -0.07630910724401474, 0.23815423250198364, -0.32120653986930847, 0.3343035876750946, -0.5503742694854736 }
			},
			{
				{ 0.02796829119324684, 0.2584286034107208, 0.37739884853363037, -0.08372975140810013, 0.07365048676729202, -0.10737839341163635, 0.13763786852359772, 0.5454674959182739, -1.0358625650405884, 0.32516777515411377, 0.6345778107643127, 0.3860720992088318, 0.4824630618095398, 0.4520399868488312, 0.2180262804031372, 0.029797794297337532, -0.8104855418205261, 0.11883840709924698, -0.30215534567832947, 0.09318654239177704, 0.5071853995323181, 0.12198453396558762, -0.4277104437351227, 0.05541727691888809, 0.11117653548717499, -0.8264238834381104, -0.5549479722976685, -0.3342454731464386, -0.3391726016998291, 0.18043936789035797, -0.6789596080780029, -0.864855945110321 },
				{ -0.31383824348449707, -0.5501160025596619, 0.8100456595420837, -1.0727331638336182, 0.6744913458824158, 0.09427466988563538, 0.8759141564369202, 0.5763653516769409, 0.024898657575249672, -0.4934368431568146, -0.5357449650764465, 0.7068756818771362, -0.14455778896808624, 0.6490706205368042, -0.2655549645423889, -0.6875356435775757, -0.4526338279247284, 0.8658645749092102, -0.21821077167987823, -0.008162478916347027, -0.46887674927711487, 0.5531625747680664, -0.9663602709770203, 0.5079631209373474, -0.5794092416763306, -0.26297086477279663, 0.16201183199882507, 0.3855048716068268, -0.776909589767456, -0.12675438821315765, -0.5461528301239014, 0.09953330457210541 },
				{ -1.0246559381484985, -0.633875846862793, 0.7368859052658081, -0.06043606996536255, -0.11937034875154495, 0.3525894284248352, 0.6390120387077332, -1.1108862161636353, 0.8140057325363159, 0.6815899610519409, -0.8680132031440735, -0.7841194868087769, 0.7704359292984009, -0.5988943576812744, -0.184804305434227, -0.1896144151687622, -0.7398865818977356, 0.5520010590553284, 0.043583884835243225, -0.9398044943809509, -0.5157179236412048, 0.5051174759864807, -0.8848010897636414, 0.5077467560768127, 0.34542253613471985, 0.5593034625053406, 0.32109615206718445, -0.356020450592041, -0.7873874306678772, -0.7417874336242676, -0.09270352125167847, 0.6869506239891052 }
			},
			{
				{ -0.6645026206970215, 0.5339213013648987, 0.17934732139110565, -0.8786911964416504, -0.6179144978523254, -0.7237822413444519, -0.10852023214101791, 0.9685581922531128, -0.8917422890663147, -0.06889156997203827, 0.7588050365447998, 0.6226613521575928, -0.05115904286503792, 0.5238363742828369, 0.199661523103714, -0.6690500974655151, -0.4042769968509674, -0.43513426184654236, -0.8958856463432312, 0.8726596832275391, 0.4503724277019501, -0.4806259870529175, -0.5166622996330261, 0.5638331174850464, -1.0286005735397339, -0.3238305449485779, -0.27685970067977905, -0.6849989891052246, 0.2525765597820282, 1.0396623611450195, -0.27136147022247314, -0.2499801069498062 },
				{ -0.31144803762435913, -0.5674364566802979, -0.7731683254241943, 0.1698622703552246, -0.4572714567184448, -0.4552660882472992, -0.673859179019928, 0.003383236937224865, -0.4522022604942322, -0.16726642847061157, 0.6866251826286316, 0.035036660730838776, 0.6754155158996582, -0.7334579229354858, 0.2724573314189911, 0.5644791126251221, -0.20856286585330963, 0.10332269966602325, -0.45316702127456665, 0.592355489730835, 0.6733468770980835, -0.39550966024398804, 0.04257280007004738, -0.42175495624542236, -0.21879692375659943, -0.8516908884048462, 0.7331607341766357, -0.3900262117385864, -0.22368814051151276, -0.16586974263191223, 0.23692317306995392, -0.6617252826690674 },
				{ 0.43421605229377747, -0.18807858228683472, 0.200729101896286, 0.9565286040306091, -0.5565656423568726, -1.0833345651626587, -0.3420371115207672, -1.1523431539535522, 0.053703997284173965, 0.1287136822938919, -0.0029026581905782223, -0.434824675321579, -0.18868538737297058, 0.528918445110321, -0.7501379251480103, -0.30469900369644165, 0.8207051157951355, -0.5724839568138123, -0.7764319181442261, 0.9403368234634399, -0.4267943501472473, -0.7675986886024475, 0.8318865895271301, -0.46883341670036316, -0.574809193611145, 0.5326095819473267, 0.2468087375164032, -0.4077335000038147, -0.431085467338562, -0.14350715279579163, -0.21214644610881805, 0.8713544607162476 }
			}
		};

// conv layer biases.
const float conv_biases [FILTERS] = { -0.003269162029027939, -0.31523481011390686, -0.40875136852264404, -5.289912223815918e-06, 0.07352314889431, -0.23026171326637268, 0.015003999695181847, -0.7147738933563232, -0.0373164601624012, -0.4407717287540436, -0.19365742802619934, -0.22377170622348785, -0.2488313764333725, -0.6851159334182739, -0.24163268506526947, 0.06642798334360123, 0.048474788665771484, -0.003345379140228033, -0.23396319150924683, -0.1382674276828766, -0.4986362159252167, -0.08883512765169144, 0.008372575975954533, -0.09766232967376709, -0.36923351883888245, -0.6132270693778992, -0.493634968996048, 0.025536643341183662, 0.02760627120733261, -0.09839984774589539, -0.04942813888192177, -0.5645555257797241 };
