/*
* This file is auto-generated by gen-weights.py
*/

#pragma once

#include "definitions.h"


const float krn_filters [KRN_FILTERS][KRN_ROWS][KRN_COLS]
	= {
			{
				{0.18338775634765625, -0.11759597063064575, 0.5926085710525513},
				{0.47193098068237305, 0.10287129878997803, 0.4173402786254883},
				{-0.4787665903568268, -0.7426354885101318, -0.22476673126220703}
			},
			{
				{0.6986935138702393, 0.12599903345108032, 0.33418548107147217},
				{-0.47544458508491516, 0.5631874799728394, -0.21963918209075928},
				{0.7995975017547607, -0.008594989776611328, -0.3802737295627594}
			},
			{
				{0.48132455348968506, -0.15825611352920532, -0.3133124113082886},
				{-0.6499888896942139, -0.11739253997802734, 0.4480452537536621},
				{0.09696429967880249, 0.3489086627960205, 0.20901811122894287}
			},
			{
				{0.43521082401275635, 0.1378963589668274, 0.010901987552642822},
				{0.1786389946937561, -0.6347954869270325, 0.1409318447113037},
				{-0.20531433820724487, -0.8012494444847107, 0.028550386428833008}
			},
			{
				{-0.659774124622345, 0.5306278467178345, 0.6954727172851562},
				{-0.24227207899093628, -0.05296194553375244, -0.19005197286605835},
				{0.6101146936416626, -0.5003721714019775, 0.782096266746521}
			},
			{
				{0.587035059928894, 0.27811551094055176, -0.2593631148338318},
				{-0.6108927726745605, -0.16510862112045288, 0.5483335256576538},
				{0.5329647064208984, 0.8118664026260376, -0.023318707942962646}
			},
			{
				{0.28068339824676514, -0.0007736086845397949, -0.7409442067146301},
				{-0.47201356291770935, 0.4522969722747803, 0.39642906188964844},
				{0.15391618013381958, 0.18267911672592163, -0.2652451992034912}
			},
			{
				{-0.4187144339084625, -0.5253206491470337, -0.297730028629303},
				{-0.14522522687911987, 0.34028780460357666, -0.7676528692245483},
				{-0.05408906936645508, -0.13880372047424316, 0.12162268161773682}
			},
			{
				{-0.15050148963928223, 0.5840786695480347, -0.7731290459632874},
				{0.20107638835906982, -0.33434048295021057, -0.02518010139465332},
				{0.3793528079986572, 0.6009466648101807, 0.2974745035171509}
			},
			{
				{-0.23707270622253418, -0.4079340994358063, -0.6502262353897095},
				{-0.003257155418395996, -0.5444403886795044, -0.4092923104763031},
				{-0.17641103267669678, 0.3054959774017334, -0.1214292049407959}
			},
			{
				{-0.8034347891807556, 0.323915958404541, 0.22001194953918457},
				{-0.39921239018440247, -0.08728796243667603, -0.20744186639785767},
				{0.028280019760131836, 0.42415809631347656, 0.08609110116958618}
			},
			{
				{-0.26117104291915894, 0.5560370683670044, -0.2555673122406006},
				{0.43212997913360596, 0.47517967224121094, -0.618367075920105},
				{-0.23681437969207764, 0.35345256328582764, -0.7988205552101135}
			},
			{
				{0.2981644868850708, -0.6840677261352539, 0.6267362833023071},
				{0.38972949981689453, 0.8090546131134033, -0.7822210192680359},
				{-0.7771981954574585, 0.47704005241394043, -0.43623456358909607}
			},
			{
				{0.17816519737243652, -0.6028031706809998, -0.025088787078857422},
				{0.7228256464004517, 0.4364778995513916, 0.32550954818725586},
				{-0.7310537099838257, -0.47372233867645264, -0.21399223804473877}
			},
			{
				{-0.046092331409454346, -0.741644024848938, -0.7981528639793396},
				{0.15533101558685303, -0.0037469863891601562, 0.46262335777282715},
				{0.2701839208602905, -0.5550931692123413, -0.1815224289894104}
			},
			{
				{0.2664729356765747, 0.7909443378448486, 0.7364742755889893},
				{-0.298931360244751, -0.5891380310058594, 0.042513370513916016},
				{-0.06896913051605225, 0.11655372381210327, -0.24924057722091675}
			},
			{
				{-0.28030240535736084, -0.23526090383529663, -0.7115507125854492},
				{0.29494237899780273, -0.5865917801856995, 0.8050546646118164},
				{-0.16169393062591553, 0.46654069423675537, 0.2068403959274292}
			},
			{
				{-0.4671922028064728, 0.11870443820953369, 0.6579152345657349},
				{0.7673512697219849, 0.46872270107269287, -0.28261077404022217},
				{0.20964431762695312, -0.1932620406150818, -0.520464301109314}
			},
			{
				{-0.5168198943138123, -0.06274807453155518, 0.7555313110351562},
				{0.19611239433288574, -0.31516003608703613, -0.06866872310638428},
				{-0.23851031064987183, -0.2896158695220947, 0.2903308868408203}
			},
			{
				{-0.7108779549598694, -0.7127156257629395, -0.47865134477615356},
				{-0.36682939529418945, -0.33327817916870117, 0.6410540342330933},
				{-0.2911956310272217, -0.7789539098739624, 0.11883330345153809}
			},
			{
				{0.26485955715179443, -0.3815266191959381, -0.6243674755096436},
				{-0.2467435598373413, -0.349002867937088, 0.7493507862091064},
				{0.8005709648132324, -0.11167848110198975, -0.042993009090423584}
			},
			{
				{0.8098076581954956, -0.4460288882255554, -0.6948612332344055},
				{0.7819364070892334, -0.47002872824668884, 0.28812146186828613},
				{0.3652465343475342, 0.5754895210266113, -0.21592861413955688}
			},
			{
				{0.5257045030593872, 0.2578953504562378, 0.7155965566635132},
				{0.08262932300567627, 0.7814289331436157, 0.816092848777771},
				{-0.5672509670257568, 0.5648329257965088, -0.16643917560577393}
			},
			{
				{0.5911123752593994, 0.24946308135986328, 0.13997071981430054},
				{0.3101881742477417, 0.6538984775543213, 0.5348480939865112},
				{-0.20457088947296143, -0.040648043155670166, 0.20806884765625}
			},
			{
				{-0.7377573251724243, 0.2000945806503296, 0.27088165283203125},
				{-0.2427036166191101, 0.6350308656692505, 0.5346558094024658},
				{0.5447216033935547, -0.7224996089935303, 0.037463486194610596}
			},
			{
				{-0.02536875009536743, -0.024404525756835938, 0.7808581590652466},
				{-0.7289832234382629, 0.1662740707397461, 0.7736682891845703},
				{-0.23605555295944214, 0.6153316497802734, 0.7149560451507568}
			},
			{
				{-0.001528918743133545, -0.04092717170715332, -0.3336530923843384},
				{0.7010970115661621, -0.8042782545089722, -0.4407150149345398},
				{0.6307284832000732, -0.6680256724357605, -0.10936331748962402}
			},
			{
				{-0.6979876160621643, -0.366199254989624, -0.41897374391555786},
				{0.7278553247451782, 0.02060753107070923, -0.8113737106323242},
				{0.8085845708847046, 0.5234099626541138, 0.5838305950164795}
			},
			{
				{-0.7801855802536011, -0.4569135308265686, -0.19928765296936035},
				{-0.12048465013504028, -0.8153979182243347, -0.7188910841941833},
				{0.7558923959732056, 0.7990264892578125, -0.2736243009567261}
			},
			{
				{0.29355788230895996, 0.10930955410003662, -0.3783920705318451},
				{-0.12200814485549927, 0.5982251167297363, 0.4644356966018677},
				{-0.7181651592254639, -0.349957138299942, -0.06699168682098389}
			},
			{
				{-0.26024848222732544, 0.5433527231216431, 0.09362107515335083},
				{0.6830320358276367, -0.600051760673523, 0.6532455682754517},
				{0.7859097719192505, -0.3266029953956604, -0.32326775789260864}
			},
			{
				{0.7647476196289062, 0.7279665470123291, -0.08936077356338501},
				{0.3396782875061035, -0.25917041301727295, 0.7900344133377075},
				{0.06936252117156982, -0.7688619494438171, 0.2643812894821167}
			}
		};


const float krn_biases [KRN_FILTERS] = { 0.0, 0.0, 0.0, 0.0, 0.0, 0.0, 0.0, 0.0, 0.0, 0.0, 0.0, 0.0, 0.0, 0.0, 0.0, 0.0, 0.0, 0.0, 0.0, 0.0, 0.0, 0.0, 0.0, 0.0, 0.0, 0.0, 0.0, 0.0, 0.0, 0.0, 0.0, 0.0};
