/*
 * .hhis file is auto-generated by gen-weights.py
 */

#pragma once

#include "definitions.hh"


// Dense layer wei.hhts.
float dense_weights[FLAT_SIZE][DENSE_SIZE]
	 = {
			{ -0.053330112248659134, 0.001921050250530243, 0.06611070781946182, -0.02526550367474556, -0.06221804395318031, -0.0015307555440813303, -0.039193011820316315, 0.006538883782923222, -0.09663792699575424, 0.03696824982762337 },
			{ -0.023144589737057686, 0.09045510739088058, -0.011714007705450058, -0.1140468418598175, -0.01960872672498226, -0.10796128213405609, -0.006926131900399923, 0.05546584352850914, -0.015755318105220795, 0.012166782282292843 },
			{ -0.015072422102093697, 0.12883172929286957, -0.012465842068195343, 0.028891757130622864, -0.08616184443235397, 0.006113373674452305, -0.07968147099018097, 0.0060246530920267105, -0.10085397213697433, -0.025094876065850258 },
			{ -0.046327412128448486, 0.07825712114572525, -0.08160386979579926, -0.0839340090751648, 0.0353294275701046, -0.03243296593427658, 0.06873775273561478, -0.0513853058218956, -0.0011026875581592321, 0.02199220284819603 },
			{ 0.010518630035221577, 0.05615479499101639, 0.06626660376787186, -0.06750471889972687, -0.05745915323495865, -0.08943510055541992, -0.05055340379476547, 0.06662634015083313, 0.045624103397130966, 0.08025826513767242 },
			{ 0.037981316447257996, 0.07012191414833069, 0.012899337336421013, 0.020097646862268448, -0.073934406042099, -0.035754114389419556, 0.03505326062440872, -0.001491059549152851, -0.08558089286088943, -0.05243926867842674 },
			{ -0.06877410411834717, -0.021138859912753105, 0.024183722212910652, -0.014844059012830257, -0.020770138129591942, -0.09257792681455612, -0.016908347606658936, -0.038568753749132156, -0.09207242727279663, 0.024904120713472366 },
			{ 0.003660482820123434, 0.14789126813411713, -0.05030611529946327, -0.03777414187788963, -0.07699292153120041, -0.008336437866091728, 0.014297420158982277, -0.01629830338060856, -0.03637288138270378, -0.04941011220216751 },
			{ -0.051403239369392395, 0.12927253544330597, -0.073858343064785, 0.029331371188163757, -0.057790759950876236, -0.05757594108581543, 0.024757971987128258, 0.10561159998178482, 0.025224341079592705, -0.035714466124773026 },
			{ -0.04510374739766121, 0.0498284287750721, -0.08845313638448715, -0.0822271928191185, 0.030361304059624672, 0.01937214285135269, 0.020364515483379364, 0.06036527082324028, -0.0027315630577504635, -0.048860158771276474 },
			{ 0.013959242030978203, 0.05188598111271858, -0.06676311045885086, -0.033988095819950104, 0.03184489905834198, 0.020223470404744148, 0.06227380037307739, -0.05148380622267723, -0.023100638762116432, -0.0683644562959671 },
			{ 0.0393441878259182, -0.013723831623792648, 0.0428960844874382, 0.030118359252810478, 0.007794456090778112, -0.04607570171356201, -0.057048115879297256, -0.051161326467990875, 0.050568439066410065, 0.020592205226421356 },
			{ 0.08350612223148346, 0.031616367399692535, -0.013290783390402794, -0.03869464993476868, -0.058151111006736755, 0.058629244565963745, -0.04494813084602356, 0.04189569130539894, -0.09301186352968216, 0.014831717126071453 },
			{ 0.034093569964170456, 0.047136034816503525, -0.032396141439676285, -0.027495816349983215, 0.0019819834269583225, 0.021448960527777672, 0.08260270208120346, -0.04149120673537254, 0.014260351657867432, -0.0225884560495615 },
			{ 0.0478203110396862, -0.009516479447484016, 0.06420917063951492, -0.05353352054953575, 0.036529358476400375, -0.09553354978561401, 0.00676696328446269, 0.09455770999193192, -0.03976419195532799, 0.0965186282992363 },
			{ 0.007928112521767616, 0.07397295534610748, 0.06198514997959137, -0.02295130118727684, -0.0697808489203453, -0.06236864626407623, 0.013345065526664257, -0.028383195400238037, -0.03436741977930069, 0.029996322467923164 },
			{ 0.08086739480495453, 0.06608657538890839, 0.05991663411259651, -0.11130660772323608, 0.018733257427811623, -0.1037452220916748, -0.026479540392756462, 0.10198856145143509, -0.07549010217189789, 0.040628187358379364 },
			{ -0.03804347664117813, 0.0793958529829979, -0.0026006661355495453, -0.09763042628765106, -0.01812685653567314, -0.01125942450016737, 0.05949681997299194, -0.0045970831997692585, -0.013871558010578156, -0.04224598407745361 },
			{ -0.054133351892232895, 0.13188223540782928, -0.07249487936496735, -0.006835221312940121, 0.0714283138513565, 0.006067012436687946, -0.010733431205153465, 0.015856919810175896, 0.00019924092339351773, 0.08954618126153946 },
			{ -0.01754043623805046, 0.1306200921535492, -0.08108595013618469, -0.07405897229909897, 0.0639977902173996, 0.062469080090522766, -0.09147298336029053, -0.02518172189593315, 0.04835297167301178, 0.023613931611180305 },
			{ 0.009554179385304451, 0.14289826154708862, 0.018994396552443504, -0.04777706414461136, 0.01382885966449976, -0.022153528407216072, -0.08753187209367752, 0.06803574413061142, 0.02010258287191391, 0.04770224913954735 },
			{ 0.09133314341306686, 0.0005706623778678477, -0.023194652050733566, 0.012654912658035755, 0.07766622304916382, -0.00506904860958457, -0.1312245875597, 0.06958260387182236, -0.05360599234700203, 0.04756331443786621 },
			{ 0.019161466509103775, 0.06168825924396515, 0.012632591649889946, -0.10140882432460785, 0.07483356446027756, -0.03912156820297241, -0.007056527305394411, 0.02819768525660038, 0.012261790223419666, 0.023588024079799652 },
			{ -0.04044042527675629, 0.025215618312358856, -0.10165979713201523, -0.1299123764038086, 0.05809089168906212, 0.016642523929476738, -0.0004128885339014232, 0.106179378926754, -0.1159229651093483, 0.07428129762411118 },
			{ -0.007283731829375029, 0.07147208601236343, -0.01914238929748535, -0.11071056127548218, 0.027327409014105797, 0.061773352324962616, -0.07011400908231735, 0.04061507806181908, -0.04680826887488365, -0.03404422104358673 },
			{ 0.023202061653137207, 0.08979561924934387, -0.0677759125828743, 0.0068394881673157215, -0.0714731365442276, -0.0030397481750696898, -0.08408788591623306, 0.01739177666604519, -0.05801347643136978, 0.014041824266314507 },
			{ 0.006537171546369791, 0.08559706807136536, 0.05452287942171097, -0.072232186794281, 0.00014622062735725194, -0.09017639607191086, -0.007880168966948986, 0.07648033648729324, -0.06514380127191544, -0.004004226997494698 },
			{ 0.04231192171573639, 0.023819047957658768, -0.07489040493965149, -0.025388598442077637, -0.08910323679447174, 0.04679274559020996, -0.013458287343382835, 0.06285349279642105, 0.04529326781630516, 0.03299161046743393 },
			{ 0.040098194032907486, 0.0012655446771532297, 0.0442328006029129, 0.04420018568634987, -0.10149025917053223, 0.0071725258603692055, -0.0718005821108818, 0.08858896046876907, -0.07991298288106918, 0.035392411053180695 },
			{ 0.03134937956929207, 0.07627807557582855, 0.037121981382369995, -0.0653347298502922, -0.003925042692571878, -0.04316544160246849, 0.033945534378290176, 0.09099312871694565, -0.09798335283994675, 0.06489906460046768 },
			{ 0.06780683249235153, -0.01396875735372305, -0.014015216380357742, -0.1327279657125473, 0.06704452633857727, 0.05659942701458931, -0.010695215314626694, -0.0160639937967062, -0.07524390518665314, -0.04475951939821243 },
			{ 0.07970187813043594, -0.013568922877311707, 0.00735215051099658, 0.03896273672580719, -0.033676523715257645, 0.035540949553251266, -0.01204543374478817, 0.029717039316892624, -0.026484254747629166, -0.03395194560289383 },
			{ 0.04995705559849739, 0.08339476585388184, -0.014256328344345093, 0.06345173716545105, 0.09799019247293472, 0.040193554013967514, -0.11856286972761154, 0.10182732343673706, -0.02504795230925083, -0.07395540922880173 },
			{ 0.060790736228227615, 0.011256570927798748, -0.036939725279808044, 0.08476509153842926, 0.16792966425418854, 0.03309353068470955, -0.11509600281715393, 0.1081443652510643, -0.040871765464544296, -0.08299607038497925 },
			{ 0.05340958759188652, 0.04369794949889183, -0.11915785074234009, 0.0808681771159172, 0.09063497185707092, 0.004763421136885881, -0.0037253329064697027, 0.08850466459989548, -0.08986891806125641, -0.04359200596809387 },
			{ 0.002229756209999323, -0.10967080295085907, 0.11331287771463394, 0.05498359352350235, -0.01208613719791174, -0.04628903046250343, -0.15074288845062256, 0.04266643524169922, 0.061415910720825195, -0.010883156210184097 },
			{ 0.05117972567677498, -0.012016926892101765, -0.09038706868886948, -0.04635467752814293, 0.003208344569429755, -0.06942573189735413, -0.14014077186584473, 0.04774448648095131, -0.11887984722852707, 0.046482499688863754 },
			{ 0.08424417674541473, 0.04627114161849022, -0.06290712207555771, -0.06592825055122375, -0.1011601909995079, -0.022083763033151627, -0.09881655126810074, 0.12340319156646729, 0.039852432906627655, -0.00541352853178978 },
			{ -0.03378888592123985, 0.058379124850034714, 0.02947731502354145, -0.039655569940805435, -0.1049836203455925, 0.0708160549402237, -0.06509838998317719, 0.08684105426073074, -0.026892324909567833, 0.0980788916349411 },
			{ 0.043566275388002396, 0.03184002265334129, -0.08375529199838638, -0.05654588341712952, -0.0007721144938841462, -0.03446313366293907, -0.043682973831892014, -0.013235177844762802, -0.001031686319038272, 0.01834389567375183 },
			{ -0.0381975956261158, 0.014966658316552639, -0.02756679058074951, 0.01927083358168602, -0.009071681648492813, -0.02949688769876957, -0.08340354263782501, 0.09763310849666595, 0.06104636564850807, -0.043659236282110214 },
			{ -0.06455079466104507, -0.0025884213391691446, -0.008068094961345196, -0.03979875147342682, -0.03968077152967453, 0.01245938427746296, 0.0547671802341938, -0.04601012170314789, -0.09623502194881439, 0.056733205914497375 },
			{ 0.07682187855243683, -0.026386264711618423, 0.02133932337164879, -0.04189813509583473, 0.03202739730477333, -0.09035251289606094, -0.021065890789031982, 0.022568728774785995, -0.09055935591459274, -0.005860736593604088 },
			{ -0.03431497514247894, 0.038248371332883835, -0.0668325275182724, -0.07365477830171585, -0.08553368598222733, 0.0038458716589957476, 0.07946121692657471, 0.09965222328901291, -0.06225399300456047, -0.04133659601211548 },
			{ -0.05572956055402756, -0.03361503407359123, 0.0019055914599448442, 0.0066556124947965145, -0.08482645452022552, -0.013556540943682194, -0.08933821320533752, -0.050694484263658524, -0.011796832084655762, 0.047319818288087845 },
			{ 0.05716168135404587, 0.11810149252414703, 0.00827008206397295, -0.06229601427912712, 0.06960682570934296, -0.0756482258439064, 0.012183113023638725, 0.1640206128358841, 0.042651958763599396, 0.05068401247262955 },
			{ 0.07005903124809265, 0.08829807490110397, -0.05945410579442978, -0.05668352171778679, 0.038558874279260635, -0.07036296278238297, 0.07791364192962646, 0.12442763894796371, -0.10276518017053604, -0.04895862564444542 },
			{ -0.06706463545560837, 0.04922761395573616, -0.03964107111096382, -0.0004860539920628071, 0.1469418853521347, 0.012624024413526058, -0.09934823215007782, 0.07585369795560837, 0.019668884575366974, -0.03947063535451889 },
			{ -0.002452799351885915, 0.05864502117037773, -0.1374800056219101, 0.061766140162944794, 0.08113078773021698, 0.06691279262304306, -0.018182983621954918, -0.029180238023400307, -0.007683611009269953, -0.06815532594919205 },
			{ -0.025453461334109306, 0.03483538702130318, -0.05803258717060089, -0.0663251131772995, 0.009284834377467632, -0.11249104142189026, 0.0369052030146122, -0.010443420149385929, -0.027651717886328697, 0.013843736611306667 },
			{ 0.07759974896907806, -0.03380899131298065, 0.02906220406293869, 0.011348716914653778, -0.09455753862857819, 0.20255175232887268, 0.07478424161672592, -0.049057841300964355, -0.0021571123506873846, 0.11223423480987549 },
			{ 0.06464333087205887, -0.01650427095592022, -0.04695526137948036, -0.01927925832569599, -0.14276288449764252, 0.21578305959701538, 0.027338147163391113, 0.06359457969665527, -0.06159992516040802, 0.044383708387613297 },
			{ 0.00035875485627911985, -0.11138420552015305, -0.007331294007599354, -0.11202272027730942, -0.008909955620765686, 0.09957540035247803, 0.0414283387362957, -0.01616506651043892, -0.05714072659611702, 0.03909555822610855 },
			{ -0.030010106042027473, 0.02230478823184967, -0.10305986553430557, -0.023716462776064873, -0.11646328866481781, 0.08683136850595474, -0.0382082425057888, 0.05075914040207863, 0.030622979626059532, 0.03955757990479469 },
			{ -0.05402413383126259, 0.08133440464735031, 0.05177256092429161, -0.11039003729820251, -0.10153305530548096, 0.01593407802283764, -0.0599394328892231, -0.018714886158704758, -0.02818618156015873, 0.004103204235434532 },
			{ 0.018246972933411598, -0.03436535224318504, -0.0020038848742842674, -0.011772544123232365, 0.033189307898283005, -0.04460982605814934, 0.043996360152959824, 0.01506051979959011, -0.028665555641055107, 0.0565447062253952 },
			{ 0.01043925154954195, -0.01776743307709694, -0.05511518195271492, -0.06183678284287453, -0.04351017251610756, -0.027153722941875458, 0.08396763354539871, -0.03234954550862312, 0.04873896762728691, -0.022748809307813644 },
			{ 0.07935907691717148, 0.1293148398399353, -0.09606602042913437, -0.08626264333724976, -0.07870817184448242, 0.0020186705514788628, 0.041884176433086395, -0.042030200362205505, -0.06482034176588058, 0.011009822599589825 },
			{ -0.01651153527200222, 0.10483382642269135, 0.06329761445522308, 0.040990885347127914, -0.12716685235500336, 0.04292953386902809, 0.009002656675875187, -0.05695544555783272, -0.0023483838886022568, 0.04659875109791756 },
			{ 0.0729788988828659, 0.10072579234838486, 0.16877271234989166, 0.026957467198371887, -0.07814168930053711, -0.007106988690793514, 0.011274151504039764, -0.0247547198086977, -0.02736791968345642, 0.0036718372721225023 },
			{ 0.05636512115597725, 0.03746688365936279, 0.14015425741672516, -0.03092680498957634, -0.03979206830263138, 0.016517648473381996, -0.08909393846988678, -0.026878293603658676, -0.04988740012049675, 0.010532470420002937 },
			{ 0.044204581528902054, 0.14012058079242706, -0.008726109750568867, 0.024962501600384712, -0.02233600802719593, 0.0517488531768322, 0.09385018795728683, -0.14396478235721588, -0.11326316744089127, -0.14058798551559448 },
			{ -0.04312700405716896, 0.2064601331949234, 0.0807911679148674, 0.02374538592994213, 0.1340928077697754, 0.050005968660116196, 0.029704563319683075, 0.10711660981178284, 0.00644262507557869, -0.2880787253379822 },
			{ -0.05354704335331917, 0.13078433275222778, 0.1449853628873825, 0.049126144498586655, -0.013772123493254185, 0.18337860703468323, 0.03939848393201828, 0.06475780159235, -0.08487220108509064, -0.3427843749523163 },
			{ -0.05775156989693642, 0.14035716652870178, -0.020987682044506073, -0.03021806664764881, -0.036926064640283585, 0.2678275406360626, 0.12285789102315903, 0.04438721016049385, -0.18015025556087494, -0.08465063571929932 },
			{ -0.053173258900642395, 0.08870670944452286, -0.06940445303916931, -0.12495412677526474, -0.2306526154279709, 0.32065048813819885, 0.21702194213867188, 0.02486681379377842, -0.12067171931266785, -0.01322910375893116 },
			{ -0.12062826007604599, 0.09975558519363403, -0.06329730153083801, -0.1413620561361313, -0.17683470249176025, 0.3050093650817871, 0.10709844529628754, -0.027491405606269836, 0.00512147368863225, 0.0835566371679306 },
			{ -0.05007566884160042, 0.061949413269758224, -0.002691582776606083, -0.12048494815826416, -0.045213621109724045, 0.1688728630542755, 0.20013265311717987, -0.014786235988140106, -0.09168843924999237, 0.026034634560346603 },
			{ -0.11203698068857193, 0.0868610292673111, -0.0026725460775196552, 0.03332903981208801, -0.004131536930799484, -0.07135459780693054, 0.06568891555070877, 0.019738463684916496, -0.10271161794662476, 0.0027522395830601454 },
			{ -0.0742567852139473, 0.002771827159449458, 0.04714074730873108, -0.10444983094930649, 0.0067152464762330055, -0.030879342928528786, 0.06032808870077133, 0.040225908160209656, 0.03255889564752579, 0.07669693231582642 },
			{ -0.035576168447732925, 0.13291795551776886, -0.05219988897442818, -0.05929698422551155, 0.06360116600990295, -0.07932859659194946, -0.027782348915934563, -0.03560720756649971, -0.01096551027148962, -0.055604178458452225 },
			{ 0.02832634560763836, 0.043954286724328995, 0.04834713786840439, 0.028424814343452454, -0.10778357833623886, 0.04880443960428238, -0.029651599004864693, -0.021009737625718117, -0.06807052344083786, -0.0011407092679291964 },
			{ 0.09642492979764938, 0.007047588005661964, 0.02156188152730465, 0.006016592960804701, -0.00727887824177742, -0.08215007930994034, 0.0069482410326600075, 0.016083253547549248, -0.015174147672951221, -0.05734306573867798 },
			{ -0.08068887889385223, -0.013670582324266434, 0.044326525181531906, 0.024967364966869354, 0.004135276656597853, -0.09008094668388367, -0.06325535476207733, -0.08843608945608139, -0.08857876062393188, -0.08084377646446228 },
			{ 0.001430843840353191, 0.12162649631500244, 0.18862849473953247, 0.12596149742603302, -0.12449134141206741, 0.02808646485209465, -0.02563939057290554, -0.04258231818675995, -0.05850993096828461, -0.15603293478488922 },
			{ -0.05850925296545029, 0.17675872147083282, 0.2812729775905609, 0.07366868108510971, 0.027906283736228943, -0.05253539979457855, -0.023613888770341873, 0.0363645926117897, -0.07349006086587906, -0.33399149775505066 },
			{ -0.10173558443784714, 0.09056735783815384, 0.13174594938755035, 0.02838306315243244, 0.19040235877037048, -0.01838710531592369, -0.023794010281562805, 0.040311429649591446, -0.017969010397791862, -0.47773706912994385 },
			{ -0.11665463447570801, -0.011854704469442368, 0.23971253633499146, -0.060738518834114075, 0.25703033804893494, 0.11161168664693832, 0.1415349841117859, 0.07631944864988327, -0.13340602815151215, -0.4195132553577423 },
			{ -0.14231736958026886, 0.12129393965005875, 0.1560840755701065, -0.07786247134208679, -0.07403574883937836, 0.18361155688762665, 0.1738344132900238, -0.1215849220752716, -0.11208520084619522, -0.19390195608139038 },
			{ -0.14097565412521362, -0.024030905216932297, -0.08721667528152466, 0.02558896690607071, -0.1782616823911667, 0.29548653960227966, 0.14226120710372925, -0.1382189691066742, -0.02853434905409813, -0.0538894347846508 },
			{ -0.1690446436405182, 0.07020550966262817, -0.12617334723472595, -0.014911436475813389, -0.08912787586450577, 0.2723977863788605, 0.12415512651205063, -0.029654625803232193, -0.0921456515789032, -0.08343460410833359 },
			{ -0.14279283583164215, 0.02091163583099842, -0.04558507353067398, -0.018022695556282997, -0.0814426988363266, 0.13498856127262115, 0.1995552033185959, -0.042819198220968246, -0.154737651348114, -0.02291133999824524 },
			{ -0.07242371886968613, 0.09342300891876221, -0.04560553655028343, -0.013306129723787308, 0.04943915829062462, 0.00421501649543643, 0.016178814694285393, 0.07897159457206726, -0.07614844292402267, 0.02420932985842228 },
			{ 0.061270929872989655, 0.0818193107843399, -0.02819393388926983, -0.07256954163312912, -0.07103938609361649, 0.060245074331760406, -0.040886733680963516, 0.1008196622133255, 0.050620753318071365, -0.04216126352548599 },
			{ 0.05925304815173149, 0.032433293759822845, 0.05221831798553467, -0.11603432893753052, 0.02863246388733387, 0.035485900938510895, 0.020144537091255188, -0.01826966367661953, 0.06754981726408005, 0.08218278735876083 },
			{ 0.03555239364504814, 0.10141649842262268, -0.02808106131851673, 0.046097543090581894, 0.03192934766411781, -0.011325688101351261, -0.03659860044717789, 0.022323740646243095, -0.09160492569208145, 0.09447209537029266 },
			{ -0.10562068223953247, 0.0019281691638752818, 0.057620562613010406, -0.021116696298122406, -0.005046211648732424, -0.07105499505996704, 0.06049505993723869, -0.07105355709791183, 0.01630050130188465, 0.02124139852821827 },
			{ -0.09984895586967468, 0.01324847899377346, 0.11008873581886292, 0.04597453400492668, -0.1267724335193634, 0.006733913905918598, -0.12176895141601562, -0.1194639503955841, 0.02248157002031803, -0.08831726759672165 },
			{ -0.14535057544708252, 0.07280532270669937, 0.2609270513057709, 0.13372460007667542, 0.007199222221970558, 0.08469212800264359, -0.014104059897363186, 0.11500143259763718, -0.18375562131404877, -0.12365952879190445 },
			{ -0.03999747708439827, 0.13544653356075287, 0.16516299545764923, 0.06860372424125671, -0.0718051865696907, -0.10042127221822739, 0.01922863908112049, 0.20771917700767517, -0.03746410459280014, -0.2636243402957916 },
			{ -0.07556844502687454, 0.04826299101114273, 0.23974406719207764, -0.10915257036685944, 0.1367286741733551, 0.07102831453084946, -0.13803714513778687, 0.11144036054611206, -0.045116573572158813, -0.28103548288345337 },
			{ -0.016054559499025345, -0.047021038830280304, 0.27147290110588074, -0.0760473981499672, 0.09239251166582108, 0.08478470146656036, -0.04190569370985031, -0.1069818064570427, -0.18648985028266907, -0.26320213079452515 },
			{ -0.02335265651345253, -0.09931765496730804, 0.0902700126171112, -0.04615456610918045, -0.029207322746515274, 0.21126848459243774, 0.0413886234164238, -0.12869064509868622, -0.20128367841243744, -0.22078245878219604 },
			{ -0.08393125236034393, 0.09494359791278839, 0.026108214631676674, 0.12893836200237274, 0.016338776797056198, 0.15773621201515198, 0.0684211328625679, 0.01690633036196232, -0.0024767329450696707, -0.23816904425621033 },
			{ -0.01571294292807579, 0.12363588809967041, -0.10941840708255768, 0.026274418458342552, 0.016056595370173454, 0.24350403249263763, 0.10886148363351822, -0.012333828024566174, -0.04890395328402519, -0.21311023831367493 },
			{ -0.25340545177459717, 0.0483541302382946, -0.047507692128419876, 0.013673252426087856, -0.05173437297344208, 0.17254799604415894, -0.032894883304834366, 0.12954597175121307, 0.037829093635082245, -0.019496308639645576 },
			{ 0.004729689098894596, 0.10493765026330948, 0.010757433250546455, -0.10819975286722183, 0.02597956545650959, 0.0897306352853775, 0.04500550404191017, -0.021085301414132118, -0.07739795744419098, 0.06380737572908401 },
			{ 0.037986207753419876, 0.10875719040632248, -0.006926116533577442, -0.019666826352477074, 0.0320221371948719, -0.07116901129484177, -0.03825661912560463, 0.10473212599754333, -0.016397761180996895, -0.06655125319957733 },
			{ 0.031551726162433624, -0.015487146563827991, 0.07044125348329544, -0.05228817090392113, -0.10089409351348877, -0.10470797121524811, -0.07947796583175659, 0.052408285439014435, -0.04942787438631058, -0.05912292003631592 },
			{ 0.0024897349067032337, -0.012121125124394894, -0.040061742067337036, -0.040321897715330124, -0.03351917862892151, -0.06858745217323303, 0.06069576367735863, -0.06398940831422806, -0.011097369715571404, 0.0753423199057579 },
			{ -0.11364926397800446, 0.04046877473592758, 0.0016657848609611392, 0.09192945808172226, -0.08080951124429703, 0.08591944724321365, -0.009382183663547039, 0.08689712733030319, -0.058360982686281204, -0.058332592248916626 },
			{ -0.05993632227182388, 0.05721188709139824, -0.01507745124399662, 0.1250714212656021, -0.11921094357967377, 0.23961737751960754, -0.15327876806259155, 0.15030066668987274, -0.02031867951154709, -0.11162358522415161 },
			{ -0.13342346251010895, 0.13322880864143372, -0.0877353847026825, 0.21265901625156403, -0.15022307634353638, 0.17146572470664978, -0.07975677400827408, 0.22023087739944458, -0.22714325785636902, -0.1971515417098999 },
			{ -0.07296137511730194, 0.11215533316135406, -0.036834731698036194, 0.16869118809700012, 0.060944363474845886, 0.2531103193759918, -0.1369517594575882, 0.2020464837551117, -0.28221890330314636, -0.06275102496147156 },
			{ -0.10083506256341934, 0.0008690619142726064, -0.0016050389967858791, 0.05754393711686134, 0.17685113847255707, 0.2268717885017395, -0.10166406631469727, 0.22427873313426971, -0.3332376182079315, 0.033691633492708206 },
			{ 0.2064669281244278, -0.01760200783610344, 0.09355536103248596, -0.07592511177062988, 0.14898870885372162, 0.06791460514068604, -0.11973517388105392, -0.0063105118460953236, -0.190792515873909, -0.0872778445482254 },
			{ 0.1481739580631256, -0.14650946855545044, -0.01193800289183855, 0.06484586000442505, 0.11532013863325119, 0.07048594951629639, -0.04603595659136772, 0.006970961112529039, -0.016596170142292976, -0.0974903479218483 },
			{ 0.028361547738313675, 0.15269796550273895, -0.02019617147743702, 0.04677340388298035, 0.005116748623549938, 0.1289643496274948, -0.07420370727777481, 0.03164654225111008, 0.17556758224964142, -0.3367159366607666 },
			{ -0.12458283454179764, 0.08352289348840714, -0.018546078354120255, 0.1085151880979538, -0.00450487993657589, 0.024201344698667526, 0.015386090613901615, -0.018205717206001282, 0.08923321217298508, -0.12213306128978729 },
			{ -0.10557319968938828, -0.0227031372487545, 0.10892648249864578, 0.060441259294748306, 0.00490557961165905, 0.06109151989221573, -0.03523651137948036, 0.018705451861023903, 0.07167456299066544, 0.014496123418211937 },
			{ -0.13355278968811035, 0.1075240895152092, 0.08587360382080078, -0.00675264373421669, 0.0244754608720541, -0.09828401356935501, -0.06314489990472794, 0.06356867402791977, 0.04544937610626221, 0.02204260043799877 },
			{ -0.029083717614412308, 0.09213800728321075, -0.03617916256189346, 0.04574199020862579, -0.06794366985559464, -0.0752820372581482, 0.056517116725444794, -0.04754887893795967, -0.0698079913854599, 0.010958700440824032 },
			{ 0.03904705122113228, 0.06603263318538666, 0.03742070496082306, 0.015618921257555485, 0.008742217905819416, 0.06130235642194748, -0.07799440622329712, 0.031827718019485474, 0.03726840019226074, -0.05107501149177551 },
			{ -0.0015911159571260214, 0.10805884003639221, 0.009857823140919209, 0.016185054555535316, -0.0490591824054718, -0.035568349063396454, -0.0018320521339774132, 0.023620015010237694, 0.038447849452495575, -0.013188260607421398 },
			{ -0.030511682853102684, -0.005493850447237492, -0.04288271442055702, 0.07812030613422394, 0.05564339458942413, 0.08320089429616928, -0.05923060327768326, 0.06691118329763412, -0.07069958001375198, -0.009392306208610535 },
			{ -0.01748914085328579, 0.035778652876615524, -0.11755584925413132, 0.13927243649959564, -0.03362834453582764, 0.24281518161296844, -0.1845312863588333, 0.186263769865036, -0.12106050550937653, -0.024486524984240532 },
			{ -0.14291085302829742, 0.16207122802734375, -0.2280738800764084, 0.30520302057266235, -0.1146869882941246, 0.21860752999782562, -0.02458168938755989, 0.08905065804719925, -0.18494370579719543, -0.07257000356912613 },
			{ -0.015680769458413124, 0.10550405085086823, -0.3001862168312073, 0.3717455565929413, -0.08490681648254395, 0.33176684379577637, -0.2526399493217468, 0.07591349631547928, -0.38426780700683594, 0.044430043548345566 },
			{ 0.11610043048858643, 0.20614267885684967, -0.22186343371868134, 0.18787488341331482, -0.013823525980114937, 0.08706359565258026, -0.17537803947925568, -0.0065309167839586735, -0.43358314037323, 0.16771775484085083 },
			{ 0.2133726328611374, 0.01250387355685234, -0.09312592446804047, 0.18682819604873657, 0.09327780455350876, 0.137935608625412, -0.16735699772834778, -0.08239562064409256, -0.25947558879852295, 0.1379101574420929 },
			{ -0.019315587356686592, -0.05317721888422966, -0.10391343384981155, 0.008391146548092365, 0.029584532603621483, 0.13399741053581238, -0.14058749377727509, -0.05931277573108673, -0.13615651428699493, 0.058397624641656876 },
			{ 0.030188528820872307, 0.07297514379024506, 0.10197990387678146, 0.0006102607003413141, -0.08391255140304565, -0.028113095089793205, -0.09853862226009369, 0.06801652908325195, 0.09141596406698227, -0.23975174129009247 },
			{ -0.06515425443649292, 0.17684809863567352, 0.04975597560405731, -0.10091935098171234, -0.027700772508978844, -0.021855033934116364, 0.04340703785419464, 0.09762896597385406, 0.04686395078897476, -0.13403445482254028 },
			{ -0.07610293477773666, 0.16192814707756042, 0.11179985105991364, -0.1512269824743271, 0.015445854514837265, 0.030321704223752022, 0.027464784681797028, -0.05614197254180908, 0.03878523036837578, -0.06937088817358017 },
			{ -0.09046730399131775, 0.11523238569498062, 0.03253696858882904, -0.13580994307994843, -0.04712935909628868, -0.08775783330202103, 0.04250330850481987, 0.05192120373249054, -0.11274955421686172, -0.05380832031369209 },
			{ 0.009714597836136818, 0.045528993010520935, 0.02251783013343811, -0.07407437264919281, -0.004613962955772877, -0.050191737711429596, -0.02545127458870411, 0.04215242341160774, -0.00606315303593874, -0.006820415146648884 },
			{ -0.07632210850715637, -0.03384604677557945, 0.041711822152137756, -0.0970768928527832, -0.07107704132795334, 0.027686793357133865, 0.04983741417527199, -0.016821417957544327, -0.09094838052988052, -0.007455476559698582 },
			{ 0.05132532864809036, 0.04772242531180382, -0.05535602569580078, -0.00568665936589241, -0.07542303204536438, -0.07004506140947342, 0.09251981973648071, 0.02958717569708824, -0.05685513839125633, -0.05904299020767212 },
			{ -0.026831982657313347, 0.08402635157108307, 0.017008522525429726, -0.04553014039993286, -0.01023615151643753, 0.0222844947129488, -0.03792431950569153, -0.018117887899279594, 0.05548163875937462, 0.07526334375143051 },
			{ -0.08832243084907532, 0.12436151504516602, -0.2753125727176666, 0.1534959226846695, 0.006085677538067102, 0.1414717733860016, 0.05416233837604523, 0.006751594133675098, -0.061932094395160675, 0.020648006349802017 },
			{ 0.07521149516105652, 0.09560386091470718, -0.32523486018180847, 0.26367947459220886, 0.017491454258561134, 0.1440856158733368, -0.13980096578598022, 0.11251457035541534, -0.1763574481010437, 0.030402451753616333 },
			{ -0.015320522710680962, 0.24949908256530762, -0.22297832369804382, 0.19837646186351776, -0.015403568744659424, 0.2616918683052063, -0.23198877274990082, 0.11587942391633987, -0.3301878273487091, 0.015306800603866577 },
			{ 0.0869033932685852, 0.28007185459136963, -0.08411427587270737, 0.08111646771430969, -0.04117412120103836, 0.14596152305603027, -0.07499934732913971, -0.005047038663178682, -0.3213821053504944, 0.23980961740016937 },
			{ 0.05430828779935837, 0.14791294932365417, -0.18761707842350006, 0.06298835575580597, -0.06556334346532822, 0.17787803709506989, -0.15290698409080505, -0.03371933847665787, -0.2612770199775696, 0.06416560709476471 },
			{ -0.01881132833659649, 0.05113210901618004, -0.08541417121887207, 0.02515639364719391, -0.04261494055390358, 0.16196998953819275, -0.09939288347959518, -0.10566350072622299, -0.05035639554262161, 0.07369978725910187 },
			{ 0.09176028519868851, 0.13294671475887299, 0.18633854389190674, -0.09263056516647339, 0.00919476617127657, 0.05510514974594116, -0.06914778798818588, -0.0096602663397789, -0.09659852832555771, 0.05850343406200409 },
			{ -0.0519847571849823, 0.13711950182914734, 0.15931010246276855, -0.14053544402122498, 0.03551606833934784, -0.0900040864944458, -0.015454760752618313, -0.03492032736539841, -0.048520226031541824, -0.12115634977817535 },
			{ -0.06416147947311401, 0.10971838980913162, 0.11491122096776962, -0.17284399271011353, 0.05421360954642296, 0.04202210530638695, 0.060137711465358734, -0.0006888810312375426, -0.1728726625442505, 0.0019158432260155678 },
			{ -0.010189748369157314, 0.06510984152555466, 0.07811035215854645, -0.022399980574846268, 0.03368991240859032, -0.03193303570151329, 0.061743542551994324, 0.09261429309844971, -0.03551729768514633, 0.028697777539491653 },
			{ 0.06715655326843262, 0.09165192395448685, -0.0667375847697258, 0.039804331958293915, -0.022765716537833214, 0.014402046799659729, -0.03722643107175827, -0.024131475016474724, -0.055008672177791595, 0.015000580810010433 },
			{ 0.08236429840326309, 0.032914020121097565, -0.0508684478700161, -0.029257893562316895, 0.051856327801942825, -0.035716354846954346, -0.07547853142023087, 0.06636649370193481, 0.003128576558083296, -0.07262390106916428 },
			{ 0.03130387142300606, 0.08605679869651794, -0.10256361216306686, -0.10887520015239716, 0.008945567533373833, -0.035206008702516556, 0.0759061723947525, -0.0010799814481288195, -0.0839899331331253, -0.040913790464401245 },
			{ 0.01589120365679264, 0.09737373888492584, -0.0776146650314331, 0.032245296984910965, 0.005586754996329546, -0.049736395478248596, 0.013630019500851631, -0.014461464248597622, -0.0783592015504837, 0.06128784641623497 },
			{ 0.047119949012994766, -0.03440311178565025, -0.1397262066602707, -0.058054521679878235, 0.04796065017580986, -0.029614150524139404, -0.03522573411464691, 0.15690651535987854, -0.052200835198163986, -0.014097906649112701 },
			{ 0.1026780754327774, 0.09693111479282379, -0.15005409717559814, 0.09867226332426071, -0.04052209481596947, 0.11780230700969696, -0.03645624592900276, 0.12088891118764877, -0.10602659732103348, 0.04534577578306198 },
			{ 0.030966153368353844, 0.1271771341562271, 0.024463124573230743, 0.12387331575155258, 0.03945710137486458, 0.124163918197155, -0.10464968532323837, -0.01048732828348875, -0.16062985360622406, 0.07867363840341568 },
			{ -0.024373434484004974, 0.18475112318992615, -0.11205156147480011, 0.07075431197881699, -0.042752623558044434, -0.0017235338455066085, -0.07659932225942612, 0.0020507110748440027, -0.20877233147621155, 0.1477254033088684 },
			{ 0.09898032993078232, 0.12636101245880127, -0.01253163069486618, 0.04106251895427704, -0.11621927469968796, 0.024163205176591873, -0.017330840229988098, -0.006281208246946335, -0.2340010553598404, 0.09053879976272583 },
			{ -0.045605942606925964, 0.06770354509353638, -0.042595263570547104, 0.05261855572462082, -0.09326034039258957, 0.06790835410356522, 0.015787595883011818, -0.05767754092812538, -0.09626536816358566, 0.0013019883772358298 },
			{ 0.10574020445346832, 0.08453602343797684, 0.08855962008237839, -0.12321727722883224, 0.01602904498577118, 0.036310967057943344, 0.06793516874313354, -0.060466423630714417, -0.05291019752621651, 0.03456679359078407 },
			{ 0.004741583485156298, 0.0633755475282669, 0.0993775874376297, -0.12912704050540924, -0.006798432674258947, -0.008434619754552841, -0.07791557163000107, -0.02217170223593712, -0.14494925737380981, 0.03743757680058479 },
			{ -0.0704190656542778, -0.025248214602470398, 0.0949903130531311, -0.08923055976629257, 0.07763686031103134, -0.035974740982055664, 0.01018983032554388, 0.11882279068231583, -0.09026751667261124, -0.03972887247800827 },
			{ 0.05390188843011856, 0.03554501011967659, 0.07446891814470291, -0.06786719709634781, -0.022886760532855988, -0.08218895643949509, 0.027308359742164612, 0.029341325163841248, 0.044537805020809174, -0.07363247126340866 },
			{ -0.04373224824666977, -0.036298967897892, 0.05687717720866203, -0.11535371840000153, -0.017412155866622925, -0.10058083385229111, -0.03130783885717392, -0.0068075889721512794, -0.04649507999420166, 0.021693317219614983 },
			{ -0.018045106902718544, 0.10073018819093704, -0.06241973862051964, -0.02841709926724434, 0.0253597479313612, 0.05885715037584305, -0.05556309223175049, 0.0898694172501564, -0.032683517783880234, 0.07904411107301712 },
			{ -0.02625449001789093, 0.06223910674452782, 0.012544932775199413, -0.02770497091114521, -0.02247496508061886, -0.10481254011392593, 0.0816420167684555, 0.08741307258605957, -0.036758698523044586, -0.0474509596824646 },
			{ 0.054301485419273376, -0.02101406455039978, -0.0017956997035071254, -0.03922170773148537, 0.036447905004024506, -0.0753205195069313, -0.0435367114841938, 0.10089235007762909, 0.08026289194822311, 0.07295670360326767 },
			{ -0.06723713129758835, 0.08022791147232056, 0.052760809659957886, -0.09644728899002075, 0.05906754359602928, -0.017709501087665558, -0.03416372090578079, -0.058855053037405014, -0.06438065320253372, -0.001661784597672522 },
			{ -0.0671173557639122, 0.06393318623304367, 0.02443152479827404, 0.05192369222640991, -0.049732983112335205, -0.025288444012403488, -0.0121639184653759, 0.08180505037307739, -0.07084957510232925, -0.03085925616323948 },
			{ 0.01855851337313652, 0.03902220353484154, 0.02012927085161209, 0.15159860253334045, -0.025616636499762535, -0.03441593050956726, -0.05856487900018692, 0.09443973749876022, 0.05030639097094536, -0.10225281119346619 },
			{ -0.009023716673254967, -0.03027263469994068, 0.04132885858416557, 0.10922229290008545, 0.0023371619172394276, 0.06391964107751846, -0.02177862823009491, 0.05437709018588066, -0.08550143986940384, -0.14252659678459167 },
			{ 0.10949283093214035, -0.040542375296354294, -0.09115952998399734, 0.05206823721528053, -0.1229185089468956, 0.07519569247961044, 0.027202054858207703, 0.06242929771542549, -0.0761910155415535, -0.1044716164469719 },
			{ 0.09630262106657028, 0.09898611158132553, -0.051759760826826096, -0.05026480555534363, -0.04399900138378143, -0.03644172102212906, 0.056590598076581955, 0.019897181540727615, -0.0045783063396811485, -0.0072432877495884895 },
			{ -0.03697991743683815, -0.00020578410476446152, 0.05840878561139107, -0.06302163749933243, -0.020656859502196312, 0.005470023490488529, 0.06315750628709793, 0.09386416524648666, -0.005572533700615168, 0.04500149190425873 },
			{ -0.01788761280477047, 0.06563688069581985, -0.024240799248218536, -0.044471558183431625, 0.08686138689517975, -0.018480315804481506, 0.015373257920145988, -0.014078506268560886, -0.034124020487070084, -0.01324127521365881 },
			{ 0.009541706182062626, 0.10719301551580429, 0.07759018242359161, -0.10021872818470001, 0.07928498089313507, -0.11947869509458542, 0.04211096465587616, 0.04839906096458435, -0.1097990870475769, 0.07745003700256348 },
			{ -0.034751664847135544, 0.023326903581619263, -0.04677368700504303, 0.04837333410978317, -0.03439279645681381, -0.016827119514346123, 0.03172844275832176, 0.05397210270166397, -0.0202962476760149, 0.04626136273145676 },
			{ 0.06100564822554588, 0.12511266767978668, -0.030951669439673424, -0.11639388650655746, 0.06404829025268555, 0.020448535680770874, -0.05315191298723221, 0.0032804617658257484, 0.037413112819194794, 0.014435001648962498 },
			{ -0.024430861696600914, 0.12030835449695587, -0.08594859391450882, -0.00782785564661026, 0.003933205734938383, -0.07934336364269257, 0.07923512905836105, -0.01901954784989357, 0.033033337444067, 0.0031917905434966087 },
			{ -0.05520663037896156, -0.01622716337442398, 0.04966075345873833, -0.10330075770616531, -0.09253932535648346, 0.017962902784347534, -0.03546397015452385, 0.0028363708406686783, -0.045412011444568634, 0.09093877673149109 },
			{ 0.02192278951406479, 0.03772522881627083, 0.0862913578748703, 0.000909227121155709, -0.05240977555513382, 0.04642912372946739, -0.019561229273676872, -0.0692758560180664, 0.06914667040109634, -0.08319996297359467 },
			{ 0.07397597283124924, 0.12647457420825958, 0.033638887107372284, -0.05019496753811836, 0.04672001302242279, -0.016505712643265724, 0.032249532639980316, 0.056904956698417664, -0.03989182040095329, -0.027599100023508072 },
			{ 0.0711541473865509, 0.10737761110067368, 0.0966155081987381, -0.039146244525909424, 0.024368658661842346, -0.05380287393927574, -0.05573625862598419, -0.08473492413759232, -0.056345775723457336, -0.029803156852722168 },
			{ 0.060551319271326065, 0.13378985226154327, 0.003181220730766654, 0.02484186179935932, -0.031240645796060562, -0.06364785879850388, -0.06194111332297325, -0.10370253026485443, 0.04024030268192291, -0.08313361555337906 },
			{ 0.022142352536320686, 0.03270910307765007, -0.056057415902614594, -0.07883501052856445, -0.015936894342303276, -0.10688834637403488, 0.030115267261862755, 0.05388297885656357, 0.027012497186660767, 0.006879266817122698 },
			{ 0.0283261239528656, 0.05186055228114128, 0.05460047721862793, 0.06021140515804291, -0.010108898393809795, -0.12250755727291107, -0.07292065769433975, 0.06783093512058258, 0.02794334664940834, 0.01124571543186903 },
			{ 0.004909406881779432, 0.11070180684328079, 0.010829908773303032, 0.013722010888159275, 0.030067142099142075, -0.10870745033025742, 0.05288759246468544, -0.025041302666068077, 0.001857478404417634, -0.07231282442808151 },
			{ 0.0919037014245987, 0.018284182995557785, 0.07413296401500702, -0.1305336207151413, 0.10790513455867767, 0.04011201485991478, 0.05383533239364624, -0.0773530900478363, 0.04606783390045166, -0.07987646758556366 },
			{ 0.08551273494958878, 0.0946163535118103, 0.01741432212293148, 0.007843256928026676, 0.04485353082418442, 0.004491651430726051, 0.0039461166597902775, -0.020175624638795853, 0.011531083844602108, -0.004958732519298792 },
			{ -0.05079647898674011, 0.06083758920431137, -0.06848730891942978, -0.03475889563560486, -0.04836244136095047, -0.024662798270583153, -0.011574843898415565, 0.05453848838806152, -0.02968347631394863, 0.0019338666461408138 },
			{ 0.057282447814941406, -0.034148264676332474, 0.011422027833759785, -0.024231024086475372, -0.02516344003379345, -0.017740560695528984, 0.005563622806221247, -0.015556123107671738, -0.08403459936380386, 0.009101171977818012 },
			{ -0.04704819992184639, -0.01753068156540394, -0.0478069968521595, 0.040861573070287704, -0.015154589898884296, -0.10621191561222076, 0.07660103589296341, 0.05650034174323082, 0.04193573072552681, 0.009404468350112438 },
			{ 0.0757104903459549, 0.00783525686711073, 0.024234212934970856, -0.02438739687204361, -0.09462639689445496, -0.10730601847171783, 0.06468503177165985, 0.07668273895978928, -0.003241411643102765, 0.018113862723112106 },
			{ -0.03701689466834068, 0.12108373641967773, -0.027457233518362045, -0.07859279215335846, 0.056424472481012344, 0.00337049039080739, -0.07176318019628525, 0.04452398046851158, 0.04163548722863197, -0.004360673483461142 },
			{ 0.06322217732667923, 0.05898204818367958, -0.09143190085887909, -0.0051778568886220455, 0.016496725380420685, -0.03716577962040901, -0.0350736528635025, 0.007749865297228098, -0.031182201579213142, -0.033361807465553284 },
			{ 0.08575998246669769, -0.011065283790230751, -0.05696898698806763, -0.03894593566656113, -0.015147062949836254, -0.05588440224528313, -0.07981567829847336, 0.009756491519510746, -0.0029980544932186604, 0.06285136938095093 },
			{ -0.0270046666264534, 0.02817677892744541, 0.02694850042462349, -0.10564839094877243, 0.04063164442777634, 0.009109660983085632, -0.04676823318004608, -0.009008188731968403, 0.01611383445560932, 0.1086217612028122 },
			{ -0.025758996605873108, 0.051030270755290985, 0.04887424781918526, -0.059512052685022354, 0.018035436049103737, -0.04465392231941223, -0.018160276114940643, -0.024557853117585182, 0.005681686103343964, 0.0016522544901818037 },
			{ -0.04736104980111122, 0.07867413759231567, -0.03266381844878197, 0.032993197441101074, 0.036662690341472626, -0.017757678404450417, 0.08029065281152725, 0.08190131187438965, 0.056680165231227875, 0.05488664656877518 },
			{ -0.03350694850087166, 0.09282874315977097, -0.034106772392988205, -0.04752977564930916, 0.08344465494155884, 0.007873662747442722, 0.07080811262130737, -0.02901599369943142, -0.010895401239395142, -0.0285064447671175 },
			{ -0.02823563851416111, -0.04095998778939247, 0.014767072163522243, -0.11206956952810287, 0.025419997051358223, 0.0440647155046463, -0.0825943723320961, -0.026004372164607048, 0.01827193796634674, -0.02729899436235428 },
			{ -0.030763987451791763, 0.06260139495134354, 0.06131601333618164, -0.08617424964904785, 0.02265237085521221, -0.01084985677152872, -0.071675144135952, 0.028989743441343307, 0.006290929391980171, -0.04841064661741257 },
			{ -0.005474939942359924, 0.03042503073811531, -0.0951356366276741, -0.08933500945568085, 0.028261350467801094, -0.0849408283829689, 0.05343661457300186, 0.06921489536762238, -0.09041732549667358, -0.04622188210487366 },
			{ 0.011514468118548393, -0.010883083567023277, 0.05254491791129112, 0.051929082721471786, 0.01721966825425625, -0.05434458702802658, -0.07498063147068024, -0.07328730821609497, -0.07453212887048721, -0.04628731310367584 },
			{ -0.02978292480111122, -0.0031897975131869316, 0.026312200352549553, -0.02846542000770569, -0.0012861061841249466, 0.06681348383426666, 0.013111250475049019, 0.09106408804655075, -0.08663041144609451, -0.07554294914007187 },
			{ 0.004430622793734074, 0.11692207306623459, 0.05184106528759003, -0.06930385529994965, -0.08135804533958435, 0.052300237119197845, 0.004960223566740751, 0.028084859251976013, -0.10008953511714935, 0.026067489758133888 },
			{ -0.012541322037577629, 0.0052643162198364735, -0.02911481447517872, -0.04380185529589653, 0.0300691369920969, 0.025488581508398056, 0.04249195381999016, -0.0773296058177948, -0.010460871271789074, -0.05773934721946716 },
			{ 0.07901392132043839, -0.07023045420646667, 0.08155637979507446, 0.010196791961789131, -0.019929854199290276, -0.04057075083255768, -0.029580965638160706, 0.03270958364009857, -0.07197411358356476, -0.06455601006746292 },
			{ 0.053340330719947815, 0.056227706372737885, 0.07986744493246078, -0.07400880753993988, -0.04017288610339165, -0.042688384652137756, 0.03489822521805763, -0.06435836851596832, 0.010146881453692913, 0.030198901891708374 },
			{ -0.03216904401779175, -0.020031331107020378, 0.02884373627603054, -0.04635985568165779, 0.0347491018474102, 0.08666384220123291, -0.011928744614124298, -0.060118336230516434, 0.08479893207550049, -0.025966327637434006 },
			{ -0.07104678452014923, 0.018216624855995178, 0.009614006616175175, 0.027044137939810753, -0.11876994371414185, -0.055046197026968, -0.024116890504956245, 0.005381606984883547, -0.07133692502975464, 0.01278911903500557 },
			{ -0.02767227776348591, 0.007442031055688858, 0.06923764944076538, -0.03207683563232422, -0.06014993041753769, 0.053170278668403625, -0.03883839026093483, 0.008217181079089642, -0.05632934719324112, 0.06686622649431229 },
			{ 0.0447179339826107, 0.03742121532559395, 0.06373688578605652, 0.007628198713064194, -0.10960696637630463, -0.041049182415008545, 0.016081208363175392, 0.02224005199968815, -0.04514884203672409, -0.06581232696771622 },
			{ -0.03489767387509346, -0.03888672962784767, 0.03907535597681999, -0.0700846016407013, 0.009081510826945305, 0.07221244275569916, 0.09444643557071686, 0.03161162883043289, -0.011018809862434864, 0.07081110030412674 },
			{ -0.10803279280662537, -0.017685826867818832, 0.06575541943311691, 0.04465426877140999, -0.10619717091321945, 0.010524691082537174, 0.14834336936473846, 0.08028872311115265, 0.021607737988233566, 0.018041182309389114 },
			{ -0.023014342412352562, -0.06308078020811081, 0.09638143330812454, 0.037145067006349564, 0.016356585547327995, 0.05395398288965225, 0.13114690780639648, 0.0241833683103323, -0.028352638706564903, -0.03793884441256523 },
			{ -0.043495167046785355, -0.0485980361700058, -0.10345227271318436, -0.061667487025260925, -0.087840735912323, -0.0246810931712389, 0.09224746376276016, -0.00804828479886055, -0.0047813476994633675, 0.07843704521656036 },
			{ 0.0436035580933094, -0.05271922051906586, 0.0437079593539238, 0.05096178874373436, -0.04682645946741104, -0.019661501049995422, -0.008484803140163422, -0.04990828037261963, -0.05796128883957863, 0.01017451100051403 },
			{ -0.04548949748277664, -0.03830410912632942, -0.0803523063659668, 0.0009622687357477844, 0.019824525341391563, 0.026046888902783394, 0.01706847734749317, 0.01780639961361885, 0.002871566917747259, -0.013255340978503227 },
			{ -0.020218834280967712, -0.08637003600597382, -0.03287723660469055, 0.02686685137450695, 0.034109462052583694, 0.02492511086165905, 0.07702047377824783, 0.05828479677438736, 0.0804872214794159, -0.0690368041396141 },
			{ 0.025055019184947014, 0.01434053760021925, -0.059431642293930054, 0.057792775332927704, 0.008290435187518597, -0.038817454129457474, -0.03154553100466728, -0.06470685452222824, -0.06449276208877563, 0.010324623435735703 },
			{ -0.004172730725258589, -0.059341251850128174, -0.06717755645513535, 0.03120890073478222, 0.07952987402677536, 0.04090346023440361, -0.05950529873371124, 0.05960414558649063, -0.07385014742612839, 0.04954364895820618 },
			{ 0.019087258726358414, -0.006871476303786039, 0.012068490497767925, 0.01730910688638687, -0.06436596810817719, 0.039539992809295654, -0.010726088657975197, 0.031967341899871826, 0.06827094405889511, 0.04049769416451454 },
			{ -0.06902359426021576, -0.05413498729467392, -0.05219713971018791, -0.07353448867797852, -0.08614462614059448, 0.05175242945551872, 0.06272190064191818, -0.04027007892727852, -0.03242024779319763, -0.07409193366765976 },
			{ -0.07213141769170761, -0.0014864560216665268, -0.06761772185564041, -0.0483231395483017, -0.01134767010807991, -0.02988230437040329, 0.06246484816074371, -0.040240805596113205, -0.03842628374695778, 0.0539654977619648 },
			{ -0.09611845761537552, -0.00012334277562331408, -0.016068605706095695, 0.04907171055674553, -0.07987944781780243, -0.025616474449634552, 0.13462097942829132, -0.00348526774905622, -0.01936880685389042, -0.095204658806324 },
			{ -0.038245201110839844, 0.009947596117854118, 0.11954477429389954, -0.031726811081171036, -0.23150601983070374, -0.06915756314992905, 0.05913012847304344, -0.014563742093741894, -0.070500947535038, -0.11410557478666306 },
			{ -0.03147070109844208, 0.14264999330043793, -0.08523693680763245, -0.09637437760829926, -0.038348596543073654, -0.07904063910245895, 0.2510005831718445, -0.02268201671540737, -0.012536313384771347, -0.06902380287647247 },
			{ -0.1254085749387741, 0.09994429349899292, -0.09928399324417114, 0.07136194407939911, -0.028103958815336227, 0.11133694648742676, 0.21699675917625427, -0.03260989114642143, -0.04374543949961662, -0.11414038389921188 },
			{ -0.1875256448984146, 0.09434850513935089, 0.010347193107008934, -0.08225473761558533, -0.05680470168590546, 0.21131734549999237, 0.2495422214269638, -0.08499389886856079, -0.011849861592054367, -0.06967006623744965 },
			{ -0.11803857982158661, 0.13200891017913818, -0.17445246875286102, 0.04112539812922478, 0.020473619922995567, 0.15173368155956268, 0.2554387152194977, -0.06244845688343048, -0.1198526993393898, -0.039367057383060455 },
			{ -0.04608694091439247, 0.00999342929571867, -0.07883995026350021, -0.028054729104042053, -0.027760498225688934, 0.0884019061923027, 0.20143470168113708, 0.05924307182431221, 0.029526259750127792, -0.06020079553127289 },
			{ -0.10098239034414291, -0.0342111773788929, 0.05212985724210739, -0.08125008642673492, 0.07336653023958206, -0.07012105733156204, 0.1742987036705017, 0.05267491564154625, -0.005769636482000351, 0.04337567836046219 },
			{ 0.004675416741520166, 0.06339295953512192, 0.02342098578810692, -0.08210983127355576, 0.07435322552919388, -0.002397121163085103, 0.043556999415159225, 0.07748427242040634, -0.0777813270688057, -0.06799864023923874 },
			{ 0.018757978454232216, -0.01686393842101097, -0.08604539185762405, -0.08361953496932983, -0.04699829965829849, -0.04370981454849243, -0.037696704268455505, 0.007726802956312895, 0.08262389898300171, 0.03791690245270729 },
			{ 0.01377467904239893, 0.03519432246685028, -0.001473102020099759, 0.021747976541519165, 0.005600737873464823, -0.06063045561313629, 0.042487967759370804, 0.06932617723941803, -0.007120448164641857, 0.02404937334358692 },
			{ -0.007790867704898119, 0.006308212410658598, -0.03184064105153084, -0.002185293473303318, -0.007905074395239353, -0.08416016399860382, 0.057300835847854614, 0.006201374344527721, 0.0615488663315773, -0.07306306064128876 },
			{ -0.1030799075961113, 0.03662866726517677, -0.014447753317654133, 0.06093825772404671, -0.06779426336288452, -0.08218196034431458, 0.020229438319802284, 0.09439790993928909, -0.06273361295461655, -0.08157128840684891 },
			{ -0.07366520166397095, -0.04434809461236, -0.11988634616136551, -0.008132096379995346, 0.0016731745563447475, -0.1145903542637825, 0.22941631078720093, -0.022955629974603653, 0.059635140001773834, -0.16255757212638855 },
			{ -0.14586932957172394, 0.1383063793182373, -0.1100773960351944, 0.009222215041518211, 0.11993159353733063, 0.016505615785717964, 0.24025848507881165, -0.12092815339565277, -0.028307314962148666, -0.16476747393608093 },
			{ -0.028651151806116104, 0.06738831847906113, -0.004775203298777342, 0.010485736653208733, 0.07586745917797089, -0.19449526071548462, 0.17233163118362427, -0.0646723136305809, -0.021324513480067253, -0.05072839930653572 },
			{ -0.06246979162096977, 0.2339882105588913, -0.07414504885673523, -0.21716244518756866, 0.29453974962234497, -0.10309728980064392, 0.006814639549702406, -0.1779664158821106, 0.06037076562643051, -0.17794983088970184 },
			{ -0.07868994027376175, 0.3678618371486664, -0.06931845098733902, -0.16663461923599243, 0.23811054229736328, 0.1382542997598648, 0.00641991151496768, -0.1665121614933014, 0.019871996715664864, -0.35908225178718567 },
			{ -0.1241946592926979, 0.2276378571987152, -0.04680692031979561, -0.1519327163696289, 0.1976417899131775, 0.2980636954307556, 0.05535266548395157, -0.14720368385314941, 0.09092223644256592, -0.29134678840637207 },
			{ -0.14706356823444366, 0.309908390045166, -0.10274308174848557, -0.001649347716011107, 0.22671757638454437, 0.13398893177509308, 0.10973938554525375, -0.21102777123451233, -0.013480373658239841, -0.2358076572418213 },
			{ -0.05694475769996643, 0.17613229155540466, 0.06702284514904022, -0.0439743846654892, 0.24557141959667206, -0.13933506608009338, 0.05705210939049721, -0.16496635973453522, -0.0720004066824913, -0.119315005838871 },
			{ -0.0897667184472084, 0.01253831759095192, 0.004030969925224781, -0.014429311268031597, 0.24113628268241882, 0.05757032707333565, 0.09552289545536041, -0.13367685675621033, -0.09999902546405792, -0.051231272518634796 },
			{ 0.007949937134981155, 0.028718480840325356, -0.06853166222572327, -0.08922449499368668, 0.0731799378991127, 0.028880633413791656, -0.045164287090301514, -0.07950453460216522, -0.018138589337468147, 0.02236570231616497 },
			{ 0.036457378417253494, -0.08562449365854263, -0.06811004877090454, -0.014203456230461597, -0.0036965790204703808, -0.08278685808181763, -0.04124186933040619, 0.07554005831480026, 0.07922810316085815, 0.054568853229284286 },
			{ 0.01273068692535162, 0.04176400974392891, 0.043511275202035904, 0.025263778865337372, -0.05403419956564903, 0.01173488236963749, 0.0801745131611824, 0.059849198907613754, -0.05104261264204979, -0.037776555866003036 },
			{ -0.03499051555991173, -0.07595069706439972, 0.06213266775012016, 0.09094662964344025, -0.04415763169527054, -0.10346527397632599, 0.11295147985219955, 0.09303728491067886, 0.060021743178367615, 0.03554895520210266 },
			{ -0.12023377418518066, -0.05301251634955406, -0.08193256705999374, -0.049083005636930466, 0.2061736136674881, -0.001378600369207561, 0.06445414572954178, -0.09590403735637665, 0.0761110857129097, -0.19136936962604523 },
			{ -0.17963463068008423, -0.14916567504405975, -0.12537452578544617, -0.24911653995513916, 0.33726784586906433, 0.09847992658615112, 0.11376962810754776, 0.02674478478729725, 0.22111056745052338, -0.0974481925368309 },
			{ -0.0531282052397728, 0.015468665398657322, -0.14630131423473358, -0.2542160153388977, 0.27761366963386536, 0.09975244849920273, 0.2857576608657837, -0.06947261840105057, 0.05236786976456642, -0.03404238075017929 },
			{ -0.046773314476013184, -0.0321354903280735, -0.0051472801715135574, -0.2689479887485504, 0.3589825928211212, -0.019553733989596367, 0.2263469696044922, -0.20260344445705414, 0.1045527383685112, -0.015749109908938408 },
			{ -0.15724869072437286, 0.011694788932800293, -0.07114827632904053, -0.038139548152685165, 0.48089611530303955, -0.17726732790470123, 0.020501021295785904, -0.24698945879936218, 0.1015835702419281, -0.03576291725039482 },
			{ 0.004894309211522341, 0.00528748007491231, -0.07414522767066956, -0.02446252852678299, 0.5022295117378235, -0.19472381472587585, 0.06421183794736862, -0.11066628247499466, 0.07410357892513275, 0.05543207749724388 },
			{ 0.02856132760643959, 0.12435996532440186, -0.08874472230672836, -0.0728665292263031, 0.4119375944137573, -0.18872496485710144, -0.13044217228889465, 0.0601772740483284, 0.006000516004860401, -0.06827559322118759 },
			{ -0.12875457108020782, 0.18951424956321716, -0.08236822485923767, 0.059099383652210236, 0.3809281289577484, -0.14476026594638824, -0.081737220287323, 0.07125304639339447, 0.012809156440198421, -0.16939739882946014 },
			{ -0.06330030411481857, 0.1804480403661728, -0.00464753620326519, -0.024969691410660744, 0.2593074440956116, -0.1753908097743988, -0.12015151977539062, 0.1630520075559616, -0.08624900877475739, -0.13099539279937744 },
			{ -0.06179343909025192, -0.03597394376993179, -0.09260007739067078, -0.08672976493835449, 0.16261017322540283, 0.000825432303827256, -0.023108001798391342, -0.03645724058151245, 0.07434827089309692, -0.17766743898391724 },
			{ -0.09568025171756744, -0.10541239380836487, 0.07409418374300003, 0.0029535568319261074, 0.1492045372724533, 0.0432673878967762, 0.031756479293107986, -0.034117620438337326, 0.09672241657972336, -0.056285690516233444 },
			{ 0.060438863933086395, -0.02762802317738533, -0.06447400897741318, -0.04616415873169899, -0.08561232686042786, 0.058004505932331085, 0.050580158829689026, 0.051353685557842255, -0.07785574346780777, 0.06711746007204056 },
			{ 0.021576514467597008, 0.08606168627738953, -0.05560055375099182, -0.021260498091578484, 0.06127762049436569, -0.02268962748348713, 0.048179447650909424, -0.0322803370654583, 0.07357203960418701, 0.022824924439191818 },
			{ -0.13487721979618073, 0.03329521790146828, -0.009095474146306515, -0.012013794854283333, 0.0319240540266037, 0.00956073496490717, 0.11087330430746078, -0.2527584731578827, 0.010760228149592876, 0.031454846262931824 },
			{ -0.06321916729211807, -0.09119868278503418, -0.10525137186050415, -0.16477370262145996, 0.08743704110383987, 0.09395499527454376, 0.030239492654800415, -0.41023796796798706, 0.16643525660037994, 0.14939290285110474 },
			{ -0.0848013386130333, -0.13039787113666534, -0.3089029788970947, -0.22444996237754822, 0.439249724149704, 0.21830424666404724, 0.19025029242038727, -0.47598880529403687, 0.15697801113128662, 0.22876711189746857 },
			{ 0.037621449679136276, -0.24810102581977844, -0.1206350103020668, -0.34653252363204956, 0.41185352206230164, 0.09020651131868362, 0.2265004813671112, -0.3794921934604645, 0.14387203752994537, 0.09384392946958542 },
			{ -0.13260400295257568, -0.24525651335716248, -0.07639112323522568, -0.21684254705905914, 0.42741379141807556, -0.02025611139833927, 0.24723689258098602, -0.21434587240219116, 0.09378321468830109, 0.2275458127260208 },
			{ -0.04609018564224243, -0.014164227992296219, -0.08536554127931595, 0.0675327330827713, 0.3636198937892914, -0.466635525226593, 0.09927237778902054, -0.18968065083026886, 0.05815973877906799, 0.22872768342494965 },
			{ -0.018575510010123253, 0.0006743049016222358, 0.0513334684073925, 0.18652018904685974, 0.4270627200603485, -0.6149197816848755, -0.19246532022953033, -0.09551956504583359, 0.04103962332010269, 0.2081640511751175 },
			{ 0.1956809014081955, 0.11478041112422943, 0.11564575880765915, 0.108541339635849, 0.39100027084350586, -0.564585268497467, -0.291195273399353, 0.16890914738178253, -0.04319382086396217, 0.018406061455607414 },
			{ 0.28512704372406006, 0.09131379425525665, 0.09092853963375092, 0.05514497682452202, 0.2416589856147766, -0.5458576679229736, -0.35433247685432434, 0.1907445788383484, 0.12367871403694153, -0.08515612781047821 },
			{ 0.02989679016172886, 0.0186062753200531, 0.1024685949087143, 0.12175735086202621, 0.2652261257171631, -0.5205520391464233, -0.2624451816082001, 0.16653576493263245, 0.062148530036211014, -0.09970104694366455 },
			{ 0.21590857207775116, -0.04835953563451767, 0.0685945674777031, 0.0625123605132103, 0.09840888530015945, -0.12530940771102905, -0.23467443883419037, 0.10393272340297699, -0.011235775426030159, -0.18766647577285767 },
			{ -0.011182399466633797, -0.021002279594540596, -0.09395734965801239, -0.03977552801370621, 0.056002456694841385, 0.17478428781032562, -0.031620871275663376, -0.06302031874656677, 0.018955301493406296, -0.020465824753046036 },
			{ 0.014439362101256847, 0.021995263174176216, -0.04185256361961365, -0.002013122895732522, 0.07730545103549957, -0.023114711046218872, 0.019143814221024513, -0.05744050070643425, 0.037590090185403824, -0.07181179523468018 },
			{ -0.06944248825311661, -0.05607817322015762, -0.007170090917497873, -0.07074354588985443, 0.041510239243507385, 0.007072912063449621, 0.03465304151177406, -0.0477285198867321, 0.05300676077604294, 0.04784930497407913 },
			{ -0.018821313977241516, -0.042059287428855896, -0.08718056976795197, 0.0481378510594368, -0.10652237385511398, -0.027662226930260658, 0.0003805724554695189, -0.1447531282901764, 0.030942808836698532, 0.270151823759079 },
			{ 0.09625723212957382, -0.010158129967749119, -0.16443824768066406, -0.1937023252248764, 0.12614183127880096, 0.06774157285690308, 0.14434801042079926, -0.2546570599079132, 0.12336821854114532, 0.30666810274124146 },
			{ 0.11400631070137024, -0.16562816500663757, -0.2977006733417511, -0.21650880575180054, 0.26008573174476624, 0.08574610948562622, 0.2042023092508316, -0.48572489619255066, 0.1560838371515274, 0.14272664487361908 },
			{ 0.066470205783844, -0.19128063321113586, -0.31792593002319336, -0.166556715965271, 0.5455166697502136, 0.022190026938915253, 0.07438784092664719, -0.3130994737148285, 0.15207503736019135, 0.19577543437480927 },
			{ 0.07087067514657974, -0.2299305945634842, -0.19960355758666992, -0.1537621021270752, 0.3418738842010498, -0.10549753904342651, 0.09745171666145325, -0.12479682266712189, 0.021113339811563492, 0.1299639791250229 },
			{ 0.1261368691921234, -0.02225966937839985, -0.1265130639076233, 0.028145013377070427, 0.22554050385951996, -0.24560098350048065, 0.11100658774375916, 0.035310134291648865, 0.016917044296860695, -0.02905719354748726 },
			{ -0.08130192011594772, 0.06411107629537582, 0.030045580118894577, 0.12521615624427795, 0.27549803256988525, -0.5702865719795227, -0.24172091484069824, 0.33603301644325256, 0.07495000213384628, -0.13972218334674835 },
			{ -0.023469362407922745, 0.10154903680086136, 0.17137789726257324, 0.23170289397239685, 0.3035224378108978, -0.6264033913612366, -0.3911679983139038, 0.2003353089094162, 0.05162321776151657, 0.10590926557779312 },
			{ 0.11221922188997269, 0.06536891311407089, 0.21723470091819763, -0.015911977738142014, 0.20239663124084473, -0.7252575755119324, -0.4131481349468231, 0.2825338542461395, 0.12038551270961761, 0.01863451860845089 },
			{ 0.20917408168315887, 0.013850321993231773, 0.07290740311145782, -0.09264497458934784, 0.16117829084396362, -0.6486334800720215, -0.3023725152015686, 0.2520030736923218, 0.06956703215837479, 0.04485602304339409 },
			{ 0.3501341938972473, -0.08349362760782242, 0.061968207359313965, -0.10797680169343948, -0.09578267484903336, -0.2845460772514343, -0.06266789138317108, -0.009422515518963337, 0.20274268090724945, 0.041625309735536575 },
			{ -0.09669535607099533, 0.06797587871551514, 0.060760125517845154, -0.03253556787967682, -0.08731905370950699, 0.08479348570108414, -0.12283407151699066, 0.002152828499674797, 0.008874848484992981, -0.0466684028506279 },
			{ -0.0041848900727927685, 0.019627824425697327, 0.05012929439544678, -0.012811058200895786, -0.0791115090250969, -0.001557241310365498, 0.03305325284600258, 0.07408155500888824, -0.0018189441179856658, 0.07688064873218536 },
			{ 0.05409762263298035, 0.03462131693959236, -0.011257980950176716, -0.03740415349602699, 0.0018513569375500083, -0.07285258919000626, -0.045133717358112335, 0.07307308167219162, 0.04031459987163544, -0.07402049005031586 },
			{ -0.04993985965847969, 0.018470024690032005, -0.16961893439292908, -0.08014717698097229, -0.11421678960323334, -0.06225305423140526, -0.022002795711159706, -0.17188386619091034, -0.025703927502036095, 0.21573354303836823 },
			{ 0.25003963708877563, -0.09175565093755722, -0.37114450335502625, -0.1413978487253189, 0.15096615254878998, -0.15471994876861572, 0.19737178087234497, -0.16225315630435944, 0.049701422452926636, 0.230424702167511 },
			{ 0.26411011815071106, 0.02422085590660572, -0.5184704661369324, -0.08415703475475311, 0.22423069179058075, -0.11838387697935104, 0.1781952828168869, 0.02896757982671261, -0.13795910775661469, 0.11672674864530563 },
			{ 0.2578674852848053, 0.04256100580096245, -0.521628201007843, -0.012344539165496826, 0.250107079744339, -0.04144982248544693, 0.2072640359401703, 0.12342880666255951, -0.06670467555522919, 0.040181852877140045 },
			{ 0.28494152426719666, -0.12161660939455032, -0.2783713638782501, -0.18684615194797516, 0.2543076276779175, -0.00022995569452177733, 0.1820395141839981, 0.08159826695919037, 0.0931607186794281, -0.1014864519238472 },
			{ 0.17753788828849792, 0.2651674151420593, -0.01863856241106987, 0.01993611454963684, -0.08573871105909348, -0.04881627485156059, 0.1307074874639511, 0.05293375253677368, -0.038460955023765564, -0.32453709840774536 },
			{ -0.05507364869117737, 0.1644236445426941, -0.001322923693805933, -0.12514472007751465, 0.11658498644828796, -0.3150137662887573, -0.09480159729719162, 0.2459566444158554, 0.0004935169708915055, 0.06909705698490143 },
			{ 0.0024341903626918793, 0.13748137652873993, 0.1117095872759819, 0.007633109111338854, 0.10806339979171753, -0.5183920860290527, -0.2721434533596039, 0.09260294586420059, 0.09099236875772476, 0.09744749963283539 },
			{ 0.17082393169403076, -0.09791827201843262, 0.111149363219738, -0.004051522817462683, 0.004196174442768097, -0.4249049723148346, -0.21773846447467804, -0.030609499663114548, 0.08760042488574982, 0.22599342465400696 },
			{ 0.17166055738925934, -0.08223799616098404, -0.08192353695631027, -0.2120366394519806, 0.1032058596611023, -0.4883999228477478, -0.14076551795005798, 0.23406679928302765, 0.13736040890216827, 0.25544771552085876 },
			{ 0.32180848717689514, -0.025302305817604065, 0.028600525110960007, -0.12784941494464874, -0.09810172766447067, -0.28070154786109924, 0.19688230752944946, -0.1440550684928894, 0.04580790922045708, 0.17042142152786255 },
			{ 0.021267220377922058, -0.042992003262043, 0.1164991706609726, -0.09397108107805252, -0.0007965079857967794, -0.09153915196657181, 0.05116047337651253, 0.043326523154973984, -0.0033897915855050087, -0.025439243763685226 },
			{ -0.03337130323052406, -0.05703603848814964, -0.08574434369802475, -0.053519878536462784, 0.07025895267724991, 0.0264868326485157, -0.0519532673060894, -0.07382497191429138, -0.06683001667261124, 0.012624276801943779 },
			{ -0.010449277237057686, -0.02139352634549141, 0.06625296175479889, -0.06785652786493301, -0.05782366171479225, 0.04692934826016426, -0.00596071220934391, 0.06853193789720535, -0.036395344883203506, -0.08347567170858383 },
			{ 0.10008882731199265, -0.0699569433927536, -0.13651253283023834, 0.05124279856681824, 0.032900694757699966, -0.07153025269508362, -0.12676484882831573, 0.04821992293000221, 0.002344326116144657, 0.13848599791526794 },
			{ 0.2904578447341919, -0.0183397326618433, -0.19136783480644226, -0.17327578365802765, -0.06412610411643982, -0.22171759605407715, 0.35775476694107056, 0.12586136162281036, -0.016202857717871666, 0.1282261162996292 },
			{ 0.3947466313838959, -0.15400207042694092, -0.15024003386497498, -0.21351639926433563, 0.0023599122650921345, -0.24702778458595276, 0.13995657861232758, 0.2626053988933563, -0.18356333673000336, 0.0705302283167839 },
			{ 0.3989865481853485, 0.058784037828445435, -0.08638394623994827, -0.23047830164432526, -0.07947896420955658, -0.16340695321559906, 0.1786871701478958, 0.20954452455043793, 0.08775285631418228, -0.1835344135761261 },
			{ 0.43166330456733704, 0.12174304574728012, 0.042606569826602936, -0.29766416549682617, -0.08890147507190704, -0.06877300143241882, 0.23752011358737946, -0.08054565638303757, 0.13600380718708038, -0.3058607280254364 },
			{ 0.04639668017625809, 0.16682320833206177, 0.09598898142576218, -0.07270703464746475, -0.2662867605686188, -0.15866877138614655, 0.13743075728416443, -0.018105095252394676, 0.1418592929840088, -0.22222158312797546 },
			{ -0.11408468335866928, 0.19555369019508362, 0.07203995436429977, -0.04981894791126251, 0.011470166966319084, -0.16630780696868896, 0.012894121930003166, -0.05920366197824478, -0.08015748113393784, 0.032303571701049805 },
			{ 0.039118506014347076, -0.08101226389408112, 0.026732169091701508, -0.13273213803768158, 0.14055247604846954, -0.19724538922309875, 0.04485471174120903, 0.17662343382835388, -0.15673257410526276, 0.18572998046875 },
			{ -0.013786869123578072, -0.13711510598659515, 0.12320736050605774, -0.0768728032708168, 0.04111071303486824, -0.19855248928070068, 0.15751968324184418, 0.15476778149604797, -0.21054160594940186, 0.19588419795036316 },
			{ 0.10323627293109894, -0.13801267743110657, -0.12494995445013046, -0.05209212750196457, 0.004943536128848791, -0.14973962306976318, 0.2073281854391098, 0.17413078248500824, -0.15103481709957123, 0.18775597214698792 },
			{ 0.3201982378959656, -0.1713552623987198, -0.24903401732444763, -0.16572147607803345, -0.10008902102708817, 0.027482453733682632, 0.09750315546989441, 0.08683078736066818, -0.08636302500963211, -0.008361383341252804 },
			{ -0.05491841956973076, 0.03213357552886009, 0.21484997868537903, 0.006274962332099676, -0.0063602011650800705, -0.04157856106758118, -0.0016027430538088083, -0.0559111014008522, -0.06047585979104042, 0.008738281205296516 },
			{ -0.07187961786985397, 0.06488627940416336, 0.07338200509548187, 0.06094592809677124, 0.046206921339035034, 0.06562817841768265, -0.05714094638824463, -0.05712517723441124, -0.059305645525455475, -0.07926706224679947 },
			{ 0.06371794641017914, -0.0030443728901445866, -0.0008327283430844545, 0.00380642875097692, 0.0004258250119164586, -0.08152209967374802, 0.059618476778268814, 0.07978293299674988, -0.0016281575663015246, -0.03377005085349083 },
			{ 0.15212175250053406, 0.00411193398758769, 0.06962808221578598, 0.032234419137239456, -0.03144210949540138, -0.0856943428516388, 0.018032584339380264, 0.10610724240541458, 0.006486986763775349, -0.0089523084461689 },
			{ 0.12416467815637589, -0.10503517836332321, 0.12592092156410217, -0.21350893378257751, -0.1848795861005783, -0.19889383018016815, 0.24865727126598358, 0.10431612282991409, 0.17292538285255432, -0.03563554212450981 },
			{ 0.2643683850765228, -0.056300148367881775, 0.07621914148330688, -0.36125150322914124, -0.16072814166545868, -0.3424265682697296, 0.2437688261270523, 0.30439361929893494, 0.17358028888702393, -0.3465380072593689 },
			{ 0.34540820121765137, -0.0005592334200628102, 0.31241604685783386, -0.34579095244407654, -0.18729953467845917, -0.3001815378665924, 0.18877480924129486, 0.16520792245864868, 0.27254238724708557, -0.43829700350761414 },
			{ 0.49489152431488037, 0.14677231013774872, 0.31556448340415955, -0.47309842705726624, -0.20010139048099518, -0.08429834246635437, 0.10030949860811234, -0.0031026131473481655, 0.3251059055328369, -0.3700391352176666 },
			{ -0.09025624394416809, 0.20852746069431305, 0.3010266423225403, -0.2362377941608429, -0.09250500798225403, -0.05156358331441879, 0.010251767002046108, -0.15120413899421692, 0.07805473357439041, 0.137900710105896 },
			{ -0.01750357821583748, 0.05579030513763428, 0.00993369147181511, -0.22129392623901367, -0.15315662324428558, -0.029248667880892754, 0.16205023229122162, -0.05359260365366936, -0.08164642751216888, 0.08817961066961288 },
			{ 0.14512699842453003, -0.14280590415000916, 0.05284582078456879, 0.004688898101449013, -0.06673072278499603, -0.018993858247995377, 0.25029894709587097, 0.09771424531936646, -0.15333521366119385, 0.0830254927277565 },
			{ 0.08825663477182388, -0.0934881716966629, -0.11681872606277466, 0.009808321483433247, 0.04395833611488342, -0.05759083107113838, 0.16979600489139557, 0.09234408289194107, -0.12324690073728561, 0.1593267172574997 },
			{ 0.1445155143737793, -0.18914517760276794, -0.14781202375888824, 0.03921482339501381, 0.11280941963195801, 0.0016964082606136799, 0.007803298998624086, 0.04961957037448883, -0.24831561744213104, 0.07717634737491608 },
			{ 0.23300006985664368, 0.02148519642651081, -0.19518470764160156, 0.03999591991305351, -0.038210429251194, 0.12867149710655212, 0.12796670198440552, -0.0004870835109613836, -0.05653521418571472, -0.00178850581869483 },
			{ -0.1121060773730278, 0.018139034509658813, 0.1906876415014267, 0.0037519768811762333, -0.1008857861161232, -0.06892503798007965, 0.1560564637184143, -0.09613921493291855, 0.06467685848474503, 0.043673496693372726 },
			{ 0.08226311951875687, -0.05841429531574249, 0.036297354847192764, 0.047199659049510956, 0.05654207989573479, 0.04661160707473755, -0.02945372834801674, 0.04735041782259941, 0.08253686875104904, 0.04180173575878143 },
			{ -0.0618206188082695, -0.08643552660942078, -0.037289902567863464, 0.08502344787120819, 0.020273897796869278, -0.00019917111785616726, -0.06974997371435165, -0.016374312341213226, 0.07691550999879837, 0.013730022124946117 },
			{ 0.10180438309907913, 0.05734878405928612, 0.044626832008361816, 0.1253420114517212, -0.04415475204586983, -0.04680943861603737, -0.07156451046466827, -0.04023975133895874, 0.019322220236063004, -0.04532415047287941 },
			{ 0.07758087664842606, -0.0669645145535469, 0.1404203176498413, -0.21886292099952698, -0.12242361158132553, -0.13352009654045105, 0.10247732698917389, -0.08418189734220505, 0.36217200756073, -0.01635364256799221 },
			{ 0.3149974048137665, -0.11163698136806488, 0.2672995328903198, -0.3256258964538574, -0.07274539023637772, -0.25280407071113586, 0.098377525806427, 0.019082557410001755, 0.4282166063785553, -0.3184719681739807 },
			{ 0.3721506595611572, -0.14009816944599152, 0.3231442868709564, -0.4427504539489746, -0.016478972509503365, -0.2884272336959839, 0.1617392897605896, 0.14525865018367767, 0.42237940430641174, -0.4038514494895935 },
			{ 0.22306860983371735, -0.03875613212585449, 0.20285768806934357, -0.528566300868988, -0.021922914311289787, -0.16347509622573853, 0.06172395870089531, 0.050874508917331696, 0.23374293744564056, 0.0006972909905016422 },
			{ 0.012444916181266308, -0.05730094388127327, 0.049493689090013504, -0.27452147006988525, -0.04353557899594307, -0.10724328458309174, -0.008565021678805351, 0.20465363562107086, 0.06548445671796799, 0.10821196436882019 },
			{ -0.11013131588697433, -0.1180470734834671, 0.01850493624806404, -0.04311385378241539, 0.002521249931305647, 0.022861283272504807, 0.1427793651819229, -0.06487911939620972, 0.02801559679210186, -0.04841874539852142 },
			{ 0.001380347996018827, -0.11510491371154785, -0.0559518076479435, -0.045906491577625275, -0.07911676168441772, 0.111737921833992, 0.08442244678735733, 0.07389812916517258, 0.0008630798547528684, 0.056862641125917435 },
			{ -0.014107122085988522, -0.08469920605421066, -0.16592645645141602, 0.06860627233982086, 0.010662248358130455, 0.08165886998176575, 0.06841307878494263, 0.1896791011095047, 0.09871017932891846, 0.14287129044532776 },
			{ -0.06649069488048553, -0.0773053839802742, -0.22580420970916748, 0.11135866492986679, 0.019989484921097755, 0.006742506287992001, -0.017094027251005173, 0.007828452624380589, -0.02608788199722767, 0.037697549909353256 },
			{ -0.044198378920555115, 0.06202247738838196, -0.13144108653068542, 0.026480983942747116, -0.00916761439293623, 0.15144149959087372, 0.07789812982082367, -0.20340117812156677, 0.1635611653327942, 0.01898120902478695 },
			{ 0.021984238177537918, 0.08333906531333923, -0.008763597346842289, -0.05245105177164078, 0.0015864655142650008, 0.10758593678474426, -0.036156877875328064, 0.01761722005903721, -0.11639351397752762, 0.05254793539643288 },
			{ -0.045194365084171295, -0.05824577435851097, 0.05097193270921707, 0.00512840086594224, -0.028916269540786743, -0.042300060391426086, 0.027397923171520233, -0.04964546859264374, -0.042843468487262726, 0.026496490463614464 },
			{ 0.05797506123781204, -0.04694118723273277, 0.020053397864103317, -0.0456186905503273, 0.00454353354871273, 0.025135111063718796, -0.01071835309267044, -0.0310196653008461, 0.05725064501166344, -0.05718017369508743 },
			{ -0.012993884272873402, -0.07356313616037369, 0.16096581518650055, 0.07001062482595444, -0.03871598467230797, 0.003023396711796522, 0.03185778856277466, -0.04980846866965294, -0.011149892583489418, -0.02215655893087387 },
			{ 0.09264703840017319, -0.0012149413814768195, 0.17325420677661896, -0.14956359565258026, 0.020260609686374664, -0.042561858892440796, -0.1745375245809555, -0.0770169124007225, 0.22829778492450714, 0.013796063140034676 },
			{ 0.07663355022668839, -0.08211012929677963, 0.24421946704387665, -0.17240703105926514, -0.009807788766920567, -0.22874517738819122, -0.05340677499771118, 0.11467114835977554, 0.3164522349834442, -0.23767216503620148 },
			{ 0.02233128435909748, -0.0994296446442604, 0.011015642434358597, -0.2689298391342163, 0.1251576989889145, -0.18976463377475739, 0.14573673903942108, 0.18158049881458282, 0.1750108152627945, -0.029458867385983467 },
			{ 0.08223234862089157, -0.07946118712425232, -0.12173227965831757, -0.3767779469490051, 0.2921236455440521, -0.11837644129991531, 0.02204067073762417, 0.33976688981056213, 0.21357031166553497, 0.09525884687900543 },
			{ -0.19583116471767426, -0.4182841181755066, -0.12097031623125076, -0.049824029207229614, 0.16310785710811615, 0.08484470844268799, -0.08636859059333801, 0.17371505498886108, 0.1579640805721283, 0.05947680398821831 },
			{ -0.17505532503128052, -0.2063702493906021, 0.04606151208281517, 0.14413684606552124, 0.13058003783226013, 0.1275642067193985, -0.05341038480401039, 0.024089694023132324, 0.21699774265289307, 0.0662519633769989 },
			{ -0.14560283720493317, -0.007896050810813904, -0.1760934740304947, 0.15488240122795105, 0.03684689477086067, 0.158412903547287, -0.06512659043073654, 0.03948591649532318, 0.08718199282884598, 0.019594842568039894 },
			{ -0.11832647770643234, -0.006084195803850889, -0.06679847836494446, 0.11062905937433243, 0.01905585452914238, 0.12235267460346222, -0.04281989485025406, 0.10784061253070831, 0.11505340039730072, -0.041080061346292496 },
			{ -0.06635944545269012, 0.024925826117396355, -0.1476694643497467, 0.0755457729101181, -0.05836917832493782, 0.10216768831014633, 0.06600301712751389, -0.16782952845096588, 0.08905620872974396, 0.000595719728153199 },
			{ 0.03312111645936966, -0.03109525516629219, -0.13202117383480072, 0.03512892127037048, -0.04975641146302223, 0.09827326238155365, -0.0426194965839386, -0.07818765193223953, 0.08322516828775406, -0.05231715366244316 },
			{ -0.04848713055253029, -0.006843342911452055, 0.0659925565123558, -0.06260157376527786, -0.02784310095012188, 0.019857848063111305, -0.03314034268260002, -0.017252087593078613, 0.03526444733142853, -0.07736814767122269 },
			{ -0.06793656200170517, -0.05270228534936905, 0.0023524451535195112, -0.08066967874765396, -0.05688571557402611, -0.0013083998346701264, 0.057950425893068314, 0.08258771896362305, -0.0075391558930277824, 0.005500491708517075 },
			{ -0.028898706659674644, -0.05058068409562111, 0.046714987605810165, -0.03480222076177597, -0.08383697271347046, 0.019815785810351372, -0.059273988008499146, -0.07070944458246231, -0.07139622420072556, -0.05376534163951874 },
			{ -0.003870973363518715, 0.07984676957130432, -0.03141548112034798, 0.010945623740553856, -0.014252412132918835, 0.026055848225951195, 0.022175461053848267, -0.048819079995155334, -0.06928820163011551, -0.09237723052501678 },
			{ 0.04528742656111717, 0.20110273361206055, 0.056057047098875046, -0.10189342498779297, -0.02725408598780632, 0.009223409928381443, -0.12137700617313385, 0.17713016271591187, -0.005748196039348841, -0.05950368940830231 },
			{ 0.015831438824534416, 0.16159698367118835, -0.046877164393663406, -0.1545875072479248, 0.09854040294885635, -0.12785814702510834, -0.12163058668375015, 0.29737940430641174, -0.08855836093425751, -0.03461382910609245 },
			{ -0.14497672021389008, 0.0952993631362915, -0.24889743328094482, -0.2721966505050659, 0.28721311688423157, 0.05802231654524803, -0.07817603647708893, 0.244359090924263, -0.07233206927776337, -0.03623523190617561 },
			{ -0.1396481692790985, 0.03459479287266731, -0.23631592094898224, -0.16845795512199402, 0.3413982093334198, -0.060936495661735535, -0.15572313964366913, 0.299312561750412, -0.08335815370082855, 0.16677571833133698 },
			{ -0.20705629885196686, 0.08521522581577301, -0.25207069516181946, 0.017201686277985573, 0.2052779644727707, 0.06091756001114845, -0.24615749716758728, 0.17846965789794922, -0.025300802662968636, 0.1124400645494461 },
			{ -0.2698575258255005, -0.0619146004319191, -0.20133458077907562, 0.13934919238090515, 0.12936249375343323, 0.027332890778779984, -0.10079055279493332, 0.14407038688659668, -0.04465092718601227, -0.030132312327623367 },
			{ -0.1696777492761612, -0.04475253447890282, 0.07620938867330551, 0.16877497732639313, 0.04281788319349289, 0.022231295704841614, -0.17096221446990967, 0.0024596615694463253, -0.12949895858764648, -0.08375497907400131 },
			{ -0.20237092673778534, 0.09489511698484421, -0.0803319439291954, 0.19926230609416962, -0.0691256895661354, 0.18924209475517273, -0.0359879806637764, -0.025851884856820107, 0.010085574351251125, -0.1431605964899063 },
			{ -0.049074240028858185, 0.04200265556573868, 0.017604263499379158, 0.11818116903305054, 0.018621008843183517, 0.013833543285727501, 0.05314173176884651, -0.0416531078517437, 0.11045331507921219, -0.016881611198186874 },
			{ -0.12250830233097076, 0.05396699905395508, 0.05731556564569473, 0.09906232357025146, -0.0506562665104866, 0.1622101068496704, -0.014783441089093685, -0.1682797521352768, -0.059191618114709854, 0.08400769531726837 },
			{ -0.0385398268699646, -0.0594860278069973, 0.017579825595021248, -0.026547983288764954, 0.0028025340288877487, -0.012117791920900345, 0.04624162241816521, -0.06994206458330154, 0.025463275611400604, -0.042876794934272766 },
			{ 0.02218097634613514, -0.017873430624604225, 0.08291185647249222, -0.0662970319390297, -0.049282509833574295, -0.08453705906867981, -0.015490979887545109, 0.030936511233448982, 0.07959995418787003, -0.015566076152026653 },
			{ 0.06899045407772064, 0.030181942507624626, 0.08518554270267487, 0.007910002954304218, -0.0388619601726532, -0.044582873582839966, 0.0485440269112587, 0.012583652511239052, -0.05353845655918121, -0.02638201043009758 },
			{ 0.021995970979332924, -0.024815348908305168, -0.02453986369073391, 0.08316919207572937, 0.03241534158587456, 0.019193602725863457, -0.03429809585213661, -0.014594430103898048, 0.02925846353173256, 0.03822033479809761 },
			{ -0.10869696736335754, 0.09082163125276566, -0.2561315596103668, -0.003811886068433523, -0.019706429913640022, -0.07689255475997925, -0.0674353539943695, 0.19465503096580505, -0.10138270258903503, 0.1942840814590454 },
			{ -0.09745039790868759, 0.06188015639781952, -0.1871645152568817, 0.06549886614084244, 0.026707103475928307, -0.07813453674316406, -0.06428272277116776, 0.35218316316604614, -0.28621765971183777, 0.36560580134391785 },
			{ -0.14375890791416168, -0.0022609797306358814, -0.355284720659256, 0.06272949278354645, 0.10023587197065353, -0.0655335783958435, -0.12643912434577942, 0.2568092346191406, -0.2163299024105072, 0.27723610401153564 },
			{ -0.1091618686914444, -0.05676225945353508, -0.15549814701080322, 0.03270915895700455, 0.09991069883108139, 0.010938869789242744, -0.0014313097344711423, 0.2502402067184448, -0.18515749275684357, 0.32923567295074463 },
			{ -0.11699459701776505, -0.05302676931023598, -0.19842615723609924, 0.03861837461590767, 0.0256931334733963, 0.13100534677505493, -0.01992255449295044, 0.3333875834941864, -0.12422174960374832, 0.14954134821891785 },
			{ -0.0563364140689373, -0.05662540718913078, -0.13054731488227844, -0.019007956609129906, -0.0006045463378541172, -0.004478889983147383, -0.02557295188307762, 0.22633607685565948, 0.01355649996548891, 0.1653667390346527 },
			{ -0.09373756498098373, -0.0007927351980470121, -0.07559816539287567, 0.1409822404384613, -0.04891294240951538, -0.015613751485943794, 0.10825560986995697, 0.10694212466478348, -0.13417671620845795, 0.07177285850048065 },
			{ -0.06258509308099747, 0.013659816235303879, -0.1315518170595169, 0.04883042350411415, -0.016755059361457825, 0.07078869640827179, 0.007897265255451202, -0.0256937388330698, 0.07933266460895538, 0.08502934873104095 },
			{ -0.10990177094936371, -0.0054061817936599255, -0.0750637948513031, -0.044250793755054474, 0.05250438302755356, 0.030811723321676254, 0.0495978407561779, -0.014219655655324459, 0.05368281528353691, 0.04202821105718613 },
			{ -0.06394080072641373, -0.055020611733198166, 0.04892624169588089, 0.0016167002031579614, -0.05132247880101204, 0.032785799354314804, -0.023528238758444786, -0.029715504497289658, 0.030196426436305046, 0.08051342517137527 },
			{ -0.04515460506081581, -0.035197436809539795, 0.0810256153345108, 0.0262915026396513, -0.05833566188812256, 0.03962664678692818, 0.07287958264350891, -0.042711757123470306, -0.04551327973604202, 0.03127526491880417 },
			{ -0.08087799698114395, 0.023507609963417053, -0.019734757021069527, -0.05408691614866257, 0.006541346199810505, 0.06781873106956482, 0.0561501644551754, -0.03586115315556526, -0.06151418015360832, -0.05047418177127838 },
			{ -0.07453162223100662, 0.006729860790073872, -0.07868026942014694, -0.07506513595581055, 0.07363706827163696, -0.07558415085077286, 0.014165584929287434, 0.077031210064888, 0.008900165557861328, -0.036592718213796616 },
			{ -0.0016070466954261065, -0.019511889666318893, -0.044530294835567474, -0.04454118013381958, -0.002121739089488983, 0.043283432722091675, -0.055679094046354294, -0.042893338948488235, 0.0793880745768547, -0.06879284977912903 },
			{ -0.07366416603326797, -0.05097927525639534, -0.034009162336587906, -0.0589144267141819, -0.052460458129644394, -0.07705879956483841, -0.07564616948366165, 0.062232017517089844, -0.0029915596824139357, 0.1399342268705368 },
			{ 0.007520453073084354, 0.05752304196357727, 0.03238052874803543, 0.0648002102971077, -0.008053842931985855, -0.040417443960905075, 0.05528639629483223, 0.061361245810985565, -0.006703373976051807, 0.09645398706197739 },
			{ -0.06319352984428406, 0.015422400087118149, -0.031114785000681877, -0.03092309646308422, 0.004490718711167574, -0.007194762583822012, 0.0045523690059781075, -0.028283633291721344, -0.03716466203331947, 0.09064940363168716 },
			{ 0.007792850490659475, -0.08552103489637375, -0.052567001432180405, 0.00843216571956873, -0.07986848801374435, 0.08971061557531357, -0.04513060301542282, 0.011750697158277035, -0.04032334312796593, 0.08391420543193817 },
			{ -0.02824067696928978, -0.0677756816148758, 0.0004589857708197087, 0.04828847199678421, -0.05415540933609009, 0.024295330047607422, -0.07430911064147949, 0.0713692381978035, 0.04836520180106163, 0.07271336764097214 },
			{ -0.08381231129169464, -0.015010279603302479, -0.10714743286371231, -0.030483633279800415, -0.1034339964389801, 0.08490713685750961, -0.06236901879310608, 0.08065730333328247, -0.09125956147909164, 0.15110309422016144 },
			{ 0.016589410603046417, 0.054354749619960785, 0.007235916797071695, -0.05038141831755638, -0.07468915730714798, 0.059879519045352936, -0.025844631716609, -0.05931432172656059, 0.08054855465888977, 0.03438354656100273 },
			{ -0.02189389057457447, -0.054086290299892426, 0.06056440621614456, 0.06874467432498932, -0.03771999850869179, 0.06340968608856201, 0.021145211532711983, 0.015945177525281906, -0.08812030404806137, -0.007321351207792759 },
			{ 0.012467087246477604, -0.04696962982416153, -0.044020891189575195, 0.0156769510358572, -0.007180165033787489, -0.0006957617588341236, 0.04825589805841446, 0.024807492271065712, -0.02171901986002922, -0.03411555290222168 },
			{ -0.06112274155020714, -0.02734382264316082, 0.04810982570052147, 0.030639898031949997, -0.05917416885495186, -0.0020691705867648125, 0.021947519853711128, 0.012506464496254921, 0.02945585362613201, 0.0797308012843132 },
			{ 0.03813344985246658, 0.06939499080181122, -0.031231485307216644, 0.07646597176790237, -0.019231779500842094, -0.029606355354189873, 0.07163120061159134, 0.0411456823348999, -0.01512894593179226, -0.054718587547540665 },
			{ 0.06601901352405548, 0.005927450954914093, 0.059461113065481186, 0.05811779201030731, 0.014095705933868885, 0.01501190010458231, 0.03613387420773506, 0.08361288160085678, -0.01647701859474182, 0.0470929816365242 },
			{ 0.043011993169784546, 0.037154003977775574, -0.04632219299674034, 0.05996048450469971, -0.07662134617567062, 0.025596577674150467, -0.08710256218910217, -0.04213356971740723, 0.05757075920701027, -0.07371766120195389 },
			{ -0.05119822174310684, 0.03432136029005051, 0.0011674788547679782, -0.07495631277561188, -0.0029297182336449623, -0.075297050178051, -0.038513317704200745, 0.06837347894906998, -0.08034895360469818, -0.05283226817846298 },
			{ 0.012867558747529984, 0.033657170832157135, -0.04682295024394989, -0.031055081635713577, -0.008801741525530815, -0.0038456290494650602, 0.047142527997493744, 0.013316149823367596, -0.05628751218318939, 0.022777950391173363 },
			{ 0.08477600663900375, -0.05491373687982559, -0.0009387769387103617, -0.03520232439041138, -0.037050116807222366, 0.035447534173727036, 0.07852207869291306, 0.048897046595811844, -0.07215099781751633, 0.07914039492607117 },
			{ 0.01449749805033207, 0.026400409638881683, -0.04696346074342728, 0.014737478457391262, 0.057456355541944504, -0.07108607143163681, -0.05649937316775322, -0.018154101446270943, -0.04335477203130722, -0.03807428851723671 },
			{ 0.05886998027563095, 0.0845785140991211, 0.02173297107219696, 0.018933972343802452, 0.06766771525144577, 0.009081320837140083, -0.0616564005613327, -0.05515221133828163, -0.005191601812839508, 0.038045793771743774 },
			{ 0.08317036181688309, -0.050991643220186234, -0.06468163430690765, 0.0021939727012068033, -0.07292889058589935, 0.05035388469696045, 0.07955466955900192, -0.026893632486462593, 0.08019057661294937, -0.037481456995010376 },
			{ -0.028625156730413437, -0.07417178899049759, -0.06873985379934311, -0.04532552510499954, -0.02679688110947609, -0.026487398892641068, 0.012859299778938293, 0.010155231691896915, 0.07542801648378372, -0.07109957933425903 },
			{ 0.05373307690024376, 0.03891250863671303, 0.07844412326812744, -0.05429469794034958, -0.04131244495511055, -0.04303432255983353, 0.023350542411208153, 0.05856434255838394, 0.0617213137447834, 0.08107749372720718 },
			{ 0.029093720018863678, 0.022882454097270966, -0.0503351092338562, 0.019361063838005066, 0.03724033012986183, -0.033314235508441925, 0.03503798693418503, 0.01065925881266594, 0.05295110121369362, -0.08086920529603958 },
			{ -0.04787604138255119, -0.0047085219994187355, -0.012057233601808548, 0.004608753602951765, 0.015094141475856304, 0.08120331168174744, 0.0050841160118579865, -0.041221603751182556, 0.06698053330183029, 0.07904354482889175 },
			{ 0.0439399778842926, -0.06593053787946701, -0.03813886642456055, -0.03948788344860077, 0.04255889728665352, -0.03781488165259361, 0.011589545756578445, -0.027751130983233452, -0.06897369027137756, -0.015750786289572716 },
			{ 0.0036292229779064655, 0.07641252875328064, -0.08340316265821457, 0.04265680909156799, 0.05232389643788338, -0.041920606046915054, 0.06422934681177139, 0.02496987022459507, 0.04117773845791817, -0.055087920278310776 },
			{ -0.01718122512102127, -0.08137219399213791, -0.06500159949064255, 0.06212791055440903, 0.019168972969055176, -0.06953416019678116, 0.007419866975396872, 0.06646215170621872, 0.007667225785553455, -0.007434799801558256 },
			{ 0.01231726910918951, -0.004023514688014984, -0.008487106300890446, 0.0002131820801878348, 0.06573086977005005, -0.06779307872056961, 0.05451441556215286, -0.05174817144870758, 0.014593694359064102, -0.05220288038253784 },
			{ 0.030391139909625053, -0.0761559009552002, -0.049514926970005035, 0.05277227237820625, 0.03552808612585068, 0.0408158153295517, 0.056983787566423416, -0.04470415040850639, 0.03240372613072395, 0.07580586522817612 },
			{ 0.07892286777496338, 0.08233530074357986, 0.005956345237791538, 0.06916963309049606, -0.016572795808315277, -0.019043274223804474, 0.02821839600801468, 0.008998134173452854, 0.06080958992242813, 0.019623326137661934 },
			{ 0.003387313336133957, 0.023998025804758072, -0.03577764332294464, 0.047116316854953766, 0.02278982289135456, 0.022310787811875343, -0.04025592282414436, -0.06693971902132034, -0.04879988357424736, 0.0630408301949501 },
			{ -0.07397504150867462, 0.04530273377895355, -0.01772145926952362, -0.009018764831125736, -0.011652084067463875, -0.02024897187948227, -0.03383905068039894, 0.06826899200677872, -0.05391163006424904, -0.0016387124778702855 },
			{ -0.05268601328134537, 0.038776081055402756, -0.01475207507610321, -0.02720583975315094, 0.013827548362314701, -0.06076885759830475, 0.012938370928168297, -0.07121394574642181, -0.08132237195968628, 0.053271178156137466 },
			{ 0.03408127650618553, -0.005201687570661306, 0.1526804119348526, 0.0050307768397033215, -0.11909503489732742, 0.039322011172771454, 0.06480792909860611, 0.03266867622733116, 0.00955453421920538, 0.03672654181718826 },
			{ -0.06849944591522217, -0.0894467830657959, -0.02868419885635376, 0.0028695890214294195, -0.11871480941772461, 0.0018656691536307335, 0.026470640674233437, 0.03824113681912422, -0.01855655014514923, 0.042362362146377563 },
			{ 0.00218793423846364, 0.0030326705891638994, 0.007784545421600342, 0.063776396214962, -0.07118791341781616, 0.10047406703233719, 0.13098056614398956, 0.07000076770782471, 0.00030259054619818926, -0.06935539841651917 },
			{ 0.04756258428096771, 0.026329468935728073, -0.080345518887043, -0.01384424977004528, 0.02723514288663864, -0.041399791836738586, 0.13331227004528046, 0.023772748187184334, -0.06661954522132874, 0.04722089692950249 },
			{ 0.013052044436335564, -0.03986598923802376, -0.007353493943810463, -0.05619335547089577, -0.10284442454576492, -0.01685083843767643, 0.11686801165342331, 0.05436457321047783, 0.06286269426345825, 0.06113611161708832 },
			{ 0.0476972758769989, -0.02715139463543892, -0.07705561071634293, -0.06559131294488907, 0.04732975363731384, -0.056165702641010284, -0.0663561150431633, 0.04956749081611633, -0.06383052468299866, -0.045808181166648865 },
			{ -0.030840227380394936, -0.07992041110992432, -0.002688725246116519, 0.04754379764199257, 0.059705182909965515, 0.07440482079982758, 0.04681635648012161, -0.032785795629024506, -0.008509320206940174, 0.03607724606990814 },
			{ -0.07837580889463425, -0.01136905886232853, -0.04330270737409592, -0.08551490306854248, -0.0854833722114563, 0.009100610390305519, 0.07562937587499619, -0.006231746636331081, -0.008943147026002407, 0.04238644242286682 },
			{ 0.08159738034009933, -0.02467454969882965, -0.016299378126859665, 0.07254189997911453, -0.03456579148769379, -0.013794519938528538, -0.008222406730055809, 0.06316900253295898, 0.06521372497081757, 0.06109989061951637 },
			{ 0.07801611721515656, 0.027977876365184784, -0.09714972972869873, 0.0171183031052351, 0.0009955121204257011, 0.014794128946959972, 0.026177221909165382, 0.02897569164633751, -0.02279042638838291, 0.03211032599210739 },
			{ -0.05926810950040817, 0.03547286614775658, 0.09558751434087753, 0.02649952843785286, 0.027808116748929024, -0.13885705173015594, -0.012780880555510521, 0.077739417552948, -0.05225394293665886, 0.011363096535205841 },
			{ 0.02972140908241272, -0.06180964782834053, 0.1871650367975235, 0.029913943260908127, -0.05367863550782204, -0.17523208260536194, -0.10837957262992859, 0.026610810309648514, 0.012968617491424084, -0.013467492535710335 },
			{ -0.09140602499246597, -0.1837710291147232, 0.2540055215358734, 0.15662328898906708, -0.1383782923221588, -0.08420261740684509, -0.19211049377918243, -0.01898474059998989, 0.13794611394405365, 0.01694147288799286 },
			{ -0.023786580190062523, -0.2297293096780777, 0.21141831576824188, 0.227003812789917, -0.09983549267053604, 0.06310770660638809, -0.12708066403865814, 0.041599031537771225, 0.18110226094722748, 0.05658913776278496 },
			{ -0.06659271568059921, -0.18588638305664062, 0.10534712672233582, 0.20449833571910858, -0.1458866447210312, 0.15978214144706726, -0.1347392350435257, 0.045905034989118576, 0.19630035758018494, -0.0014567311154678464 },
			{ -0.07655009627342224, -0.22933657467365265, -0.03512032330036163, 0.11815368384122849, -0.11058125644922256, 0.17810572683811188, -0.07228711992502213, 0.009903437457978725, 0.11562956124544144, 0.02620180882513523 },
			{ -0.04695199429988861, -0.1140688955783844, -0.06487403810024261, -0.08026125282049179, -0.06862451881170273, 0.1996980756521225, -0.04266752675175667, -0.045618265867233276, 0.11217848211526871, -0.10294759273529053 },
			{ -0.12485251575708389, -0.05657017603516579, -0.20257079601287842, -0.09889533370733261, -0.0016165256965905428, 0.2790317237377167, 0.10636205226182938, 0.05293002724647522, 0.09381154179573059, 0.021692868322134018 },
			{ -0.09857577085494995, -0.04738752916455269, -0.16572833061218262, -0.05102011188864708, 0.14681647717952728, 0.18572726845741272, 0.0315832681953907, 0.03785005584359169, 0.10703345388174057, 0.0288176741451025 },
			{ -0.06114882603287697, -0.023915357887744904, 0.025517430156469345, -0.023505212739109993, 0.12966464459896088, 0.09068150073289871, 0.09308129549026489, 0.077880859375, 0.07335731387138367, -0.07201547175645828 },
			{ -0.04332200065255165, 0.041058748960494995, 0.05395529419183731, -0.013692696578800678, -0.013471332378685474, 0.040120016783475876, 0.003953391220420599, -0.003084393683820963, -0.03700186684727669, -0.0423140786588192 },
			{ 0.005573082249611616, -0.020062806084752083, -0.08776337653398514, -0.07142037898302078, 0.05998894199728966, 0.03235507383942604, 0.05010860413312912, 0.026732318103313446, -0.008211024105548859, -0.030285147950053215 },
			{ -0.07037848979234695, -0.0021994486451148987, -0.015595711767673492, 0.06439357250928879, -0.021796148270368576, -0.10541141033172607, -0.021874185651540756, -0.0307624451816082, 0.06422661989927292, 0.006760514806956053 },
			{ -0.06110671907663345, -0.02720063179731369, -0.09693312644958496, 0.24997831881046295, -0.059527769684791565, -0.2036495953798294, -0.026923950761556625, 0.12325667589902878, -0.009761590510606766, -0.05507095530629158 },
			{ -0.011540444567799568, -0.015306126326322556, 0.14740504324436188, 0.22330693900585175, -0.02154465578496456, -0.19992952048778534, -0.14561019837856293, 0.12643498182296753, -0.057356156408786774, -0.04621683061122894 },
			{ -0.23412944376468658, -0.13829073309898376, 0.19422075152397156, 0.17251905798912048, -0.10597904026508331, -0.20792493224143982, -0.17879395186901093, 0.11936662346124649, 0.14108577370643616, 0.03631097450852394 },
			{ -0.1704503744840622, -0.26567530632019043, 0.1412043422460556, 0.2316109985113144, -0.2666487693786621, -0.16228996217250824, -0.16092047095298767, 0.1220996230840683, 0.3324487507343292, 0.3388642370700836 },
			{ -0.03780914470553398, -0.34791767597198486, 0.08891231566667557, 0.06551634520292282, -0.47421181201934814, -0.14187370240688324, -0.2303660660982132, 0.27800044417381287, 0.2024906575679779, 0.5776968002319336 },
			{ 0.0019949856214225292, -0.3011777698993683, 0.0598943866789341, 0.1152210608124733, -0.6585310697555542, 0.2071237862110138, -0.055330514907836914, 0.16358473896980286, 0.29846513271331787, 0.23819148540496826 },
			{ -0.022897478193044662, -0.3998882472515106, 0.14633654057979584, -0.08319371193647385, -0.4485853314399719, 0.4651643931865692, 0.13153496384620667, 0.01147652231156826, 0.20806866884231567, 0.3026036024093628 },
			{ 0.00814406480640173, -0.25669384002685547, -0.060773760080337524, -0.09108957648277283, -0.21134723722934723, 0.5371432304382324, 0.1388707309961319, -0.14503028988838196, 0.10495209693908691, 0.02013472467660904 },
			{ -0.05123652517795563, -0.093216672539711, -0.22931738197803497, -0.34377652406692505, 0.028924772515892982, 0.5005509853363037, 0.19731014966964722, -0.14024214446544647, 0.12681517004966736, -0.11810603737831116 },
			{ -0.12210822105407715, -0.12859363853931427, -0.3058963119983673, -0.22624966502189636, 0.20397059619426727, 0.3342851996421814, 0.0347881093621254, -0.10665222257375717, 0.20693138241767883, -0.17623154819011688 },
