/*
 * This file is auto-generated by gen-weights.py
 */

#pragma once

#include "definitions.h"


// Conv layer weights.
float conv_weights [FILTERS][KRN_ROWS][KRN_COLS]
	= {
			{
				{ -0.8384566307067871, -0.7867431640625, -0.23574137687683105, -0.23153473436832428, -0.4334059953689575, -0.09505622088909149, -0.30897971987724304 },
				{ -0.3673359155654907, -0.14615197479724884, -0.3779299557209015, -0.143754243850708, 0.2420353889465332, 0.08431132137775421, -0.17093953490257263 },
				{ -0.37389200925827026, -0.17227168381214142, 0.46402707695961, 0.6586037874221802, 0.27030983567237854, -0.22268784046173096, -0.27696117758750916 },
				{ -0.08702430874109268, 0.49163752794265747, 0.4724368155002594, 0.024278318509459496, 0.02276698313653469, 0.1702015995979309, 0.5156541466712952 },
				{ 0.5920746326446533, 0.4744006097316742, -0.17065562307834625, -0.2644006907939911, 0.0665283203125, 0.2702416777610779, 0.5939485430717468 },
				{ 0.2731570601463318, 0.1580103486776352, 0.1310025304555893, -0.06458694487810135, 0.34080761671066284, -0.28291428089141846, -0.2142995297908783 },
				{ -0.18738645315170288, 0.3413267731666565, 0.3980669677257538, 0.17969372868537903, -0.37719810009002686, -0.21489068865776062, -0.3352590799331665 }
			},
			{
				{ -0.21551762521266937, 0.026422983035445213, 0.4836912751197815, 0.03253531455993652, -0.38942959904670715, -0.0371098555624485, -0.11729645729064941 },
				{ 0.08462972193956375, 0.22200807929039001, 0.4853866398334503, 0.08609393984079361, -0.5569943785667419, -0.17449171841144562, 0.3168206214904785 },
				{ 0.3569815158843994, 0.4747691750526428, 0.5658746361732483, -0.2880185842514038, -0.9227844476699829, -0.26663216948509216, 0.06171192228794098 },
				{ 0.23860986530780792, 0.5408945083618164, -0.09746796637773514, -0.2841653525829315, -0.8905741572380066, 0.1076304242014885, 0.05869891494512558 },
				{ 0.2504196763038635, 0.5395344495773315, -0.31167128682136536, -0.2685799300670624, -0.31571516394615173, -0.09466280043125153, 0.7751089930534363 },
				{ 0.3831173777580261, -0.11789324879646301, 0.04870874062180519, -0.4399971067905426, -0.8191360235214233, -0.2863738238811493, 0.2959652543067932 },
				{ -0.15278169512748718, -0.056003935635089874, -0.6119742393493652, -0.4283589720726013, -0.4357655644416809, -0.39061421155929565, -0.5996437668800354 }
			},
			{
				{ -0.08761099725961685, 0.02929060533642769, 0.4338091015815735, 0.18641336262226105, -0.5626899003982544, -0.7058807015419006, -0.44848117232322693 },
				{ -0.418100506067276, -0.14996318519115448, 0.5006504058837891, 0.7059081792831421, 0.10442880541086197, -0.6778489947319031, -1.0802303552627563 },
				{ -0.5795543789863586, 0.05973786860704422, -0.00025636941427364945, 0.7976861000061035, 0.687221109867096, 0.2734837234020233, -0.5894615054130554 },
				{ -0.21111513674259186, -0.4453287422657013, 0.2524520754814148, 0.1265386939048767, 0.8184840083122253, 0.4738195836544037, -0.43525800108909607 },
				{ -0.2153330147266388, -0.26390695571899414, -0.3119572699069977, -0.01978280581533909, 0.41367700695991516, 0.19218140840530396, 0.224236398935318 },
				{ -0.2910153269767761, -0.2787937521934509, 0.10070177912712097, -0.30754363536834717, 0.197383314371109, 0.16419470310211182, 0.1480543464422226 },
				{ -0.5145435333251953, 0.0408448651432991, 0.19734559953212738, -0.30580249428749084, 0.07344087213277817, 0.11856382340192795, -0.11986786127090454 }
			},
			{
				{ 0.34867972135543823, 0.473552942276001, 0.4248490631580353, 0.18422837555408478, 0.31947463750839233, 0.3050037622451782, 0.34297654032707214 },
				{ 0.21792958676815033, 0.20735570788383484, 0.33021458983421326, 0.7924763560295105, 0.7201771140098572, 0.7153099179267883, 0.3575313687324524 },
				{ 0.0897710919380188, -0.015009805560112, 0.3128815293312073, 0.07787831872701645, 0.08736502379179001, 0.4956817030906677, 0.2646405100822449 },
				{ -0.5774892568588257, -0.20814305543899536, -0.27034083008766174, -0.03044557385146618, -0.3137792646884918, -0.49115875363349915, 0.08035498857498169 },
				{ -1.04009211063385, -0.8174156546592712, -0.7133160829544067, -0.7150294184684753, -1.0039267539978027, -0.8749179244041443, -0.7864038944244385 },
				{ -0.42945870757102966, -0.14459972083568573, -0.6229826807975769, -0.696788489818573, -0.49113863706588745, 0.10163300484418869, 0.2499362826347351 },
				{ -0.017485253512859344, -0.03935796767473221, -0.2923058867454529, -0.027314113453030586, 0.5485028624534607, 0.25658246874809265, 0.025417260825634003 }
			}
		};

// Conv layer biases.
float conv_biases [FILTERS] = { -0.019889630377292633, 0.03576276823878288, -0.0134662427008152, 0.0006734381313435733 };
