/*
 * This file is auto-generated by gen-weights.py
 */

#pragma once

#include "definitions.h"


// Dense layer weights.
float dense_weights[FLAT_SIZE][DENSE_SIZE]
	 = {
			{ 0.039427779614925385, -0.015191190876066685, 0.03458700329065323, -0.13565945625305176, -0.04358937591314316, 0.03723980113863945, 0.04022389277815819, -0.02411484345793724, -0.02169058471918106, -0.01856820285320282 },
			{ 0.14522011578083038, 0.01926172710955143, 0.002390582114458084, -0.12383788824081421, -0.12229418009519577, -0.04855906218290329, 0.0867641344666481, -0.06336977332830429, 0.01681370474398136, -0.12473691999912262 },
			{ 0.06339193880558014, -0.13694386184215546, -0.1417532116174698, -0.04993535578250885, -0.19595381617546082, -0.11284095048904419, 0.1727869212627411, -0.19483992457389832, -0.10385376960039139, -0.12417322397232056 },
			{ -0.1364353895187378, -0.04919066280126572, -0.025149716064333916, 0.037907250225543976, -0.28234928846359253, -0.11897668242454529, 0.26979920268058777, -0.3142043650150299, 0.046654846519231796, -0.16995590925216675 },
			{ 0.07109282910823822, 0.18559159338474274, 0.09053032845258713, -0.07843300700187683, -0.15995660424232483, -0.05900301784276962, 0.27808883786201477, -0.4456384778022766, 0.023632753640413284, -0.20027974247932434 },
			{ -0.049460235983133316, 0.02101019024848938, 0.10183914005756378, -0.1662888079881668, -0.3216467797756195, -0.08564493060112, 0.4077422320842743, -0.491963654756546, -0.16386361420154572, -0.4584278464317322 },
			{ -0.07406075298786163, -0.05726896598935127, 0.1187034621834755, -0.017490752041339874, -0.30933693051338196, -0.14790454506874084, 0.22817616164684296, -0.21977069973945618, -0.12132401019334793, -0.22658313810825348 },
			{ 0.02247518301010132, 0.052073411643505096, -0.06641427427530289, -0.2160308063030243, -0.08841501921415329, -0.020040374249219894, 0.07189608365297318, -0.14413315057754517, 0.1572505086660385, -0.0027067025657743216 },
			{ -0.12537625432014465, 0.015517623163759708, -0.08344322443008423, -0.15324316918849945, -0.1124359667301178, 0.023948483169078827, -0.017881015315651894, -0.24179989099502563, 0.20515190064907074, -0.0171977449208498 },
			{ -0.030012819916009903, 0.06722400337457657, 0.04683610051870346, -0.056202009320259094, -0.18106479942798615, -0.07277080416679382, -0.04576626792550087, -0.6639390587806702, 0.034486811608076096, -0.051339223980903625 },
			{ -0.040349677205085754, -0.05660463497042656, -0.040077947080135345, 0.061419449746608734, -0.2189624160528183, -0.14280758798122406, 0.12857553362846375, -0.2786012589931488, 0.03479281812906265, -0.08280634135007858 },
			{ -0.13922403752803802, 0.006339896935969591, -0.20927684009075165, 0.20970095694065094, -0.0175886619836092, -0.21644149720668793, 0.1744922250509262, 0.004199739079922438, -0.04814382642507553, -0.08495093137025833 },
			{ -0.07148653268814087, -0.26397061347961426, 0.02299736812710762, -0.00637041125446558, -0.002504415577277541, -0.12520773708820343, 0.09249121695756912, -0.3464934527873993, -0.0626983568072319, -0.2772613763809204 },
			{ -0.0562359057366848, -0.37116721272468567, 0.02842661924660206, -0.47693368792533875, -0.09279828518629074, 0.1508578062057495, -0.12506234645843506, -0.03398146107792854, 0.10150860249996185, -0.03239920735359192 },
			{ 0.054470568895339966, -0.06698258221149445, -0.24652226269245148, 0.09155837446451187, -0.13004188239574432, -0.07167689502239227, 0.0886431336402893, -0.13971148431301117, 0.02083016000688076, -0.0567501075565815 },
			{ -0.1265140026807785, -0.27451545000076294, -0.09587249904870987, 0.07486826926469803, -0.13452941179275513, -0.08776677399873734, 0.14276187121868134, 0.02654130943119526, -0.15257897973060608, -0.14870774745941162 },
			{ 0.08677791059017181, -0.10388614237308502, 0.18897533416748047, -0.05446793884038925, -0.18555209040641785, -0.2373245805501938, 0.20654553174972534, -0.1609470397233963, -0.33246469497680664, -0.29925310611724854 },
			{ -0.19940978288650513, -0.18133781850337982, -0.018940886482596397, -0.013668638654053211, -0.041582588106393814, 0.005334934219717979, 0.2152658998966217, 0.016421262174844742, -0.02898257039487362, -0.6160764098167419 },
			{ -0.08054940402507782, -0.11121147871017456, -0.0427740216255188, 0.106375552713871, 0.014296993613243103, -0.053993482142686844, 0.0252121202647686, -0.22162534296512604, 0.002914851764217019, -0.4892517626285553 },
			{ -0.13184501230716705, -0.02559114806354046, -0.10099957883358002, -0.06073112413287163, 0.13174748420715332, 0.0822112187743187, 0.12213685363531113, -0.15060240030288696, 0.025013253092765808, -0.3259841501712799 },
			{ -0.03157439082860947, 0.039479613304138184, -0.04405532404780388, -0.08941888064146042, 0.11436596512794495, 0.05697953328490257, 0.18893492221832275, -0.19174137711524963, -0.038292765617370605, -0.14482125639915466 },
			{ -0.02138751558959484, 0.12357067316770554, -0.041507937014102936, -0.09108031541109085, 0.23179511725902557, -0.1570187658071518, 0.03740878030657768, -0.03670760989189148, 0.056793179363012314, -0.012926881201565266 },
			{ -0.005638984031975269, 0.06722620129585266, 0.0025221589021384716, -0.05322188884019852, -0.0010609347373247147, -0.03265903517603874, -0.05994866415858269, -0.1093784049153328, -0.017960527911782265, 0.06963793188333511 },
			{ 0.022804543375968933, 0.08277474343776703, 0.0018544681370258331, 0.0036776752676814795, -0.0867113322019577, -0.007024307269603014, -0.01908368058502674, 0.025793181732296944, 0.17778149247169495, -0.03890695422887802 },
			{ 0.06228584051132202, -0.021079469472169876, 0.05623224377632141, 0.063661590218544, -0.006883291527628899, -0.0016843273770064116, 0.03772478550672531, -0.21131514012813568, 0.0694534033536911, 0.036321260035037994 },
			{ 0.029410094022750854, 0.051800813525915146, 0.043825745582580566, 0.050906144082546234, 0.006678864359855652, -0.16016262769699097, 0.00031138391932472587, -0.2180473953485489, -0.015466674230992794, 0.13931545615196228 },
			{ -0.05409502238035202, -0.025396082550287247, 0.06871674954891205, 0.1589457243680954, 0.1229066476225853, -0.22415393590927124, 0.06749776005744934, -0.09188827872276306, -0.06902507692575455, -0.17572912573814392 },
			{ -0.14987504482269287, -0.054979462176561356, -0.042195867747068405, 0.008945794776082039, 0.1494118869304657, 0.10175071656703949, -0.003285742597654462, -0.49934011697769165, 0.0448627695441246, -0.3021000921726227 },
			{ -0.11289288848638535, 0.24392159283161163, -0.18130400776863098, 0.23929937183856964, -0.056840769946575165, -0.1821528673171997, 0.0720895528793335, -0.09834765642881393, -0.03492138907313347, -0.08078280091285706 },
			{ -0.028069699183106422, 0.14655302464962006, -0.09355133026838303, 0.1669222116470337, -0.07982058078050613, -0.18435834348201752, -0.1664220690727234, 0.1418801248073578, -0.08263476192951202, -0.4133397340774536 },
			{ -0.10799895972013474, 0.13871099054813385, 0.002668302971869707, 0.10114307701587677, 0.012252295389771461, -0.2368054986000061, 0.029708774760365486, 0.09946933388710022, -0.07639199495315552, -0.2820088267326355 },
			{ -0.09743393212556839, -0.023270059376955032, 0.034276776015758514, -0.06646580994129181, 0.010748070664703846, -0.06176403537392616, 0.136513352394104, 0.049144111573696136, -0.030701618641614914, -0.1399555802345276 },
			{ -0.11708559095859528, -0.20079204440116882, -0.1100849136710167, 0.03443628177046776, -0.06458345800638199, -0.124358631670475, -0.011992213316261768, 0.005468759220093489, 0.19357435405254364, 0.12231491506099701 },
			{ 0.05540084093809128, -0.18897786736488342, -0.11109622567892075, -0.1276961863040924, -0.08452025800943375, 0.07553224265575409, 0.029155248776078224, -0.09713760018348694, 0.13715645670890808, 0.22214099764823914 },
			{ -0.07417385280132294, -0.07844514399766922, 0.06160257011651993, -0.07608601450920105, -0.12062397599220276, -0.005097084678709507, 0.032456353306770325, -0.0950339213013649, 0.16667908430099487, 0.20459085702896118 },
			{ -0.005798110272735357, 0.00024476871476508677, -0.03620412200689316, -0.03122243843972683, -0.014250806532800198, -0.10636736452579498, 0.03142467141151428, -0.09974627196788788, 0.13946259021759033, 0.12336244434118271 },
			{ 0.005311193410307169, -0.04323168843984604, -0.09923193603754044, -0.08317987620830536, 0.00021964071493130177, -0.10599560290575027, -0.035781409591436386, -0.10598164796829224, 0.07095848768949509, 0.05718867480754852 },
			{ 0.02483254112303257, -0.04384177178144455, 0.0012216493487358093, 0.07646824419498444, -0.007492479402571917, -0.1145307868719101, -0.12131614983081818, -0.06148160248994827, 0.02773154154419899, 0.09475556761026382 },
			{ -0.021721364930272102, -0.059321653097867966, -0.04053850844502449, -0.03272044658660889, -0.07934372872114182, -0.08843391388654709, -0.105959452688694, 0.017377585172653198, 0.09996902197599411, 0.07496588677167892 },
			{ 0.018232977017760277, 0.06292671710252762, -0.0959918424487114, 0.06741208583116531, -0.0280930083245039, -0.025570113211870193, -0.029325589537620544, -0.04486044496297836, 0.06730621308088303, 0.12128466367721558 },
			{ 0.12093711644411087, -0.0034467484802007675, 0.0162588469684124, 0.0654507577419281, -0.022558636963367462, -0.1731913685798645, -0.18653060495853424, -0.06890662759542465, -0.05263758450746536, 0.04106099158525467 },
			{ 0.01334763877093792, -0.10062310099601746, -0.06660137325525284, -0.12197793275117874, 0.20126201212406158, -0.08303710073232651, -0.06439658999443054, -0.3378121852874756, 0.014037751592695713, -0.11207760870456696 },
			{ -0.2371411770582199, -0.12952664494514465, -0.016092853620648384, 0.04093281552195549, 0.20251785218715668, -0.2347516119480133, -0.028583455830812454, -0.07742718607187271, 0.11712059378623962, -0.31315043568611145 },
			{ 0.06778473407030106, -0.15844714641571045, 0.12675641477108002, 0.08411598950624466, -0.05687515810132027, -0.18004979193210602, -0.351494163274765, -0.0048914505168795586, -0.12910877168178558, -0.052286870777606964 },
			{ -0.21905039250850677, -0.11193898320198059, 0.11057057231664658, 0.009247693233191967, -0.08580026775598526, -0.224481001496315, 0.08544691652059555, 0.15160609781742096, 0.06457283347845078, 0.03264239430427551 },
			{ -0.08023367077112198, -0.13531441986560822, -0.06887374818325043, 0.07014760375022888, -0.049065250903367996, -0.03240862488746643, -0.14358536899089813, -0.019717056304216385, -0.07890180498361588, 0.11572033166885376 },
			{ 0.052801553159952164, -0.08395065367221832, -0.15129221975803375, -0.0027016447857022285, -0.053489141166210175, -0.07419916242361069, 0.038808368146419525, -0.003162708133459091, 0.027434391900897026, 0.18316908180713654 },
			{ -0.03527755290269852, -0.21759231388568878, -0.15952372550964355, 0.014524850063025951, -0.021725544705986977, -0.005862649064511061, -0.044354572892189026, -0.006955208722501993, 0.0860639438033104, 0.2044350504875183 },
			{ 0.008720682002604008, -0.2767774760723114, -0.15781797468662262, -0.15075857937335968, -0.10598114132881165, 0.005083308555185795, -0.09677960723638535, -0.04449343681335449, 0.12408194690942764, 0.2138405591249466 },
			{ 0.0653936117887497, -0.02452149987220764, -0.16029514372348785, -0.06867295503616333, -0.26674795150756836, 0.00960811972618103, -0.017301145941019058, -0.04564344137907028, 0.1955004781484604, 0.20190651714801788 },
			{ 0.1548139899969101, 0.013508043251931667, -0.12821483612060547, -0.0861123651266098, -0.23060579597949982, -0.013981785625219345, -0.02023192308843136, -0.05646853521466255, -0.006409612949937582, 0.20704211294651031 },
			{ 0.057875558733940125, 0.053604479879140854, -0.11391963809728622, -0.08115636557340622, -0.05521990358829498, -0.06631746888160706, -0.16652292013168335, 0.10077925026416779, 0.04980144649744034, 0.051464229822158813 },
			{ 0.10410017520189285, 0.15985220670700073, -0.11420479416847229, 0.005336269736289978, 0.02171209454536438, -0.01413719356060028, -0.07185190171003342, 0.11227301508188248, 0.001862584613263607, 0.06376564502716064 },
			{ -0.014564523473381996, 0.09673849493265152, -0.037811294198036194, -0.06262219697237015, 0.031209109351038933, -0.0968364030122757, -0.06961723417043686, 0.049813784658908844, 0.05941407009959221, 0.07297942787408829 },
			{ 0.11872244626283646, 0.06211036443710327, -0.038005564361810684, -0.09484086185693741, 0.07576247304677963, -0.17337486147880554, -0.1722441017627716, -0.03071276657283306, 0.062739796936512, -0.0006483208853751421 },
			{ 0.07362145930528641, -0.2090272754430771, -0.06229368597269058, -0.07184097170829773, 0.0500241294503212, 0.062432460486888885, -0.12534452974796295, -0.06834759563207626, 0.029691949486732483, -0.05437402054667473 },
			{ -0.028979364782571793, -0.2415783405303955, -0.014697707258164883, 0.16430340707302094, 0.017289256677031517, 0.005085157696157694, -0.13752423226833344, 0.13783006370067596, 0.07076290994882584, -0.25479039549827576 },
			{ -0.10563640296459198, -0.0035831478890031576, 0.08108803629875183, 0.20114077627658844, -0.09351135790348053, -0.2441249042749405, -0.4400642216205597, 0.010882833041250706, -0.04697258025407791, 0.16969433426856995 },
			{ -0.2245817333459854, 0.164924755692482, 0.013040192425251007, 0.06494293361902237, -0.10310077667236328, -0.21582292020320892, -0.06315761059522629, 0.08634793013334274, -0.020477401092648506, -0.04349321499466896 },
			{ 0.05993442237377167, 0.09141039103269577, -0.025128375738859177, -0.00041108549339696765, 0.008870315738022327, -0.15512049198150635, -0.039740487933158875, -0.0022792972158640623, 0.08868002891540527, 0.03872065618634224 },
			{ 0.00231197034008801, -0.12608790397644043, -0.06646576523780823, 0.07038659602403641, 0.058572087436914444, -0.08964173495769501, 0.1102110967040062, -0.011360679753124714, 0.06307393312454224, 0.1320318728685379 },
			{ 0.09463495761156082, -0.18775881826877594, -0.047281261533498764, -0.013371571898460388, 0.0039033242501318455, -0.13320229947566986, 0.018629107624292374, -0.0317116305232048, 0.07904636114835739, 0.07735610753297806 },
			{ 0.06948338449001312, -0.18338029086589813, -0.1035991832613945, -0.12260156869888306, -0.03742425516247749, -0.024147845804691315, -0.06631829589605331, 0.015644969418644905, 0.04428313672542572, 0.07043948769569397 },
			{ -0.01791003905236721, -0.05639868229627609, -0.2147158831357956, -0.03347736969590187, -0.10782881081104279, 0.07549379765987396, 0.00378612894564867, 0.05588700622320175, 0.07285584509372711, 0.11860311776399612 },
			{ 0.07220803201198578, 0.1411881446838379, -0.15259985625743866, -0.022168004885315895, -0.1766548752784729, -0.03147540241479874, -0.03923652693629265, 0.10462572425603867, -0.007665971759706736, 0.127913698554039 },
			{ 0.049312885850667953, 0.035755738615989685, -0.18416844308376312, -0.07237926125526428, 0.12146653234958649, -0.1214662566781044, -0.04062061011791229, 0.13677646219730377, -0.01522816438227892, -0.0010373513214290142 },
			{ 0.004554174840450287, 0.09592150151729584, -0.17005781829357147, -0.09085054695606232, 0.1605902910232544, -0.0034765531308948994, -0.044689927250146866, 0.05219905823469162, 0.0026062345132231712, -0.024833273142576218 },
			{ 0.08354421705007553, 0.18394796550273895, -0.27605095505714417, -0.24272054433822632, 0.12053404748439789, 0.05784386023879051, 0.0875992476940155, 0.11687164753675461, 0.10921970009803772, 0.07540178298950195 },
			{ 0.00463343970477581, -0.06025659292936325, -0.1874823123216629, -0.019090374931693077, 0.01815466769039631, -0.12645751237869263, -0.03423392027616501, -0.02407415397465229, 0.023544682189822197, 0.06609087437391281 },
			{ -0.03352765738964081, -0.35162055492401123, -0.08750052005052567, -0.41809794306755066, -0.006059436593204737, 0.15619051456451416, -0.22199784219264984, -0.06504407525062561, 0.06601277738809586, -0.029321327805519104 },
			{ -0.13016508519649506, -0.37376996874809265, 0.007157137617468834, 0.06536069512367249, -0.16253159940242767, 0.10246557742357254, -0.2893456220626831, 0.260993629693985, 0.03770649433135986, -0.08715283870697021 },
			{ -0.05851036310195923, -0.2678239643573761, 0.3099668323993683, 0.1897028088569641, -0.3269694149494171, -0.3703157901763916, -0.2706949710845947, -0.05526074394583702, 0.1413155347108841, 0.03299697861075401 },
			{ 0.057601723819971085, 0.03163554519414902, 0.09661172330379486, 0.1224864050745964, -0.11082663387060165, -0.18826532363891602, -0.2960907518863678, 0.050982967019081116, 0.1545722484588623, -0.09705960005521774 },
			{ 0.013545067980885506, 0.09035445004701614, -0.11103571206331253, -0.12365920841693878, 0.011000226251780987, -0.1699599027633667, -0.11239103227853775, 0.10898221284151077, -0.0313066765666008, 0.057316530495882034 },
			{ 0.15112997591495514, -0.19983001053333282, 0.01025624480098486, -0.08246707916259766, 0.09482841938734055, -0.23307695984840393, 0.05988668277859688, -0.08224380016326904, 0.017771059647202492, 0.1183948740363121 },
			{ 0.15322843194007874, -0.1888742446899414, 0.09526515752077103, -0.07765113562345505, 0.03680440038442612, -0.16649247705936432, 0.07226237654685974, 0.00016186767606996, 0.03711457550525665, 0.006768001709133387 },
			{ 0.02376931719481945, -0.16553054749965668, -0.15306052565574646, -0.006101073231548071, -0.024525076150894165, -0.03805989399552345, 0.1310286521911621, -0.032078228890895844, 0.0821031928062439, 0.09508921951055527 },
			{ -0.0267237089574337, 0.05648598074913025, -0.1785808652639389, 0.11484943330287933, -0.13311803340911865, -0.11460322141647339, 0.17568330466747284, 0.061026882380247116, 0.04998902231454849, -0.003686298616230488 },
			{ -0.09059405326843262, 0.10778424143791199, -0.09915969520807266, 0.130122110247612, -0.11231540143489838, -0.11288610845804214, 0.15631107985973358, 0.07198827713727951, 0.05862491950392723, 0.06724117696285248 },
			{ -0.06962384283542633, -0.09117931127548218, -0.028181031346321106, 0.014299946837127209, 0.01477306429296732, -0.09880532324314117, 0.08004039525985718, 0.12286173552274704, -0.006080159451812506, 0.08170493692159653 },
			{ -0.04310760274529457, -0.23615528643131256, -0.15424112975597382, 0.061821047216653824, 0.011937216855585575, -0.13996103405952454, 0.02227291651070118, 0.0668339729309082, 0.1423121988773346, -0.07700249552726746 },
			{ 0.007002012338489294, 0.005795270670205355, -0.01142983790487051, 0.06040620431303978, 0.18395020067691803, 0.06686495989561081, 0.02967255562543869, 0.18047195672988892, -0.08980041742324829, -0.07829724252223969 },
			{ 0.041513387113809586, -0.06643974035978317, -0.2845431864261627, -0.287239670753479, -0.015956001356244087, -0.05168687179684639, 0.11338147521018982, 0.02724965661764145, 0.10958076268434525, -0.15437285602092743 },
			{ -0.04387800022959709, 0.06607423722743988, -0.08154590427875519, -0.4592442810535431, -0.21241885423660278, 0.29340997338294983, 0.07345343381166458, -0.14074230194091797, -0.13859032094478607, 0.07853047549724579 },
			{ -0.06427033245563507, 0.1673279106616974, -0.13401396572589874, 0.0066401343792676926, -0.13794536888599396, -0.27324631810188293, -0.33151480555534363, 0.15028108656406403, -0.02866583690047264, 0.19587235152721405 },
			{ -0.17239844799041748, 0.13093842566013336, 0.2694135308265686, 0.24128344655036926, -0.08390950411558151, -0.09984803944826126, -0.035048458725214005, -0.0527227409183979, 0.055268801748752594, -0.1049417108297348 },
			{ -0.02293495088815689, 0.4060305058956146, 0.2998604476451874, -0.02822203002870083, -0.03607390820980072, 0.006813308224081993, -0.5643800497055054, 0.0006843181909061968, 0.00688925152644515, -0.09243740141391754 },
			{ 0.14690005779266357, -0.017981482669711113, 0.18643909692764282, -0.15984854102134705, 0.07180576026439667, -0.19001083076000214, -0.016657641157507896, 0.038067854940891266, 0.1305098980665207, -0.015901770442724228 },
			{ 0.20205648243427277, -0.30684876441955566, 0.23348598182201385, -0.29835331439971924, 0.02717532217502594, -0.19049878418445587, 0.09914013743400574, -0.09816267341375351, 0.07084429264068604, -0.035995762795209885 },
			{ 0.1666138470172882, -0.14948135614395142, 0.180096834897995, -0.07995832711458206, 0.0663442462682724, -0.18256770074367523, 0.09862956404685974, -0.10820288956165314, -0.11811617016792297, -0.027747446671128273 },
			{ 0.0463389977812767, -0.06736034154891968, -0.025366879999637604, 0.07639642804861069, -0.023892488330602646, 0.059286683797836304, 0.24494174122810364, -0.058809950947761536, -0.07913795858621597, -0.09858587384223938 },
			{ -0.2392907440662384, 0.05618215724825859, -0.022788546979427338, 0.21641238033771515, -0.09638594835996628, -0.055179767310619354, 0.17395024001598358, 0.032245177775621414, -0.0186277087777853, -0.2978289723396301 },
			{ -0.5287572741508484, 0.20446321368217468, -0.03938516974449158, 0.08320092409849167, -0.032054603099823, 0.005996630992740393, 0.2618616819381714, 0.10777879506349564, -0.03084070049226284, 0.07388075441122055 },
			{ -0.19800060987472534, -0.22114184498786926, -0.11094438284635544, 0.0371553897857666, -0.0034986347891390324, -0.11971104890108109, 0.21181708574295044, 0.10537267476320267, 0.037367891520261765, 0.11846144497394562 },
			{ 0.006458357907831669, -0.2421242892742157, -0.007052098400890827, 0.12103570997714996, 0.036627769470214844, -0.12223102152347565, 0.05485673248767853, 0.007105137221515179, 0.018306739628314972, -0.04277322441339493 },
			{ -0.060304947197437286, -0.10324478894472122, -0.030828028917312622, 0.033540040254592896, 0.03165123984217644, 0.0017036382341757417, 0.053074438124895096, 0.1505233347415924, -0.010016564279794693, -0.09107983857393265 },
			{ -0.01592424511909485, -0.23556843400001526, -0.09197989106178284, 0.0472017265856266, -0.03246432542800903, -0.024603242054581642, 0.11965761333703995, 0.03328578174114227, 0.14741262793540955, -0.1003730371594429 },
			{ -0.03998705372214317, -0.06732337176799774, 0.08319878578186035, 0.0063190096989274025, -0.06483395397663116, 0.1401250660419464, 0.12829533219337463, -0.12042555212974548, -0.1202879548072815, -0.34615451097488403 },
			{ -0.0572827085852623, 0.1370122879743576, 0.1257898211479187, 0.05266237631440163, 0.22010958194732666, -0.07603006064891815, -0.3258838355541229, -0.06768400222063065, -0.33063018321990967, 0.051505886018276215 },
			{ -0.13973824679851532, -0.2012324333190918, 0.3017747700214386, 0.019546857103705406, 0.018480708822607994, 0.1019836813211441, -0.08709001541137695, -0.2931438684463501, -0.13259050250053406, -0.03442513942718506 },
			{ -0.07193014025688171, 0.24046774208545685, 0.23057596385478973, 0.0626545250415802, 0.2600148320198059, -0.00104292924515903, -0.40286949276924133, -0.09299174696207047, -0.08583909273147583, -0.04112812131643295 },
			{ -0.018451984971761703, -0.2143653929233551, 0.19735731184482574, -0.13518565893173218, -0.055711470544338226, -0.10082930326461792, -0.10834413766860962, -0.0042151277884840965, 0.08932161331176758, -0.07701092213392258 },
			{ 0.11208070069551468, -0.44238027930259705, 0.3441321551799774, -0.22066359221935272, -0.0010738583514466882, -0.14690041542053223, 0.027644198387861252, -0.0424625426530838, 0.10454051196575165, 0.020547332242131233 },
			{ 0.1261320263147354, -0.21138663589954376, 0.3195168375968933, -0.27190712094306946, 0.08836430311203003, -0.07189075648784637, 0.029616273939609528, 0.030839290469884872, 0.059923138469457626, -0.12751556932926178 },
			{ -0.09566725045442581, 0.09351500868797302, 0.24485760927200317, -0.03409257158637047, -0.08417636156082153, -0.12282150983810425, 0.07478167116641998, -0.06212957575917244, 0.032916706055402756, -0.30585020780563354 },
			{ -0.4771381914615631, -0.030425168573856354, -0.007122255861759186, 0.006115761119872332, -0.23177725076675415, -0.09604078531265259, 0.19717556238174438, -0.07851173728704453, 0.006313777528703213, 0.07018274813890457 },
			{ -0.2566252648830414, 0.19324542582035065, 0.02903030440211296, -0.012154363095760345, 0.07398656755685806, -0.14918875694274902, 0.252472847700119, 0.03469307720661163, -0.03531891852617264, -0.11958567053079605 },
			{ -0.09377221763134003, -0.14136536419391632, 0.03804098069667816, -0.048135269433259964, 0.04787534847855568, -0.1434868723154068, -0.02915883995592594, -0.08476085960865021, -0.021513113752007484, -0.08594777435064316 },
			{ 0.009609001688659191, -0.1676475554704666, 0.060806866735219955, 0.058089666068553925, 0.10013771802186966, -0.012288245372474194, -0.031679123640060425, -0.07342992722988129, 0.03561650961637497, -0.03756863251328468 },
			{ -0.02612249366939068, -0.12999571859836578, -0.06533287465572357, 0.09982915967702866, 0.06563348323106766, 0.026198646053671837, -0.026379717513918877, 0.10587181895971298, 0.07809078693389893, -0.00227973866276443 },
			{ -0.10195648670196533, -0.18913649022579193, 0.04959291219711304, 0.10846099257469177, -0.0008708838722668588, -0.0177302286028862, 0.015322867780923843, 0.1288091540336609, 0.013189169578254223, -0.17971359193325043 },
			{ -0.09195245057344437, -0.05753621086478233, 0.08564145863056183, 0.1574440747499466, -0.004373648669570684, 0.2203480750322342, -0.04083823412656784, -0.12737686932086945, 0.022880397737026215, -0.42500370740890503 },
			{ 0.06129864603281021, -0.2499406337738037, 0.09908325970172882, 0.08066997677087784, -0.2418895810842514, 0.16955462098121643, -0.10643967241048813, -0.04219427704811096, -0.16314277052879333, -0.4893811345100403 },
			{ -0.20202180743217468, 0.00957849808037281, 0.16728869080543518, -0.11111235618591309, -0.13118791580200195, 0.49194565415382385, -0.47659173607826233, -0.1948016732931137, -0.04953958839178085, -0.046576470136642456 },
			{ -0.3372049331665039, -0.27060478925704956, 0.010617867112159729, 0.0901707336306572, 0.07044648379087448, 0.2853257358074188, -0.31140896677970886, -0.08715979009866714, 0.009133830666542053, 0.002039726357907057 },
			{ -0.17718246579170227, -0.21665450930595398, 0.08346506208181381, 0.005374305881559849, -0.005546999163925648, 0.0835568755865097, -0.10243695974349976, -0.010917766019701958, 0.22140540182590485, 0.0669860765337944 },
			{ -0.047221843153238297, -0.2184893637895584, 0.20396791398525238, -0.019606567919254303, -0.0413939543068409, -0.13020381331443787, -0.17370742559432983, 0.0546036995947361, 0.09079600870609283, 0.04463746026158333 },
			{ -0.01349573116749525, -0.18139147758483887, 0.14564204216003418, -0.18581360578536987, -0.03692365065217018, -0.10663053393363953, -0.04500763118267059, 0.2710984945297241, 0.08035732805728912, -0.10420500487089157 },
			{ 0.09860976785421371, -0.05425518751144409, 0.16007418930530548, -0.20616699755191803, -0.027790537104010582, -0.22596044838428497, 0.05149700120091438, -0.040994029492139816, 0.1842556595802307, -0.15551529824733734 },
			{ -0.2537059783935547, -0.05025502294301987, 0.05877010151743889, 0.0016560632502660155, -0.04284465312957764, -0.14158815145492554, 0.14579437673091888, -0.024919653311371803, 0.27342647314071655, -0.01403372548520565 },
			{ -0.16704677045345306, 0.058676429092884064, 0.019933223724365234, -0.18067596852779388, 0.193854421377182, -0.0806703120470047, 0.11590892821550369, 0.019250018522143364, -0.04815315455198288, -0.12030066549777985 },
			{ 0.0671665295958519, -0.2828715741634369, 0.1597592532634735, -0.13841819763183594, 0.021127574145793915, 0.05910094454884529, 0.031102797016501427, 0.06750895082950592, -0.017382513731718063, -0.09245578199625015 },
			{ 0.03842280060052872, -0.06387300044298172, 0.048657454550266266, 0.09856053441762924, 0.0749153271317482, -0.07083596289157867, -0.05962133780121803, 0.12101415544748306, -0.15774273872375488, -0.06853161752223969 },
			{ 0.030535992234945297, -0.005015590228140354, 0.005784006789326668, -0.04741938039660454, 0.11967384815216064, -0.11561356484889984, 0.014613062143325806, 0.1044103354215622, -0.05738111957907677, -0.08006569743156433 },
			{ -0.02871566265821457, 0.04833509027957916, -0.02712917886674404, -0.0072118439711630344, -0.047501884400844574, 0.029772426933050156, 0.1528187394142151, -0.09994593262672424, -0.010028049349784851, -0.15751977264881134 },
			{ -0.25241565704345703, 0.06300996243953705, 0.11830314993858337, -0.03565702959895134, -0.042492665350437164, -0.0643654465675354, -0.014887419529259205, -0.11010070890188217, 0.004259205423295498, -0.13848552107810974 },
			{ -0.049125026911497116, -0.2775227725505829, -0.005945965647697449, 0.03782813623547554, 0.06609942018985748, 0.08230061084032059, 0.17777147889137268, -0.06108354032039642, 0.16278348863124847, -0.3734382390975952 },
			{ -0.3386552035808563, -0.13664717972278595, -0.1796993613243103, 0.15498566627502441, 0.1001800075173378, 0.24115507304668427, -0.2592560648918152, -0.16920797526836395, -0.053821396082639694, -0.3158157169818878 },
			{ -0.1347036063671112, 0.0738736093044281, 0.005859602242708206, 0.057980455458164215, -0.06433086842298508, 0.32627445459365845, -0.3684212267398834, -0.16258975863456726, -0.3057438135147095, -0.04351333528757095 },
			{ -0.09550654888153076, -0.08080382645130157, 0.07314079254865646, -0.046846259385347366, -0.09524347633123398, 0.16196990013122559, -0.28905513882637024, -0.02883785031735897, -0.052326761186122894, 0.08307266980409622 },
			{ -0.1578596532344818, -0.031391412019729614, 0.04645933955907822, 0.07204822450876236, 0.023951947689056396, 0.03110385313630104, -0.23135900497436523, -0.0556478276848793, 0.045426879078149796, 0.012234470807015896 },
			{ 0.01330818422138691, -0.10326223820447922, 0.1417246311903, 0.07945835590362549, -0.068898044526577, 0.0781315267086029, -0.06076221913099289, 0.17366404831409454, 0.0276033878326416, -0.09095840901136398 },
			{ -0.027926737442612648, -0.09678731113672256, 0.09544262290000916, 0.0047508301213383675, 0.10265631973743439, -0.017084592953324318, 0.002309190109372139, -0.05369597673416138, 0.05304020270705223, -0.14953778684139252 },
			{ 0.045157525688409805, 0.1187698021531105, 0.0997219830751419, -0.07110292464494705, 0.01810230314731598, 0.03874283656477928, -0.0191804151982069, -0.017677562311291695, 0.007646559271961451, -0.09357574582099915 },
			{ 0.05451564863324165, 0.047964684665203094, 0.04626128450036049, -0.11893106997013092, 0.0023399884812533855, 0.08275534212589264, -0.05611973628401756, 0.07302943617105484, -0.1461065113544464, -0.1700703352689743 },
			{ 0.12353301793336868, -0.02645181678235531, 0.16385389864444733, 0.006586498115211725, -0.08828221261501312, 0.041753314435482025, -0.08757529407739639, 0.0043214960023760796, -0.09683829545974731, 0.006787206046283245 },
			{ -0.022330695763230324, 0.05336862429976463, 0.17607063055038452, 0.05841176584362984, 0.04805154725909233, -0.01875096745789051, 0.07581604272127151, 0.061936330050230026, 0.05252337083220482, -0.09969491511583328 },
			{ -0.07084482163190842, 0.06646793335676193, 0.047130439430475235, -0.04107442870736122, -0.03718600794672966, -0.13452179729938507, 0.037809811532497406, 0.14262044429779053, 0.00790688581764698, -0.10353303700685501 },
			{ -0.00349549506790936, -0.08276437968015671, 0.16046379506587982, -0.11460887640714645, -0.06606575101613998, 0.014040361158549786, 0.012103335000574589, 0.03225148096680641, 0.059057917445898056, -0.11347538977861404 },
			{ -0.31817618012428284, 0.13090676069259644, 0.09383223950862885, -0.23022574186325073, -0.23763112723827362, -0.020053857937455177, -0.03647015988826752, 0.06313042342662811, -0.2863890826702118, 0.04464661702513695 },
			{ -0.028176110237836838, 0.11703231185674667, 0.1331740915775299, -0.021398792043328285, -0.2503952085971832, 0.040905147790908813, -0.0337725467979908, -0.06459448486566544, -0.12022977322340012, -0.21805569529533386 },
			{ -0.11714854091405869, 0.1772116869688034, -0.2296760082244873, 0.00026284015621058643, 0.018205678090453148, 0.0896119698882103, -0.22188547253608704, -0.1981104463338852, -0.043918706476688385, -0.0750999003648758 },
			{ -0.20350289344787598, 0.1113370954990387, -0.15706807374954224, 0.10390422493219376, -0.09546377509832382, 0.15035638213157654, -0.13204605877399445, -0.210231214761734, -0.09226695448160172, 0.09781806915998459 },
			{ -0.12437569350004196, 0.06835529208183289, -0.06663540005683899, 0.09100957214832306, -0.26015228033065796, 0.14809100329875946, -0.10721660405397415, 0.07637696713209152, -0.0903664380311966, 0.06310881674289703 },
			{ -0.019798094406723976, -0.029693763703107834, -0.017633121460676193, 0.08330370485782623, -0.16285216808319092, 0.19174426794052124, -0.20732852816581726, -0.04819629713892937, 0.07486230880022049, 0.020254850387573242 },
			{ -0.016037382185459137, 0.05787475034594536, 0.141874760389328, -0.005949493497610092, -0.10770543664693832, 0.042004816234111786, 0.0013397779548540711, -0.07555129379034042, -0.04014177992939949, 0.0010762301972135901 },
			{ -0.031174542382359505, 0.0489739328622818, 0.10295569896697998, -0.0469244122505188, 0.002832491183653474, 0.1579725444316864, -0.15937508642673492, -0.0204484723508358, -0.12483897060155869, 0.04861350730061531 },
			{ 0.0345354899764061, 0.10727410763502121, 0.08436097204685211, -0.00292049627751112, -0.1299869567155838, 0.07416840642690659, -0.06498026847839355, -0.04161543771624565, -0.18297968804836273, -0.03435507416725159 },
			{ 0.26010873913764954, -0.05674336105585098, 0.1614540070295334, -0.06704921275377274, -0.11909937113523483, 0.018166983500123024, -0.00034701108234003186, -0.11751571297645569, -0.12684504687786102, 0.0765519067645073 },
			{ 0.09648595005273819, -0.12148123234510422, 0.18271827697753906, 0.1090811938047409, -0.2048185020685196, 0.04985750466585159, -0.01720128022134304, -0.15455982089042664, 0.04274199903011322, -0.0025831907987594604 },
			{ 0.10807093232870102, 0.031671103090047836, 0.12953594326972961, 0.062301792204380035, -0.2877691388130188, 0.05214923620223999, -0.024681415408849716, -0.09173936396837234, -0.01846284605562687, -0.05931112915277481 },
			{ 0.011617565527558327, -0.028559725731611252, 0.21006494760513306, 0.04605073481798172, -0.14137524366378784, 0.04558055102825165, 0.06915806978940964, -0.03932362422347069, 0.03967816010117531, -0.23450875282287598 },
			{ 0.056657712906599045, -0.042252663522958755, 0.014608453027904034, -0.18853206932544708, 0.010622989386320114, 0.05359964817762375, -0.0544334352016449, -0.28603076934814453, -0.03724021464586258, -0.05565616488456726 },
			{ -0.2783823311328888, -0.03601012006402016, 0.34771448373794556, -0.2369970679283142, -0.12696531414985657, 0.04503332078456879, -0.035435695201158524, -0.2595287263393402, -0.2917231619358063, 0.14678922295570374 },
			{ -0.20123885571956635, -0.17252598702907562, -0.18597052991390228, 0.12415602058172226, -0.3969148099422455, 0.13560529053211212, -0.08719079941511154, 0.03349301964044571, 0.11338482052087784, -0.043752823024988174 },
			{ 0.024650555104017258, 0.13331010937690735, -0.24832816421985626, 0.1566314995288849, 0.04215514659881592, 0.140208438038826, -0.44465172290802, 0.07526867091655731, -0.359454870223999, -0.06664615869522095 },
			{ -0.012572708539664745, 0.12012959271669388, -0.05832013860344887, 0.13461576402187347, -0.0014898270601406693, 0.03949285298585892, -0.4492764174938202, -0.1238868236541748, -0.00475856801494956, 0.17569394409656525 },
			{ 0.08156777918338776, 0.01102382130920887, -0.20179080963134766, 0.15403105318546295, -0.0961151123046875, -0.0017093542264774442, -0.22574222087860107, -0.040566131472587585, -0.02641093172132969, 0.07004301995038986 },
			{ 0.01660173386335373, -0.07533275336027145, -0.0030329821165651083, 0.17165738344192505, -0.11634526401758194, 0.017899662256240845, -0.20303933322429657, -0.09939665347337723, -0.06124352291226387, 0.14106860756874084 },
			{ -0.0396745502948761, -0.007790560368448496, -0.06622055917978287, -0.035718102008104324, 0.059248313307762146, 0.15175092220306396, -0.16534306108951569, -0.04650109261274338, -0.12018696218729019, 0.12620432674884796 },
			{ -0.07465940713882446, -0.07796420902013779, -0.09697972238063812, 0.04288684204220772, -0.04972786828875542, 0.1595248132944107, -0.12891575694084167, -0.08967539668083191, -0.11336898803710938, 0.05346179008483887 },
			{ 0.10603807866573334, -0.10869686305522919, 0.04716292396187782, 0.12444710731506348, -0.1074654832482338, 0.11904501914978027, -0.058589331805706024, -0.12250328809022903, 0.03161993250250816, 0.13689953088760376 },
			{ 0.0665958821773529, -0.5228273868560791, 0.09690293669700623, 0.04498131573200226, -0.0827096551656723, 0.12914922833442688, 0.07950960844755173, -0.15615858137607574, 0.06170479580760002, 0.04504778981208801 },
			{ 0.05887191742658615, -0.4542745351791382, -0.06346935778856277, 0.16008520126342773, -0.19534824788570404, 0.11696914583444595, 0.032925717532634735, -0.2743271589279175, 0.10175734013319016, -0.027395930141210556 },
			{ 0.04593014717102051, -0.12728141248226166, 0.11972126364707947, 0.13502450287342072, -0.2799087464809418, 0.13396811485290527, 0.16161185503005981, -0.2979068458080292, 0.0443740040063858, -0.06983938813209534 },
			{ 0.08088549971580505, -0.08408363163471222, 0.09091424942016602, 0.049469344317913055, -0.037609100341796875, 0.0754629448056221, 0.04305281117558479, -0.39044955372810364, -0.035818394273519516, -0.1195700466632843 },
			{ -0.11873738467693329, -0.15539777278900146, 0.1901606172323227, -0.3717949092388153, 0.004831409081816673, 0.13446345925331116, -0.35447385907173157, -0.27709874510765076, 0.013948209583759308, -0.005430835299193859 },
			{ 0.028801720589399338, -0.12006476521492004, 0.14787672460079193, -0.08872532844543457, -0.21375782787799835, 0.08234595507383347, -0.2379598319530487, -0.28062230348587036, -0.20230498909950256, 0.12141402810811996 },
			{ -0.04585455358028412, -0.30000197887420654, -0.48641547560691833, -0.09933244436979294, -0.2867065668106079, -0.1683710813522339, 0.006796766072511673, 0.22499601542949677, -0.4253429174423218, 0.05624256655573845 },
			{ -0.17077846825122833, -0.5406892895698547, -0.2498539686203003, 0.2674083709716797, -0.012427602894604206, -0.28002873063087463, -0.03268603980541229, 0.0524088554084301, -0.41319119930267334, 0.20314165949821472 },
			{ -0.2741217613220215, -0.22241616249084473, -0.3882409930229187, 0.39579710364341736, -0.2710852026939392, -0.022739091888070107, -0.12294937670230865, 0.025391723960638046, -0.011390256695449352, 0.054095640778541565 },
			{ -0.08887830376625061, -0.23671545088291168, -0.3579536974430084, 0.3757091760635376, -0.1394282579421997, -0.02863546460866928, -0.2583982050418854, 0.0701369196176529, -0.11299967020750046, 0.1264650523662567 },
			{ -0.2760123312473297, 0.021450400352478027, -0.3999869227409363, 0.2603570520877838, -0.24515433609485626, 0.20387428998947144, -0.20212504267692566, -0.05726863816380501, 0.0021253095474094152, 0.018046531826257706 },
			{ -0.3557167053222656, 0.1276969611644745, -0.3063207268714905, 0.37249335646629333, -0.113406702876091, 0.2545291781425476, -0.15260107815265656, -0.07476046681404114, -0.14420923590660095, 0.07097926735877991 },
			{ -0.39804181456565857, -0.2456834763288498, -0.11596087366342545, 0.23951509594917297, -0.08630906790494919, 0.2827017605304718, -0.5945032238960266, -0.1387173980474472, -0.05379843711853027, 0.12737491726875305 },
			{ -0.2536526024341583, -0.14303453266620636, -0.038412757217884064, 0.4012889266014099, -0.03107207641005516, 0.24471493065357208, -0.4634186625480652, -0.04315007105469704, -0.16159699857234955, -0.023917555809020996 },
			{ -0.22473087906837463, -0.27626821398735046, -0.038828860968351364, 0.2737157344818115, -0.13437536358833313, 0.15747642517089844, -0.2302943468093872, -0.06975109875202179, 0.1340048760175705, -0.05543120577931404 },
			{ -0.18783730268478394, -0.1583484411239624, 0.032164838165044785, 0.2544344663619995, 0.046517983078956604, 0.3432200849056244, -0.1489931344985962, -0.22464998066425323, 0.11227595806121826, -0.20172688364982605 },
			{ -0.1528617888689041, -0.0678613930940628, 0.2077886164188385, 0.08103447407484055, -0.10541963577270508, 0.19415609538555145, -0.21046459674835205, -0.14679484069347382, -0.024368546903133392, -0.047852300107479095 },
			{ -0.19602377712726593, -0.19685058295726776, 0.12245369702577591, 0.13065911829471588, -0.17114147543907166, 0.17503979802131653, -0.22868189215660095, -0.1507161259651184, -0.09728243947029114, -0.1222795769572258 },
			{ -0.2189207226037979, 0.02984439767897129, 0.14053180813789368, 0.010494004935026169, 0.030189916491508484, 0.08607685565948486, -0.02407941222190857, -0.16409800946712494, -0.5335984230041504, 0.08531580865383148 },
			{ -0.053619466722011566, 0.10563906282186508, -0.017349425703287125, -0.07627855986356735, 0.0472574308514595, -0.08881337195634842, 0.02176717109978199, 0.003803565166890621, -0.17419233918190002, -0.0019204606069251895 },
			{ 0.012442796491086483, -0.05518815293908119, -0.05576551333069801, -0.22189000248908997, -0.01676786318421364, 0.05257527530193329, -0.06389481574296951, -0.25869688391685486, -0.011004435829818249, 0.11009776592254639 },
			{ -0.08221562206745148, 0.003273359965533018, -0.10368302464485168, -0.34780529141426086, -0.12606249749660492, 0.027692943811416626, 0.019738713279366493, -0.33932504057884216, -0.07352323830127716, 0.45753583312034607 },
			{ -0.17714111506938934, -0.11209414899349213, -0.17822949588298798, -0.06530651450157166, -0.31167760491371155, -0.2683863341808319, 0.050272438675165176, 0.22279319167137146, -0.243462473154068, 0.06362835317850113 },
			{ -0.1295616328716278, 0.11983971297740936, -0.16647641360759735, 0.041815903037786484, -0.15387609601020813, -0.33120450377464294, -0.17005307972431183, 0.010821213945746422, -0.38893362879753113, 0.3904510736465454 },
			{ -0.1852458417415619, 0.11914071440696716, -0.47065186500549316, 0.09535901248455048, -0.09463720768690109, -0.29227328300476074, -0.18163879215717316, 0.1719561219215393, -0.5847415924072266, 0.21425649523735046 },
			{ -0.2768455445766449, -0.2270677089691162, -0.4498923718929291, 0.1458287090063095, -0.10998717695474625, -0.26340562105178833, -0.06541690975427628, 0.15738749504089355, -0.47413140535354614, 0.22451616823673248 },
			{ -0.3757147490978241, -0.04150409623980522, -0.4870719313621521, 0.17417864501476288, -0.3398033082485199, 0.13981220126152039, -0.26490750908851624, -0.006490359548479319, -0.40292200446128845, 0.278744101524353 },
			{ -0.5241250395774841, -0.13726699352264404, -0.44582170248031616, 0.005572136957198381, -0.18105296790599823, 0.061893194913864136, -0.07151101529598236, 0.02444387413561344, -0.5484197735786438, 0.37867701053619385 },
			{ -0.517969012260437, 0.006567799486219883, -0.3807147145271301, 0.089398592710495, -0.07363589107990265, 0.0576261430978775, -0.2935309112071991, 0.08537488430738449, -0.4272143840789795, 0.20985685288906097 },
			{ -0.23907123506069183, 0.06613603979349136, -0.4134160578250885, 0.2000768780708313, -0.10738326609134674, -0.040339890867471695, -0.3256615996360779, 0.0077963219955563545, -0.5529412031173706, 0.114230215549469 },
			{ -0.24050810933113098, 0.12095656991004944, -0.1964784562587738, -0.02736024186015129, -0.18825772404670715, 0.06518220156431198, -0.21510398387908936, 0.032118476927280426, -0.3308848440647125, 0.05373993515968323 },
			{ -0.16527265310287476, -0.07440338283777237, -0.015323957428336143, -0.12253771722316742, -0.10092459619045258, 0.09875477850437164, -0.03846680000424385, 0.09636235237121582, -0.157375305891037, -0.07724244892597198 },
			{ -0.08241777122020721, -0.10485140234231949, -0.048741262406110764, -0.12919959425926208, -0.04461099952459335, 0.045521028339862823, -0.015166711062192917, 0.03596119582653046, -0.10181190818548203, -0.07091391086578369 },
			{ 0.05345829203724861, 0.08403708040714264, 0.05798424780368805, -0.20686446130275726, -0.041771773248910904, 0.06982791423797607, 0.05512642115354538, 0.24012911319732666, 0.00817873328924179, -0.23838762938976288 },
			{ 0.026211148127913475, 0.21359895169734955, 0.020089516416192055, -0.179739311337471, -0.07801683247089386, 0.16220952570438385, -0.03264182060956955, -0.07909711450338364, -0.18944507837295532, 0.013502593152225018 },
			{ 0.061318427324295044, 0.11467330902814865, -0.02746003307402134, -0.18867558240890503, -0.15627062320709229, 0.07328564673662186, 0.07749816030263901, -0.004091366659849882, -0.12181627750396729, 0.1742817908525467 },
			{ 0.15328168869018555, 0.1647217869758606, 0.020286880433559418, -0.12813442945480347, -0.0804603174328804, 0.17373161017894745, -0.08367600291967392, -0.11597099900245667, -0.10592901706695557, 0.16597609221935272 },
			{ 0.13468636572360992, 0.009526331909000874, 0.08268114924430847, 0.0034140991047024727, -0.051988475024700165, 0.028492547571659088, 0.045256081968545914, -0.0029463598039001226, -0.2407655268907547, 0.0016880972543731332 },
			{ 0.056015606969594955, -0.0772242620587349, 0.22892481088638306, 0.024554722011089325, -0.21250279247760773, -0.10817226022481918, -0.13313230872154236, -0.0639728382229805, -0.12708181142807007, 0.11643099039793015 },
			{ 0.15178853273391724, 0.03824498876929283, 0.24956227838993073, -0.1554962396621704, -0.3213135898113251, -0.1040244847536087, -0.08358844369649887, -0.09707435220479965, -0.10919689387083054, 0.0380227230489254 },
			{ 0.11138884723186493, -0.035545576363801956, 0.4359702169895172, -0.0971522331237793, -0.5230244398117065, -0.0809563398361206, 0.07370627671480179, -0.19310662150382996, -0.1790301501750946, -0.04461352154612541 },
			{ 0.06968945264816284, 0.16004008054733276, 0.1889735609292984, -0.25403210520744324, -0.243967205286026, 0.153003990650177, 0.02954486571252346, -0.16328305006027222, -0.09721333533525467, -0.037048887461423874 },
			{ -0.04664265364408493, 0.4403013288974762, -0.29128363728523254, -0.2834590971469879, -0.09854879230260849, -0.017045360058546066, 0.317233145236969, -0.12096068263053894, -0.2505166828632355, 0.0006694190087728202 },
			{ 0.1705455482006073, 0.22444124519824982, -0.02146957814693451, -0.29801133275032043, -0.23603004217147827, -0.18827950954437256, 0.2259075790643692, -0.17695365846157074, -0.22448107600212097, -0.11330762505531311 },
			{ 0.013273442164063454, 0.21840879321098328, -0.11647409945726395, -0.2655842900276184, -0.21019326150417328, 0.0497836135327816, 0.19951437413692474, -0.13595937192440033, -0.09100151062011719, 0.020970365032553673 },
			{ -0.11929288506507874, 0.09057450294494629, -0.19132953882217407, -0.14234480261802673, -0.20222634077072144, -0.06910304725170135, 0.39528441429138184, -0.04365859180688858, -0.2604140639305115, 0.004819178953766823 },
			{ 0.028148511424660683, -0.01706213690340519, 0.056154634803533554, -0.07183212786912918, -0.14072948694229126, 0.033873286098241806, 0.3730567991733551, 0.009169400669634342, -0.1706230491399765, 0.14614424109458923 },
			{ 0.03846853971481323, 0.1491379737854004, 0.025388600304722786, -0.2227538377046585, -0.11075527966022491, 0.16461564600467682, 0.04413586109876633, -0.020848041400313377, -0.15258806943893433, 0.13062413036823273 },
			{ 0.13324087858200073, 0.16671942174434662, -0.00695072440430522, 0.02672520838677883, -0.13415150344371796, 0.033615339547395706, 0.08802324533462524, -0.0783245638012886, -0.1923917680978775, 0.044196370989084244 },
			{ 0.08762194216251373, -0.009111249819397926, 0.1931135207414627, -0.010808411054313183, -0.2279900163412094, -0.12254270911216736, 0.06570691615343094, -0.09244415909051895, -0.1280929297208786, 0.08994856476783752 },
			{ 0.09339792281389236, 0.1748555302619934, 0.22940045595169067, 0.11599203944206238, -0.3965930938720703, -0.19757398962974548, -0.18932579457759857, -0.26631996035575867, -0.4602414667606354, -0.0775078609585762 },
			{ -0.06790661066770554, 0.09007395058870316, 0.3234156668186188, 0.12745314836502075, -0.31483861804008484, -0.26798611879348755, -0.11776562035083771, -0.12518206238746643, -0.5329906344413757, -0.11040455847978592 },
			{ -0.1830865740776062, -0.07190408557653427, 0.17354993522167206, 0.5530080795288086, -0.44721922278404236, -0.41839513182640076, -0.10311426967382431, -0.009872479364275932, -0.3546817898750305, -0.46023523807525635 },
			{ -0.23253266513347626, -0.3322155177593231, 0.1130630150437355, 0.502243161201477, -0.43384817242622375, -0.3505634367465973, 0.0937105268239975, -0.29995909333229065, -0.0339563749730587, -0.28457459807395935 },
			{ -0.13927273452281952, -0.3700425624847412, 0.10019482672214508, 0.338168740272522, -0.46301427483558655, 0.009363671764731407, 0.2500397562980652, -0.30764874815940857, -0.1621430516242981, -0.41952386498451233 },
			{ -0.1623990386724472, 0.18334127962589264, -0.28306710720062256, 0.19764943420886993, -0.31318268179893494, 0.06529125571250916, 0.25186413526535034, -0.3730336129665375, -0.07108896225690842, -0.13298837840557098 },
			{ -0.048908378928899765, 0.39833295345306396, -0.533980667591095, -0.4739636778831482, -0.2168068289756775, 0.12435731291770935, 0.3156987428665161, -0.34902992844581604, 0.147224560379982, -0.306266725063324 },
			{ -0.3101890981197357, 0.1896807849407196, -0.19478829205036163, -0.45885899662971497, -0.20943115651607513, 0.297982394695282, 0.09261346608400345, -0.062165018171072006, 0.05664263665676117, -0.04906618222594261 },
			{ -0.3758256733417511, 0.03493998572230339, -0.22665740549564362, -0.3496982455253601, -0.260356068611145, 0.36766284704208374, 0.006880835629999638, -0.20998461544513702, 0.03228744491934776, 0.06888224184513092 },
			{ -0.23042823374271393, 0.06780094653367996, -0.29716694355010986, -0.004831024445593357, 0.0423782542347908, 0.0024917572736740112, 0.21364529430866241, -0.05796706676483154, -0.006780744530260563, -0.21056289970874786 },
			{ -0.05841125175356865, -0.16698504984378815, -0.101229228079319, 0.016631729900836945, 0.13814178109169006, 0.015117719769477844, -0.019386636093258858, -0.09995433688163757, -0.09228558838367462, -0.14882992208003998 },
			{ -0.07619915157556534, -0.029984183609485626, -1.848663669079542e-05, -0.1274615079164505, 0.044257424771785736, 0.22542017698287964, -0.18982772529125214, -0.1970435231924057, 0.019608480855822563, 0.043874774128198624 },
			{ 0.005809012800455093, 0.15959584712982178, -0.1048717275261879, 0.2377036213874817, -0.1940901279449463, -0.06335325539112091, 0.06421047449111938, -0.13435691595077515, -0.1394384652376175, 0.11715798825025558 },
			{ 0.0714031383395195, 0.09671498090028763, -0.005069131031632423, 0.16757377982139587, -0.254523366689682, -0.3203509747982025, -0.10608984529972076, 0.21050356328487396, -0.4415193498134613, -0.19746513664722443 },
			{ -0.17243331670761108, 0.08586584031581879, 0.09045533835887909, 0.2625097632408142, -0.08134358376264572, -0.41533729434013367, -0.08391123265028, 0.3794025480747223, -0.20455317199230194, -0.43970245122909546 },
			{ -0.3723064661026001, 0.05553213134407997, -0.06997928768396378, 0.32452356815338135, -0.3061465919017792, -0.2147996425628662, -0.0020599085837602615, 0.5227339863777161, -0.6133034825325012, -0.8933327794075012 },
			{ -0.46368905901908875, -0.2627095580101013, 0.052041422575712204, 0.4627746045589447, -0.12108355015516281, -0.13014602661132812, -0.029873795807361603, 0.3906725347042084, -0.3110637962818146, -1.0337305068969727 },
			{ -0.4617619514465332, -0.3127845525741577, -0.09665453433990479, 0.2636438012123108, -0.04599954932928085, 0.10652810335159302, 0.1979931741952896, 0.2071814090013504, -0.06611137837171555, -0.597073495388031 },
			{ -0.21781207621097565, 0.1005813330411911, -0.2327616810798645, -0.1515340358018875, -0.05045468732714653, 0.2650642395019531, 0.21857741475105286, -0.08689936250448227, -0.0025546865072101355, -0.3198731243610382 },
			{ 0.08228541910648346, 0.3778259754180908, -0.44867438077926636, -0.16752825677394867, -0.11126380413770676, 0.1720464527606964, 0.22141842544078827, -0.21251094341278076, -0.07292100787162781, -0.19989196956157684 },
			{ -0.09803294390439987, 0.27537986636161804, -0.15141616761684418, -0.11135545372962952, 0.06725867837667465, 0.18821831047534943, 0.19134503602981567, -0.2121402621269226, -0.19191649556159973, -0.10685239732265472 },
			{ -0.5222718715667725, 0.147007018327713, -0.21650977432727814, -0.078395314514637, 0.14029671251773834, 0.191442608833313, 0.15676920115947723, 0.06234443932771683, -0.06428149342536926, -0.18201734125614166 },
			{ -0.3055856227874756, 0.16803500056266785, -0.15471792221069336, -0.07411897927522659, 0.10221094638109207, 0.28991609811782837, 0.06233653426170349, -0.1702825129032135, -0.017312148585915565, -0.24224421381950378 },
			{ -0.33925315737724304, 0.08133403956890106, -0.08846621215343475, -0.029714765027165413, 0.047988373786211014, 0.17928551137447357, 0.14876382052898407, -0.20686665177345276, -0.20584271848201752, -0.12451543658971786 },
			{ -0.1009855791926384, -0.09286966174840927, -0.032589610666036606, -0.07586368918418884, 0.13004033267498016, -0.02293669991195202, -0.09371337294578552, 0.012636170722544193, -0.02427559345960617, -0.4364176094532013 },
			{ -0.18472249805927277, -0.03587539121508598, -0.06093254312872887, -0.004193160217255354, -0.044403593987226486, 0.06589668244123459, 0.06332887709140778, -0.3057745695114136, -0.020050175487995148, -0.22948701679706573 },
			{ -0.12965941429138184, 0.06698189675807953, 0.057901229709386826, 0.06264830380678177, -0.01374371163547039, -0.27999353408813477, 0.09026680886745453, 0.07145650684833527, 0.046276167035102844, -0.22867415845394135 },
			{ 0.0430162250995636, 0.12109006941318512, -0.109754279255867, -0.015038598328828812, -0.04962148144841194, -0.09054884314537048, -0.28489503264427185, 0.23120500147342682, -0.03632747754454613, -0.2204401046037674 },
			{ -0.22842732071876526, -0.0396835021674633, 0.03754589334130287, 0.1929350346326828, -0.11051815003156662, -0.12861423194408417, -0.12353752553462982, 0.3357457220554352, -0.10222399979829788, -0.5836576819419861 },
			{ -0.28004536032676697, 0.041207343339920044, 0.03403693437576294, 0.12624964118003845, -0.2547333538532257, -0.2207745909690857, -0.010230391286313534, 0.21858367323875427, -0.021761300042271614, -0.4427434802055359 },
			{ -0.3055996894836426, -0.30290427803993225, 0.22373610734939575, 0.09923512488603592, 0.22435256838798523, 0.02598242275416851, 0.03964441642165184, 0.15080206096172333, -0.03051585704088211, -0.561665952205658 },
			{ -0.1573117971420288, -0.20500096678733826, 0.0810333713889122, -0.0737176463007927, 0.3217981159687042, 0.08717534691095352, 0.1462426483631134, -0.08585461974143982, -0.10404589027166367, -0.04951535910367966 },
			{ -0.0937764123082161, 0.007874304428696632, -0.10648037493228912, -0.15276817977428436, 0.33249571919441223, 0.14807265996932983, 0.1472926288843155, -0.10073190927505493, -0.19547894597053528, -0.26985403895378113 },
			{ -0.05006859451532364, 0.3040759861469269, -0.15586452186107635, -0.1279963254928589, 0.3609401285648346, 0.18759244680404663, 0.13672086596488953, -0.20717842876911163, -0.07985705882310867, -0.22697554528713226 },
			{ -0.059366147965192795, 0.27299800515174866, -0.19674918055534363, -0.0042897663079202175, 0.3375396132469177, 0.04149802401661873, 0.11176834255456924, -0.01992679014801979, -0.18593914806842804, -0.3126721680164337 },
			{ -0.2543847858905792, 0.1563815027475357, -0.09741934388875961, -0.004488913808017969, 0.36302649974823, 0.12170231342315674, 0.10061180591583252, 0.046303506940603256, -0.17231139540672302, -0.2639559805393219 },
			{ -0.2004249393939972, 0.08801893889904022, -0.1659908890724182, -0.00020848654094152153, 0.13476331532001495, 0.08716891705989838, 0.02665705606341362, 0.17020317912101746, -0.06955690681934357, -0.28710877895355225 },
			{ -0.08780934661626816, 0.11353469640016556, -0.10795192420482635, -0.11181985586881638, 0.06161726638674736, 0.04505421966314316, 0.03838269039988518, -0.014841586351394653, -0.06845156103372574, -0.17377516627311707 },
			{ -0.0496828593313694, 0.15512414276599884, 0.028497211635112762, -0.07237312942743301, 0.023873528465628624, -0.09777212888002396, -0.02682340331375599, -0.021984564140439034, -0.0502847395837307, -0.20158760249614716 },
			{ -0.04993379861116409, -0.04551384970545769, -0.05904345586895943, -0.05507668852806091, 0.24343445897102356, 0.026805464178323746, -0.017857404425740242, -0.2511999011039734, 0.052610091865062714, -0.27801960706710815 },
			{ -0.11334279179573059, 0.07933495938777924, 0.14938032627105713, 0.07003238052129745, -0.06277509033679962, -0.013377720490098, 0.06832345575094223, -0.04857870563864708, -0.08263316005468369, -0.3000156879425049 },
			{ -0.03343982249498367, 0.08064901828765869, 0.03501872345805168, 0.1759166717529297, -0.036219771951436996, -0.05149475112557411, -0.26134827733039856, 0.06307432800531387, -0.04180861636996269, -0.2792857885360718 },
			{ -0.2457616627216339, 0.0513634979724884, 0.11404088139533997, 0.26231467723846436, -0.02599135972559452, -0.07573333382606506, -0.040567547082901, -0.02561046928167343, 0.02330576255917549, -0.21888774633407593 },
			{ -0.3175327777862549, -0.09045436233282089, 0.29619067907333374, 0.16131983697414398, 0.0715978667140007, -0.007338273338973522, -0.09872978180646896, -0.016074074432253838, -0.2727363705635071, 0.02667922154068947 },
			{ -0.057204585522413254, -0.3726116716861725, 0.05811787024140358, 0.04304271563887596, 0.1307574361562729, 0.02318764105439186, 0.19654540717601776, -0.09051889926195145, -0.01627061702311039, 0.04163030907511711 },
			{ 0.05272461473941803, -0.2687447965145111, 0.1229521781206131, -0.07673829793930054, 0.18944741785526276, 0.04560554027557373, 0.12336499243974686, 0.0025850338861346245, -0.13619877398014069, -0.13466042280197144 },
			{ 0.07418155670166016, -0.10096365958452225, 0.0885523185133934, -0.014689240604639053, 0.2569906413555145, 0.20363925397396088, -0.04957347363233566, 0.13703817129135132, -0.24868039786815643, -0.05276498198509216 },
			{ -0.0508844368159771, 0.17151452600955963, 0.05666297301650047, 0.07592698186635971, 0.24883079528808594, 0.053846172988414764, 0.07242124527692795, -0.14039471745491028, -0.2082740068435669, -0.14832620322704315 },
			{ -0.12001951038837433, 0.00528227211907506, 0.025595812126994133, 0.03368699923157692, 0.2472403198480606, -0.09081432968378067, 0.10441547632217407, 0.09254562854766846, -0.18887612223625183, -0.04890338331460953 },
			{ 0.005532883573323488, 0.050494495779275894, -0.10337577760219574, 0.06431998312473297, 0.24761120975017548, -0.048981595784425735, -0.06018371134996414, 0.17287515103816986, 0.04403230547904968, -0.20325301587581635 },
			{ -0.19771160185337067, 0.02088586613535881, -0.12567944824695587, 0.05104575678706169, 0.163435697555542, -0.03975900262594223, -0.14736925065517426, 0.14675553143024445, -0.007114633917808533, -0.1582028716802597 },
			{ -0.10913292318582535, -0.018505068495869637, 0.010487817227840424, 0.08178459107875824, 0.097642682492733, 0.0030440762639045715, -0.1374487429857254, 0.09732475131750107, 0.019212910905480385, -0.07717202603816986 },
			{ -0.0328538604080677, 0.05601103603839874, -0.037792012095451355, -0.01079802680760622, 0.10267466306686401, 0.02350298874080181, -0.14001856744289398, 0.09654797613620758, -0.08036357164382935, -0.11277004331350327 },
			{ -0.006486521568149328, -0.16231821477413177, -0.037753891199827194, -0.23074130713939667, 0.1156202033162117, -0.0908520370721817, -0.21955324709415436, -0.22324292361736298, 0.09986741095781326, -0.13653281331062317 },
			{ -0.19694821536540985, 0.04089650139212608, -0.0002632340183481574, 0.12569758296012878, -0.22445134818553925, -0.13964621722698212, 0.005588250234723091, 0.016553444787859917, -0.046687282621860504, -0.09795855730772018 },
			{ -0.22628474235534668, -0.013991466723382473, 0.21688063442707062, 0.24978137016296387, -0.19950652122497559, -0.05786900222301483, -0.12708404660224915, -0.08373905718326569, 0.005053082946687937, -0.02202710509300232 },
			{ -0.39608001708984375, 0.006472591310739517, 0.3097241520881653, 0.1675701141357422, -0.05889541283249855, -0.2684934735298157, -0.13224603235721588, -0.024466902017593384, 0.20589081943035126, -0.1998496949672699 },
			{ -0.22039830684661865, -0.09758157283067703, 0.18142220377922058, -0.00045101618161424994, -0.19775789976119995, -0.1227787658572197, -0.06089555844664574, -0.008983694948256016, -0.020972924306988716, 0.050870150327682495 },
			{ -0.013105293735861778, -0.4157158434391022, 0.11329464614391327, -0.000884602777659893, 0.0028564429376274347, -0.14281226694583893, 0.0819825753569603, -0.08814866095781326, -0.13052809238433838, 0.1290932446718216 },
			{ -0.038051702082157135, -0.08740086108446121, -0.09764346480369568, -0.007180775981396437, 0.06400787085294724, -0.13942526280879974, 0.03886345773935318, -0.012778442353010178, -0.12468986958265305, -0.046767015010118484 },
			{ -0.013626504689455032, -0.11928856372833252, -0.010354780592024326, -0.034884341061115265, 0.0589577779173851, 0.0734931156039238, 0.07816817611455917, 0.1529250144958496, -0.24354712665081024, -0.05962015315890312 },
			{ 0.10519897937774658, 0.10784739255905151, -0.003409391036257148, -0.04906100034713745, 0.23914851248264313, -0.11364555358886719, 0.01785189099609852, 0.07628586143255234, -0.283080130815506, -0.176981121301651 },
			{ 0.06453517824411392, 0.11482365429401398, 0.004815148189663887, -0.03483481705188751, 0.13963787257671356, -0.3821374475955963, -0.05489238724112511, 0.2213108241558075, -0.10239970684051514, -0.0339554063975811 },
			{ 0.11794034391641617, -0.024897828698158264, 0.04372565820813179, 0.12245282530784607, 0.229103684425354, -0.3022403120994568, -0.33334431052207947, 0.1705506294965744, 0.09333133697509766, -0.023386523127555847 },
			{ -0.047159191220998764, 0.04367848113179207, 0.06006639450788498, 0.0897553563117981, 0.010341859422624111, -0.3131696581840515, -0.23520240187644958, 0.024404777213931084, 0.22852016985416412, -0.1412520557641983 },
			{ 0.010860134847462177, 0.04429885372519493, 0.05060402676463127, 0.04468627646565437, 0.06599889695644379, -0.26453304290771484, -0.10296893864870071, 0.024369098246097565, 0.06556043773889542, -0.12560230493545532 },
			{ 0.12712658941745758, 0.025322919711470604, 0.018509307876229286, -0.006043306086212397, -0.006834895350039005, -0.06871811300516129, -0.15695884823799133, 0.034400053322315216, 0.11938439309597015, -0.055088456720113754 },
			{ -0.011038080789148808, -0.139008566737175, -0.044830311089754105, -0.2898156940937042, 0.025219082832336426, 0.16351820528507233, -0.1594391018152237, -0.29800766706466675, 0.0660126805305481, -0.10062814503908157 },
			{ -0.14915813505649567, 0.2280857414007187, -0.12031286954879761, -0.018354399129748344, -0.05766139179468155, -0.06708692014217377, -0.16240523755550385, 0.12225726246833801, -0.1125781238079071, 0.11223415285348892 },
			{ -0.16959558427333832, 0.04578571766614914, 0.027665821835398674, 0.05637563019990921, -0.12666215002536774, 0.1774543821811676, -0.0811995342373848, 0.037656012922525406, -0.0658562034368515, 0.06203458458185196 },
			{ -0.2266237586736679, 0.15362302958965302, -0.026318198069930077, 0.3438056409358978, -0.06606818735599518, 0.21077755093574524, -0.12993736565113068, -0.15351785719394684, 0.0306110717356205, -0.10146602988243103 },
			{ -0.08666368573904037, 0.05839697644114494, -0.16579429805278778, 0.16411268711090088, -0.01790633238852024, 0.005936636123806238, -0.016314752399921417, 0.06579738110303879, 0.017715245485305786, -0.04119119420647621 },
			{ 0.2022096961736679, -0.3816714882850647, -0.17762762308120728, 0.21097050607204437, 0.014923496171832085, -0.04796488210558891, 0.11423730850219727, -0.04335219785571098, -0.22548995912075043, 0.04987745359539986 },
			{ 0.07986367493867874, -0.01301551517099142, -0.18375056982040405, 0.14765454828739166, 0.14647114276885986, -0.05476042255759239, -0.008121347986161709, 0.21186642348766327, -0.1909252256155014, 0.029072124511003494 },
			{ 0.1198352575302124, 0.029114320874214172, -0.20705366134643555, -0.03453031927347183, 0.01446782611310482, 0.013164608739316463, -0.043514057993888855, 0.2839409410953522, -0.22162219882011414, -0.0778626799583435 },
			{ 0.105146124958992, 0.18730013072490692, -0.16082993149757385, 0.018905876204371452, 0.027749551460146904, 0.002501795534044504, -0.06787819415330887, 0.22055396437644958, -0.09393876045942307, -0.19765198230743408 },
			{ 0.004851347766816616, 0.030962197110056877, 0.10487381368875504, 0.0007873544236645103, -0.061895228922367096, -0.1925920844078064, -0.2556765675544739, 0.17209133505821228, 0.002117100404575467, 0.006164161488413811 },
			{ 0.08653774112462997, 0.010052801109850407, 0.08833704888820648, -0.055260010063648224, -0.05258043855428696, -0.4264987111091614, -0.35480913519859314, 0.02317262627184391, 0.03318464010953903, 0.16278372704982758 },
			{ 0.06460736691951752, -0.03860536217689514, 0.16978807747364044, -0.051485825330019, -0.018034378066658974, -0.3249821662902832, -0.2761397659778595, -0.0027684567030519247, 0.12268365174531937, 0.11699945479631424 },
			{ 0.08223012834787369, -0.004859341308474541, 0.09377304464578629, -0.009196097031235695, 0.054835058748722076, -0.35390612483024597, -0.08195493370294571, 0.13416101038455963, 0.06935373693704605, 0.033551935106515884 },
			{ -0.008767631836235523, 0.08091288805007935, -0.01023242250084877, -0.14561091363430023, -0.08218444883823395, -0.2692927420139313, -0.03500642254948616, -0.03819357603788376, 0.09988996386528015, 0.03742019832134247 },
			{ 0.0017512658378109336, -0.011122925207018852, 0.023424210026860237, -0.3797769248485565, -0.1697757989168167, 0.11499243974685669, -0.06308569014072418, -0.20763397216796875, 0.05733579769730568, 0.04171675443649292 },
			{ -0.006933572702109814, 0.10927417129278183, -0.1869102418422699, -0.2008548527956009, 0.08951689302921295, -0.021744824945926666, -0.11556551605463028, 0.003553388174623251, -0.17059268057346344, 0.07019677013158798 },
			{ -0.08903822302818298, 0.0830051377415657, -0.17495128512382507, 0.006506696809083223, -0.10955280810594559, 0.10517634451389313, 0.04936518520116806, -0.038801103830337524, 0.05725003778934479, -0.04567984119057655 },
			{ -0.09023043513298035, 0.297077476978302, -0.1316550374031067, 0.17565540969371796, -0.1575385332107544, 0.13679814338684082, -0.04175766184926033, 0.11514876782894135, -0.08656508475542068, -0.04868911951780319 },
			{ 0.0422234870493412, 0.05604201555252075, -0.3163890242576599, 0.14263035356998444, -0.029884934425354004, 0.051887862384319305, 0.12492524087429047, 0.1480247527360916, -0.32409051060676575, 0.05575639382004738 },
			{ 0.12212180346250534, -0.12286767363548279, -0.20466674864292145, -0.03423965722322464, 0.026650715619325638, -0.04708284139633179, 0.13552947342395782, 0.13670633733272552, -0.45142441987991333, 0.03623059391975403 },
			{ 0.11933893710374832, 0.38245224952697754, -0.21243824064731598, 0.10409976541996002, 0.13955210149288177, -0.11058396100997925, 0.04142429307103157, 0.27064910531044006, -0.15890829265117645, -0.254688024520874 },
			{ 0.11988206952810287, 0.07572608441114426, -0.031110702082514763, -0.12129689007997513, -0.028108209371566772, 0.03598273918032646, 0.029636792838573456, 0.2811738848686218, -0.15008212625980377, -0.1698521077632904 },
			{ 0.05742339417338371, 0.21509496867656708, 0.10878773033618927, 0.019165707752108574, -0.2636951506137848, -0.04226645454764366, -0.012617436237633228, 0.005558460019528866, -0.1496438980102539, -0.010903941467404366 },
			{ -0.1086573675274849, 0.2082197368144989, 0.12305321544408798, -0.13955800235271454, 0.017322435975074768, -0.1718963384628296, -0.05871115252375603, -0.06973663717508316, -0.03300972655415535, 0.13342849910259247 },
			{ 0.04180598258972168, 0.06744692474603653, 0.11702469736337662, -0.06879302859306335, 0.06131048873066902, -0.24487517774105072, -0.2172330766916275, 0.032291337847709656, -0.09685694426298141, 0.1444387584924698 },
			{ 0.018490878865122795, -0.040063776075839996, 0.05819879099726677, -0.06162329018115997, -0.05661185830831528, -0.16524076461791992, -0.13680993020534515, 0.03380961716175079, -0.002127880696207285, 0.03913673758506775 },
			{ 0.1297210156917572, -0.08554504066705704, -0.046790849417448044, -0.1862826645374298, 0.10682730376720428, -0.21220315992832184, -0.0996357798576355, 0.03948996588587761, -0.1058397963643074, 0.14505071938037872 },
			{ 0.06246227025985718, -0.13691389560699463, -0.017137445509433746, -0.05972946435213089, -0.05102461576461792, -0.28808051347732544, 0.004162968602031469, -0.10758224874734879, 0.061896033585071564, 0.14339159429073334 },
			{ -0.003478636033833027, -0.05761578306555748, 0.1294606626033783, 0.01909973844885826, -0.16526153683662415, -0.002661238657310605, 0.07093967497348785, -0.05686100199818611, -0.12960802018642426, -0.10971039533615112 },
			{ -0.0002631159732118249, 0.14692389965057373, 0.04571923986077309, 0.026557784527540207, -0.031938586384058, -7.436508894897997e-06, -0.18863072991371155, 0.15769264101982117, -0.1802234947681427, -0.15590877830982208 },
			{ 0.1452530026435852, -0.09539148211479187, 0.1210656464099884, -0.027961546555161476, -0.08952386677265167, 0.1263529360294342, -0.05965984985232353, 0.16319288313388824, -0.1685621589422226, -0.09679285436868668 },
			{ -0.052942533046007156, 0.04877980053424835, -0.09919136762619019, -0.01807241700589657, 0.021830588579177856, -0.02580271102488041, -0.0462980754673481, 0.2438204139471054, -0.33033278584480286, 0.061239760369062424 },
			{ 0.323188453912735, -0.2181960493326187, -0.08848847448825836, -0.28514978289604187, -0.09175217896699905, 0.12752585113048553, 0.03425908833742142, 0.2974410951137543, -0.35511183738708496, -0.061930131167173386 },
			{ 0.03493436425924301, -0.12586256861686707, -0.05225758999586105, -0.17410287261009216, -0.1153031513094902, -0.061196036636829376, 0.1155882179737091, 0.256033718585968, 0.06141411140561104, -0.17804059386253357 },
			{ 0.15207581222057343, 0.29414102435112, 0.09736757725477219, -0.2993657886981964, -0.17130137979984283, -0.20926964282989502, 0.0886908620595932, 0.3147989511489868, 0.16789044439792633, -0.2698354721069336 },
			{ 0.0932404175400734, 0.32934221625328064, 0.10049939155578613, -0.3527514338493347, -0.06484100222587585, -0.06352047622203827, 0.05669485032558441, -0.015564979054033756, 0.1410190314054489, -0.06343521922826767 },
			{ -0.05542720481753349, 0.16764073073863983, 0.12477976083755493, -0.13806584477424622, -0.11214297264814377, -0.10109087079763412, -0.04630403220653534, -0.07591122388839722, -0.06988950073719025, -0.04373297095298767 },
			{ 0.051888663321733475, 0.1826975792646408, 0.16115251183509827, -0.04216631129384041, -0.006651133298873901, -0.010226084850728512, 0.0938432514667511, -0.03277796506881714, -0.19400504231452942, 0.0189113337546587 },
			{ 0.0802650973200798, -0.14810630679130554, 0.07884771376848221, -0.05982863903045654, 0.0015603372594341636, -0.09940071403980255, 0.02536281757056713, 0.0008561392314732075, -0.184943288564682, 0.04714896157383919 },
			{ 0.11447814106941223, -0.29683610796928406, -0.039779700338840485, 0.04506945610046387, 0.0016278484836220741, -0.10746488720178604, 0.13638728857040405, 0.14057934284210205, -0.1376030147075653, 0.05435536056756973 },
			{ -0.0543428435921669, -0.18122108280658722, 0.008700082078576088, -0.08043906092643738, 0.07141450047492981, -0.08385182172060013, 0.0930161103606224, 0.20596705377101898, -0.13191302120685577, -0.0026998226530849934 },
			{ 0.15318942070007324, -0.22476589679718018, 0.0021320695523172617, 0.04774927347898483, -0.05135992914438248, -0.1242414340376854, 0.01599877141416073, 0.11403194814920425, -0.0732840746641159, -0.03321179002523422 },
			{ 0.02010219171643257, -0.04385852813720703, 0.0025881174951791763, 0.040101490914821625, 0.010069390758872032, -0.08084544539451599, 0.05841037631034851, -0.11745843291282654, 0.047351282089948654, -0.21326462924480438 },
			{ 0.03559671714901924, -0.0869031772017479, -0.02891446091234684, 0.09953001886606216, -0.08675888925790787, -0.05758241191506386, 0.08678343892097473, 0.01836618222296238, -0.16006600856781006, -0.2225218564271927 },
			{ 0.011559586971998215, -0.17088891565799713, -0.18626195192337036, -0.020807089284062386, 0.02477606013417244, 0.1227010041475296, 0.08002997934818268, 0.05826318636536598, 0.12859585881233215, -0.21977734565734863 },
			{ -0.07184481620788574, 0.027072113007307053, -0.0001815130963223055, -0.045374926179647446, 0.09717512130737305, -0.015941467136144638, -0.012462927028536797, 0.19058677554130554, -0.15129099786281586, -0.05112483724951744 },
			{ 0.1285136193037033, -0.2976970076560974, 0.08858433365821838, -0.2420077621936798, -0.2658296823501587, 0.0508955754339695, 0.04135708510875702, 0.12359048426151276, -0.007898656651377678, -0.04973351210355759 },
			{ -0.00017102046695072204, -0.25746092200279236, 0.0797998383641243, -0.18756550550460815, 0.022998208180069923, -0.08842680603265762, 0.0746501013636589, 0.13232561945915222, 0.17459677159786224, -0.33071795105934143 },
			{ 0.09546827524900436, 0.25704655051231384, 0.05957446247339249, -0.20055773854255676, -0.10929574072360992, -0.09392697364091873, -0.06227881461381912, 0.22260333597660065, 0.1076967865228653, -0.30356648564338684 },
			{ -0.00645827641710639, 0.23791472613811493, 0.09096363931894302, -0.3135042190551758, 0.03519244119524956, -0.03568849340081215, -0.08485370129346848, -0.018424468114972115, 0.07736778259277344, -0.07849496603012085 },
			{ -0.13196243345737457, 0.16117440164089203, 0.07565276324748993, -0.21942003071308136, 0.08024431020021439, -0.13461484014987946, -0.1487884819507599, 0.049868084490299225, -0.12486819177865982, 0.025719158351421356 },
			{ 0.02326379343867302, 0.05213380604982376, -0.022170066833496094, -0.15054020285606384, 0.15343716740608215, 0.016053033992648125, 0.04066452383995056, 0.06910832971334457, -0.180132195353508, 0.15474966168403625 },
			{ 0.04330701380968094, -0.31797656416893005, -0.006724080536514521, 0.029998842626810074, -0.061828333884477615, 0.11180746555328369, 0.24787375330924988, 0.08738075941801071, -0.06807146221399307, 0.025515228509902954 },
			{ 0.05650008097290993, -0.020038997754454613, -0.15830260515213013, -0.0032446880359202623, -0.1130850613117218, -0.005924122873693705, 0.0531274639070034, 0.06622705608606339, -0.07949406653642654, -0.027136582881212234 },
			{ 0.08991090208292007, -0.1467795968055725, -0.10224185883998871, -0.031006954610347748, 0.03059207834303379, -0.11065463721752167, -0.0591365285217762, 0.12756240367889404, -0.02737000770866871, 0.06918725371360779 },
			{ 0.03655559942126274, -0.03393587842583656, -0.19907289743423462, 0.0642179325222969, 0.12833306193351746, 0.05492180213332176, 0.0006997991586104035, 0.05225323885679245, -0.0060623567551374435, -0.0011700500035658479 },
			{ -0.0707920715212822, 0.03946800157427788, -0.0820602998137474, -0.048877790570259094, -0.04804380610585213, -0.09712962806224823, -0.023160068318247795, -0.12971429526805878, 0.11714032292366028, 0.023311151191592216 },
			{ -0.01055158395320177, 0.05850790813565254, 0.15108893811702728, -0.07569467276334763, -0.1218939796090126, -0.05102894827723503, -0.11670589447021484, -0.18553070724010468, -0.05742231383919716, -0.11485833674669266 },
			{ 0.022640515118837357, 0.05382825434207916, -0.018194740638136864, -0.11666591465473175, -0.17586760222911835, -0.043550483882427216, -0.1621980518102646, -0.10054995119571686, 0.09304133802652359, 0.028437525033950806 },
			{ 0.07818413525819778, 0.035584207624197006, 0.12886030972003937, -0.0011357872281223536, -0.11533812433481216, 0.03405940160155296, -0.05444430559873581, -0.14026230573654175, -0.012534943409264088, -0.08817019313573837 },
			{ -0.035721153020858765, -0.16240522265434265, 0.09900880604982376, -0.043824028223752975, -0.24221359193325043, 0.17295239865779877, -0.038354311138391495, -0.09062892943620682, 0.08480890840291977, -0.1399536281824112 },
			{ 0.037699151784181595, -0.04777219146490097, 0.16496281325817108, -0.18386009335517883, -0.05868496000766754, -0.05879862979054451, 0.02656002715229988, 0.12058929353952408, 0.21981880068778992, -0.37275436520576477 },
			{ 0.07249612361192703, 0.0754309594631195, 0.010331816039979458, -0.284576952457428, 0.030277736485004425, -0.15167386829853058, 0.05688231438398361, 0.10832492262125015, 0.13680614531040192, -0.15317034721374512 },
			{ -0.006995388772338629, -0.004647138528525829, 0.002973816590383649, -0.2805998921394348, 0.0715857744216919, -0.0398763082921505, -0.07290768623352051, 0.049474555999040604, -0.03710798919200897, 0.1586458832025528 },
			{ -0.11267631500959396, -0.0778588280081749, -0.050655994564294815, -0.2167370766401291, 0.12569373846054077, 0.0223716888576746, -0.06685071438550949, 0.05356909707188606, -0.14555753767490387, 0.06840721517801285 },
			{ 0.04696087911725044, -0.06911318749189377, -0.15846268832683563, -0.03921564668416977, 0.1267375946044922, 0.010907470248639584, 0.01512827817350626, 0.016606736928224564, -0.10976043343544006, 0.10090010613203049 },
			{ -0.022628387436270714, 0.013399645686149597, -0.07110840082168579, 0.13283035159111023, 0.016826065257191658, -0.024311598390340805, 0.11711351573467255, -0.04176302254199982, 0.08616453409194946, -0.10237511992454529 },
			{ -0.03527577966451645, 0.1513228416442871, -0.11892375349998474, 0.02705463394522667, -0.014667198993265629, -0.03450845181941986, 0.035466864705085754, -0.02208712510764599, 0.10199669748544693, -0.005224786698818207 },
			{ 0.10145459324121475, 0.1099328026175499, -0.05875343829393387, 0.04932934045791626, -0.1060262992978096, -0.11282860487699509, -0.07489129155874252, 0.21848267316818237, 0.0033895003143697977, -0.04598093405365944 },
			{ 0.08409861475229263, 0.025041447952389717, -0.07963663339614868, 0.051873255521059036, 0.024828050285577774, 0.04845970869064331, 0.047854915261268616, -0.060667626559734344, 0.07922126352787018, -0.1172047033905983 },
			{ -0.2110835164785385, 0.09800633788108826, 0.09952618926763535, -0.06448349356651306, -0.2085062563419342, -0.024034574627876282, -0.05551432445645332, -0.14337964355945587, -0.09965330362319946, 0.15739156305789948 },
			{ 0.02599753439426422, 0.028236525133252144, 0.021304141730070114, 0.06041959673166275, -0.3051522672176361, 0.1411687731742859, -0.06870720535516739, -0.08677677810192108, -0.1078457459807396, 0.07450839877128601 },
			{ 0.09612496942281723, 0.07994000613689423, 0.07358623296022415, -0.02976967580616474, -0.07475489377975464, -0.029672419652342796, -0.1251211166381836, 0.13529904186725616, 0.0759265348315239, -0.2146727442741394 },
			{ -0.019337885081768036, 0.01821679063141346, 0.22404314577579498, -0.09277347475290298, -0.01467890664935112, 0.02683248370885849, -0.052903905510902405, -0.13712820410728455, 0.04778388887643814, -0.0805637538433075 },
			{ -0.013736072927713394, 0.11621879041194916, 0.20336081087589264, -0.07265201210975647, 0.1341889649629593, 0.005053735803812742, -0.16139823198318481, -0.18051224946975708, -0.011285466141998768, -0.20003275573253632 },
			{ -0.0260373055934906, 0.09222106635570526, 0.09842082858085632, -0.23855936527252197, 0.1916942298412323, -0.013818526640534401, -0.0019088395638391376, 0.11969529092311859, -0.04675310105085373, -0.16001462936401367 },
			{ -0.017014313489198685, 0.09745190292596817, -0.01589883863925934, -0.04863809049129486, 0.17872145771980286, -0.09133144468069077, 0.003495402866974473, 0.13206444680690765, -0.11188292503356934, 0.06510762870311737 },
			{ 0.06026435270905495, -0.0011004082625731826, -0.06218176707625389, -0.21584250032901764, 0.14869481325149536, -0.08860808610916138, -0.035999398678541183, 0.2147078514099121, -0.015023298561573029, 0.1418513059616089 },
			{ -0.13124993443489075, -0.16500268876552582, -0.16911548376083374, 0.09045461565256119, 0.11407319456338882, -0.0059293415397405624, -0.004972056485712528, 0.062223464250564575, 0.11037871986627579, 0.001264553633518517 },
			{ -0.06549064815044403, 0.05840852111577988, -0.11003251373767853, 0.058432381600141525, 0.13272057473659515, 0.005975228734314442, 0.023345274850726128, -0.03148729354143143, 0.1194678246974945, 0.03818993270397186 },
			{ -0.013457508757710457, -0.046291887760162354, -0.11608298867940903, 0.02458576112985611, -0.03643203154206276, 0.013197643682360649, -0.025307416915893555, -0.004613607190549374, -0.013709358870983124, -0.09285885840654373 },
			{ 0.003041126998141408, 0.03297083452343941, 0.03441474586725235, -0.06917352229356766, -0.09193892776966095, 0.043276045471429825, 0.0019456876907497644, -0.05081964656710625, -0.034624889492988586, -0.06439486891031265 },
			{ -0.031888943165540695, 0.06217304244637489, -0.12571214139461517, 0.023964008316397667, -0.05284488573670387, 0.10926159471273422, 0.0854782834649086, 0.0709787979722023, -0.03036816045641899, -0.15521962940692902 },
			{ 0.03217656910419464, 0.0408802293241024, -0.1458214521408081, -0.01743427664041519, 0.029962124302983284, 0.09264039248228073, -0.09275251626968384, -0.10418619960546494, 0.09881453961133957, 0.08193547278642654 },
			{ -0.1132969856262207, -0.022083284333348274, 0.08741816133260727, -0.2174677848815918, -0.1502780169248581, 0.09468517452478409, -0.06861211359500885, -0.35309162735939026, -0.1752881556749344, 0.15961726009845734 },
			{ -0.03951973468065262, -0.004985760431736708, -0.017607377842068672, -0.011237763799726963, -0.3017275035381317, 0.04203546792268753, -0.09227003157138824, 0.21819913387298584, -0.20067477226257324, 0.015494278632104397 },
			{ 0.0035580191761255264, 0.14900729060173035, 0.14648288488388062, 0.12588068842887878, -0.22285491228103638, -0.2099684327840805, -0.18311649560928345, 0.05592617020010948, -0.03569680079817772, -0.0019932109862565994 },
			{ -0.1386105865240097, 0.09410328418016434, 0.1674046814441681, -0.028728997334837914, -0.17873214185237885, -0.16533438861370087, -0.11228593438863754, 0.049108751118183136, -0.04074613377451897, 0.20793882012367249 },
			{ -0.10893714427947998, 0.26343604922294617, -0.02054564096033573, -0.12817855179309845, -0.04109262675046921, -0.09239796549081802, -0.1877189427614212, 0.15366509556770325, -0.0779191255569458, -0.03578990697860718 },
			{ -0.006098638288676739, -0.009555638767778873, 0.08888082951307297, -0.056298624724149704, -0.027750791981816292, -0.05779422074556351, -0.18359461426734924, 0.16537611186504364, -0.23016710579395294, 0.1242433488368988 },
			{ -0.04882492125034332, 0.10768523812294006, -0.07913453131914139, -0.07847413420677185, 0.04765857383608818, -0.12331486493349075, 0.006837829947471619, 0.08946304768323898, -0.0526297390460968, -0.036268219351768494 },
			{ -0.04862842708826065, -0.13363556563854218, -0.13706201314926147, 0.05670105293393135, 0.060482606291770935, -0.04051416739821434, -0.05954887717962265, -0.033076755702495575, 0.015448139980435371, 0.013244298286736012 },
			{ -0.14127953350543976, 0.002891490701586008, -0.15905757248401642, -0.022068077698349953, -0.030913913622498512, 0.022691721096634865, -0.1327243149280548, -0.014524904079735279, -0.004556204658001661, -0.02577744796872139 },
			{ -0.1463208645582199, 0.06573990732431412, -0.18342983722686768, 0.07209555804729462, 0.053577836602926254, 0.01912604458630085, -0.12046901881694794, -0.03628620505332947, 0.024796167388558388, -0.06626763194799423 },
			{ 0.004016997758299112, 0.011120795272290707, -0.021772317588329315, -0.04259442910552025, 0.04047400876879692, 0.09797872602939606, -0.04399339109659195, -0.017392873764038086, 0.02814994566142559, 0.014462382532656193 },
			{ 0.01368770096451044, 0.0591256245970726, -0.09233381599187851, 0.05312133952975273, 0.09287691116333008, 0.034089114516973495, -0.016892539337277412, -0.11627073585987091, 0.04507724940776825, -0.12087131291627884 },
			{ 0.03723107650876045, 0.06322036683559418, -0.10574941337108612, -0.09483113884925842, 0.07233323901891708, -0.010705104097723961, 0.054049212485551834, -0.09587498009204865, 0.11347591131925583, -0.0711643397808075 },
			{ -0.08203518390655518, -0.13271616399288177, 0.12437200546264648, -0.2205829620361328, -0.1072101891040802, 0.05793120712041855, -0.3231378197669983, -0.17567411065101624, 0.07324939966201782, 0.05427445471286774 },
			{ -0.10980607569217682, 0.0903799757361412, 0.17925499379634857, -0.18644195795059204, -0.2522771656513214, 0.14828096330165863, -0.15820766985416412, -0.23302897810935974, -0.18864673376083374, 0.06586983054876328 },
			{ 0.08405046910047531, 0.008597757667303085, -0.10661202669143677, -0.00739656388759613, -0.17409402132034302, 0.04233342409133911, 0.028055189177393913, 0.014931421726942062, -0.21022357046604156, 0.023926129564642906 },
			{ -0.012927793897688389, -0.055396437644958496, -0.18340027332305908, 0.12079306691884995, -0.15118952095508575, -0.07322139292955399, -0.083583764731884, -0.07186700403690338, -0.18139855563640594, 0.04094395041465759 },
			{ -0.1277475655078888, 0.020113026723265648, -0.13885508477687836, 0.03437361493706703, -0.19848090410232544, -0.06952518969774246, -0.04196355119347572, 0.1974816769361496, -0.04138420522212982, 0.13389930129051208 },
			{ -0.14182783663272858, -0.05578840523958206, -0.1632678061723709, -0.011933086439967155, -0.06588400155305862, -0.010656528174877167, -0.13916148245334625, 0.21680948138237, -0.25755202770233154, 0.19540360569953918 },
			{ -0.16372370719909668, -0.08694719523191452, -0.2499718964099884, 0.01986289583146572, -0.021200940012931824, -0.11467716097831726, -0.26233553886413574, 0.1688189059495926, -0.02599070966243744, 0.0688757374882698 },
			{ -0.13671186566352844, -0.007277878001332283, -0.3112484812736511, 0.16617310047149658, -0.010343216359615326, -0.03820395842194557, -0.18220365047454834, 0.10332529991865158, -0.02771720103919506, 0.03290008008480072 },
			{ -0.32409000396728516, -0.1868201643228531, -0.2465050220489502, 0.11649060249328613, -0.12310406565666199, 0.016341811046004295, -0.21022120118141174, 0.016452951356768608, -0.02923235483467579, 0.17359887063503265 },
			{ -0.32697397470474243, 0.024700980633497238, -0.24205051362514496, 0.06957844644784927, 0.024070514366030693, -0.04323861002922058, -0.18655237555503845, 0.05150647088885307, 0.009577601216733456, 0.07903928309679031 },
			{ -0.3154239058494568, -0.08581317216157913, -0.01544856745749712, 0.004580057691782713, -0.11384274810552597, 0.12311121821403503, -0.17278650403022766, 0.19397567212581635, 0.10433657467365265, 0.06841076910495758 },
			{ -0.2618517279624939, -0.11798615753650665, -0.03990379720926285, 0.05215024575591087, -0.11006452143192291, -0.025123735889792442, -0.252249538898468, -0.0393795371055603, 0.025752423331141472, 0.05411823093891144 },
			{ -0.4079582393169403, 0.043562933802604675, -0.11781727522611618, 0.06506555527448654, -0.1461205929517746, 0.12793588638305664, 0.05805690214037895, 0.06158318370580673, 0.025199616327881813, 0.08892486989498138 },
			{ -0.22742950916290283, -0.13031317293643951, -0.1220710501074791, -0.1105576902627945, -0.2778114676475525, -0.014668702147901058, -0.3539173901081085, -0.020683184266090393, -0.001181878731586039, 0.16086935997009277 },
			{ -0.23184360563755035, 0.027929365634918213, -0.040152739733457565, -0.13114647567272186, -0.23189052939414978, 0.2054506093263626, -0.24320019781589508, 0.0058258106000721455, -0.25261497497558594, 0.06719096750020981 },
			{ -0.021579919382929802, 0.06659802049398422, 0.027924923226237297, -0.14013344049453735, -0.018007792532444, 0.2084207832813263, 0.011888128705322742, -0.09940005093812943, -0.33475732803344727, 0.03224729374051094 },
			{ 0.09384045749902725, 0.07827261835336685, 0.041165176779031754, -0.0013268361799418926, -0.10112817585468292, 0.007225807290524244, -0.02132280543446541, 0.029675684869289398, -0.13306227326393127, -0.06863556802272797 },
			{ -0.025068286806344986, 0.15832410752773285, -0.014133095741271973, -0.026884980499744415, -0.020917188376188278, 0.10930832475423813, 0.09214421361684799, 0.03057425282895565, -0.18922388553619385, 0.0002073147043120116 },
			{ 0.08966249972581863, 0.09791939705610275, 0.001078326953575015, 0.07602252811193466, -0.10886039584875107, 0.10633902996778488, 0.12824949622154236, 0.08893176168203354, -0.10640111565589905, 0.036838237196207047 },
			{ -0.050138603895902634, -0.02410294860601425, 0.104901984333992, -0.17757265269756317, -0.32705172896385193, 0.08097788691520691, 0.2856349050998688, -0.07663162052631378, -0.13035471737384796, -0.1556284874677658 },
			{ -0.1339305341243744, 0.0596480593085289, 0.06809397041797638, -0.12511901557445526, -0.24747100472450256, 0.07690761238336563, 0.24452748894691467, -0.17469775676727295, -0.3653433322906494, -0.16163888573646545 },
			{ -0.17762187123298645, 0.07118035852909088, -0.014667290262877941, -0.0939239114522934, -0.2498503178358078, 0.064975805580616, 0.23538340628147125, -0.17225658893585205, -0.3249908685684204, -0.1834457963705063 },
			{ -0.03092571161687374, 0.16499626636505127, -0.038482364267110825, -0.039603546261787415, -0.18284833431243896, -0.04245860129594803, 0.22952088713645935, -0.05732253938913345, -0.2745215594768524, -0.2637227773666382 },
			{ -0.05777902901172638, 0.1602800190448761, 0.0017758950125426054, 0.11917731910943985, -0.28894323110580444, -0.20850259065628052, 0.19876456260681152, -0.10081568360328674, -0.046914998441934586, -0.2289218157529831 },
			{ 0.019280876964330673, 0.1376640945672989, -0.2048363834619522, 0.17034974694252014, -0.26368966698646545, 0.1176755428314209, 0.1652635782957077, 0.03649568930268288, -0.037397004663944244, -0.1852826178073883 },
			{ -0.10887142270803452, 0.06691562384366989, -0.14901970326900482, -0.05223209410905838, -0.006220351904630661, -0.24225787818431854, 0.34857216477394104, -0.049719322472810745, 0.04163715988397598, -0.11947296559810638 },
			{ -0.04200243577361107, 0.1703999936580658, -0.14969737827777863, -0.2260054647922516, -0.08060139417648315, 0.1181156262755394, 0.2578396797180176, 0.0011611331719905138, -0.11618180572986603, -0.15505357086658478 },
			{ -0.038396913558244705, 0.05278317630290985, 0.0641055777668953, -0.20079293847084045, -0.09726230800151825, 0.05371420085430145, 0.08205848187208176, 0.014129606075584888, -0.09380818903446198, -0.09072808921337128 },
			{ 0.01828218623995781, 0.21300870180130005, -0.039528559893369675, -0.10735739022493362, 0.015389635227620602, 0.10966190695762634, -0.03480924665927887, 0.1307796984910965, -0.2158380150794983, 0.021727461367845535 },
			{ -0.029053466394543648, 0.08696304261684418, 0.12599191069602966, -0.042683836072683334, -0.04076879844069481, 0.11968871206045151, -0.017773212864995003, 0.021606020629405975, -0.12939944863319397, 0.05408439785242081 },
			{ -0.05319657921791077, 0.1347450464963913, -0.09084764122962952, 0.04517768323421478, 0.020191382616758347, 0.11864427477121353, -0.03676152229309082, 0.09534338861703873, -0.18290813267230988, -0.018362613394856453 },
			{ 0.09493442624807358, 0.1961263120174408, -0.2617657482624054, 0.08335521072149277, -0.12451306730508804, 0.036321185529232025, 0.1977687031030655, 0.10182605683803558, -0.2521316707134247, 0.01623777113854885 },
			{ 0.08399110287427902, 0.08773194253444672, -0.08758009225130081, -0.05266466364264488, -0.0924602821469307, -0.15916873514652252, 0.20789434015750885, -0.015430448576807976, -0.022983571514487267, -0.2137204259634018 },
			{ 0.02193407714366913, -0.026305997744202614, 0.032648056745529175, -0.06240060180425644, -0.15855292975902557, 0.06121295690536499, 0.16637195646762848, -0.022537484765052795, -0.013446329161524773, -0.23211605846881866 },
			{ -0.005391233135014772, -0.007296635303646326, 0.09001053124666214, -0.07606963068246841, -0.049572695046663284, -0.017961088567972183, 0.14622868597507477, -0.14768445491790771, -0.03145960718393326, 0.021599240601062775 },
			{ -0.02080734446644783, 0.06931807845830917, 0.039177700877189636, -0.15601983666419983, 0.03753490746021271, -0.14945100247859955, 0.0978914350271225, -0.04392210394144058, 0.15505845844745636, -0.19254277646541595 },
			{ 0.0531705878674984, 0.17847761511802673, 0.06224541738629341, 0.04672630503773689, 0.2217058688402176, -0.14331656694412231, 0.11746625602245331, -0.14670586585998535, -0.005713342688977718, -0.41637101769447327 },
			{ -0.018586674705147743, 0.06810950487852097, -0.01186403725296259, 0.13957656919956207, 0.1492387354373932, -0.1284915655851364, -0.03144870325922966, -0.2838481068611145, -0.060042958706617355, -0.44064798951148987 },
			{ -0.06901253014802933, -0.006686058826744556, 0.04523460939526558, 0.02110264077782631, 0.2050936371088028, -0.201198548078537, 0.04984326660633087, -0.5171253085136414, 0.06662406027317047, -0.5832443237304688 },
			{ -0.12462672591209412, 0.24809370934963226, -0.16441214084625244, -0.019657637923955917, 0.22052636742591858, -0.10914197564125061, 0.16676141321659088, -0.25877296924591064, -0.042152777314186096, -0.6968523859977722 },
			{ -0.03366134688258171, 0.049310967326164246, -0.12131740897893906, -0.4022073447704315, 0.28584933280944824, -0.06590322405099869, 0.20443613827228546, -0.09484241157770157, -0.14100688695907593, -0.5728784203529358 },
			{ -0.2375101000070572, 0.12094806879758835, 0.03839581459760666, -0.18580365180969238, 0.20455050468444824, 0.036724239587783813, 0.17762503027915955, -0.08920987695455551, -0.17572817206382751, -0.33464527130126953 },
			{ -0.09859952330589294, 0.21386338770389557, 0.00891932938247919, -0.05702224373817444, 0.2600868344306946, 0.09189283847808838, -0.0452931672334671, 0.023773690685629845, -0.22343800961971283, -0.1557384431362152 },
			{ -0.020001230761408806, 0.14567776024341583, 0.0015311005990952253, -0.06543031334877014, -0.14105086028575897, -0.06328321248292923, -0.0375480130314827, 0.02774074301123619, -0.12546385824680328, -0.08046117424964905 },
			{ -0.07161767035722733, 0.06683782488107681, -0.04480341449379921, 0.04944312572479248, -0.04753945767879486, 0.127308651804924, 0.003641658928245306, -0.05690388008952141, -0.09436647593975067, -0.12824545800685883 },
			{ 0.03962090238928795, 0.12133896350860596, -0.08067328482866287, -0.07742603123188019, 0.004640788305550814, 0.057526543736457825, 0.12239884585142136, -0.06544524431228638, -0.3123966455459595, -0.21909929811954498 },
			{ 0.035907942801713943, 0.17307142913341522, -0.13690608739852905, -0.052221473306417465, 0.05013183131814003, -0.010954256169497967, 0.027487555518746376, 0.08258422464132309, -0.03843481466174126, -0.04717084392905235 },
			{ -0.06429660320281982, 0.024745963513851166, -0.10349173843860626, 0.01786799728870392, 0.06560144573450089, 0.05618329346179962, -0.0043429299257695675, 0.0070835743099451065, -0.05187273770570755, -0.08111396431922913 },
			{ -0.02565731666982174, 0.1194717213511467, -0.07451608031988144, -0.011796590872108936, 0.03268445283174515, 0.04949643090367317, 0.0416535809636116, 0.08812807500362396, -0.09536705911159515, -0.06302911043167114 },
			{ -0.13215024769306183, 0.09784811735153198, -0.08807776123285294, 0.00233013485558331, 0.07857082039117813, -0.14415200054645538, -0.13455639779567719, 0.04013499245047569, 0.03600893169641495, -0.10797680914402008 },
			{ -0.09195572882890701, 0.055495504289865494, 0.00875183567404747, 0.11314481496810913, 0.059504613280296326, -0.11917347460985184, -0.0015596338780596852, -0.041130729019641876, -0.0011807011906057596, 0.02200007252395153 },
			{ -0.07137882709503174, -0.017094727605581284, 0.10889827460050583, 0.11031777411699295, 0.1554722934961319, -0.20390364527702332, -0.12540633976459503, -0.23150794208049774, -0.03841341286897659, -0.08892642706632614 },
			{ 0.12396316230297089, 0.08483222872018814, 0.07302354276180267, 0.029371660202741623, 0.09334642440080643, -0.25590047240257263, -0.14347198605537415, -0.2989984154701233, -0.10783703625202179, -0.1313684582710266 },
			{ 0.050879623740911484, 0.16979901492595673, 0.13620959222316742, 0.04923065006732941, 0.2334630787372589, -0.2912881374359131, 0.02533947117626667, -0.5215931534767151, -0.12789982557296753, -0.13098503649234772 },
			{ -0.024368679150938988, 0.036396998912096024, 0.09965638816356659, 0.056532375514507294, 0.39707136154174805, -0.24412347376346588, -0.06763149052858353, -0.07302802801132202, -0.012304012663662434, -0.5252095460891724 },
			{ -0.17395111918449402, 0.0483083575963974, 0.24638204276561737, 0.0021661831997334957, 0.29499316215515137, -0.23938976228237152, 0.0795542523264885, -0.25465521216392517, -0.0031021663453429937, -0.2797580361366272 },
			{ 0.028283987194299698, 0.10915551334619522, 0.06918858736753464, -0.10146605223417282, 0.15477602183818817, 0.028458282351493835, 0.04654041305184364, -0.06142205372452736, 0.0197660643607378, -0.3429839015007019 },
			{ 0.040346622467041016, 0.0811772271990776, 0.03637656569480896, -0.1966375708580017, -0.1540263593196869, 0.06798901408910751, 0.014728076756000519, 0.10129150748252869, -0.17031781375408173, -0.1556011140346527 },
			{ -0.015092573128640652, 0.0553031750023365, -0.028526298701763153, 0.012131083756685257, -0.04603954032063484, -0.1529567539691925, -0.040700312703847885, 0.0906841903924942, -0.19335253536701202, -0.10943124443292618 },
			{ -0.28360673785209656, 0.018841516226530075, -0.03713231906294823, -0.08851844817399979, 0.13235615193843842, -0.024373799562454224, -0.020810119807720184, 0.1615799367427826, -0.08793581277132034, -0.15486861765384674 },
			{ 0.04176116734743118, 0.17244820296764374, -0.29451602697372437, 0.02374373935163021, 0.01211412064731121, 0.004881506320089102, 0.04184897989034653, 0.27450093626976013, -0.11593972891569138, -0.12727397680282593 },
			{ -0.1263544261455536, 0.00514479074627161, -0.07366940379142761, -0.05955582112073898, 0.09072329103946686, 0.032621487975120544, -0.11881427466869354, 0.2069014608860016, -0.08325391262769699, -0.13683457672595978 },
			{ -0.12678447365760803, 0.15797705948352814, -0.06628704816102982, -0.0363427959382534, 0.12670747935771942, -0.04541265219449997, -0.1425754278898239, 0.1878175437450409, -0.11091298609972, -0.12070151418447495 },
			{ 0.03321867063641548, 0.08369024097919464, 0.03788872808218002, -0.03602852672338486, 0.13073007762432098, -0.041911251842975616, -0.11074957251548767, 0.06355924159288406, 0.030694257467985153, -0.07496077567338943 },
			{ -0.007756375707685947, 0.05155033618211746, 0.1085977628827095, 0.10407863557338715, 0.022947052493691444, -0.14278025925159454, -0.23243014514446259, -0.0268484428524971, -0.044243648648262024, 0.07846289128065109 },
			{ 0.016888180747628212, 0.06623886525630951, 0.01693763956427574, 0.0766746923327446, 0.11296064406633377, -0.21080656349658966, -0.044960979372262955, 0.024896299466490746, -0.0021207542158663273, -0.0755024179816246 },
			{ -0.021805468946695328, 0.014033467508852482, 0.11733206361532211, 0.05448691174387932, 0.04575779289007187, -0.209928959608078, -0.19145554304122925, -0.0021593107376247644, -0.02214404195547104, 0.06997024267911911 },
			{ 0.01770131103694439, -0.07845206558704376, 0.08174578845500946, 0.05654095485806465, 0.03954868018627167, -0.30126312375068665, -0.15881285071372986, -0.10433346778154373, 0.0081777423620224, 0.019747616723179817 },
			{ 0.012359333224594593, 0.030438397079706192, 0.12810474634170532, -0.005704466253519058, 0.09575498104095459, -0.2878296673297882, -0.17564861476421356, -0.17259259521961212, 0.09361931681632996, 0.05591325834393501 },
			{ 0.09542445093393326, 0.10424328595399857, 0.060308974236249924, -0.023774294182658195, 0.09164851903915405, -0.2166612595319748, -0.11032158881425858, -0.11660642921924591, -0.0584510937333107, -0.03289083391427994 },
			{ -0.1077885776758194, -0.20841661095619202, 0.2188234031200409, -0.18975195288658142, 0.09835706651210785, 0.043622422963380814, -0.0079704150557518, -0.1932288408279419, 0.17617233097553253, -0.10530494153499603 },
