/*
 * This file is auto-generated by gen-weights.py
 */

#pragma once

#include "definitions.h"


// Dense layer weights.
float dense_weights[FLAT_SIZE][DENSE_SIZE]
	 = {
			{ 0.04555589705705643, -0.022995147854089737, -0.0009803824359551072, -0.004432573448866606, 0.003570759203284979, -0.04097984358668327, 0.01474067848175764, 0.006509827449917793, -0.05275359004735947, 0.02326173521578312 },
			{ -0.023215321823954582, -0.04985411465167999, 0.02511717937886715, 0.04086003080010414, -0.006306825205683708, 0.03819587454199791, 0.02235349453985691, 0.007782339118421078, -0.004795716609805822, -0.03172023966908455 },
			{ -0.02280586212873459, 0.05468636751174927, -0.04851783066987991, 0.008252982050180435, 0.0142082953825593, 0.0210187416523695, 0.020389940589666367, 0.005374316591769457, 0.0093464320525527, -0.053735990077257156 },
			{ 0.02975974604487419, 0.05534883588552475, 0.002997503150254488, -0.048486124724149704, -0.04196130484342575, 0.02266089804470539, 0.08311780542135239, 0.04537586122751236, 0.01932063326239586, 0.005864035803824663 },
			{ -0.054182346910238266, -0.05023998022079468, 0.05564269796013832, 0.05438943952322006, -0.043720558285713196, -0.0375976487994194, 0.02268459089100361, -0.044792890548706055, -0.031690437346696854, -0.004577846731990576 },
			{ 0.028539195656776428, -0.031779468059539795, 0.019001754000782967, 0.029618725180625916, -0.09429094940423965, -0.04230286926031113, 0.03997883200645447, 0.040892343968153, -0.07156440615653992, 0.03268672898411751 },
			{ 0.02273598685860634, 0.09671169519424438, 0.035293787717819214, -0.05226448178291321, -0.05287935957312584, -0.06245991587638855, -0.01502249762415886, -0.0010252268984913826, 0.03486087918281555, -0.0030950692016631365 },
			{ -0.10348834842443466, 0.1736512929201126, -0.03338289260864258, -0.006698179058730602, -0.07958810776472092, -0.02086164988577366, 0.040877815335989, 0.059359192848205566, 0.006053671706467867, -0.0278454776853323 },
			{ 0.0036610702518373728, 0.1486765444278717, 0.01581363007426262, -0.03058372065424919, -0.14303253591060638, 0.04901399463415146, 0.0657644271850586, 0.024739019572734833, -0.019764674827456474, 0.029023023322224617 },
			{ -0.05024363473057747, 0.0574309341609478, -0.07131490111351013, -0.09635212272405624, -0.01929517276585102, 0.1368691325187683, 0.02387148328125477, -0.03688505291938782, -0.049410004168748856, -0.05463598668575287 },
			{ 0.026937756687402725, 0.11763498187065125, -0.06881200522184372, -0.028840331360697746, -0.05733943730592728, -0.00857772771269083, 0.05719958245754242, 0.033986903727054596, 0.03743775933980942, 0.014759473502635956 },
			{ -0.04068385437130928, 0.017420480027794838, -0.055553678423166275, 0.028611335903406143, 0.03322859853506088, -0.004250297788530588, 0.0879875048995018, -0.0015094684204086661, 0.027140581980347633, -0.01770995743572712 },
			{ -0.05031429976224899, 0.014313447289168835, 0.045555442571640015, 0.012224340811371803, -0.03440295159816742, -0.06087392196059227, 0.02760995924472809, 0.022103620693087578, -0.007462127134203911, 0.008354407735168934 },
			{ -0.02262757159769535, 0.008853956125676632, -0.004567188210785389, -0.06064685061573982, -0.00108426867518574, -0.004220702685415745, -0.050077833235263824, 0.029374005272984505, -0.06945900619029999, 0.021876847371459007 },
			{ 0.009938668459653854, 0.045091770589351654, 0.059709154069423676, -0.05704369768500328, -0.027805155143141747, 0.04878497123718262, -0.007889763452112675, 0.015718480572104454, -0.06610595434904099, 0.032121144235134125 },
			{ -0.039714839309453964, 0.014588364399969578, 0.05560142919421196, -0.05671272426843643, -0.014650871977210045, 0.044749919325113297, 0.003031608648598194, 0.011734897270798683, -0.055243462324142456, -0.014286165125668049 },
			{ -0.011059398762881756, 0.013216054067015648, 0.03184197098016739, 0.08608455955982208, -0.022519396618008614, -0.06260669976472855, 0.0001810668909456581, -0.035490039736032486, 0.02725587598979473, 0.048706311732530594 },
			{ -0.0007710351492278278, 0.005120392423123121, -0.013755499385297298, 0.007509957533329725, -0.024378709495067596, -0.11300627142190933, 0.05276332423090935, -0.00444921525195241, 0.06271395832300186, 0.030713476240634918 },
			{ 0.005944694858044386, 0.13192982971668243, -0.017944971099495888, 0.09172426164150238, 0.009216925129294395, -0.07936889678239822, 0.07873906940221786, -0.05822259187698364, -0.026885299012064934, 0.013921311125159264 },
			{ 0.04648102819919586, 0.12701664865016937, -0.03714072331786156, 0.06724987924098969, -0.007105667609721422, 0.025689516216516495, 0.13499081134796143, -0.05058446153998375, -0.060183461755514145, -0.09966009855270386 },
			{ 0.049967940896749496, 0.09694058448076248, 0.03146495297551155, 0.036475930362939835, 0.06542190164327621, -0.09526198357343674, -0.13819287717342377, -0.01259439904242754, 0.025105442851781845, 0.05790601298213005 },
			{ 0.022329259663820267, 0.032713454216718674, -0.041585735976696014, -0.08811313658952713, 0.09700407087802887, 0.025654369965195656, -0.2150312066078186, -0.027608033269643784, 0.09703046828508377, 0.04595353826880455 },
			{ -0.03919573128223419, -0.00250434223562479, 0.08694905787706375, -0.021518470719456673, 0.07458678632974625, -0.03570714220404625, -0.06814467161893845, -0.02143719792366028, 0.1774575263261795, 0.032788608223199844 },
			{ 0.10744008421897888, 0.030682308599352837, 0.07418876886367798, -0.032212093472480774, 0.03622511401772499, -0.0324687622487545, -0.18802696466445923, -0.02195308357477188, 0.014529106207191944, 0.036280643194913864 },
			{ -0.06674560159444809, 0.09794260561466217, -0.12810379266738892, 0.07413263618946075, -0.05659901723265648, 0.08007029443979263, -0.008673179894685745, -0.007925143465399742, -0.06364519894123077, 0.002088298788294196 },
			{ 0.01695350371301174, -0.0685061514377594, -0.10745252668857574, 0.077096126973629, 0.14873003959655762, -0.03696044534444809, 0.09130869805812836, 0.050025682896375656, -0.023533007130026817, -0.061157312244176865 },
			{ -0.039188675582408905, -0.0159426461905241, -0.03888525813817978, -0.04105851799249649, 0.08693985641002655, 0.0667620450258255, 0.0321158803999424, -0.04930209368467331, -0.06047927588224411, 0.008119216188788414 },
			{ -0.02577422372996807, 0.02396603301167488, -0.046692658215761185, 0.021963538601994514, 0.04983828216791153, 0.07431598007678986, -0.0007617310620844364, 0.024742843583226204, -0.01751561090350151, -0.03557700663805008 },
			{ 0.059385813772678375, 0.06762738525867462, 0.030090272426605225, -0.027656003832817078, 0.027321498841047287, 0.025025688111782074, -0.04366275668144226, -0.015180476941168308, 0.0012022649170830846, -0.02362891100347042 },
			{ -0.010357178747653961, -0.0542827770113945, 0.02695964276790619, -0.03900778666138649, -0.024787362664937973, -0.04077567532658577, -0.0227858517318964, 0.042662762105464935, 0.02023184299468994, -0.04841722548007965 },
			{ 0.006806283723562956, 0.07403867691755295, -0.03313511237502098, 0.016960304230451584, -0.04213476553559303, -0.06088228523731232, 0.05802130699157715, 0.024077996611595154, -0.08532463759183884, 0.003555682022124529 },
			{ -0.07860598713159561, 0.042554132640361786, -0.20359037816524506, 0.046769917011260986, 0.05333108454942703, 0.012508104555308819, 0.09248141199350357, 0.09454085677862167, -0.04778958484530449, -0.15449200570583344 },
			{ -0.061461519449949265, 0.12245958298444748, -0.01984766125679016, 0.027867350727319717, 0.20330514013767242, 0.062032006680965424, -0.04728001356124878, 0.04226153343915939, -0.11006442457437515, -0.10322782397270203 },
			{ 0.015723226591944695, 0.15632875263690948, -0.15257622301578522, 0.11680778861045837, 0.12824319303035736, -0.02750828117132187, -0.003816787386313081, 0.08014915883541107, -0.1650245636701584, -0.18818384408950806 },
			{ -0.05886893719434738, -0.04355236142873764, 0.07605931907892227, 0.25498685240745544, 0.09975390136241913, -0.13938264548778534, -0.19484400749206543, 0.03255641832947731, 0.06725862622261047, -0.10445050895214081 },
			{ 0.05393408238887787, -0.05975465849041939, 0.15076720714569092, 0.013844662345945835, -0.009474861435592175, -0.12542223930358887, -0.2383325845003128, 0.0822606235742569, 0.11311469972133636, -0.04073628783226013 },
			{ -0.08332109451293945, -0.09924782812595367, -0.04136250168085098, 0.2611493766307831, 0.017288461327552795, -0.14209827780723572, -0.16488800942897797, 0.03163124620914459, 0.08032415807247162, 0.05628865957260132 },
			{ -0.03611728176474571, -0.18064221739768982, -0.030810652300715446, 0.025671299546957016, 0.06020025536417961, 0.03578781336545944, -0.25815123319625854, 0.18727950751781464, 0.1789988875389099, 0.03132138401269913 },
			{ -0.024376435205340385, 0.009515689685940742, -0.0936262384057045, 0.028005450963974, -0.054013896733522415, -0.09101767092943192, -0.11197204887866974, -0.0111384941264987, 0.034488141536712646, 0.06170770153403282 },
			{ 0.1534726768732071, 0.021008212119340897, 0.07247212529182434, 0.02580776996910572, -0.06136265769600868, -0.20972990989685059, -0.11058303713798523, 0.07720541954040527, -0.00866441149264574, -0.0479893758893013 },
			{ 0.012981746345758438, -0.07575534284114838, -0.0319674089550972, -0.03948278725147247, 0.13544200360774994, 0.1251983940601349, 0.09335907548666, -0.12920361757278442, 0.08739682286977768, -0.07423917949199677 },
			{ -0.08773753046989441, -0.0036022362764924765, 0.031076500192284584, -0.05162527784705162, 0.017216749489307404, -0.017220165580511093, 0.018192743882536888, -0.03903016820549965, -0.013929663226008415, -0.007664677686989307 },
			{ -0.023645013570785522, -0.004297708626836538, 0.06530921906232834, -0.03594718500971794, 0.016572212800383568, -0.052598752081394196, -0.032002292573451996, 0.07388587296009064, -0.03498188406229019, -0.016408175230026245 },
			{ -0.00443656463176012, -0.029083464294672012, -0.036197446286678314, 0.04138774052262306, -0.03385554254055023, -0.023792078718543053, 0.057157859206199646, 0.03994278609752655, -0.07792922109365463, 0.03963427245616913 },
			{ -0.06795167177915573, 0.064533531665802, -0.04494043067097664, 0.033558111637830734, 0.04728740453720093, -0.03565952181816101, 0.022209977731108665, 0.0485122874379158, -0.060114696621894836, -0.05909992381930351 },
			{ -0.04250629246234894, 0.1086447462439537, -0.11791832000017166, -0.05027259141206741, 0.10589524358510971, 0.010562746785581112, 0.07130451500415802, 0.3860442340373993, -0.07619207352399826, -0.19259165227413177 },
			{ 0.01578735187649727, 0.16834788024425507, -0.3072708249092102, 0.11482647806406021, 0.18863129615783691, -0.10302725434303284, -0.12274935096502304, 0.45920175313949585, -0.07337746024131775, -0.420663058757782 },
			{ -0.0020217709243297577, 0.11328640580177307, -0.05965616926550865, 0.09833309799432755, 0.2856473922729492, -0.014692635275423527, -0.19974000751972198, 0.38221225142478943, -0.23727792501449585, -0.46447092294692993 },
			{ -0.11238965392112732, -0.0983586311340332, -0.03827356919646263, 0.24409158527851105, 0.18392294645309448, -0.010530993342399597, -0.21430636942386627, 0.18069988489151, -0.013124302960932255, -0.06351743638515472 },
			{ 0.09008840471506119, -0.10736889392137527, 0.07758533209562302, 0.3409898281097412, 0.08694835752248764, -0.11463770270347595, -0.48154178261756897, -0.05435677617788315, -0.005042313132435083, 0.19647221267223358 },
			{ 0.280373752117157, -0.12895430624485016, 0.0069535402581095695, 0.10978581756353378, 0.08683016151189804, -0.18375718593597412, -0.42436158657073975, 0.0189768485724926, 0.09091661870479584, 0.1815631240606308 },
			{ 0.30587783455848694, -0.08135869354009628, 0.18790152668952942, 0.0812089592218399, -0.1633961945772171, -0.3350752890110016, -0.30845382809638977, 0.04477263242006302, 0.11180219799280167, 0.12635886669158936 },
			{ 0.1522185057401657, -0.11798032373189926, 0.047726694494485855, 0.007683139760047197, -0.12319454550743103, -0.15872538089752197, 0.01676759496331215, -0.15507440268993378, 0.14384537935256958, 0.012053882703185081 },
			{ 0.08419022709131241, 0.012398554012179375, -0.06983938068151474, -0.10108684003353119, -0.01025373861193657, -0.2265356481075287, 0.07985864579677582, 0.07475070655345917, 0.019598856568336487, 0.14040204882621765 },
			{ 0.14890815317630768, -0.03555263578891754, -0.06742958724498749, -0.130056232213974, 0.029302122071385384, 0.048280443996191025, -0.07197721302509308, 0.04671591520309448, 0.11580348759889603, -0.012635665014386177 },
			{ 0.03821558505296707, -0.0785854160785675, -0.0038235518150031567, -0.07348226010799408, 0.06268014758825302, 0.11658095568418503, -0.10830940306186676, -0.06834732741117477, 0.016864649951457977, -0.08261789381504059 },
			{ -0.017479930073022842, 0.04609207808971405, 0.0021195323206484318, -0.02428233064711094, 0.027669701725244522, -0.036770619451999664, -0.05639558658003807, 0.040353816002607346, -0.01875568926334381, -0.05841471627354622 },
			{ -0.004307827912271023, 0.06761325150728226, 0.007189258001744747, -0.009580211713910103, -0.03569518029689789, -0.06839840859174728, 0.05111685395240784, 0.10544786602258682, -0.042823873460292816, -0.002411704743281007 },
			{ -0.020922919735312462, 0.0674595758318901, -0.02173868753015995, -0.035401660948991776, 0.07816120237112045, 0.06807602196931839, -0.007285886909812689, 0.09496460109949112, -0.05681849271059036, -0.09942854940891266 },
			{ -0.06421428173780441, 0.08123015612363815, -0.12655706703662872, -0.05810133367776871, 0.08547350764274597, 0.0551232174038887, 0.03665928170084953, 0.36828747391700745, -0.04506722465157509, -0.29280054569244385 },
			{ -0.004624486900866032, 0.06957591325044632, -0.18996845185756683, -0.18828114867210388, 0.16149812936782837, 0.19502702355384827, -0.09413214772939682, 0.3935980498790741, 0.0026304617058485746, -0.23214270174503326 },
			{ 0.028544723987579346, -0.0268065445125103, -0.16391679644584656, -0.29850417375564575, 0.11499209702014923, 0.13703390955924988, -0.23945307731628418, 0.3508603274822235, 0.11504372954368591, -0.2598928213119507 },
			{ 0.04410563409328461, -0.15797366201877594, 0.0728234052658081, -0.36806410551071167, -0.07863970100879669, 0.21079546213150024, -0.2493327111005783, 0.19597451388835907, 0.2176603376865387, -0.023098336532711983 },
			{ 0.14064425230026245, 0.05447755381464958, 0.24652625620365143, -0.1880120038986206, -0.008655590005218983, -0.04739490523934364, -0.2953531742095947, -0.23170332610607147, 0.11960450559854507, 0.14666806161403656 },
			{ 0.17056377232074738, -0.013013535179197788, 0.24049857258796692, -0.01509113423526287, -0.23749861121177673, -0.07110396027565002, -0.27303802967071533, -0.06551769375801086, 0.053345419466495514, 0.22001373767852783 },
			{ 0.22547473013401031, -0.10167788714170456, 0.13722752034664154, -0.09501155465841293, -0.12116900831460953, 0.0006243606912903488, -0.1950700581073761, -0.09183326363563538, 0.16165511310100555, 0.2082556188106537 },
			{ 0.25920605659484863, -0.22059319913387299, -0.057927705347537994, -0.19054384529590607, -0.1848496049642563, -0.02906203456223011, -0.013814921490848064, -0.06967878341674805, 0.25983700156211853, 0.17933297157287598 },
			{ 0.10510173439979553, -0.043119631707668304, -0.1755991280078888, -0.036938004195690155, -0.10886363685131073, -0.3024432957172394, 0.17367865145206451, -0.0403953455388546, 0.15855839848518372, 0.0690734013915062 },
			{ 0.09933088719844818, 0.023046376183629036, 0.0490601472556591, 0.0034116199240088463, -0.0822940543293953, 0.04509773105382919, -0.12737299501895905, -0.0027245688252151012, 0.1795140504837036, 0.004725759848952293 },
			{ -0.016400203108787537, 0.0422707237303257, -0.0037450355011969805, -0.05661090090870857, 0.0019199865637347102, 0.22075676918029785, -0.03715479001402855, -0.10172945261001587, -0.01770124025642872, 0.04651910066604614 },
			{ -0.022310905158519745, -0.02461550571024418, -0.0346677303314209, 0.059833552688360214, 0.009884130209684372, -0.016650265082716942, -0.00512723857536912, 0.06701197475194931, -0.05849567800760269, 0.0034400802105665207 },
			{ 0.02057434618473053, -0.041844442486763, 0.017111921682953835, 0.014071342535316944, -0.045204922556877136, 0.002394073875620961, -0.03398006781935692, 0.025559501722455025, -0.005817226599901915, 0.01862064190208912 },
			{ -0.050194088369607925, 0.084022156894207, -0.053983449935913086, -0.03972220793366432, -0.09516047686338425, 0.003976589534431696, -0.025445077568292618, 0.08979502320289612, -0.08353224396705627, -0.0034857536666095257 },
			{ -0.08817542344331741, 0.017751384526491165, -0.024107128381729126, -0.08276978135108948, -0.01849050261080265, 0.043306395411491394, 0.06254007667303085, 0.07608165591955185, 0.14274850487709045, -0.030914947390556335 },
			{ -0.03265037015080452, -0.08777312189340591, -0.008262258023023605, -0.3483181297779083, 0.08254211395978928, 0.0846925601363182, -0.0032406351529061794, 0.2484782338142395, 0.3123447000980377, 0.023688308894634247 },
			{ 0.09447063505649567, -0.1800311952829361, -0.04459493234753609, -0.4845356345176697, -0.07475152611732483, 0.3421630859375, -0.10404013097286224, 0.17647460103034973, 0.24533620476722717, 0.11063434928655624 },
			{ 0.008562588132917881, -0.16108568012714386, 0.12176868319511414, -0.5209689736366272, -0.007433990016579628, 0.2887533903121948, -0.2614103853702545, 0.002908090827986598, 0.3634607791900635, 0.040343038737773895 },
			{ 0.04648255556821823, 0.08337967842817307, 0.01743970438838005, -0.24177341163158417, 0.033814698457717896, 0.07081419974565506, -0.015310056507587433, -0.06700064986944199, 0.2564831078052521, -0.3162393569946289 },
			{ 0.0895562618970871, 0.07279106974601746, -0.05558427795767784, -0.2189151495695114, -0.05304256081581116, 0.1361907422542572, 0.11890365928411484, -0.16772550344467163, 0.07943374663591385, -0.07725757360458374 },
			{ 0.2596588730812073, -0.19794227182865143, 0.11744063347578049, -0.04112757369875908, -0.014026318676769733, 0.2911909818649292, 0.031514283269643784, -0.24055525660514832, -0.1302446722984314, 0.07972066849470139 },
			{ 0.1416068822145462, -0.09937883913516998, 0.011476749554276466, -0.09924359619617462, 0.07043685019016266, 0.061492983251810074, 0.038438644260168076, -0.17363344132900238, 0.0709165707230568, 0.05751312896609306 },
			{ 0.24203328788280487, 0.05526493862271309, -0.1463553011417389, -0.18824003636837006, 0.0736052617430687, -0.1658613085746765, -0.010577356442809105, 0.020874474197626114, -0.09650015830993652, 0.15111544728279114 },
			{ 0.0951940268278122, -0.061022039502859116, -0.0359620526432991, -0.038439132273197174, -0.0555788092315197, -0.12408944964408875, 0.07537968456745148, -0.13120195269584656, 0.04367849603295326, 0.16331550478935242 },
			{ -0.08709854632616043, 0.052532657980918884, 0.09617742896080017, -0.07689489424228668, -0.05551020801067352, 0.0905207172036171, 0.017062468454241753, -0.06830967962741852, -0.02269953489303589, -0.014752622693777084 },
			{ 0.030965665355324745, 0.04265553876757622, 0.01643255166709423, 0.021070871502161026, 0.047892797738313675, 0.011055421084165573, -0.0068685454316437244, -0.0010976046323776245, 0.017956262454390526, 0.0035717447753995657 },
			{ -0.046646326780319214, -0.008167837746441364, -0.048934176564216614, -0.03504960611462593, -0.03071615844964981, -0.03606380149722099, -0.03185860812664032, 0.0587911382317543, -0.042053673416376114, -0.060902513563632965 },
			{ -0.022065801545977592, 0.07240024209022522, 0.03284868970513344, -0.01751217618584633, -0.040006548166275024, -0.019638877362012863, 0.0324455201625824, -0.013976816087961197, 0.011936439201235771, 0.04217454791069031 },
			{ -0.09822038561105728, 0.029089778661727905, -0.10228578746318817, 0.11491049826145172, -0.15580902993679047, -0.03068847768008709, 0.08785367757081985, -0.18157640099525452, 0.06312593817710876, 0.19175538420677185 },
			{ -0.031964946538209915, 0.011474098078906536, -0.05973930284380913, -0.035801779478788376, -0.15237466990947723, -0.057151250541210175, -0.054206568747758865, -0.21486946940422058, 0.22299101948738098, 0.2673819959163666 },
			{ 0.14698733389377594, -0.11401507258415222, -0.1805230677127838, -0.29830658435821533, -0.09132597595453262, 0.07297100126743317, -0.1735084354877472, -0.046536583453416824, 0.39157161116600037, 0.18926934897899628 },
			{ 0.05653218552470207, -0.19102829694747925, -0.08894804865121841, -0.4133325517177582, 0.07169216126203537, 0.0889006182551384, 0.02731383591890335, -0.06149201840162277, 0.49822402000427246, 0.042518142610788345 },
			{ 0.09536810964345932, 0.10964396595954895, 0.0325494222342968, -0.15854887664318085, -0.07768598198890686, 0.2776220142841339, 0.03031974285840988, -0.17840074002742767, -0.07532310485839844, -0.2023385912179947 },
			{ -0.07342895865440369, 0.07626812160015106, -0.11433374136686325, -0.13727980852127075, -0.002026999369263649, 0.328421413898468, 0.16576389968395233, -0.15403826534748077, -0.2996905744075775, 0.05496653914451599 },
			{ 0.0008061833796091378, -0.177036315202713, -0.26213112473487854, 0.022356880828738213, 0.2409389317035675, 0.09009364247322083, 0.12515394389629364, 0.04173459857702255, -0.0038147501181811094, -0.11240204423666 },
			{ 0.06481722742319107, -0.11916147172451019, -0.1709313839673996, 0.11886068433523178, 0.07372122257947922, 0.07921937853097916, 0.13187377154827118, 0.051451899111270905, -0.22458641231060028, -0.10690562427043915 },
			{ 0.1070079579949379, -0.024811219424009323, -0.20579200983047485, -0.16059894859790802, 0.09820783883333206, -0.07457100600004196, 0.042603444308042526, 0.1156044602394104, -0.028699547052383423, -0.01200986746698618 },
			{ 0.13514721393585205, 0.03581950068473816, -0.023132946342229843, -0.11081933230161667, 0.08769691735506058, 0.030820537358522415, 0.052171491086483, 0.07489798218011856, -0.08227404206991196, -0.1357775330543518 },
			{ 0.030656831339001656, 0.035266876220703125, 0.1315983682870865, -0.013876013457775116, -0.07174813747406006, -0.014618157409131527, -0.021850991994142532, 0.0414762943983078, -0.07431986927986145, -0.006391680333763361 },
			{ 0.014294538646936417, -0.018401773646473885, -0.05329403281211853, 0.05074701085686684, 0.002809645840898156, 0.02216893807053566, -0.0018681201618164778, 0.07264665514230728, -0.045266877859830856, -0.0003056788700632751 },
			{ -0.04623573273420334, -0.00010372653923695907, 0.011372538283467293, 0.02382706105709076, 0.04801245406270027, 0.028210334479808807, -0.028792621567845345, -0.04345313832163811, 0.025479484349489212, 0.02530672959983349 },
			{ -0.060507286339998245, -0.03490059822797775, -0.030127348378300667, 0.06978704035282135, -0.023145660758018494, 0.08490930497646332, -0.007142729125916958, -0.1719641387462616, -0.02139953151345253, 0.09740131348371506 },
			{ -0.13328756392002106, -0.09587990492582321, -0.14838820695877075, 0.0975375771522522, -0.14142847061157227, 0.25794997811317444, 0.12346534430980682, -0.30237796902656555, -0.055363431572914124, 0.12480558454990387 },
			{ 0.002734086476266384, 0.0065828002989292145, -0.1561780720949173, 0.22654758393764496, -0.03285897150635719, 0.2616109251976013, -0.08205335587263107, -0.23501509428024292, -0.24148385226726532, 0.19203439354896545 },
			{ -0.07398004829883575, -0.12910251319408417, -0.10120632499456406, -0.010436979122459888, 0.10164188593626022, 0.24832436442375183, -0.12309295684099197, -0.26417800784111023, 0.0957435742020607, 0.2095147967338562 },
			{ 0.18537183105945587, -0.19336555898189545, -0.022270765155553818, -0.10890601575374603, 0.1574692577123642, 0.294378399848938, 0.15540432929992676, -0.3770291805267334, 0.01232514064759016, 0.09433577209711075 },
			{ 0.01861797459423542, 0.0678349956870079, -0.06824621558189392, 0.019527975469827652, -0.008578185923397541, 0.3746119737625122, 0.2048838585615158, -0.2455795407295227, -0.10921286046504974, -0.22033238410949707 },
			{ -0.07833083719015121, -0.13679690659046173, -0.10795730352401733, 0.08184801787137985, -0.1580410897731781, 0.27101022005081177, 0.21336740255355835, -0.17302392423152924, 0.18258370459079742, -0.15406866371631622 },
			{ -0.07371703535318375, -0.1080828458070755, -0.22529129683971405, 0.4448913633823395, 0.16377122700214386, 0.02429776079952717, 0.15268459916114807, 0.026130812242627144, 0.02185637690126896, -0.29538270831108093 },
			{ -0.05417625606060028, -0.03552205115556717, -0.16135825216770172, 0.06746562570333481, 0.10954625904560089, 0.09873799979686737, 0.03173543140292168, 0.13836237788200378, 0.11814215779304504, -0.16111300885677338 },
			{ -0.07683702558279037, -0.10149884223937988, -0.08876267820596695, 0.06328847259283066, 0.1782705932855606, -0.04219147190451622, -0.055564165115356445, -0.01064564473927021, -0.029427746310830116, -0.08950359374284744 },
			{ 0.02401723898947239, 0.040495049208402634, 0.10289660096168518, 0.08506406098604202, 0.029353395104408264, 0.13378793001174927, -0.017391765490174294, -0.09831442683935165, 0.012063374742865562, -0.09847677499055862 },
			{ -0.06746421754360199, -0.004905270412564278, 0.23025153577327728, -0.04499996826052666, -0.02886749617755413, -0.04015180841088295, 0.06341928243637085, -0.0943281501531601, 0.005034868139773607, -0.01716575026512146 },
			{ -0.02435968816280365, 0.05471361428499222, 0.02592650055885315, 0.032136861234903336, -0.06396237015724182, -0.0590398833155632, -0.03905577212572098, 0.02692612074315548, 0.03341713547706604, 0.044030629098415375 },
			{ -0.04753353074193001, -0.01681484654545784, 0.023959776386618614, 0.08592481911182404, 0.0004506256664171815, 0.006841454189270735, 0.046848759055137634, -0.016222020611166954, -0.020652834326028824, 0.024960314854979515 },
			{ -0.04751869663596153, -0.038371503353118896, 0.05560604855418205, 0.10931897163391113, -0.05559851974248886, 0.07119259983301163, 0.053342390805482864, -0.02115255407989025, -0.005367456004023552, 0.05214664712548256 },
			{ -0.001724849920719862, -0.10654067993164062, -0.06175505742430687, 0.16233810782432556, -0.09604369103908539, 0.1366942673921585, 0.15117107331752777, -0.21691793203353882, -0.22385497391223907, 0.17356282472610474 },
			{ -0.04457390308380127, -0.06318118423223495, -0.23275615274906158, 0.31808459758758545, 0.031113673001527786, 0.24449999630451202, 0.02035127952694893, -0.12659473717212677, -0.34795963764190674, 0.15395838022232056 },
			{ -0.11584557592868805, -0.06392526626586914, -0.1345374584197998, 0.3439450263977051, 0.05786813050508499, 0.08890818804502487, -0.0740450844168663, -0.20228835940361023, -0.3315153121948242, 0.2705187499523163 },
			{ 0.12359873950481415, -0.06174363195896149, -0.14457941055297852, 0.24039208889007568, 0.06998354941606522, -0.020527655258774757, 0.17388103902339935, -0.20631995797157288, -0.17345091700553894, 0.046171631664037704 },
			{ -0.13905294239521027, -0.022693680599331856, -0.09715449064970016, 0.11139940470457077, 0.11586830765008926, 0.046640992164611816, 0.16871263086795807, -0.23922424018383026, 0.12344429641962051, -0.000517594744451344 },
			{ -0.09351295977830887, -0.13808390498161316, -0.28688231110572815, 0.4898702800273895, -0.18792103230953217, 0.06966592371463776, 0.2778312861919403, -0.24317876994609833, 0.4282914400100708, -0.28328076004981995 },
			{ -0.0390770323574543, -0.010740495286881924, -0.21665707230567932, 0.10848487168550491, -0.1641426533460617, 0.12399175018072128, 0.08568575233221054, 0.05027804896235466, 0.39173951745033264, -0.45827406644821167 },
			{ -0.08419287949800491, 0.1059207022190094, -0.06932365894317627, -0.00017279101302847266, 0.039297234266996384, 0.1002301424741745, -0.09583127498626709, -0.11996838450431824, 0.2552187144756317, -0.15347816050052643 },
			{ -0.07174469530582428, -0.06882056593894958, 0.050100233405828476, -0.03957868367433548, 0.11236683279275894, 0.0220190417021513, -0.07714278250932693, 0.08814350515604019, -0.02598223276436329, -0.057060156017541885 },
			{ -0.04198647290468216, 0.02197260595858097, -0.10584501922130585, -0.12660625576972961, 0.044666945934295654, 0.1454022377729416, 0.01727970875799656, 0.11387903988361359, -0.01084103249013424, -0.0023694734554737806 },
			{ 0.0025113592855632305, 0.04542909190058708, 0.08419732749462128, 0.0012238434283062816, -0.012306751683354378, 0.01835711859166622, 0.014196318574249744, -0.0007630153559148312, -0.022767076268792152, -0.055725596845149994 },
			{ 0.05131111666560173, -0.05437052622437477, 0.05745859071612358, -0.014134736731648445, -0.015133120119571686, -0.061906035989522934, -0.024532780051231384, 0.027854597195982933, 0.002164804143831134, 0.049124620854854584 },
			{ 0.0603882297873497, -0.005599839612841606, 0.04788198694586754, -0.02196892909705639, 0.011304190382361412, -0.04589900001883507, -0.05173816531896591, -0.034163229167461395, 0.016561424359679222, -0.035634543746709824 },
			{ -0.036501605063676834, -0.0684826523065567, -0.10539862513542175, 0.26388272643089294, -0.02204594388604164, 0.04864068701863289, 0.027556704357266426, -0.0063981409184634686, -0.13502062857151031, -0.051468249410390854 },
			{ -0.02134746126830578, -0.10039947926998138, -0.09108228236436844, 0.2622601389884949, -0.06732812523841858, 0.17793433368206024, 0.06298109889030457, -0.08579260110855103, -0.13277694582939148, 0.0007552525494247675 },
			{ 0.011486764065921307, 0.1093711331486702, -0.09779886156320572, 0.08312258869409561, -0.11424959450960159, 0.08697908371686935, 0.14055731892585754, -0.005704947281628847, -0.2456369698047638, 0.1538800448179245 },
			{ 0.08263109624385834, 0.148553729057312, -0.09125640243291855, 0.1427736133337021, -0.07212279736995697, -0.12769639492034912, 0.25119566917419434, -0.04850340634584427, -0.22353151440620422, -0.11911909282207489 },
			{ 0.20565491914749146, 0.12145130336284637, -0.25655582547187805, -0.0097691360861063, 0.049943938851356506, -0.06363960355520248, 0.07727804034948349, -0.09713825583457947, 0.03846628591418266, -0.07435943931341171 },
			{ 0.0414118655025959, -0.11215674877166748, -0.11435771733522415, 0.2823196351528168, -0.09255938231945038, 0.04701468348503113, -0.022614089772105217, -0.22918282449245453, 0.3685983121395111, -0.19887655973434448 },
			{ -0.243599995970726, 0.03451448306441307, 0.18664124608039856, 0.17665843665599823, 0.07688599824905396, 0.04856892302632332, 0.0010205458384007215, -0.37779104709625244, 0.3393251299858093, -0.18964169919490814 },
			{ -0.11649758368730545, 0.18892525136470795, 0.14854279160499573, -0.1579468697309494, -0.005051758140325546, -0.08584313839673996, 0.07736781239509583, -0.25313225388526917, 0.18753942847251892, -0.04546196758747101 },
			{ -0.08020352572202682, -0.007247743662446737, 0.20379121601581573, -0.00945769902318716, -0.04423736408352852, -0.0513753816485405, -0.06431469321250916, -0.08143267780542374, -0.004460454452782869, 0.18503235280513763 },
			{ -0.09859757125377655, -0.021990342065691948, 0.17619431018829346, -0.012319608591496944, 0.07093311846256256, -0.01028316281735897, 0.03827190026640892, -0.026590777561068535, -0.014831173233687878, 0.06271251291036606 },
			{ -0.19965319335460663, 0.16430248320102692, 0.0613892562687397, 0.045552853494882584, -0.06446848064661026, 0.029679369181394577, 0.07140536606311798, -0.028063001111149788, -0.09924189001321793, 0.10898374021053314 },
			{ -0.08714140206575394, 0.08726390451192856, 0.06415432691574097, 0.015581564046442509, -0.062922902405262, 0.01289118081331253, 0.060969654470682144, -0.05735589191317558, -0.087734155356884, 0.08305809646844864 },
			{ 0.0458652526140213, 0.03155464679002762, 0.04011353850364685, 0.036529771983623505, -0.014555725269019604, -0.013868900947272778, -0.027727806940674782, 0.06418729573488235, 0.01643003337085247, 0.040463704615831375 },
			{ -0.016329066827893257, 0.051872000098228455, -0.04963647946715355, 0.056162212044000626, 0.03726711869239807, 0.017435738816857338, 0.016299646347761154, -0.03799691051244736, -0.029357904568314552, -0.05718066543340683 },
			{ -0.012075463309884071, 0.050993964076042175, -0.06556063890457153, 0.0894262045621872, -0.024519789963960648, -0.020171020179986954, 0.06353490054607391, -0.03360956162214279, -0.034407008439302444, 0.03196581080555916 },
			{ 0.09360191971063614, -0.0016294886590912938, -0.12737534940242767, 0.20139507949352264, -0.005185531452298164, 0.10271762311458588, -0.09821059554815292, -0.0775798112154007, -0.0827799141407013, -0.017520859837532043 },
			{ 0.09493985027074814, 0.07579759508371353, -0.10060570389032364, -0.009408571757376194, -0.03297478333115578, 0.022414371371269226, -0.0730448067188263, -0.11744649708271027, 0.14271113276481628, 0.11944974213838577 },
			{ 0.1261734515428543, 0.02346711978316307, -0.10517929494380951, -0.0570841059088707, -0.07712700217962265, 0.09996003657579422, -0.06956832855939865, -0.22270753979682922, 0.30600762367248535, -0.0016137141501531005 },
			{ 0.03166250139474869, 0.06525111943483353, -0.20525094866752625, -0.1837911754846573, -0.04533582553267479, -0.08058616518974304, 0.2600892186164856, 0.05929990112781525, 0.20459714531898499, 0.052562542259693146 },
			{ -0.22546952962875366, 0.07901352643966675, -0.0065162573009729385, -0.023221168667078018, -0.1511552482843399, 0.03727870434522629, 0.12290472537279129, -0.12569718062877655, 0.13703449070453644, 0.09917139261960983 },
			{ -0.18720920383930206, 0.01827250048518181, 0.24479813873767853, -0.13792426884174347, 0.13662958145141602, -0.04890364035964012, 0.021418144926428795, 0.12888969480991364, -0.02571861818432808, -0.16207392513751984 },
			{ -0.21054422855377197, 0.14971762895584106, 0.3437650203704834, -0.1393594890832901, 0.09277965128421783, -0.18046294152736664, -0.0027286650147289038, 0.11896733194589615, -0.08660505712032318, -0.13630878925323486 },
			{ -0.17715348303318024, 0.23164840042591095, 0.26249414682388306, -0.19807904958724976, 0.03879142180085182, -0.02838747203350067, -0.06919357925653458, -0.03127625584602356, 0.0010478682816028595, -0.09328071027994156 },
			{ -0.1321401298046112, 0.06966319680213928, 0.1883903592824936, -0.12879876792430878, 0.1089962050318718, -0.0028434833511710167, -0.06875593215227127, -0.11793574690818787, -0.016196323558688164, 0.025982284918427467 },
			{ -0.005066028796136379, 0.06357259303331375, 0.10817983746528625, -0.027590269222855568, 0.02095092460513115, 0.06445421278476715, -0.07067877799272537, -0.07587677985429764, -0.028871770948171616, 0.015124374069273472 },
			{ -0.02566717378795147, 0.06656309962272644, -0.024944985285401344, -0.058235201984643936, -0.006752608809620142, 0.024813273921608925, 0.02056538127362728, -0.024925081059336662, -0.01491921953856945, 0.06869129836559296 },
			{ 0.05197430029511452, -0.006080369930714369, -0.01242164894938469, -0.027361979708075523, 0.030555937439203262, -0.025695566087961197, -0.004790717735886574, -0.03991163522005081, -0.0386386476457119, 0.06084103137254715 },
			{ 0.02633706107735634, 0.0632232055068016, 0.04590807482600212, -0.04658879339694977, -0.0007171019678935409, -0.006532088853418827, -0.01019991934299469, 0.034222401678562164, -0.025851409882307053, -0.0640069991350174 },
			{ 0.025797590613365173, -0.05337308347225189, 0.004860175307840109, 0.06299684941768646, 0.02277366630733013, 0.050348058342933655, 0.0027453815564513206, -0.011710059829056263, -0.03497873991727829, -0.02914050593972206 },
			{ 0.0449199378490448, -0.009281809441745281, 0.027617551386356354, 0.12696467339992523, -0.016813309863209724, -0.006973021663725376, 0.0013182546244934201, -0.09944462776184082, 0.07602947950363159, -0.012372069992125034 },
			{ 0.08697596192359924, -0.04586213082075119, -0.14509569108486176, 0.17058764398097992, -0.0678606852889061, 0.059934716671705246, -0.01624896377325058, -0.10887661576271057, 0.2068619728088379, -0.1342790275812149 },
			{ 0.03514780476689339, 0.0639549046754837, -0.1584320217370987, -0.11687164753675461, 0.021473035216331482, 0.022450732067227364, 0.0006776893278583884, -0.12693113088607788, 0.2604588568210602, -0.13841612637043 },
			{ 0.06480342149734497, 0.08956312388181686, -0.1835237294435501, -0.2726612091064453, 0.016027772799134254, -0.037882883101701736, 0.026829995214939117, 0.07999344915151596, 0.20698732137680054, -0.02969534695148468 },
			{ -0.09438066929578781, 0.1604057252407074, 0.05590245872735977, -0.350808709859848, 0.12433446198701859, -0.13283896446228027, 0.03222842141985893, 0.11588887870311737, 0.12037669867277145, 0.02960873953998089 },
			{ -0.2047126293182373, 0.15723414719104767, 0.2155618667602539, -0.2509026527404785, 0.24376226961612701, -0.20944808423519135, 0.014525503851473331, -0.13525539636611938, -0.07676699012517929, 0.07253547757863998 },
			{ -0.13271521031856537, 0.1649097353219986, 0.4728354215621948, -0.1712862253189087, 0.14569704234600067, -0.28428101539611816, -0.06244632229208946, -0.15934446454048157, -0.014088994823396206, 0.14407919347286224 },
			{ -0.09184214472770691, 0.15951839089393616, 0.14004890620708466, -0.15636701881885529, 0.042000629007816315, -0.08756102621555328, 0.03355371579527855, 0.02251281961798668, -0.062069833278656006, 0.05889979377388954 },
			{ -0.09974592924118042, 0.1050722748041153, 0.0948425754904747, -0.11822514981031418, 0.0929078459739685, -0.0220302976667881, -0.024484004825353622, -0.020487390458583832, -0.06518863141536713, 0.10712342709302902 },
			{ -0.10886802524328232, 0.004977073986083269, 0.06224865838885307, 0.015003859996795654, -0.036567818373441696, -0.017779897898435593, 0.002443889621645212, -0.02250923402607441, -0.03762523829936981, 0.14393466711044312 },
			{ -0.048418767750263214, -0.049383971840143204, 0.0006254796753637493, -0.018890295177698135, -0.04729141667485237, 0.07400806248188019, 0.04745263233780861, 0.06642310321331024, -0.08993274718523026, 0.057895030826330185 },
			{ 0.04218591749668121, 0.046116456389427185, -0.019883736968040466, 0.0050295754335820675, -0.008189008571207523, 0.04897717386484146, 0.028987575322389603, -0.023172663524746895, -0.07636985927820206, -0.01550237275660038 },
			{ -0.043644193559885025, -0.020799271762371063, -0.008776264265179634, 0.04870833829045296, 0.03780947998166084, -0.006348960101604462, 0.04427827522158623, 0.011172963306307793, 0.013830170966684818, 0.0037731407210230827 },
			{ -0.03523664548993111, -0.017199015244841576, -0.005409495439380407, -0.034453216940164566, 0.016453078016638756, -0.0753711462020874, -0.02824692241847515, -0.008497420698404312, -0.05823026970028877, -0.028101524338126183 },
			{ -0.05291682854294777, 0.0686790719628334, 0.009310861118137836, 0.04267068952322006, 0.027956927195191383, -0.03198419138789177, 0.05337776243686676, -0.023392068222165108, 0.011386699043214321, -0.035285819321870804 },
			{ 0.009162478148937225, 0.06622384488582611, -0.024193964898586273, 0.04972986504435539, 0.050504691898822784, -0.05886402353644371, -0.037762731313705444, -0.050638362765312195, -0.01630506105720997, 0.042116932570934296 },
			{ 0.027885178104043007, 0.009569269604980946, 0.03398113325238228, 0.014040863141417503, 0.1049465760588646, -0.05937638506293297, -0.037772148847579956, -0.0891641229391098, 0.032466281205415726, 0.07299409061670303 },
			{ -0.037996914237737656, 0.040367621928453445, 0.07498388737440109, 0.0014199202414602041, 0.07861030101776123, 0.03130811080336571, -0.06246716156601906, -0.021915147081017494, -0.12294334918260574, 0.12982767820358276 },
			{ 0.009463924914598465, 0.03354319557547569, -0.06977978348731995, -0.06309261918067932, -0.007191254757344723, -0.05614326521754265, -0.019915690645575523, 0.005184461362659931, -0.20378099381923676, 0.18386401236057281 },
			{ -0.05137845128774643, -0.03566674888134003, 0.048957113176584244, -0.028522340580821037, 0.12157953530550003, -0.07975710183382034, 0.057426489889621735, -0.10065991431474686, -0.043848562985658646, 0.21856048703193665 },
			{ 0.0033340260852128267, -0.024670949205756187, 0.06095732003450394, -0.018864097073674202, -0.022318890318274498, -0.006685607600957155, 0.04098648950457573, -0.12108096480369568, -0.028013691306114197, 0.13750341534614563 },
			{ -0.03871414065361023, 0.004843264818191528, -0.03126950562000275, 0.00892202090471983, -0.10864073783159256, -0.004816427826881409, 0.002995409769937396, 0.004016389604657888, -0.06318014860153198, 0.06345020234584808 },
			{ 0.03504113852977753, 0.06368388235569, -0.0045155370607972145, -0.031333841383457184, -0.01648123748600483, -0.026798579841852188, 0.0555112399160862, 6.346699228743091e-05, -0.04773656651377678, 0.04132333770394325 },
			{ 0.05149894580245018, -0.044812243431806564, -0.012549910694360733, 0.05633158981800079, 0.017866680398583412, 0.019828829914331436, -0.007121115457266569, 0.00245358282700181, -0.09292834997177124, 0.036437924951314926 },
			{ -0.05776866525411606, 0.032141681760549545, -0.007067952770739794, 0.04036087542772293, -0.03219267725944519, -0.02406761236488819, -0.05135215446352959, 0.01775204949080944, 0.016303816810250282, 0.0024575265124440193 },
			{ 0.04994682967662811, -0.02865421399474144, 0.03638835996389389, 0.026133354753255844, -0.05462616682052612, 0.001329744583927095, 0.03593642637133598, 0.05814531445503235, 0.024866769090294838, -0.014589084312319756 },
			{ -0.02229544147849083, -0.04913392663002014, 0.04448205232620239, -0.03522263094782829, -0.06099119409918785, -0.03236616402864456, -0.052138373255729675, 0.02469637244939804, 0.019488252699375153, -0.05803384631872177 },
			{ -0.025159163400530815, 0.06574362516403198, -0.0021905452013015747, -0.051496636122465134, 0.056424133479595184, -0.0030029143672436476, -0.04689738154411316, -0.044028833508491516, -0.051002759486436844, 0.0013334283139556646 },
			{ 0.024604663252830505, 0.02571551874279976, 0.016889523714780807, 0.03401907905936241, -0.04024440422654152, -0.015599477104842663, 0.016981804743409157, 0.0013668324099853635, 0.0014560684794560075, 0.05390510335564613 },
			{ -0.03550660237669945, 0.029499927535653114, 0.007251197472214699, 0.01505255326628685, -0.013456784188747406, 0.02138698101043701, -0.010482791811227798, -0.00780292646959424, -0.07202142477035522, 0.042521413415670395 },
			{ -0.03578772023320198, 0.023219887167215347, 0.0335729718208313, -0.007848099805414677, -0.04287966713309288, -0.06003332510590553, -0.04516169801354408, 0.04518022760748863, -0.023910999298095703, 0.057851552963256836 },
			{ -0.011751586571335793, -0.016896994784474373, 0.04694265127182007, 0.018100330606102943, 0.017499880865216255, -0.06922800838947296, 0.02870711125433445, -0.019205350428819656, -0.042251184582710266, 0.009223773144185543 },
			{ 0.029586058109998703, -0.015574106946587563, 0.016164284199476242, 0.020729485899209976, -0.014729654416441917, 0.01996985636651516, 0.06344295293092728, 0.03655502572655678, -0.04135040193796158, -0.025037383660674095 },
			{ 0.01843119040131569, -0.019632326439023018, -0.05995533615350723, 0.004519244655966759, -0.004571320489048958, 0.03976132348179817, -0.02462070621550083, 0.08852718025445938, 0.029658976942300797, -0.0482790507376194 },
			{ 0.02104203961789608, 0.05591654032468796, 0.04091506451368332, 0.05450182780623436, -0.013288425281643867, -0.031043414026498795, -0.04511646926403046, -0.05174092948436737, -0.03188681975007057, 0.08494438976049423 },
			{ -0.02613419108092785, 0.04507739096879959, -0.031156927347183228, 0.025988522917032242, 0.03467385843396187, 0.0005982631701044738, -0.032175783067941666, 0.022386427968740463, -0.029830025508999825, 0.05835897475481033 },
			{ -0.0208932813256979, -0.035644613206386566, -0.04131723940372467, 0.003267484251409769, -0.03281019628047943, -0.11383869498968124, 0.04115700349211693, 0.06562598049640656, -0.03906693682074547, 0.05514147877693176 },
			{ 0.053936753422021866, 0.025434765964746475, -0.05513935908675194, -0.0037484755739569664, 0.003217199118807912, -0.06092177703976631, 0.05780693516135216, 0.0636899396777153, -0.05788572505116463, -0.04897525534033775 },
			{ 0.020611179992556572, 0.01352409366518259, 0.03696879372000694, 0.05794718489050865, 0.014641530811786652, 0.01017048116773367, -0.05557410046458244, -0.03521116077899933, -0.046814218163490295, -0.023899739608168602 },
			{ 0.0008616847335360944, -0.021893665194511414, -0.0011919433018192649, -0.023519814014434814, 0.048757605254650116, -0.003960293252021074, -0.041610680520534515, 0.004617869388312101, -0.025302845984697342, -0.015540909953415394 },
			{ -0.03337734565138817, -0.04065456986427307, -0.03636693209409714, 0.006043487228453159, 0.06120078265666962, -0.051443830132484436, -0.016791651025414467, -0.006456710863858461, 0.047003015875816345, -0.03568315505981445 },
			{ -0.04537050798535347, -0.04147043079137802, -0.0077128661796450615, 0.04820676147937775, -0.046852342784404755, 0.023036856204271317, 0.049146395176649094, 0.021004781126976013, -0.04497208446264267, -0.02438472956418991 },
			{ 0.05578979104757309, 0.05889403447508812, -0.015410561114549637, 0.049525849521160126, -0.010774761438369751, -0.05057946965098381, -0.05491787940263748, -0.04846738278865814, 0.009786413982510567, 0.058000899851322174 },
			{ -0.034081581979990005, -0.052027855068445206, 0.010288959369063377, 0.05337100476026535, 0.004557994659990072, -0.04728640243411064, 0.043070871382951736, 0.03181416913866997, -0.019437497481703758, -0.047140613198280334 },
			{ -0.03697722405195236, 0.06157299131155014, 0.015118292532861233, 0.038422901183366776, 0.005766365211457014, 0.002368760062381625, -0.03169962763786316, 0.009808076545596123, 0.040787238627672195, -0.012679866515100002 },
			{ 0.03830365836620331, -0.006903311237692833, 0.0004519656940829009, -0.04824663698673248, -0.04555433243513107, -0.011274382472038269, 0.03537645936012268, -0.031673613935709, -0.029268993064761162, 0.06049400195479393 },
			{ -0.007429827004671097, -0.03204156085848808, -0.012498094700276852, -0.0017701589968055487, 0.005227998364716768, -0.03993983939290047, 0.05602346360683441, 0.048267707228660583, 0.02757752314209938, 0.04910837858915329 },
			{ -0.047948528081178665, -0.009257554076611996, 0.05387355014681816, 0.05596662312746048, -0.06058528646826744, 0.008511721156537533, 0.009192900732159615, 0.022597799077630043, -0.03896882385015488, -0.06410641968250275 },
			{ 0.019511491060256958, -0.016449199989438057, -0.019396517425775528, 0.040415987372398376, 0.038619715720415115, 0.04397036135196686, -0.006080033723264933, -0.01569071225821972, -0.0354335643351078, 0.018922822549939156 },
			{ 0.013144051656126976, -0.044596586376428604, -0.02268162928521633, -0.04179827868938446, -0.04951576516032219, 0.012747165746986866, -0.02987557463347912, -0.052812572568655014, -0.020215492695569992, -0.0166963841766119 },
			{ -0.033375728875398636, 0.02135799452662468, -0.013370807282626629, 0.01223032083362341, 0.05552519112825394, -0.04262542724609375, -0.01894165389239788, -0.005505689419806004, 0.0502033606171608, 0.02665947936475277 },
			{ 0.012600365094840527, -0.01309895422309637, -0.03053372912108898, 0.03166790306568146, -0.04670247435569763, -0.01954183727502823, 0.039573948830366135, 0.019462963566184044, -0.05392461642622948, -0.018056530505418777 },
			{ -0.015851186588406563, -0.04172557592391968, 0.009206486865878105, 0.0439768061041832, 0.041146278381347656, 0.046684470027685165, -0.03312239050865173, 0.05132245644927025, -0.04717448726296425, 0.05439836159348488 },
			{ -0.03286142647266388, 0.05245104804635048, 0.02909020334482193, -0.039869364351034164, 0.005571519490331411, 0.05164763331413269, -0.003988849930465221, 0.01190192997455597, 0.033968936651945114, -0.0031974539160728455 },
			{ 0.023083161562681198, 0.02423027716577053, -0.03305033594369888, -0.049546197056770325, 0.04589015617966652, -0.007720639929175377, 0.04871465638279915, 0.057700976729393005, -0.021794697269797325, -0.055517420172691345 },
			{ -0.04722781106829643, 0.004324302077293396, 0.03812854364514351, -0.045961372554302216, 0.03134072199463844, -0.006513749249279499, -0.05763942375779152, -0.03284354507923126, -0.026637865230441093, -0.05428597331047058 },
			{ 0.02237815223634243, -0.03886013105511665, -0.0014652719255536795, 0.007142203859984875, -0.047661080956459045, -0.025139324367046356, 0.020228425040841103, -0.0042448691092431545, 0.05341605842113495, 0.013685074634850025 },
			{ 0.0056236376985907555, -0.05491694435477257, 0.016324086114764214, -2.2291296772891656e-06, 0.03378751873970032, -0.04347952827811241, -0.03005334921181202, -0.01891292631626129, -0.029740052297711372, 0.039639417082071304 },
			{ -0.023304319009184837, -0.003555144416168332, 0.018435131758451462, -0.008222806267440319, 0.04837581515312195, -0.014590438455343246, -0.0034416955895721912, -0.024238917976617813, 0.02321673557162285, -0.03639087453484535 },
			{ -0.025909164920449257, -0.03192909434437752, 0.08538110554218292, 0.03234324976801872, 0.040063343942165375, -0.018793070688843727, 0.006205009762197733, 0.04464169591665268, 0.04842577129602432, -0.02957841195166111 },
			{ 0.03661636263132095, -0.013677509501576424, 0.06558561325073242, 0.057665713131427765, -0.006768824998289347, -0.045242879539728165, 0.07168478518724442, -0.0008504777797497809, 0.005567755550146103, -0.048128750175237656 },
			{ -0.034296587109565735, -0.036153826862573624, 0.029391219839453697, -0.058625005185604095, 0.00021411821944639087, 0.0333738811314106, -0.020793553441762924, -0.03133399039506912, 0.02746274694800377, 0.020417869091033936 },
			{ 0.046432558447122574, -0.045784641057252884, -0.04082288593053818, 0.03980804979801178, -0.07254911959171295, 0.046044591814279556, 0.0758715495467186, 0.0016434484859928489, 0.015348945744335651, -0.04084073007106781 },
			{ 0.04072002321481705, -0.05380433797836304, 0.04344999045133591, -0.060493651777505875, 0.04991797357797623, 0.03534114733338356, 0.02894582226872444, 0.02830609679222107, 0.017534736543893814, -0.0611165352165699 },
			{ 0.003556840820237994, 0.037999384105205536, -0.046325668692588806, -0.04112231358885765, -0.055886853486299515, 0.03610648587346077, 0.029525190591812134, 0.037384044378995895, -0.00046276356442831457, 0.036286573857069016 },
			{ -0.0034765067975968122, -0.045264773070812225, 0.058484457433223724, 0.010632404126226902, 0.0353463850915432, -0.03393533080816269, 0.04549543932080269, 0.05571029707789421, 0.03664778545498848, -0.019855033606290817 },
			{ 0.03490433841943741, 0.04884188249707222, 0.007580226752907038, -0.00940012652426958, -0.06019645184278488, -0.053361985832452774, -0.00774858333170414, 0.05930100008845329, 0.04547224938869476, -0.03511204943060875 },
			{ 0.004328952170908451, 0.03386753797531128, 0.02490304782986641, -0.05779217183589935, 0.052775174379348755, -0.003789931768551469, -0.023807285353541374, 0.0507441908121109, 0.02941362001001835, -0.044592805206775665 },
			{ -0.04015420377254486, 0.060801275074481964, 0.033694323152303696, -0.045326072722673416, 0.014004138298332691, 0.04624233394861221, -0.025416621938347816, -0.03314337134361267, 0.05886876583099365, 0.05080835521221161 },
			{ 0.010809036903083324, -0.006465092767030001, -0.04279915615916252, 0.08287408947944641, -0.04017535224556923, -0.07350407540798187, -0.021273156628012657, 0.022145401686429977, 0.0566071979701519, 0.0028655121568590403 },
			{ -0.07580744475126266, 0.01106287632137537, 0.10159505903720856, 0.09971924126148224, 0.04279811680316925, -0.09996790438890457, -0.0196220763027668, 0.058393850922584534, -0.07678522169589996, 0.016338776797056198 },
			{ -0.03837553411722183, 0.010811200365424156, 0.17203399538993835, 0.08993373811244965, -0.00803933385759592, -0.10368377715349197, -0.08571763336658478, -0.026393381878733635, 0.0607658289372921, -0.008554279804229736 },
			{ -0.03477936610579491, -0.11409924924373627, 0.2363799810409546, 0.14952757954597473, 0.0033223233185708523, -0.1504439264535904, -0.12953664362430573, 0.01606183871626854, 0.07864133268594742, 0.005434694234281778 },
			{ -0.027483679354190826, -0.17090782523155212, 0.21080908179283142, 0.24024929106235504, -0.07504606246948242, -0.0845700353384018, -0.17812269926071167, 0.0029646579641848803, 0.025127869099378586, -0.11428535729646683 },
			{ -0.01934024505317211, -0.20297473669052124, 0.11077578365802765, 0.22567534446716309, -0.12863385677337646, 0.1144738420844078, -0.056215349584817886, 0.0612356923520565, -0.031040208414196968, 0.03963331878185272 },
			{ 0.00680740037932992, -0.10823123157024384, -0.003873069304972887, 0.08053970336914062, -0.02474460005760193, 0.06434717029333115, -0.01738114096224308, -0.049119338393211365, 0.06564238667488098, -0.018956543877720833 },
			{ 0.02192419208586216, -0.14843742549419403, 0.07862000167369843, -0.08186618983745575, 0.020870905369520187, 0.10162464529275894, -0.027033422142267227, 0.012523924000561237, 0.12563017010688782, 0.00926969014108181 },
			{ -0.08774683624505997, -0.041269030421972275, 0.015138844959437847, -0.1579255312681198, 0.07333450019359589, 0.12962336838245392, 0.03906972333788872, 0.004073917865753174, 0.21199508011341095, -0.041235897690057755 },
			{ -0.04483509063720703, -0.08346682041883469, -0.06836520880460739, -0.10458748042583466, 0.025573574006557465, 0.0800866186618805, 0.05153236538171768, 0.002365401014685631, 0.09253279864788055, -0.053004488348960876 },
			{ 0.03091731294989586, -0.04436030611395836, -0.027367327362298965, 0.008754744194447994, 0.04638367518782616, 0.03604665771126747, -0.022356363013386726, -0.04869185388088226, -0.01743284799158573, 0.012266959063708782 },
			{ -0.009693793021142483, -0.011286899447441101, -0.02174941822886467, -0.03904484212398529, -0.04131769761443138, -0.046904306858778, -0.033806074410676956, 0.016861315816640854, -0.04227314889431, -0.0525975301861763 },
			{ -0.0033044544979929924, -0.01950129307806492, -0.004560320172458887, 0.027596868574619293, -0.05181262642145157, -0.0010407783556729555, 0.053387925028800964, -0.035594671964645386, 0.04745897278189659, 0.051605064421892166 },
			{ 0.015463670715689659, -0.004624246619641781, -0.08333750814199448, -0.005817452445626259, -0.017636848613619804, -0.06147237867116928, -0.05433390289545059, -0.05572584271430969, -0.013269128277897835, 0.0551706999540329 },
			{ -0.018841693177819252, -0.028389813378453255, 0.07072977721691132, 0.13996092975139618, 0.0013560854131355882, -0.1101292297244072, -0.023259466513991356, -0.021647009998559952, 0.00028441729955375195, 0.02305443584918976 },
			{ -0.11890537291765213, -0.0027301465161144733, 0.13229629397392273, 0.19925636053085327, -0.05572108179330826, -0.11128299683332443, -0.022690260782837868, 0.11054825037717819, -0.027562277391552925, -0.04244336858391762 },
			{ -0.0988275483250618, 0.059409864246845245, 0.1008625477552414, 0.23586146533489227, -0.0850861445069313, -0.07651987671852112, -0.0716240331530571, 0.07789763808250427, -0.016160380095243454, -0.006415386684238911 },
			{ -0.09936419874429703, -0.11759000271558762, 0.1369268149137497, 0.19933345913887024, -0.1806172877550125, -0.17174707353115082, -0.09167323261499405, 0.20104406774044037, 0.11710034310817719, 0.27606040239334106 },
			{ -0.08704879134893417, -0.20315323770046234, 0.1180439218878746, 0.10412924736738205, -0.48272478580474854, 0.08023999631404877, -0.11157706379890442, 0.2607458233833313, -0.030772389844059944, 0.4127175211906433 },
			{ -0.06921402364969254, -0.2623146176338196, 0.08135558664798737, 0.12807828187942505, -0.5854255557060242, 0.32873448729515076, -0.12067539244890213, 0.1395367830991745, -0.017107417806982994, 0.21085137128829956 },
			{ -0.016519902274012566, -0.3115845024585724, 0.1884210854768753, -0.10963626950979233, -0.4659458100795746, 0.41993585228919983, 0.11107537895441055, 0.030498657375574112, 0.007823999971151352, 0.35106977820396423 },
			{ -0.09842106699943542, -0.3643031716346741, 0.08129756897687912, -0.12293487787246704, -0.26402294635772705, 0.40433645248413086, 0.19233472645282745, -0.06075195223093033, 0.1459043174982071, 0.15169359743595123 },
			{ 0.02351418323814869, -0.20685647428035736, -0.11963452398777008, -0.1293150633573532, 0.051763661205768585, 0.2812558114528656, 0.15270459651947021, 0.0055690607987344265, -0.01012156531214714, 0.03362159803509712 },
			{ -0.03254855051636696, -0.08692345768213272, -0.18251220881938934, -0.23675087094306946, 0.175658717751503, 0.29601845145225525, 0.09608615934848785, -0.06756944209337234, 0.12173178791999817, -0.08629732578992844 },
			{ -0.12139517068862915, -0.08866671472787857, -0.04884292557835579, -0.1068064346909523, 0.03719064220786095, 0.244676873087883, 0.047463688999414444, 0.01694326288998127, 0.05232984572649002, -0.10113152861595154 },
			{ -0.05498075485229492, 0.035745590925216675, -0.026173587888479233, 0.019351821392774582, 0.026983050629496574, 0.04670606181025505, 0.04158446565270424, 0.011093465611338615, -0.09263211488723755, -0.05441432073712349 },
			{ 0.039659108966588974, -0.022894233465194702, 0.022388029843568802, -0.04269017279148102, 0.02587134763598442, -0.055963996797800064, 0.016823837533593178, 0.00802829023450613, 0.017569441348314285, -0.033286258578300476 },
			{ -0.013432396575808525, 0.009866072796285152, 0.0015578633174300194, 0.014958067797124386, 0.06016198918223381, -0.0838523656129837, -0.03883068263530731, 0.010447278618812561, 0.033425215631723404, -0.0354977622628212 },
			{ -0.04979602247476578, 0.01191971730440855, 0.07633339613676071, 0.0792178064584732, -0.04251759499311447, -0.10831093043088913, -0.07241766899824142, 0.022044070065021515, -0.057825684547424316, -0.01931060664355755 },
			{ 0.0008256598375737667, -0.06169022619724274, 0.15871645510196686, 0.09208304435014725, -0.09802631288766861, -0.13118687272071838, -0.07413923740386963, 0.0052483039908111095, 0.08278416097164154, -0.11041408777236938 },
			{ 0.022513315081596375, 0.05023244768381119, 0.23635298013687134, 0.15660487115383148, -0.34063151478767395, -0.1778314709663391, -0.08374985307455063, 0.15633948147296906, -0.024267280474305153, 0.13934163749217987 },
			{ 0.05050969123840332, -0.03713215887546539, 0.15483686327934265, 0.26684120297431946, -0.3008009195327759, -0.21047444641590118, -0.093406081199646, 0.09496907144784927, -0.07584390044212341, 0.09158080816268921 },
			{ -0.02152540162205696, -0.03361252322793007, 0.24863579869270325, 0.2892385721206665, -0.3569873869419098, -0.013696880079805851, -0.15912626683712006, 0.2076229304075241, 0.005560736171901226, 0.017812499776482582 },
			{ -0.16191965341567993, -0.04870586842298508, 0.03726407513022423, 0.1866995096206665, -0.2783777415752411, 0.2948938012123108, 0.03314569965004921, 0.25667425990104675, -0.1143212765455246, 0.036374058574438095 },
			{ -0.021284498274326324, -0.2754877805709839, 0.08774857223033905, 0.04735929146409035, -0.43313658237457275, 0.30912482738494873, 0.1299351155757904, 0.011716578155755997, 0.021365197375416756, 0.13648217916488647 },
			{ -0.03520413860678673, -0.323766827583313, 0.012793763540685177, -0.02644154243171215, -0.3050408661365509, 0.43397364020347595, 0.09435566514730453, -0.09206724911928177, 0.19240881502628326, 0.08048544079065323 },
			{ -0.04368335381150246, -0.11786503344774246, -0.11191719025373459, -0.24297094345092773, -0.04485660791397095, 0.5236085057258606, 0.18481746315956116, -0.22083090245723724, 0.09467574208974838, 0.08716196566820145 },
			{ -0.0265408493578434, -0.08256293088197708, -0.17401212453842163, -0.15897992253303528, 0.12769977748394012, 0.22912292182445526, 0.06985004246234894, -0.02058541402220726, -0.015952525660395622, -0.025417577475309372 },
			{ -0.03812166675925255, -0.17130134999752045, -0.02848844602704048, -0.09033243358135223, 0.14085319638252258, 0.29246583580970764, 0.028003351762890816, -0.026082204654812813, -0.08919469267129898, -0.08192168176174164 },
			{ -0.06889863312244415, 0.021948209032416344, -0.02543892338871956, -0.07137509435415268, 0.015812816098332405, 0.16461950540542603, 0.027869295328855515, -0.0044779097661376, -0.000601801264565438, -0.027644922956824303 },
			{ -0.0422360859811306, -0.04460904374718666, 0.01825655624270439, 0.0006036010454408824, 0.0319947712123394, 0.04397812858223915, -0.06404829770326614, 0.020821237936615944, -0.028256794437766075, -0.031790949404239655 },
			{ -0.008774664252996445, 0.048696719110012054, -0.03326776996254921, 0.0672740712761879, 0.022599833086133003, -0.061179615557193756, 0.0017161769792437553, 0.049247048795223236, 0.0637190192937851, -0.08230362832546234 },
			{ -0.03825368732213974, -0.05524405464529991, 0.0781744197010994, 0.15761810541152954, -0.05398574844002724, -0.07640309631824493, -0.04426141828298569, -0.03527858853340149, -0.0758325457572937, -0.06909704953432083 },
			{ -0.11174760013818741, 0.0753622055053711, 0.0630146786570549, 0.2625725567340851, -0.17998208105564117, -0.025098226964473724, -0.16311678290367126, 0.09044159203767776, -0.07675138860940933, 0.0070062000304460526 },
			{ 0.016263997182250023, 0.07177244126796722, 0.08673981577157974, 0.2722340226173401, -0.1390259563922882, -0.10876806080341339, -0.17111581563949585, 0.12859618663787842, -0.2625683546066284, -0.09820827841758728 },
			{ -0.013896886259317398, 0.002693718299269676, 0.23042821884155273, 0.39471006393432617, -0.05934165418148041, -0.014948300085961819, -0.16097912192344666, 0.15548788011074066, -0.2534160315990448, -0.1719415932893753 },
			{ -0.15783928334712982, -0.08174364268779755, 0.16749361157417297, 0.3736063838005066, -0.0731423944234848, -0.008538561873137951, -0.1832570880651474, -0.024923162534832954, -0.10765361040830612, -0.09239062666893005 },
			{ 0.038179926574230194, -0.07825528830289841, -0.030420172959566116, 0.016691649332642555, -0.16446790099143982, 0.10024675726890564, -0.1536308079957962, -0.011815517209470272, 0.035830847918987274, -0.0031811525113880634 },
			{ -0.1372043639421463, -0.1583874374628067, 0.03357882425189018, 0.16497336328029633, -0.29834625124931335, 0.14427700638771057, -0.011155000887811184, 0.14679719507694244, 0.09390982240438461, 0.006435162853449583 },
			{ -0.20025114715099335, -0.2354097217321396, -0.1313309669494629, 0.13202905654907227, -0.20177558064460754, 0.14880748093128204, 0.21398650109767914, -0.05082603543996811, 0.12486644089221954, 0.08524478226900101 },
			{ -0.07469727098941803, -0.050679609179496765, -0.03973766788840294, 0.023878682404756546, -0.13011226058006287, 0.1456715315580368, 0.13507352769374847, -0.09615697711706161, 0.2155178040266037, -0.11317697167396545 },
			{ 0.013441442511975765, -0.0008273764979094267, 0.013843684457242489, 0.017953326925635338, -0.04266573116183281, 0.21531856060028076, -0.12232889980077744, -0.16225041449069977, 0.10888977348804474, -0.09441205859184265 },
			{ -0.048137109726667404, 0.014224119484424591, -0.05994027107954025, -0.1318146139383316, 0.0023195105604827404, 0.35061031579971313, -0.10053262859582901, -0.03413471207022667, 0.022540858015418053, -0.02193453535437584 },
			{ 0.003777011763304472, 0.024955086410045624, -0.0253023449331522, -0.02520700730383396, -0.004244759678840637, 0.1455165594816208, -0.022094521671533585, 0.03802530840039253, 0.03765930235385895, 0.015362236648797989 },
			{ 0.054674092680215836, 0.050924815237522125, -0.056104760617017746, 0.0029933261685073376, -0.05776042491197586, 0.031709734350442886, 0.0033204015344381332, -0.02727065607905388, 0.026764916256070137, 0.02076851576566696 },
			{ 0.03602922707796097, -0.00552964024245739, -0.0069387974217534065, -0.05727456882596016, -0.11368145793676376, -0.042235858738422394, -0.029099462553858757, 0.1271691769361496, -0.0002826837881002575, 0.10027414560317993 },
			{ -0.08736611902713776, 0.007301135919988155, 0.13594575226306915, 0.15096697211265564, -0.15962961316108704, -0.040644317865371704, -0.027978194877505302, 0.03669393062591553, 0.0034148606937378645, -0.036234669387340546 },
			{ -0.06401946395635605, -0.056711312383413315, 0.20368905365467072, 0.18392395973205566, -0.16318239271640778, 0.025106990709900856, -0.20108386874198914, 0.13610722124576569, 0.010744841769337654, -0.04786094278097153 },
			{ 0.018956607207655907, 0.013812631368637085, 0.42120474576950073, 0.03949598968029022, 0.1050843894481659, 0.027122996747493744, -0.3004435896873474, 0.10201313346624374, -0.18757250905036926, -0.2312859147787094 },
			{ -0.1614180952310562, 0.03815959766507149, 0.3498736619949341, 0.006514090113341808, 0.14879821240901947, -0.04084586724638939, -0.29300156235694885, 0.3268440365791321, -0.2612702250480652, 0.005652829073369503 },
			{ -0.15101806819438934, -0.16992533206939697, 0.33013108372688293, 0.20418106019496918, -0.04156714305281639, -0.05055941641330719, -0.15841127932071686, 0.06537989526987076, -0.03910941630601883, 0.1719488948583603 },
			{ 0.006281619891524315, -0.21557633578777313, -0.025649886578321457, 0.2220972180366516, -0.38313159346580505, 0.1771422028541565, 0.031158288940787315, -0.09105823189020157, -0.08860347419977188, 0.19321052730083466 },
			{ -0.1291668862104416, -0.18202123045921326, -0.09311626851558685, 0.19677917659282684, -0.4194273352622986, 0.1693596988916397, 0.16688568890094757, 0.19623756408691406, 0.19049149751663208, -0.20281089842319489 },
			{ -0.12772364914417267, 0.025455011054873466, -0.22177833318710327, 0.16705411672592163, 0.016021739691495895, 0.05730968713760376, -0.06750065088272095, 0.12236140668392181, 0.17858445644378662, -0.1756601184606552 },
			{ -0.12604893743991852, 0.05778893828392029, -0.07278582453727722, 0.053037725389003754, 0.08947134763002396, 0.003920775838196278, -0.08746674656867981, -0.11561829596757889, 0.15634071826934814, -0.18160909414291382 },
			{ -0.008198007009923458, -0.03653048351407051, 0.09753303974866867, -0.045126792043447495, 0.09577080607414246, 0.007250841241329908, -0.06374391913414001, -0.031646113842725754, 0.0677952915430069, -0.10206639021635056 },
			{ -0.017427895218133926, -0.009225313551723957, 0.05086791515350342, -0.05961884930729866, 0.034539543092250824, 0.11714690923690796, -0.07535526156425476, -0.010781338438391685, -0.013117864727973938, 0.007489919196814299 },
			{ -0.06045566499233246, 0.0029673250392079353, 0.006146571133285761, 0.015838833525776863, -0.028244933113455772, -0.02073148638010025, -0.002183727454394102, 0.0014688362134620547, -0.03997725993394852, 0.034423619508743286 },
			{ 0.053845521062612534, -0.011719753965735435, 0.045676156878471375, 0.044686708599328995, -0.06306298822164536, 0.016238413751125336, 0.06146426871418953, 0.04954097047448158, 0.014250039122998714, -0.008327065967023373 },
			{ 0.04527391493320465, 0.055927813053131104, 0.0038635306991636753, 0.03477918729186058, -0.000989944557659328, 0.06808241456747055, -0.012324315495789051, 0.10022488236427307, -0.055131155997514725, 0.02452222816646099 },
			{ -0.10117641091346741, 0.0021645035594701767, -0.23365004360675812, -0.13065385818481445, 0.026348888874053955, 0.18497727811336517, -0.08276385068893433, 0.12754738330841064, 0.008720585145056248, -0.00879275519400835 },
			{ -0.08289344608783722, 0.010819784365594387, -0.2057032585144043, -0.017968174070119858, 0.10796212404966354, 0.40524905920028687, -0.13606049120426178, 0.028667300939559937, -0.13898427784442902, -0.04035284370183945 },
			{ -0.1651155799627304, 0.07623401284217834, 0.07593684643507004, -0.04982106760144234, 0.20102600753307343, 0.15482385456562042, -0.3923599123954773, 0.16751086711883545, -0.01875702477991581, -0.14661149680614471 },
			{ -0.04695709049701691, -0.09306775778532028, 0.03614165261387825, -0.1300932615995407, 0.2653482258319855, 0.15517181158065796, -0.3768566846847534, 0.35184285044670105, -0.0295256394892931, 0.09902966022491455 },
			{ -0.1420051008462906, -0.3490343391895294, 0.0651526153087616, 0.13700950145721436, 0.0846245065331459, 0.2480669468641281, -0.11843513697385788, -0.3335849940776825, 0.037072427570819855, 0.3558119833469391 },
			{ -0.21420472860336304, -0.1855584979057312, 0.0865275040268898, 0.21698500216007233, -0.045797958970069885, 0.17887413501739502, 0.07061836123466492, -0.19293615221977234, 0.10314062982797623, 0.1317949891090393 },
			{ -0.21607261896133423, -0.04729842767119408, -0.06754207611083984, 0.0628267303109169, 0.002536216052249074, 0.10023980587720871, -0.04339827597141266, 0.0862705409526825, 0.1930394172668457, -0.11169327795505524 },
			{ -0.16197830438613892, -0.028882602229714394, 0.0798310711979866, 0.060435980558395386, 0.28636348247528076, -0.09658443927764893, -0.09043535590171814, 0.15123291313648224, 0.12334650009870529, -0.28623202443122864 },
			{ 0.010370580479502678, -0.08751793950796127, -0.040756408125162125, 0.004521437454968691, 0.23920290172100067, -0.12941759824752808, -0.04806480184197426, 0.007259831763803959, 0.07640460133552551, -0.04048639535903931 },
			{ -0.016174502670764923, 0.03276240825653076, 0.20328682661056519, -0.0720372349023819, 0.04039551317691803, -0.13977009057998657, 0.10540416091680527, -0.14211887121200562, 0.19391651451587677, -0.1169646754860878 },
			{ -0.005065278150141239, -0.050601184368133545, 0.2761766016483307, -0.11463391780853271, 0.008805396035313606, -0.050239551812410355, -0.04378113895654678, -0.061765577644109726, 0.04102129489183426, -0.14989450573921204 },
			{ 0.0316309928894043, 0.02421555668115616, 0.1042739674448967, -0.021519461646676064, -0.011404641903936863, -0.0531136691570282, -0.05494783818721771, 0.044893182814121246, -0.04734785482287407, -0.015492198057472706 },
			{ -0.025578578934073448, -0.03182561695575714, 0.03512291610240936, -0.04573686048388481, -0.03219965472817421, 0.009128840640187263, 0.03176478296518326, -0.015563275665044785, -0.01927274651825428, 0.03185511380434036 },
			{ -0.02210245467722416, 0.042175062000751495, -0.02410760708153248, -0.08657899498939514, 0.07702150195837021, 0.09304732084274292, 0.006744061596691608, 0.008344154804944992, 0.008969578891992569, 0.023402659222483635 },
			{ 0.012243995442986488, 0.018664125353097916, -0.15649160742759705, -0.07835885882377625, 0.11305133253335953, 0.13634634017944336, 0.009439846500754356, 0.012573004700243473, -0.035513851791620255, 0.0045519862323999405 },
			{ -0.022148771211504936, 0.11414609849452972, -0.12725698947906494, -0.04658307507634163, 0.04020039364695549, 0.12791931629180908, -0.10074374824762344, 0.04830881953239441, -0.0102273253723979, -0.13603904843330383 },
			{ -0.15364591777324677, 0.14667217433452606, -0.02622687816619873, 0.07439515739679337, 0.09388468414545059, 0.27410897612571716, -0.283912718296051, 0.1133752390742302, 0.04432905092835426, -0.11755237728357315 },
			{ -0.17977425456047058, -0.13329225778579712, 0.023570610210299492, 0.006455677095800638, 0.16196492314338684, 0.24807283282279968, -0.2142239212989807, 0.048095785081386566, -0.011530841700732708, 0.39690133929252625 },
			{ -0.2672768235206604, -0.14353375136852264, 0.0628180205821991, 0.1328984498977661, 0.06830067932605743, 0.060504212975502014, -0.14284448325634003, -0.11813274770975113, -0.12068328261375427, 0.43241918087005615 },
			{ -0.22179706394672394, 0.03028007410466671, 0.12995287775993347, 0.21264618635177612, 0.2006722241640091, 0.005979194771498442, 0.054718274623155594, -0.16050784289836884, -0.15048585832118988, -0.13921469449996948 },
			{ -0.19440054893493652, -0.1673118621110916, -0.0031011251267045736, 0.14977940917015076, 0.009959028102457523, -0.03674888238310814, 0.04762372747063637, -0.010714007541537285, 0.049106281250715256, -0.015582027845084667 },
			{ 0.08119996637105942, -0.18392622470855713, -0.0823046937584877, -0.07660628110170364, 0.15773464739322662, -0.1522863805294037, 0.046085331588983536, 0.29239973425865173, 0.16339516639709473, -0.18426291644573212 },
			{ 0.06843525916337967, -0.07832908630371094, 0.11898686736822128, -0.19663278758525848, 0.07813407480716705, -0.17108450829982758, 0.024645604193210602, -0.025827262550592422, 0.07856547832489014, -0.1638035625219345 },
			{ 0.08832661062479019, 0.025349920615553856, 0.3771689534187317, -0.16648244857788086, 0.032952915877103806, -0.1377066671848297, 0.07941412925720215, -0.05364758148789406, 0.002847458468750119, -0.09009015560150146 },
			{ -0.017459694296121597, 0.05462627857923508, 0.30596402287483215, -0.00497824139893055, -0.018122926354408264, -0.07276692986488342, 0.03578993305563927, -0.08886872231960297, -0.08025695383548737, -0.0829600915312767 },
			{ -0.007439993787556887, -0.0028817225247621536, 0.09746406972408295, -0.023245301097631454, -0.04181652143597603, -0.054338693618774414, -0.05196091905236244, -0.009707830846309662, 0.0056842719204723835, -0.059202276170253754 },
			{ 0.03178035467863083, -0.018002865836024284, -0.05627848580479622, -0.03785163164138794, 0.05960127338767052, -0.0394587516784668, 0.0012682764790952206, -0.016506986692547798, 0.027474619448184967, -0.04115404188632965 },
			{ 0.028589123860001564, 0.011094165034592152, 0.06828691065311432, 0.04985346272587776, 0.0074197533540427685, 0.05688293278217316, -0.07265899330377579, -0.0008053911151364446, 0.02118363417685032, -0.007958291098475456 },
			{ 0.056354936212301254, -0.006202767603099346, 0.015692466869950294, -0.05521778017282486, -0.07595668733119965, 0.06239771470427513, 0.012538407929241657, 0.0007106969133019447, -0.13614866137504578, -0.08761237561702728 },
			{ -0.03623698279261589, -0.08859935402870178, -0.018563102930784225, -0.03474852815270424, 0.012923520058393478, 0.13988268375396729, 0.007066269405186176, 0.033639971166849136, -0.14472506940364838, 0.1583280712366104 },
			{ -0.05239114537835121, -0.09927251935005188, -0.05628103017807007, 0.07436877489089966, 0.061364591121673584, 0.07020125538110733, -0.06217680126428604, -0.04789670556783676, -0.16932664811611176, 0.18268878757953644 },
			{ 0.060387153178453445, -0.13791663944721222, 0.01832074299454689, 0.09753483533859253, 0.10067521780729294, 0.18021108210086823, -0.13065651059150696, -0.15402571856975555, -0.1685512810945511, 0.16793975234031677 },
			{ -0.11328887194395065, -0.12815438210964203, 0.2491699904203415, 0.28762686252593994, -0.11914744228124619, 0.010623383335769176, 0.08006233721971512, -0.22287185490131378, -0.20904582738876343, 0.2884918749332428 },
			{ 0.17792174220085144, -0.07316849380731583, 0.11199979484081268, 0.03353041410446167, -0.05898577347397804, 0.03664490580558777, -0.06668264418840408, -0.13167810440063477, -0.09468888491392136, 0.15310174226760864 },
			{ 0.1879677027463913, -0.18790850043296814, 0.21730071306228638, 0.18734702467918396, -0.09903798997402191, -0.1717165857553482, 0.0654766708612442, -0.08855625241994858, 0.06383273750543594, -0.163821741938591 },
			{ 0.02552785910665989, -0.0492439903318882, 0.082703597843647, -0.05283457040786743, 0.16353805363178253, -0.11925488710403442, 0.25141340494155884, 0.05400245264172554, -0.19403578341007233, -0.15516118705272675 },
			{ 0.005454339552670717, 0.08043889701366425, 0.12366010993719101, -0.05231771990656853, 0.09617871791124344, -0.08492552489042282, 0.12632420659065247, 0.05669798702001572, -0.1874164342880249, -0.10995202511548996 },
			{ 0.11703614890575409, -0.052641578018665314, 0.29802605509757996, -0.04077879711985588, 0.04306027665734291, -0.09048722684383392, 0.07054464519023895, -0.01476410124450922, -0.11727827787399292, -0.06430594623088837 },
			{ 0.04998527094721794, -0.0608554370701313, 0.13814537227153778, -0.047575443983078, 0.06049875542521477, -0.022634116932749748, 0.0530473031103611, -0.0031508072279393673, -0.07983849197626114, -0.08700629323720932 },
			{ 0.04060353338718414, 0.0380844883620739, 0.05560978874564171, -0.010636834427714348, 0.003059287089854479, 0.010523621924221516, 0.022312887012958527, 0.016932953149080276, 0.03263320028781891, 0.008602377027273178 },
			{ -0.03597940132021904, 0.0007137078209780157, 0.03487132489681244, -0.03936997428536415, -0.03625354915857315, -0.024775147438049316, 0.04689151048660278, 0.010394636541604996, 0.0005958204856142402, -0.0011401369702070951 },
			{ 0.041041553020477295, -0.06291231513023376, 0.1154591292142868, 0.06539091467857361, 0.03605641797184944, -0.048626020550727844, -0.03951622173190117, -0.016751186922192574, -0.013113261200487614, -0.035394102334976196 },
			{ 0.009992220439016819, 0.0036021762061864138, 0.04846808686852455, 0.09955628961324692, 0.08411630243062973, 0.030829861760139465, 0.09888602048158646, 0.004450708162039518, 0.022001715376973152, -0.10491251200437546 },
			{ -0.12084685266017914, 0.08228833228349686, -0.045869819819927216, 0.06583202630281448, 0.05516474321484566, 0.12354626506567001, -0.04586284980177879, -0.01469497475773096, -0.19152657687664032, -0.030972087755799294 },
			{ -0.23001879453659058, 0.3097870647907257, -0.14591078460216522, 0.12088751792907715, 0.06431899219751358, 0.15487785637378693, -0.12563703954219818, -0.042547035962343216, -0.1609574407339096, 0.21862667798995972 },
			{ 0.14223693311214447, 0.05783707648515701, 0.08734721690416336, 0.07666926085948944, -0.0372018925845623, 0.2044771909713745, 0.02261597476899624, -0.3038055896759033, -0.36519497632980347, 0.31272730231285095 },
			{ 0.26616743206977844, -0.1395183503627777, 0.024264326319098473, 0.053991083055734634, -0.12031242996454239, -0.06141645461320877, 0.2280738800764084, -0.23143427073955536, -0.14787769317626953, 0.1332966536283493 },
			{ 0.10650834441184998, -0.15856634080410004, 0.1058354377746582, 0.07178495824337006, -0.03403792530298233, 0.01735733635723591, 0.24350686371326447, -0.19109134376049042, 0.1307385116815567, -0.20408812165260315 },
			{ -0.017093058675527573, 0.13060800731182098, 0.1476946771144867, 0.06131798028945923, 0.03997926786541939, -0.03600708767771721, 0.20866575837135315, -0.20534729957580566, 0.10585243999958038, -0.30837738513946533 },
			{ 0.012904178351163864, 0.30128908157348633, 0.045205213129520416, -0.15103600919246674, 0.058804672211408615, -0.04734098166227341, 0.07075503468513489, -0.11467539519071579, 0.024632150307297707, -0.10586066544055939 },
			{ 0.08050668239593506, 0.19928181171417236, 0.26484712958335876, -0.24574792385101318, 0.0232961755245924, -0.048215351998806, -0.08284330368041992, -0.0716572031378746, 0.011092490516602993, -0.09430782496929169 },
			{ -0.004761525429785252, 0.15494585037231445, 0.26714181900024414, -0.06428740173578262, 0.0002566891780588776, -0.02938561886548996, -0.02446371503174305, -0.12181846797466278, -0.047048553824424744, -0.03464026004076004 },
			{ -0.024627750739455223, 0.02419951930642128, 0.055618222802877426, -0.002013843972235918, -0.07560837268829346, -0.03930583968758583, 0.023969169706106186, 0.02931148000061512, -0.03893953189253807, 0.015912393108010292 },
			{ -0.023939596489071846, 0.035090748220682144, -0.009701945818960667, 0.03638934716582298, 0.05627082288265228, 0.015696968883275986, -0.03624292463064194, 0.03410590812563896, 0.00971650704741478, 0.056968510150909424 },
			{ -0.033445000648498535, 0.05025487020611763, 0.0012262471718713641, 0.038733210414648056, -0.03174173831939697, 0.015124992467463017, -0.013513272628188133, -0.012626362033188343, -0.04985210299491882, 0.009391271509230137 },
			{ 0.021467484533786774, 0.045108187943696976, 0.15578141808509827, 0.0040167770348489285, 0.03248550742864609, -0.010152002796530724, 0.01028227899223566, -0.05849863961338997, 0.029002977535128593, -0.08668140321969986 },
			{ 0.09201522916555405, 0.1006939560174942, 0.09478013962507248, -0.08309391885995865, -0.05751761794090271, 0.03372857719659805, -0.04994014650583267, -0.007913880981504917, -0.025160253047943115, -0.05421807989478111 },
			{ 0.1145668774843216, 0.07323670387268066, 0.051015064120292664, 0.03689165785908699, -0.0332755371928215, -0.05972197651863098, -0.04103429242968559, -0.1304919272661209, 0.036523234099149704, -0.05532648786902428 },
			{ 0.02108221873641014, 0.038996923714876175, -0.0035922389943152666, 0.049032267183065414, -0.2275112420320511, 0.022766130045056343, 0.1525849550962448, -0.04749685153365135, -0.033876046538352966, -0.06852961331605911 },
			{ 0.07683903723955154, -0.09780247509479523, 0.07807569205760956, 0.2062070071697235, -0.14199267327785492, 0.14229156076908112, 0.10602496564388275, -0.23833324015140533, -0.11234129220247269, -0.1269814521074295 },
			{ 0.09602916240692139, -0.10604679584503174, -0.03502145782113075, 0.15743738412857056, -0.16002953052520752, 0.05062791705131531, 0.17744894325733185, -0.27451184391975403, 0.09998644888401031, -0.13418851792812347 },
			{ 0.06670787930488586, 0.05323907732963562, -0.07105397433042526, 0.04245978966355324, -0.1602250039577484, 0.0191360954195261, 0.15864676237106323, -0.29855313897132874, 0.23361514508724213, -0.04739359766244888 },
			{ 0.05103743448853493, 0.1013365164399147, 0.06500306725502014, -0.03072969615459442, -0.004145913757383823, 0.07989469170570374, -1.2911157682538033e-05, -0.2937644124031067, 0.16906291246414185, -0.06029664725065231 },
			{ -0.09382742643356323, 0.15461671352386475, 0.23375138640403748, 0.0030445687007158995, 0.030205877497792244, -0.009815136902034283, 0.0010443065548315644, -0.17963488399982452, -0.004095949232578278, -0.09953152388334274 },
			{ -0.03162124380469322, 0.1101260632276535, 0.1649831384420395, -0.08855471760034561, 0.073057621717453, -0.04092501476407051, 0.0792970210313797, -0.06711415946483612, 0.06700722128152847, -0.16067203879356384 },
			{ -0.014564295299351215, -0.017243536189198494, 0.030928442254662514, -0.12849679589271545, 0.10259784013032913, 0.06770510971546173, -0.08208542317152023, -0.08186918497085571, 0.05896174535155296, -0.001877527334727347 },
			{ -0.01708422414958477, 0.06626705080270767, 0.09390978515148163, -0.07126729190349579, 0.01801346242427826, 0.04015642777085304, -0.0006409594207070768, -0.06921001523733139, -0.0003973356506321579, 0.048196084797382355 },
			{ 0.01072582695633173, -0.005607875529676676, 0.0019417389994487166, 0.008858024142682552, -0.011783822439610958, -0.03092154860496521, 0.05269734561443329, 0.011778454296290874, -0.06721967458724976, 0.031245870515704155 },
			{ -0.02580065280199051, -0.012573836371302605, 0.027459420263767242, 0.026501381769776344, -0.05976102873682976, -0.02820952795445919, -0.006385901477187872, 0.05473377928137779, 0.05732562392950058, -0.03472051024436951 },
			{ 0.04594815894961357, 0.023192904889583588, -0.015617932192981243, -0.023250415921211243, -0.021568015217781067, 0.049359094351530075, -0.058776259422302246, -0.011897679418325424, -0.04996578395366669, 0.03315732628107071 },
			{ -0.06895378977060318, 0.044484712183475494, -0.0003319085226394236, 0.0735960379242897, -0.07077261060476303, 0.04495914280414581, 0.0027116145938634872, 0.08900626003742218, -0.0863204225897789, 0.025622304528951645 },
			{ 0.03719227761030197, 0.008266512304544449, 0.019529322162270546, -0.01960654929280281, 0.008419608697295189, -0.035333164036273956, -0.10887500643730164, 0.07633885741233826, -0.09805319458246231, 0.0001852727000368759 },
			{ 0.031113704666495323, 0.08116121590137482, -0.006891217548400164, 0.03694935515522957, 0.046821389347314835, 0.13241423666477203, -0.05377393960952759, -0.07816566526889801, -0.023692922666668892, -0.13605158030986786 },
			{ -0.025653382763266563, -0.005643085576593876, -0.015202540904283524, -0.013723843730986118, -0.02231476455926895, 0.10789172351360321, -0.109007827937603, -0.12066744267940521, 0.04389667138457298, -0.03957938775420189 },
			{ -0.0022741795983165503, 0.07054993510246277, 0.08154349029064178, 0.12655778229236603, -0.05054541677236557, 0.08135122805833817, 0.04258042201399803, -0.07019779086112976, -0.06252704560756683, -0.14158125221729279 },
			{ 0.05535091459751129, 0.010852856561541557, 0.03467576578259468, 0.06847075372934341, -0.13681092858314514, 0.09982709586620331, -0.009618996642529964, -0.14568820595741272, 0.03680964186787605, -0.10208027809858322 },
			{ 0.1830960512161255, -0.035629212856292725, 0.13570642471313477, -0.014356776140630245, -0.10500092059373856, 0.08585970103740692, 0.019729627296328545, -0.14052796363830566, 0.12931853532791138, -0.16395211219787598 },
			{ -0.04952732101082802, 0.07362733036279678, -0.017265189439058304, 0.09245103597640991, 0.11927613615989685, -0.004092255607247353, 0.07127822935581207, -0.211679607629776, 0.049162302166223526, -0.031061112880706787 },
			{ -0.12365932762622833, 0.03464037925004959, 0.019162321463227272, -0.07730793207883835, 0.15438193082809448, -0.017777791246771812, 0.016362346708774567, -0.11757136136293411, 0.164179727435112, 0.02653561159968376 },
			{ -0.0047132656909525394, -0.0379805751144886, 0.0940169095993042, 0.021008817479014397, 0.05597537010908127, 0.0595010407269001, -0.07414790242910385, -0.13381047546863556, 0.043962471187114716, 0.07829813659191132 },
			{ -0.060513608157634735, -0.07674270868301392, 0.01440095528960228, -0.03720983490347862, 0.023605188354849815, 0.0573258176445961, 0.013628698885440826, -0.005522219464182854, -0.050978731364011765, 0.05545070022344589 },
			{ 0.0339079275727272, 0.016898605972528458, -0.0293597225099802, 0.026929710060358047, 0.02057928778231144, 0.026747670024633408, -0.04452349618077278, -0.0328996516764164, 0.024000728502869606, 0.0315687395632267 },
			{ 0.032222919166088104, 0.05887385085225105, 0.020801091566681862, 0.04605238139629364, -0.05841311812400818, 0.014334194362163544, -0.038916509598493576, -0.04012703895568848, -0.044255971908569336, 0.04700079187750816 },
			{ -0.04227270558476448, 0.05802197381854057, -0.06036381796002388, 0.06150132045149803, 0.012427669949829578, 0.0202493779361248, 0.02208867110311985, 0.03859512507915497, 0.015858791768550873, 0.011414291337132454 },
			{ 0.0018867016769945621, -0.05720636993646622, 0.026513541117310524, 0.014845820143818855, 0.008825010620057583, -0.06020102649927139, -0.037874188274145126, 0.0013737237313762307, -0.05493924021720886, 0.0809151753783226 },
			{ -0.0903114601969719, 0.05847017839550972, -0.03303242847323418, 0.09156937152147293, -0.06305819749832153, -0.06519167125225067, 0.014370345510542393, 0.04826350882649422, -0.07380545139312744, 0.07405011355876923 },
			{ -0.13409265875816345, 0.013050427660346031, -0.1033581867814064, 0.1654614359140396, -0.05785360187292099, -0.07295451313257217, -0.01598137989640236, 0.008225721307098866, -0.028013745322823524, 0.142166867852211 },
			{ -0.15371651947498322, -0.051369715481996536, -0.061789702624082565, 0.1826140433549881, -0.034233175218105316, 0.014280254021286964, 0.001893601263873279, 0.04562263563275337, 0.003475403878837824, 0.09549803286790848 },
			{ -0.11055627465248108, 0.1287488490343094, 3.5466975532472134e-05, 0.07474207878112793, 0.013802784495055676, 0.10090410709381104, -0.06746192276477814, 0.03987808898091316, 0.006246342323720455, -0.013485453091561794 },
			{ -0.09483278542757034, -0.0031890321988612413, 0.07800253480672836, -0.009646793827414513, -0.00025005999486893415, 0.1331794708967209, 0.027597881853580475, 0.03465324640274048, 0.013834875077009201, -0.05139829218387604 },
			{ -0.11470093578100204, -0.13806691765785217, -0.029768917709589005, 0.09216967225074768, -0.03982808068394661, 0.0775706022977829, -0.04736091569066048, 0.06420456618070602, 0.012177422642707825, -0.02973449043929577 },
			{ -0.1128576248884201, -0.05938759446144104, -0.028528599068522453, 0.03353635221719742, -0.12498608976602554, 0.12213218212127686, -0.03040114976465702, 0.01818827912211418, -0.07835353910923004, 0.05463624745607376 },
			{ 0.027688197791576385, -0.041386112570762634, 0.01836833357810974, 0.015718042850494385, -0.05334526672959328, 0.03881457820534706, -0.03304893523454666, 0.10328881442546844, -0.03102800063788891, 0.14954409003257751 },
			{ 0.0333806537091732, 0.05364367738366127, 0.03189900517463684, -0.013159788213670254, 0.0072803678922355175, 0.0360601432621479, -0.04084942117333412, 0.013376260176301003, -0.028470627963542938, -0.017440909519791603 },
			{ 0.007144267205148935, 0.0036636386066675186, -0.01305101253092289, -0.02871338650584221, 0.02388920448720455, 0.004947698209434748, 0.03513525426387787, -0.036918964236974716, -0.06516925990581512, -0.04665638878941536 },
			{ 0.016197288408875465, 0.00495269987732172, -0.0013073369627818465, 0.05944041162729263, -0.008236411958932877, 0.03288540989160538, -0.006502409465610981, -0.03879573196172714, -0.011339547112584114, -0.05400590971112251 },
			{ 0.013561885803937912, 0.05427711084485054, 0.006829652935266495, 0.06004607304930687, 0.04853006824851036, -0.04463128373026848, -0.0579744428396225, 0.015894915908575058, 0.03305511549115181, 0.01980806514620781 },
			{ -1.1924654245376587e-05, 0.0034457258880138397, -0.03882244974374771, 0.03507770970463753, -0.021345898509025574, -0.0275178924202919, 0.019237037748098373, 0.005402702838182449, -0.035190410912036896, -0.013627704232931137 },
			{ 0.01848023012280464, 0.022125910967588425, -0.04829177260398865, -0.01268992479890585, 0.021737433969974518, -0.021118350327014923, 0.04326322674751282, 0.04793723300099373, -0.023220878094434738, -0.017102988436818123 },
			{ -0.042595505714416504, -0.04100918024778366, 0.05964129418134689, 0.024449056014418602, -0.06043912097811699, 0.060715653002262115, 0.06773004680871964, -0.059433355927467346, -0.06063929200172424, -0.03726102411746979 },
			{ -0.020523585379123688, -0.02929512970149517, 0.04182550311088562, 0.029253937304019928, -0.07166940718889236, 0.03462915122509003, 0.07275371253490448, -0.0066645401529967785, 0.006777739152312279, 0.027899155393242836 },
			{ -0.01936984248459339, 0.020205767825245857, -0.021726025268435478, -0.006035142578184605, -0.0167293231934309, 0.05203353613615036, -0.015963993966579437, -0.002576501341536641, -0.05483204498887062, -0.0391453355550766 },
			{ 0.0010313896927982569, 0.02619006298482418, -0.03317786008119583, -0.03587597608566284, -0.04985065013170242, -0.056001827120780945, -0.02275884710252285, -0.028122877702116966, 0.00830863043665886, 0.0106051005423069 },
			{ 0.042832646518945694, -0.03384903818368912, -0.017940284684300423, 0.00792638584971428, -0.015384769067168236, 0.02075320854783058, -0.01689070463180542, -0.06071872264146805, 0.05744200572371483, 0.023168442770838737 },
			{ 0.04944155737757683, -0.005842873826622963, 0.0555768758058548, 0.03082176111638546, 0.022242974489927292, -0.030764847993850708, -0.012204714119434357, 0.012042851187288761, 0.030068866908550262, -0.007768606301397085 },
			{ -0.048054613173007965, -0.030754555016756058, -0.04240754619240761, 0.01754964143037796, -0.07436167448759079, -0.03652741014957428, 0.0652320459485054, -0.03789001703262329, -0.04798225685954094, -0.00830069463700056 },
			{ 0.03900906443595886, 0.00834511499851942, 0.02816394530236721, 0.02896471694111824, -0.009890603832900524, -0.048834189772605896, -0.04367106407880783, 0.006354429759085178, -0.04811723902821541, -0.03735962137579918 },
			{ -0.02092655561864376, 0.03464396670460701, -0.017163611948490143, -0.05975797772407532, -0.023040516301989555, -0.029100516811013222, 0.031582724303007126, 0.017602436244487762, 0.04418013617396355, 0.0440697968006134 },
			{ -0.008448418229818344, 0.01340434979647398, 0.047386534512043, 0.04551700875163078, -0.03427363932132721, 0.0425952710211277, 0.026003627106547356, -0.05715934559702873, -0.013986751437187195, -0.02937144599854946 },
			{ -0.01893279328942299, -0.02951531484723091, 0.03655104711651802, 0.03390149399638176, -0.04796791076660156, -0.022830724716186523, -0.011697571724653244, 0.003280084580183029, 0.004894006997346878, 0.035245586186647415 },
			{ 0.020376406610012054, 0.04672713205218315, -0.050996083766222, 0.03652119264006615, -0.03366222232580185, -0.03588090464472771, -0.0479273647069931, 0.005295399576425552, 0.05133957788348198, -0.012210238724946976 },
			{ -0.008489379659295082, 0.0437067449092865, 0.004356397781521082, 0.010854938067495823, -0.05026448518037796, -0.04636377841234207, 0.04063175618648529, -0.03255985677242279, -0.015490149147808552, 0.009954104200005531 },
			{ 0.022940563037991524, -0.0411863848567009, -0.009417192079126835, 0.05720282718539238, -0.013377435505390167, -0.027580538764595985, 0.022491153329610825, 0.009068746119737625, -0.02324090339243412, -0.033740878105163574 },
			{ 0.03203839063644409, -0.017652200534939766, 0.006908929906785488, 0.054208334535360336, -0.00079080875730142, 0.04521910846233368, 0.07954304665327072, -0.025684691965579987, 0.048123281449079514, -0.051424700766801834 },
			{ 0.0006172360153868794, 0.04450484365224838, 0.009378899820148945, 0.02787105180323124, 0.0015154991997405887, 0.03841298446059227, 0.006668368354439735, 0.01491344440728426, 0.015260281972587109, -0.029875019565224648 },
			{ -0.045186277478933334, -0.0340430773794651, 0.08906479179859161, 0.028669064864516258, -0.05796013027429581, 0.00153487513307482, 0.12905170023441315, -0.04213756322860718, -0.05343354865908623, 0.011627440340816975 },
			{ -0.0746205598115921, 0.06850729882717133, 0.07345439493656158, 0.020957961678504944, -0.07898011058568954, -0.06742845475673676, 0.11750712990760803, -0.05234774947166443, 0.032243065536022186, -0.004206591751426458 },
			{ -0.034449752420186996, 0.03582369536161423, -0.06453876942396164, 0.020658092573285103, -0.027190353721380234, 0.06835076212882996, 0.04319421201944351, -0.021699246019124985, -0.06500965356826782, -0.002852467820048332 },
			{ -0.08572153002023697, 0.07139374315738678, 0.02254525013267994, 0.0680459514260292, -0.0699065551161766, -0.0021116272546350956, 0.0025989124551415443, -0.034867607057094574, -0.01758784055709839, 0.007000062149018049 },
			{ -0.052524011582136154, -0.00984929222613573, -0.12247911840677261, 0.017511356621980667, -0.010903220623731613, 0.1178913488984108, 0.03779479116201401, 0.02181294932961464, -0.094312883913517, 0.0024583276826888323 },
			{ -0.12147244065999985, 0.032222289592027664, -0.04045484587550163, -0.06624127179384232, -0.038741547614336014, -0.07668108493089676, 0.15407691895961761, 0.05078946426510811, -0.02682487852871418, -0.05030994862318039 },
			{ -0.03059355542063713, 0.05129147320985794, -0.015088122338056564, 0.0024132796097546816, -0.03593945503234863, 0.05070817843079567, 0.05947552248835564, 0.000735679583158344, -0.03764635697007179, 0.0033012637868523598 },
			{ -0.07298725843429565, -0.010386869311332703, -0.033480431884527206, -0.062478866428136826, -0.03789147734642029, 0.062232669442892075, 0.05125659331679344, 0.05496334284543991, -0.004727956838905811, -0.04976940155029297 },
			{ 0.05921119078993797, -0.011782839894294739, 0.027032790705561638, 0.0558127760887146, 0.015211847610771656, -0.02733452059328556, -0.016901535913348198, -0.010026674717664719, 0.04469805955886841, -0.02759184129536152 },
			{ -0.009255416691303253, 0.021069522947072983, -0.033476389944553375, 0.024557139724493027, 0.03215591236948967, -0.04295780882239342, -0.037906963378190994, 0.021329466253519058, 0.017578374594449997, -0.046042703092098236 },
			{ -0.013223836198449135, -0.008983421139419079, -0.05547556281089783, 0.0015557911247015, -0.041095126420259476, -0.04555319994688034, 0.03116896189749241, 0.0024256377946585417, -0.012525206431746483, -0.005834762938320637 },
			{ -0.0031109268311411142, 0.032367315143346786, -0.0648825392127037, 0.0682835578918457, -0.035994116216897964, -0.09621860831975937, 0.06204064190387726, 0.07400830835103989, 0.04367123544216156, 0.031213466078042984 },
			{ -0.05550587922334671, 0.0028069133404642344, 0.050494469702243805, 0.11994494497776031, 0.029269376769661903, -0.10818056762218475, -0.029210248962044716, 0.013662014156579971, -0.03912651538848877, -0.021103059872984886 },
			{ -0.11774379014968872, -0.06970236450433731, -0.00018883937445934862, -0.05985799804329872, 0.0405363067984581, 0.06294944137334824, 0.07264707237482071, -0.08342678099870682, 0.06719822436571121, 0.0611686110496521 },
			{ -0.01796308532357216, -0.00024694367311894894, 0.11317770183086395, 0.046429239213466644, -0.20847049355506897, -0.07260418683290482, 0.03482907637953758, -0.16774199903011322, 0.03162490576505661, 0.1911468505859375 },
			{ 0.05077580362558365, 0.09637731313705444, 0.01955501176416874, -0.02119353972375393, -0.1791536808013916, -0.06145118921995163, -0.02190009504556656, -0.07980949431657791, 0.10949423909187317, 0.1019747331738472 },
			{ 0.03335314244031906, 0.032764170318841934, 0.05690956860780716, -0.02629879117012024, -0.08445575833320618, 2.317206235602498e-05, 0.017099503427743912, -0.06010321527719498, -0.0036919654812663794, -0.03234347328543663 },
			{ -0.07167550921440125, -0.02821662649512291, -0.030555734410881996, 0.0462452732026577, -0.13137054443359375, 0.10477961599826813, 0.05210822448134422, -0.11912603676319122, 0.055408939719200134, 0.09151872992515564 },
			{ 0.04257933795452118, 0.06404582411050797, -0.045475516468286514, 0.1116371676325798, -0.0806053951382637, 0.12632887065410614, 0.03326467052102089, -0.07399071753025055, -0.0019238436361774802, -0.05958639457821846 },
			{ -0.14590875804424286, 0.025410329923033714, 0.0031839313451200724, 0.05429904907941818, -0.06115241348743439, 0.04480886086821556, 0.16687557101249695, -0.08654719591140747, 0.021344956010580063, -0.01798003539443016 },
			{ 0.029652994126081467, -0.04683331772685051, -0.02330842800438404, -0.006003465503454208, 0.0823652595281601, -0.022572053596377373, 0.1440444439649582, -0.011462802067399025, -0.026388319209218025, -0.11965309083461761 },
			{ -0.014268803410232067, -0.05475249141454697, 0.03553150221705437, 0.0037674903869628906, 0.08144722878932953, 0.1270434856414795, 0.11017400771379471, -0.036936063319444656, -0.007564262021332979, -0.04658723995089531 },
			{ -0.04635965824127197, -0.02771935611963272, 0.012662595137953758, 0.039486296474933624, -0.052460476756095886, -0.013791719451546669, -0.02890397422015667, -0.00400304002687335, 0.02169618010520935, 0.05728355422616005 },
			{ 0.029939880594611168, -0.015099783428013325, -0.007587089203298092, 0.026603279635310173, -0.027688730508089066, 0.05182900279760361, -0.019594131037592888, -0.04658979922533035, -9.757567568158265e-06, -0.007691152393817902 },
			{ 0.045608289539813995, 0.02924315631389618, 0.04556572809815407, 0.0031717864330857992, 0.008293609134852886, 0.01914965733885765, 0.009986148215830326, -0.007277225144207478, 0.02297201380133629, 0.03199218958616257 },
			{ -0.09451038390398026, -0.06117511913180351, 0.036298613995313644, 0.07618366926908493, 0.015249637886881828, -0.09481538087129593, -0.0058172098360955715, -0.07039367407560349, -0.007245679385960102, -0.023854410275816917 },
			{ -0.05608256161212921, 0.0017046965658664703, 0.02619296684861183, 0.050581756979227066, 0.04337674751877785, -0.012161720544099808, -0.019124601036310196, -0.03819633647799492, 0.012380906380712986, 0.060470085591077805 },
			{ -0.09212613105773926, -0.09675085544586182, 0.015237211249768734, -0.09425438940525055, -0.023711083456873894, 0.007384904194623232, 0.0613039955496788, -0.012066712602972984, 0.11364268511533737, 0.1742742508649826 },
			{ -0.02128632180392742, -0.03600766882300377, 0.19147592782974243, 0.030055997893214226, -0.12800289690494537, 0.034944627434015274, -0.070351742208004, -0.04940013214945793, -0.1289876103401184, 0.24690259993076324 },
			{ -0.05001971870660782, -0.06558629125356674, 0.039161887019872665, 0.02217353880405426, -0.2240167260169983, 0.09028860926628113, -0.1010265052318573, 0.0932568833231926, 0.0029790380503982306, 0.0864943414926529 },
			{ -2.6694193365983665e-05, 0.04300661012530327, 0.08913231641054153, 0.13040678203105927, -0.22346645593643188, -0.015180010348558426, -0.10010611265897751, 0.024162162095308304, -0.017973056063055992, 0.13541409373283386 },
			{ 0.08885173499584198, -0.02408442832529545, 0.15307697653770447, 0.13335151970386505, -0.1242493987083435, 0.024002069607377052, -0.12046007066965103, 0.12574324011802673, -0.16346830129623413, 0.009149469435214996 },
			{ 0.10688319802284241, -0.00371899688616395, -0.1983938217163086, 0.1568116992712021, -0.11127742379903793, 0.06905729323625565, -0.09215892851352692, 0.10864274203777313, -0.12906134128570557, 0.0015707857673987746 },
